{
    "cnn_layers": [
        {
            "type": "pool",
            "size": 3,
            "stride": 2,
            "pool_type": "max"
        },
        {
            "type": "conv",
            "filters": 10,
            "kernel_height": 2,
            "kernel_width": 1,
            "activation": "tanh",
            "weights": [
                [
                    [
                        [
                            -0.2608524762111655
                        ],
                        [
                            0.45201509582324984
                        ]
                    ]
                ],
                [
                    [
                        [
                            -0.46876855632330283
                        ],
                        [
                            -0.7250965079990237
                        ]
                    ]
                ],
                [
                    [
                        [
                            -0.5204957024800394
                        ],
                        [
                            0.4687623802120864
                        ]
                    ]
                ],
                [
                    [
                        [
                            -0.4807443987940978
                        ],
                        [
                            0.09609062088507447
                        ]
                    ]
                ],
                [
                    [
                        [
                            -0.5675219434839938
                        ],
                        [
                            0.3742808940624669
                        ]
                    ]
                ],
                [
                    [
                        [
                            0.21223608900115187
                        ],
                        [
                            0.8400167093981776
                        ]
                    ]
                ],
                [
                    [
                        [
                            -0.7893332504884041
                        ],
                        [
                            -0.0736719375554784
                        ]
                    ]
                ],
                [
                    [
                        [
                            -0.6237826612230601
                        ],
                        [
                            -0.5060106066192316
                        ]
                    ]
                ],
                [
                    [
                        [
                            -0.9741804847682087
                        ],
                        [
                            -0.5295011990643348
                        ]
                    ]
                ],
                [
                    [
                        [
                            0.6240811672631901
                        ],
                        [
                            -0.9835026014776713
                        ]
                    ]
                ]
            ],
            "biases": [
                -0.18912963269780447,
                -0.543109989810636,
                0.8135937309461712,
                -0.8547146857098917,
                0.8155207806941915,
                0.468591503273059,
                -0.5018565174573251,
                -0.5175590255602189,
                0.2530702778546152,
                -0.06381179548495397
            ]
        },
        {
            "type": "conv",
            "filters": 7,
            "kernel_height": 1,
            "kernel_width": 1,
            "activation": "sigmoid",
            "weights": [
                [
                    [
                        [
                            0.7358669630335248
                        ]
                    ],
                    [
                        [
                            0.9477968404050388
                        ]
                    ],
                    [
                        [
                            0.6919751529350884
                        ]
                    ],
                    [
                        [
                            -0.9790417780750289
                        ]
                    ],
                    [
                        [
                            -0.9376311514835312
                        ]
                    ],
                    [
                        [
                            0.25738319116292874
                        ]
                    ],
                    [
                        [
                            -0.9137083891087392
                        ]
                    ],
                    [
                        [
                            -0.6263448508697007
                        ]
                    ],
                    [
                        [
                            -0.1029180397029199
                        ]
                    ],
                    [
                        [
                            0.4572716938112098
                        ]
                    ]
                ],
                [
                    [
                        [
                            0.12264988050863068
                        ]
                    ],
                    [
                        [
                            -0.6302965655713815
                        ]
                    ],
                    [
                        [
                            0.8766129441072574
                        ]
                    ],
                    [
                        [
                            0.7069365160205192
                        ]
                    ],
                    [
                        [
                            -0.2951597649294262
                        ]
                    ],
                    [
                        [
                            -0.4355746532542304
                        ]
                    ],
                    [
                        [
                            -0.11387072879529114
                        ]
                    ],
                    [
                        [
                            0.5051570191263774
                        ]
                    ],
                    [
                        [
                            -0.8271282665220419
                        ]
                    ],
                    [
                        [
                            0.5500295516738958
                        ]
                    ]
                ],
                [
                    [
                        [
                            -0.257655782160088
                        ]
                    ],
                    [
                        [
                            -0.4115829806216913
                        ]
                    ],
                    [
                        [
                            -0.7965180782123868
                        ]
                    ],
                    [
                        [
                            0.13100095608361007
                        ]
                    ],
                    [
                        [
                            -0.45820842392579264
                        ]
                    ],
                    [
                        [
                            -0.22821614444264005
                        ]
                    ],
                    [
                        [
                            0.5014406860396048
                        ]
                    ],
                    [
                        [
                            0.48727228298946446
                        ]
                    ],
                    [
                        [
                            -0.7293003294374876
                        ]
                    ],
                    [
                        [
                            -0.45182735479701774
                        ]
                    ]
                ],
                [
                    [
                        [
                            0.38210893737477525
                        ]
                    ],
                    [
                        [
                            -0.5620210624492892
                        ]
                    ],
                    [
                        [
                            -0.6453662032165124
                        ]
                    ],
                    [
                        [
                            -0.7153819318339862
                        ]
                    ],
                    [
                        [
                            -0.6321621971495639
                        ]
                    ],
                    [
                        [
                            -0.5767057775571729
                        ]
                    ],
                    [
                        [
                            0.8000654435262651
                        ]
                    ],
                    [
                        [
                            -0.7863583506336447
                        ]
                    ],
                    [
                        [
                            0.980950648511338
                        ]
                    ],
                    [
                        [
                            0.10275370183842791
                        ]
                    ]
                ],
                [
                    [
                        [
                            0.375335334720583
                        ]
                    ],
                    [
                        [
                            0.7182823868339117
                        ]
                    ],
                    [
                        [
                            -0.12828290242562268
                        ]
                    ],
                    [
                        [
                            -0.8635442479353406
                        ]
                    ],
                    [
                        [
                            0.06400970557641328
                        ]
                    ],
                    [
                        [
                            -0.7692415926906133
                        ]
                    ],
                    [
                        [
                            0.9615288316728896
                        ]
                    ],
                    [
                        [
                            0.6368378391131044
                        ]
                    ],
                    [
                        [
                            0.0796528155532974
                        ]
                    ],
                    [
                        [
                            -0.5352223701026844
                        ]
                    ]
                ],
                [
                    [
                        [
                            -0.7954372108204308
                        ]
                    ],
                    [
                        [
                            -0.2079698001365231
                        ]
                    ],
                    [
                        [
                            0.7821904110456113
                        ]
                    ],
                    [
                        [
                            -0.8716495702100142
                        ]
                    ],
                    [
                        [
                            0.3372952249846404
                        ]
                    ],
                    [
                        [
                            -0.8863886119656184
                        ]
                    ],
                    [
                        [
                            0.7222803964419191
                        ]
                    ],
                    [
                        [
                            0.9260285518032341
                        ]
                    ],
                    [
                        [
                            -0.17616387560888547
                        ]
                    ],
                    [
                        [
                            -0.22266163923796034
                        ]
                    ]
                ],
                [
                    [
                        [
                            -0.06576934262558587
                        ]
                    ],
                    [
                        [
                            -0.31605695600763184
                        ]
                    ],
                    [
                        [
                            -0.26998042089023744
                        ]
                    ],
                    [
                        [
                            0.6123618095376402
                        ]
                    ],
                    [
                        [
                            0.1496512629272031
                        ]
                    ],
                    [
                        [
                            0.9173296800067696
                        ]
                    ],
                    [
                        [
                            -0.3309549364897719
                        ]
                    ],
                    [
                        [
                            0.5823700665501419
                        ]
                    ],
                    [
                        [
                            0.05635824054099836
                        ]
                    ],
                    [
                        [
                            -0.6935512038427405
                        ]
                    ]
                ]
            ],
            "biases": [
                0.39176714675365765,
                0.9125815349347772,
                -0.8173847965770573,
                -0.12443195501076376,
                -0.6115109397629479,
                0.4995454043951888,
                0.0034861827690828573
            ]
        },
        {
            "type": "pool",
            "size": 1,
            "stride": 2,
            "pool_type": "max"
        },
        {
            "type": "pool",
            "size": 1,
            "stride": 2,
            "pool_type": "max"
        },
        {
            "type": "pool",
            "size": 1,
            "stride": 1,
            "pool_type": "avg"
        }
    ],
    "ffn_layers": [
        {
            "neurons": 128,
            "activation": "relu",
            "weights": [
                [
                    -0.4522514031090754,
                    -0.0962067741474808,
                    0.1236027083176574,
                    -0.516200865689779,
                    -0.12061306340015943,
                    -0.5276874008844838,
                    0.5935921437308223
                ],
                [
                    -0.7828135807773751,
                    0.32749240769071974,
                    0.12219362560137337,
                    0.7660023605976272,
                    0.9801170574523581,
                    -0.0010888099073056434,
                    -0.25359652159291923
                ],
                [
                    0.9641161616756244,
                    0.07479524793138492,
                    -0.5292576298879337,
                    -0.7253079888790437,
                    0.29535451776323485,
                    0.4527945368883084,
                    -0.9273615592846034
                ],
                [
                    -0.09252177186786215,
                    0.35253228061393704,
                    -0.21450168501035205,
                    -0.545441492561709,
                    -0.5503244057635999,
                    -0.522495921042754,
                    -0.09864120859583592
                ],
                [
                    0.18274542605062094,
                    0.6060197692242102,
                    -0.9518286831079743,
                    0.4256246459874464,
                    0.9423789717159954,
                    0.6711801359479128,
                    0.7134791638855091
                ],
                [
                    0.2332654941027097,
                    -0.01741705681415162,
                    -0.8291196049359888,
                    -0.7262182435918949,
                    -0.7890699916955963,
                    -0.04176622341394487,
                    0.8463606444695393
                ],
                [
                    0.6126662925341297,
                    -0.9692033467354357,
                    -0.9377989274124636,
                    0.5156668667959561,
                    0.34177956459286296,
                    0.2070435494543641,
                    -0.7076549078117154
                ],
                [
                    -0.5830067508288472,
                    0.35222088810618657,
                    -0.5851789169093671,
                    -0.7474126254941347,
                    -0.5633731408842069,
                    -0.3158918539386104,
                    0.37848339373438944
                ],
                [
                    -0.26240803014360314,
                    -0.6416214037011336,
                    0.9332749149493209,
                    0.6223765822999574,
                    -0.48730836756998896,
                    0.30899893017423485,
                    -0.024602433839731708
                ],
                [
                    -0.5845278500221631,
                    -0.6337016758828282,
                    0.6873636940861019,
                    0.06465017824471686,
                    -0.8662034729232861,
                    -0.5165145452772473,
                    0.21046346680823014
                ],
                [
                    -0.41947856043420106,
                    0.10218003874098924,
                    0.6147773309404203,
                    -0.5557382957387149,
                    0.8271706960601455,
                    -0.6916196476878349,
                    0.8214364503972837
                ],
                [
                    -0.39871180335262224,
                    0.19348855049298486,
                    -0.44327109120208785,
                    -0.716664629452245,
                    0.930212684910557,
                    0.8273931708396447,
                    -0.18998206035930565
                ],
                [
                    -0.3188316348938167,
                    -0.330169983180705,
                    -0.03384025037278704,
                    -0.5257014858488589,
                    0.007869742287337056,
                    0.3239188031188085,
                    0.5820741991793672
                ],
                [
                    -0.5874782233059146,
                    0.09443346139234943,
                    -0.7744245317697658,
                    -0.5148932799044275,
                    -0.9741265076237153,
                    0.37533637553246635,
                    0.7113228518544101
                ],
                [
                    -0.1610043743843952,
                    0.06776940520612107,
                    0.7656427970638016,
                    -0.019663381402725166,
                    -0.17730266222393087,
                    0.06845222059834777,
                    0.04666126845935992
                ],
                [
                    -0.3728817581685282,
                    0.6435708934897633,
                    -0.19222591677754886,
                    0.3533631100266301,
                    -0.20182441182091737,
                    0.13373445086316438,
                    0.8624629330947144
                ],
                [
                    0.3014053839383213,
                    -0.4099766403947782,
                    -0.48057974586886787,
                    -0.754080063295911,
                    -0.02061399891965432,
                    0.3772007803580404,
                    0.6612045523104089
                ],
                [
                    0.17206609286521068,
                    0.45005173707868873,
                    0.9738741779319853,
                    -0.9930634480206078,
                    0.15849196272398602,
                    -0.35277876949056175,
                    -0.6392704262643434
                ],
                [
                    -0.7597850116044733,
                    0.08231154744287217,
                    0.015412664309278012,
                    0.6308413620214863,
                    -0.18702267575868192,
                    -0.7784532602056808,
                    -0.24087234539052016
                ],
                [
                    0.33904058992917196,
                    -0.6529125195856049,
                    -0.5467354596677108,
                    -0.0938725800981588,
                    0.06101256435259517,
                    0.561232272557588,
                    0.5581215910923791
                ],
                [
                    0.5676052437196308,
                    -0.6158267244561435,
                    0.6897030466743166,
                    0.7063128894168069,
                    -0.7293393614035371,
                    0.1916882999407945,
                    -0.10366484362181216
                ],
                [
                    -0.6379300891298791,
                    -0.12200766360426063,
                    -0.41433577694541124,
                    0.639142437123112,
                    -0.7587295161587861,
                    -0.3836962541285802,
                    -0.750709407597516
                ],
                [
                    -0.9788211417539745,
                    -0.23264433230956127,
                    0.9698823994244075,
                    -0.007049289847883333,
                    -0.7454608087283321,
                    -0.9455867179075101,
                    0.11226205056699601
                ],
                [
                    -0.11747510527233507,
                    0.808937246713263,
                    -0.6706694122536823,
                    -0.9901906285422679,
                    0.8237809769374529,
                    0.9035463490935705,
                    0.11789925582879679
                ],
                [
                    -0.7633933568973623,
                    0.1956703900198904,
                    0.25432433265121723,
                    -0.23459602376455835,
                    -0.8470862576622713,
                    -0.545979690171569,
                    0.8067887920083807
                ],
                [
                    -0.06261458794388663,
                    -0.45790646867317486,
                    0.22961091246410326,
                    -0.9014079888689548,
                    -0.30064712593991905,
                    0.1704123103491555,
                    0.5596526893919083
                ],
                [
                    0.345772091796011,
                    0.10588963209891666,
                    0.7910572444811843,
                    0.1666167343088154,
                    -0.12251133119232249,
                    0.7294436700645968,
                    0.06350950530487154
                ],
                [
                    0.6009251394588577,
                    -0.8807898125324096,
                    0.6311120323435169,
                    -0.5670476228952319,
                    -0.7982108596384254,
                    0.41142437162504697,
                    0.41518244058977416
                ],
                [
                    0.20568060284169132,
                    0.9515176832337353,
                    0.3943489820144248,
                    0.6617614928764819,
                    0.24534628962309735,
                    0.9191525062055257,
                    0.2637035668560914
                ],
                [
                    0.9660802948473906,
                    -0.6793756943309657,
                    -0.2007970236102179,
                    0.41679708079367006,
                    0.12415806598701207,
                    0.7954971649892151,
                    -0.3832560423827869
                ],
                [
                    -0.5551856695025423,
                    0.800591028753145,
                    0.16460934295117569,
                    -0.9165663046163868,
                    -0.04954280040799808,
                    -0.32372445775329073,
                    -0.08892700337271164
                ],
                [
                    -0.688841275375957,
                    0.6403714032851155,
                    -0.9551146309477743,
                    -0.09127698716440635,
                    0.48490406614901316,
                    -0.7860424215266533,
                    -0.15894905886133048
                ],
                [
                    0.14363238969150438,
                    -0.8959731600897172,
                    0.4774999809362399,
                    0.9128108826301444,
                    0.7638990814541171,
                    0.26104586159220866,
                    0.1969781781274298
                ],
                [
                    -0.37227600823795615,
                    -0.762001129827119,
                    0.8052143242948124,
                    0.4819408639526521,
                    -0.20489160275514662,
                    0.7381507278295809,
                    -0.6663629022008466
                ],
                [
                    0.4002363389389376,
                    0.16324698768069745,
                    0.03089284373531953,
                    0.9916303165069456,
                    0.49731185361232666,
                    0.25644338770858877,
                    0.029315222761840065
                ],
                [
                    -0.04325170285602287,
                    -0.9354705255954661,
                    0.1635749452892823,
                    0.21975581720185322,
                    -0.3387940720095626,
                    0.6932643209757547,
                    0.7420259333985317
                ],
                [
                    0.15453705694832465,
                    0.46818962143908127,
                    0.564290244070057,
                    -0.35743221565466965,
                    -0.6938000776339479,
                    -0.4629833021410761,
                    0.9498413426480576
                ],
                [
                    0.12809597831841812,
                    -0.46414993124118475,
                    0.5589765925589771,
                    -0.31992778274768296,
                    0.41457467759463507,
                    -0.2796470816877923,
                    -0.6309604319124729
                ],
                [
                    0.45118455996647433,
                    0.42394818579761506,
                    0.7985088191660963,
                    -0.8033039491020817,
                    -0.7621973091312191,
                    0.051664689146547316,
                    -0.3819244210600421
                ],
                [
                    -0.4003290274280378,
                    0.7937719799750171,
                    0.024891284640646605,
                    -0.23887638908709574,
                    -0.44701294520557244,
                    0.26044358622630903,
                    -0.9530473878255938
                ],
                [
                    0.1932956344355563,
                    0.3669262000680238,
                    -0.11629962502238467,
                    -0.6535612153727146,
                    -0.8695840552202363,
                    0.9238165549101005,
                    -0.24361590437971548
                ],
                [
                    0.1324764898034867,
                    0.6465960259291568,
                    0.5419876829368795,
                    0.3383098860931608,
                    0.6450073514200025,
                    -0.7486244684912089,
                    0.3933665658892562
                ],
                [
                    -0.06724318778636662,
                    -0.2233006044431356,
                    0.8815749502205057,
                    -0.6862485877118938,
                    0.5122645404171113,
                    -0.9788898433355608,
                    -0.705459513716657
                ],
                [
                    0.09225829637571659,
                    -0.7645653124553264,
                    -0.05980052120008228,
                    -0.35992543648686937,
                    -0.8344357602072994,
                    -0.4671855874807962,
                    -0.6864194410276618
                ],
                [
                    -0.8909384110665179,
                    0.44545866992498473,
                    0.42603701971471564,
                    -0.5414514111778046,
                    -0.20904675205621204,
                    -0.9067743960125081,
                    0.3698439477790032
                ],
                [
                    -0.43881269140530144,
                    -0.7103110402164869,
                    -0.7369865007742287,
                    0.9873712579866782,
                    0.015285219470709155,
                    -0.8550560256698747,
                    -0.2193985606422013
                ],
                [
                    -0.0033432969279525437,
                    0.45023295565528887,
                    -0.22276259563766132,
                    -0.5004488685686315,
                    -0.7696402956743127,
                    0.6051252647312058,
                    0.5422996851125947
                ],
                [
                    -0.22766015011256946,
                    -0.036715658115065164,
                    0.6822793497001416,
                    -0.3482778341324735,
                    0.10938653257970521,
                    0.8497386902484174,
                    -0.2988168397327764
                ],
                [
                    -0.15849617365912416,
                    0.8510689230159363,
                    0.42204714958263967,
                    -0.8909843499009764,
                    -0.5907484331097301,
                    0.6380161274101159,
                    0.5900274185025622
                ],
                [
                    -0.30039864371587033,
                    -0.49541300726444737,
                    0.5536803380467668,
                    0.3833278124304387,
                    -0.965816636465558,
                    -0.5151942426845737,
                    -0.03210660104006702
                ],
                [
                    0.7730390008366443,
                    0.012140233733797245,
                    -0.5752210083098224,
                    -0.4642758584338105,
                    -0.7995941470347656,
                    0.6483716862659743,
                    -0.6907620663994769
                ],
                [
                    0.305102988626651,
                    -0.5839724550141776,
                    -0.6980199727941367,
                    -0.8561002363300307,
                    0.3810543933626589,
                    0.8051736824913713,
                    0.47276595279789646
                ],
                [
                    -0.05183533962830866,
                    -0.974665700485652,
                    -0.8825539772245579,
                    -0.7586042300617868,
                    0.9335564016482873,
                    -0.4020261850053857,
                    -0.7719074631392608
                ],
                [
                    0.39339041975744804,
                    0.7918464129135241,
                    0.1955632552654638,
                    0.9386982491283586,
                    -0.9717123671145989,
                    -0.2948448904932073,
                    0.04121590387416152
                ],
                [
                    -0.8327873615447465,
                    -0.37092621310511875,
                    0.20051277233769338,
                    0.13393001029361917,
                    -0.27930866579274993,
                    0.9181106203499647,
                    0.09083779680592019
                ],
                [
                    0.5126480690802677,
                    0.6096584340962918,
                    -0.9727177985962321,
                    0.2516728557763128,
                    -0.7577574132519458,
                    -0.20768445690910986,
                    -0.6495508405853105
                ],
                [
                    -0.5003804310199313,
                    0.29088410145141386,
                    -0.18727137462371557,
                    0.4491695265053719,
                    0.7355616815988169,
                    0.9321619403943844,
                    0.49727816754625165
                ],
                [
                    -0.6669180802475219,
                    -0.13305299180854435,
                    0.5437255202514737,
                    0.652620967833635,
                    0.3050669962013788,
                    -0.9359420294053797,
                    -0.6858603160390677
                ],
                [
                    -0.4937447752095492,
                    0.3430988093365124,
                    0.01994612766689352,
                    -0.23408551375612263,
                    0.12287311347052965,
                    0.054940373158146816,
                    0.35385944735606034
                ],
                [
                    0.5671015668103552,
                    -0.15569073991886073,
                    0.5761506396907008,
                    0.7123686262019515,
                    0.5040931920180289,
                    0.3715187426361717,
                    -0.7169968575413648
                ],
                [
                    -0.35512738798854726,
                    0.26754000872302774,
                    -0.5578871818287063,
                    0.5094728945696878,
                    0.6746843725585281,
                    -0.8467132120933525,
                    0.9598706062557065
                ],
                [
                    -0.36727223247870344,
                    0.57699845596874,
                    -0.8696592106917758,
                    0.26172862051141865,
                    0.16074394043789808,
                    0.9996599238046189,
                    0.7132296215081515
                ],
                [
                    0.27418648583609895,
                    -0.6802516687134905,
                    -0.10281435578060405,
                    0.3127806654986245,
                    -0.10737554724352183,
                    -0.7157203172728663,
                    0.3707295646193356
                ],
                [
                    -0.9563588913536427,
                    0.10136975650182167,
                    0.3735481506656695,
                    0.22377554533089605,
                    0.716997488937821,
                    -0.006581970624261579,
                    -0.07739905689560644
                ],
                [
                    -0.1830288597540033,
                    -0.4005168753723092,
                    -0.6914829469885087,
                    -0.8018952043377083,
                    0.619399883179504,
                    0.9898265193959266,
                    0.847587132046967
                ],
                [
                    0.7419473462516781,
                    0.9950965616506111,
                    0.2169839831112912,
                    0.5223827169390107,
                    0.5557755391553931,
                    0.15641833727251409,
                    0.7392520713162556
                ],
                [
                    -0.20704214292661383,
                    0.8564272737712744,
                    0.1487838787262954,
                    0.37315467970629523,
                    -0.48662518215188255,
                    0.5086434767573236,
                    0.3333092427069049
                ],
                [
                    0.5822893889392049,
                    -0.6915147460581066,
                    -0.35466711842121623,
                    -0.3328339882731697,
                    -0.3218292681265702,
                    -0.909388511191791,
                    0.3079747222579181
                ],
                [
                    -0.832183776728965,
                    0.18011139405731247,
                    -0.9120649664314922,
                    -0.9382890819353491,
                    0.6679143331191482,
                    0.7098978200818415,
                    0.23621881802261702
                ],
                [
                    0.6905683864688819,
                    0.07261890763726297,
                    -0.8473478480967098,
                    0.025604737904215913,
                    -0.9263569868581738,
                    0.06347029494140544,
                    0.9364891426448079
                ],
                [
                    -0.18243728018587135,
                    -0.33151661710274904,
                    0.9578618938885244,
                    -0.7557285285174542,
                    -0.4796094551457344,
                    -0.7047811721672452,
                    -0.5106446588851563
                ],
                [
                    0.6210862910359884,
                    0.0017543115758891226,
                    0.5822624592608583,
                    -0.6337364533533936,
                    0.7288691463836445,
                    0.2875984375658436,
                    0.4087058595314115
                ],
                [
                    0.2636647441459492,
                    0.9527019853491008,
                    -0.6194484569440559,
                    -0.49511453293643104,
                    -0.10861183132985941,
                    -0.004524705423922359,
                    -0.943737019690474
                ],
                [
                    0.1817031439501895,
                    -0.6447595081812034,
                    -0.34886275705340775,
                    0.1819181151632736,
                    0.715092308106096,
                    -0.8391052400243597,
                    -0.4667155063544117
                ],
                [
                    0.8375479017669452,
                    -0.20840972402204128,
                    -0.8118085991323019,
                    -0.6206044832356303,
                    -0.22157019170577463,
                    -0.904055661153156,
                    -0.9645277989676251
                ],
                [
                    -0.8917752762326763,
                    -0.3914834063053434,
                    0.78544932308859,
                    -0.595170019191744,
                    0.5865293185203817,
                    -0.8084156508788585,
                    -0.4148333222577363
                ],
                [
                    0.5725785208266381,
                    0.5540815030964523,
                    -0.6607049055162115,
                    0.6759475987937025,
                    0.5756974388349014,
                    -0.3903107849769225,
                    -0.44165580505995616
                ],
                [
                    -0.6454811468568047,
                    0.9357397832628318,
                    -0.02437383579461705,
                    0.9310320996613135,
                    0.06310510114258916,
                    -0.29182236911148807,
                    -0.7019108932987093
                ],
                [
                    -0.09874396808579822,
                    0.19570922031687998,
                    0.14373747198982834,
                    -0.8464859742739756,
                    0.8517777746956028,
                    0.6467610202173533,
                    0.7381013971639796
                ],
                [
                    -0.10192843295582565,
                    0.012687927355919948,
                    0.8864050611288663,
                    -0.5263367471502309,
                    0.1791184583266583,
                    -0.7019686279017803,
                    -0.5511089367330797
                ],
                [
                    0.8506618746232475,
                    -0.9155414332419434,
                    0.6011911641805752,
                    0.9578686673413699,
                    0.8371254344189805,
                    -0.32694661432392014,
                    0.11475623605613317
                ],
                [
                    0.9527550772557849,
                    0.8378593149098139,
                    0.46137909654918574,
                    0.8006277671855433,
                    0.9458942532156365,
                    0.30917790695662006,
                    -0.6989596577585011
                ],
                [
                    0.2967344520227406,
                    0.5704213289431488,
                    -0.046284358825802396,
                    0.7825735091558981,
                    0.9555352052637747,
                    0.39205259280643023,
                    0.494014794653463
                ],
                [
                    -0.42517711364371946,
                    0.7502432324828352,
                    -0.6763015454696677,
                    0.8146031023948217,
                    -0.13225583977863065,
                    -0.8963479410401773,
                    -0.32600000934196416
                ],
                [
                    -0.32950973858177335,
                    -0.11577471714720144,
                    0.19846399124444503,
                    0.8028428513930015,
                    0.31342478263223206,
                    0.0724174921483014,
                    -0.9266718272014975
                ],
                [
                    0.4941372232217547,
                    0.35261809474355177,
                    0.9176048175731204,
                    -0.7114941111198743,
                    0.1463042646368784,
                    0.8879829413488991,
                    -0.6512511289675964
                ],
                [
                    -0.375881806050006,
                    -0.560681102839296,
                    0.15884644401454628,
                    0.5716228930344884,
                    0.7918992658385904,
                    0.2395462417192833,
                    0.298859808823017
                ],
                [
                    0.2814044089503025,
                    0.38204452860100657,
                    -0.2833726655389799,
                    -0.6983619093291438,
                    0.4846662252457745,
                    -0.4699244900479249,
                    -0.612005336057085
                ],
                [
                    -0.36402114363362736,
                    -0.03005714460125164,
                    0.7502826083637935,
                    0.7122990245701235,
                    0.7498156311252304,
                    -0.8514286427603366,
                    -0.6797228798854345
                ],
                [
                    0.006503510179940886,
                    0.04931012306652649,
                    0.8529214912445766,
                    -0.023790155121899748,
                    -0.8457959994563333,
                    -0.41824913362422556,
                    -0.7144690044909574
                ],
                [
                    -0.019952741107859717,
                    -0.13531975532827945,
                    -0.47730536024053505,
                    -0.06776766803665035,
                    0.3200049787048733,
                    -0.2394590621724031,
                    0.30412465682893663
                ],
                [
                    -0.7188122759903968,
                    -0.27183985301797353,
                    0.5789134046960507,
                    0.8866150141742266,
                    -0.723088518436301,
                    -0.7384817167674926,
                    -0.7347242601799056
                ],
                [
                    -0.9444718244949333,
                    0.84741443524127,
                    -0.6015337562743988,
                    0.41880622763671704,
                    -0.6719200720584997,
                    -0.9797950631814232,
                    -0.39677532677172134
                ],
                [
                    0.9984590285409045,
                    -0.7338136676649405,
                    -0.771660638505723,
                    0.7353482754097969,
                    -0.31457158241056415,
                    0.5293191699826199,
                    0.04329741754461258
                ],
                [
                    0.5094897045920683,
                    -0.9486008985418932,
                    -0.30433705849619885,
                    -0.29207927464173067,
                    0.47581664920473865,
                    -0.3533515494147945,
                    0.704003961282222
                ],
                [
                    0.36784432869746997,
                    -0.7001772002741962,
                    0.5739907150310333,
                    -0.18143325280435496,
                    -0.8352427970687857,
                    -0.20370208700445502,
                    0.801020870774535
                ],
                [
                    -0.2235261745153918,
                    0.4667909371469725,
                    0.9267829091509205,
                    0.0028874839861663393,
                    -0.22586809650060147,
                    -0.9454256497312397,
                    0.6843204279712287
                ],
                [
                    -0.09013956549582103,
                    0.2984050796231352,
                    0.23384117144600158,
                    -0.34046664969376494,
                    0.20299411990124328,
                    -0.3172975418209445,
                    -0.7359943049565947
                ],
                [
                    0.9166082195534893,
                    0.9943909315990622,
                    0.11025180652008748,
                    -0.7181177835054244,
                    0.4557462592746415,
                    -0.22685179932129484,
                    0.4474274821126054
                ],
                [
                    -0.3692948658822015,
                    -0.1134239047435599,
                    0.3972903320209962,
                    -0.2570441906813319,
                    0.5539902510665009,
                    0.36192967833509115,
                    0.5467826110607235
                ],
                [
                    0.3086525803257305,
                    0.5669896386088138,
                    -0.014984476988292306,
                    0.33780459731612367,
                    0.9257637068530735,
                    -0.997844457324742,
                    0.12306794117501152
                ],
                [
                    -0.8864014472460926,
                    0.39400789480616716,
                    0.9253537379001613,
                    -0.4949035108446702,
                    0.191856054924896,
                    -0.09110116255240785,
                    -0.9053360840884397
                ],
                [
                    0.3997565509414729,
                    0.8162948167680839,
                    -0.3691799500865107,
                    0.6420326913174867,
                    -0.5950245041005962,
                    0.41879177799459844,
                    -0.6996940584305846
                ],
                [
                    -0.3593699676008175,
                    0.16626662127549952,
                    -0.630100340053136,
                    -0.7248062371095354,
                    0.7678045621618839,
                    0.4786156892772586,
                    0.7045742830008492
                ],
                [
                    0.1105214965154564,
                    0.44552502690925744,
                    -0.5285692938661648,
                    0.1248878366350945,
                    0.9010265237416228,
                    -0.8835759599508513,
                    -0.5144320670477789
                ],
                [
                    -0.4240310524873423,
                    -0.0961275744383292,
                    -0.4835761963123386,
                    -0.9950649032186201,
                    -0.4022327631288105,
                    0.19691058020129804,
                    0.0009876984297185754
                ],
                [
                    -0.10473349179868863,
                    -0.6263223873374024,
                    -0.4476894282092978,
                    0.17579885047146382,
                    0.6610466331055251,
                    -0.6329879815609052,
                    -0.42119320887655465
                ],
                [
                    -0.9540768964271955,
                    0.05827401259721743,
                    0.8132475087043076,
                    0.9422134066559136,
                    0.3110210918326699,
                    0.01280809436796293,
                    -0.6701510646043995
                ],
                [
                    -0.9386984098275721,
                    -0.8001070044908933,
                    0.6293073592978551,
                    -0.3752183232664512,
                    0.5607525368106692,
                    -0.4671602678717457,
                    -0.8790391440339111
                ],
                [
                    0.5993237538205143,
                    -0.4487390758352987,
                    -0.02998734097535305,
                    -0.9485388210312304,
                    0.9650740107397398,
                    0.6147150718339809,
                    -0.8825762464424249
                ],
                [
                    0.5523995719745693,
                    0.6475657468610028,
                    0.9586067312607709,
                    -0.873206753764578,
                    -0.10301301215645275,
                    0.3230577554867664,
                    0.8677368450848801
                ],
                [
                    -0.15392727198925993,
                    -0.35378854587106234,
                    0.7444312961207562,
                    0.1409653130126025,
                    -0.20789778691533445,
                    -0.33417434719651085,
                    -0.7336348405423787
                ],
                [
                    0.8843578853915033,
                    0.5210572893454626,
                    0.9874290249163618,
                    -0.3207085642558867,
                    -0.846536272880319,
                    0.899905411641025,
                    0.3680031219742417
                ],
                [
                    0.026235628048371762,
                    -0.9949885293954812,
                    0.314557912296326,
                    0.07729707636404592,
                    0.5855499649392353,
                    0.7163150822627784,
                    0.8553102997533109
                ],
                [
                    0.6134821252725489,
                    0.8341493566515525,
                    -0.3709475914377005,
                    -0.6521706508413201,
                    -0.9903350238028539,
                    -0.13604673862437267,
                    0.81188815998311
                ],
                [
                    0.7883497038531613,
                    0.6729406704493586,
                    0.8362863460985037,
                    -0.1933395146102952,
                    -0.3056441387573774,
                    -0.13852779136150284,
                    -0.8723044285883763
                ],
                [
                    -0.2952891788154346,
                    0.8032478860126047,
                    -0.3870350582735942,
                    0.713824238186145,
                    -0.13988342303233758,
                    -0.7719173949160985,
                    0.20122435802961713
                ],
                [
                    0.2570706107273326,
                    0.5264024908640836,
                    -0.39568712914606863,
                    -0.7855931681296311,
                    -0.566634767473571,
                    -0.1913903951769771,
                    -0.645383594389527
                ],
                [
                    0.597632622649666,
                    -0.9740869931167426,
                    -0.5393806823632383,
                    -0.9843462262703271,
                    -0.37473228359366395,
                    0.38027033534734755,
                    -0.17739537878608114
                ],
                [
                    -0.819171798891057,
                    -0.26401010779799683,
                    0.11673438648215151,
                    -0.7785327979327865,
                    -0.02915751638726305,
                    0.5342674211806253,
                    0.970412504626702
                ],
                [
                    0.9775193131917703,
                    -0.09204224361213442,
                    -0.9936709319554151,
                    0.05630996781475428,
                    -0.9027835004603446,
                    0.3143425005341083,
                    -0.2639600793005552
                ],
                [
                    -0.6021805705290999,
                    0.4902334803035584,
                    0.7889206593348632,
                    -0.9122980614671345,
                    0.24635382680553986,
                    0.6524960845815593,
                    0.4589758964285857
                ],
                [
                    -0.17859945603555238,
                    0.25883656182147674,
                    -0.067655078589681,
                    0.44474851091861045,
                    0.8542245176087213,
                    -0.05277912538477114,
                    0.26491254129611885
                ],
                [
                    -0.7278603665042827,
                    0.24144239639673915,
                    0.35931654144397185,
                    0.677120709749133,
                    -0.3598051206710511,
                    -0.6473182899856924,
                    0.43312684394370926
                ],
                [
                    -0.6564103543010569,
                    0.9622717396302636,
                    -0.07915159590241849,
                    0.9081913956149152,
                    -0.8495287776052998,
                    -0.07999882347358223,
                    -0.9389521497679125
                ],
                [
                    0.03430391724176052,
                    -0.7253286647064485,
                    0.36186209000303493,
                    0.7484878685944556,
                    -0.1291042128944666,
                    -0.6527909392630746,
                    0.2594599425980997
                ],
                [
                    -0.40319019469668205,
                    0.5042744479870243,
                    -0.13000123902308336,
                    -0.655168944547867,
                    -0.681738111132774,
                    0.9314158208315104,
                    -0.004722249821217828
                ],
                [
                    -0.34276857288397955,
                    0.6240909873858826,
                    0.6948056196666423,
                    -0.4036041521433107,
                    0.6672720682520044,
                    0.7060146086240877,
                    -0.7015975958962619
                ]
            ],
            "biases": [
                -0.9447401862516127,
                0.7220821137034292,
                -0.3339156575307094,
                -0.3814557033439485,
                0.5983985794718361,
                0.23570298703223602,
                0.21973068525723338,
                0.32153561591602275,
                -0.3345254168743079,
                0.9267750808194186,
                0.1602754972903686,
                -0.6695839744542731,
                0.7205177675070282,
                -0.8400800904160759,
                -0.6962378604472403,
                0.41699237691823,
                -0.7059931679072176,
                0.20498847923519548,
                0.21401987647997878,
                0.41873907886644024,
                0.9833957011565897,
                0.6539846147980286,
                0.054146252713262566,
                0.5985131847332221,
                0.47433848669173306,
                0.05520672787171477,
                0.9068477460334172,
                -0.6522966321446166,
                -0.7016672503537187,
                -0.9121098073425009,
                0.22748334325899577,
                0.5952607838948909,
                0.48326885762057215,
                0.9007195545988822,
                0.9658487407127256,
                -0.9521717340106683,
                0.7576579642905621,
                0.6001662939609631,
                0.13102661106409053,
                -0.5407774440972641,
                0.9962850603190725,
                -0.7132707164839189,
                -0.7879563270677001,
                0.6566259784296624,
                0.5093083070077813,
                0.2987352201744633,
                -0.03132610929693591,
                0.773275292884364,
                -0.2587840216221733,
                -0.04790090712070927,
                0.4054790529598309,
                -0.3832896136895325,
                -0.8519161382288181,
                -0.19207571499201048,
                0.5424443090430189,
                0.7432700593928532,
                0.8145509965083664,
                0.7629360951211432,
                0.9003388246023158,
                -0.1473212874784462,
                -0.3903270883652541,
                -0.30659951197107405,
                0.5982460732766823,
                -0.3359006094818391,
                0.36021889314343514,
                0.5392083116889705,
                -0.04980930816385665,
                -0.8337692760988289,
                -0.5621323787487922,
                0.44304961209593974,
                -0.44058177091478257,
                -0.25197941255205425,
                -0.10719090750423121,
                0.21363942153246174,
                0.7823728791695974,
                -0.20469564776019666,
                -0.9256807248272398,
                -0.28924893850182154,
                0.5955715460796069,
                -0.41650944683959734,
                0.20502702941603168,
                0.7481687944644602,
                -0.19974840449908338,
                0.5474161852644701,
                0.8440085021232298,
                0.3193630981579547,
                0.6618610638242415,
                -0.6211793201873292,
                -0.8721383412356734,
                0.2964807623644119,
                -0.12434437999574977,
                -0.8626625336725326,
                0.565572968235827,
                0.5187840562290176,
                -0.5816244461716302,
                -0.6660122178200962,
                -0.5939777144330818,
                0.04260198625633271,
                -0.2591980500158684,
                0.9794909996282648,
                -0.5191595611062332,
                -0.9880540236048689,
                -0.5374764809378827,
                0.28820940105236525,
                0.8054055256247401,
                -0.013490823767661198,
                0.7261563312556201,
                0.32210829595762,
                0.9446963244734348,
                -0.9041618393691204,
                0.065181870159009,
                -0.08191956388322197,
                0.7854352926916279,
                0.6924579413297358,
                -0.8135179251969997,
                -0.9509129989034133,
                -0.8981979988711069,
                -0.5246786360335511,
                -0.38801914639044965,
                -0.3053192280285226,
                0.11211169055315229,
                0.32552257670557805,
                -0.8444817039886474,
                0.9241254004807635,
                0.5944731847318492,
                -0.2726052249098061,
                -0.7897732780828692,
                -0.3797969597863584
            ]
        },
        {
            "neurons": 7,
            "activation": "softmax",
            "weights": [
                [
                    -0.8899058401820463,
                    0.5665150098123033,
                    -0.4085303656142065,
                    0.04400342336651364,
                    -0.5278009009611879,
                    0.16192508565340202,
                    0.37744360871192995,
                    -0.8325971023091876,
                    0.5812525155147104,
                    0.49859472404818783,
                    -0.27045160823188774,
                    -0.07817421213749087,
                    -0.7054408694222079,
                    0.3494440013501616,
                    -0.09989102104597292,
                    -0.2115301499208928,
                    -0.5516825864767874,
                    -0.683141543091339,
                    0.003716272903883988,
                    -0.7551111335134268,
                    0.6647962549069819,
                    0.1216423724023068,
                    0.930692702658654,
                    -0.8985885625063068,
                    0.1623342909189993,
                    -0.5990694481525716,
                    0.14526253259519728,
                    0.923192315564771,
                    -0.4943062199261399,
                    0.476576943963517,
                    -0.4786877773439624,
                    -0.0229970896489351,
                    0.07392908035310874,
                    0.3685007462455623,
                    -0.7792378809561715,
                    0.9677237792261566,
                    0.47662499909879186,
                    0.9532666956344236,
                    0.4333948743771894,
                    0.5656339296722159,
                    0.04686374107177271,
                    0.14384450213284228,
                    -0.24902919783191457,
                    0.5042337222318651,
                    0.3775473656742039,
                    0.027300778205093135,
                    -0.8502897333506245,
                    0.7265633847996844,
                    0.4870300458253143,
                    -0.5625880943297059,
                    0.8358258568159169,
                    -0.40737876819939256,
                    0.321927806169088,
                    -0.5468552945635052,
                    0.20708006846381766,
                    -0.18130145206450576,
                    0.16731844973760635,
                    0.10260074176676115,
                    -0.8532997001273823,
                    -0.6854019382221401,
                    0.3186307085145148,
                    0.09501648793424389,
                    -0.06934242177267502,
                    -0.9135399765923089,
                    -0.48315832773407164,
                    0.018488275992891268,
                    0.5751221716341977,
                    0.4379450068622788,
                    -0.6669793191110751,
                    -0.37528512691324223,
                    -0.11260712694457031,
                    -0.5679308386349946,
                    0.34001562566945753,
                    -0.436248509356314,
                    -0.9056693260600819,
                    0.7873947090150828,
                    0.013673712093832169,
                    -0.891244379524726,
                    -0.608257096445944,
                    0.08762584362265557,
                    0.43401495916643484,
                    0.4029455659533536,
                    -0.4086025185390978,
                    -0.6290371397382091,
                    0.15008234656945296,
                    0.857776735096746,
                    0.16055299114549348,
                    -0.6331960710919027,
                    -0.7322308404976112,
                    0.7674440901475335,
                    0.4611689172004694,
                    -0.9842037132357915,
                    -0.75109285472553,
                    -0.9541917907919424,
                    -0.7784761634570236,
                    0.6258797674141061,
                    -0.8690597920039245,
                    -0.1941602329985117,
                    0.99221105378833,
                    0.42812590404030004,
                    0.5397211792922008,
                    -0.4884794754751818,
                    -0.845665795783475,
                    -0.060255013056079276,
                    -0.6138847899161335,
                    -0.09156923094621727,
                    0.1870449293243086,
                    -0.7654330585958922,
                    -0.8941843221245331,
                    0.25604561899864753,
                    -0.03281146596959883,
                    0.10562159811352978,
                    0.60071971820829,
                    0.38499648693282995,
                    0.11211601252188719,
                    -0.8937809661633027,
                    0.3850173595242765,
                    0.6171247511156324,
                    0.1583187928749099,
                    -0.6690299297893376,
                    -0.34552171246387187,
                    -0.757709780599336,
                    0.6418506986575427,
                    -0.2747599233012781,
                    0.19150572108488517,
                    -0.3730845664908049,
                    0.7824881879025196,
                    0.6895444398196249
                ],
                [
                    0.467575782180903,
                    0.26185643235221745,
                    -0.05413707612496754,
                    -0.629321840884598,
                    0.1200826450238548,
                    0.3132394996573076,
                    0.8305002525873317,
                    -0.28774662325105593,
                    0.006063190640574145,
                    0.11190219233986753,
                    -0.043254185337165074,
                    0.9804325395780598,
                    -0.05994395318866319,
                    -0.8690189434357907,
                    0.9713334723468721,
                    -0.09901160860648495,
                    -0.5884029810721716,
                    0.7308341164846879,
                    0.6057912079969103,
                    0.5360476972028032,
                    0.8280582592237906,
                    0.4848069449804402,
                    0.4784620081680624,
                    0.9759157558866762,
                    -0.3564589563552625,
                    0.5528624186341073,
                    -0.3426321713302727,
                    -0.8040322299730787,
                    -0.07581165544468638,
                    -0.851155658648804,
                    0.019766484876418078,
                    0.3501111097907379,
                    -0.4701416266253562,
                    -0.09074037517428168,
                    -0.017191301457501806,
                    0.9806554247540111,
                    0.35714399756860926,
                    0.23808778173200462,
                    -0.8510534509285372,
                    0.9318397416392088,
                    0.7614150253819556,
                    0.7982645504647663,
                    0.7751425771746097,
                    -0.0870961673236681,
                    0.16764075819365765,
                    -0.3756511161235978,
                    0.13105990818797064,
                    -0.08005171908149378,
                    0.6793094588907633,
                    -0.9816462673595048,
                    0.9762738319418749,
                    -0.9955051325595361,
                    0.9273911143142894,
                    -0.11640841481069808,
                    -0.2427085460861027,
                    -0.6663163604450975,
                    0.8335320439145397,
                    -0.0930561144827966,
                    0.8085906917360663,
                    -0.016360056466695028,
                    0.8531279366255871,
                    0.6723808459904064,
                    -0.5058918913487931,
                    -0.3107578786767289,
                    0.7885250698644779,
                    0.46581580854686533,
                    -0.7648170857462298,
                    -0.6387198821733329,
                    -0.31420532854092986,
                    0.5172519442846433,
                    0.17210014971040133,
                    0.7254719386424904,
                    -0.5240705867912323,
                    -0.46189163909565867,
                    -0.02816006406991245,
                    0.412631832719919,
                    0.5475201681332826,
                    0.9483573983090967,
                    -0.7106589449760057,
                    0.3018453175855893,
                    0.4897573876868786,
                    -0.17182305766955142,
                    -0.5439619305655576,
                    -0.24328447527122865,
                    -0.68377052661616,
                    -0.062476896481533206,
                    0.7896418667097438,
                    0.3904299282778805,
                    0.3559387852259088,
                    -0.23438627954479485,
                    -0.944360287490696,
                    0.29595504446661725,
                    0.42278011977180197,
                    -0.9731001350382802,
                    -0.0479495142546591,
                    -0.02346346141476796,
                    -0.02336323711933974,
                    0.8143801876291912,
                    0.8193776742378689,
                    -0.15366507488150694,
                    -0.22630624964182333,
                    -0.38159669988892264,
                    0.5019323180675155,
                    0.8142966307545079,
                    0.9771928479712744,
                    0.3861532638410874,
                    -0.5377081518584599,
                    -0.004928806031467836,
                    -0.3145633112565518,
                    0.05256634291374773,
                    0.03388182395460304,
                    -0.9627711199423932,
                    0.8642638222862282,
                    -0.16718125448122056,
                    -0.273187995953313,
                    0.8148856996583307,
                    0.8840548715614047,
                    -0.002005418128079528,
                    0.9973799219498392,
                    0.31519195181994886,
                    -0.4985782181846894,
                    0.7688498531485395,
                    -0.4370195893750666,
                    0.0027109254631487723,
                    0.35888191732861663,
                    -0.3734057486756004,
                    0.5984494632976545,
                    -0.7123811269732927
                ],
                [
                    -0.3114937032525069,
                    -0.11074394854593028,
                    -0.012520597849474457,
                    0.22918152062844444,
                    0.32254222709930014,
                    -0.5413411086618845,
                    0.012704881541291568,
                    -0.5112650668380523,
                    -0.30014294794877183,
                    0.5178634772310651,
                    -0.4146137212694676,
                    0.5886114332501895,
                    -0.3916662218560938,
                    0.9686401188953455,
                    -0.7415272657404093,
                    -0.2882512602645626,
                    -0.6920080656555707,
                    0.008770616007847565,
                    -0.5114428938412243,
                    0.3980523617004301,
                    0.952590861599895,
                    -0.04988601577726848,
                    0.7158247888879194,
                    0.36546191535711237,
                    -0.6906500949825172,
                    -0.37667701320053015,
                    -0.49631738943849557,
                    0.8639855442927304,
                    0.6081669722774703,
                    -0.5035476465294619,
                    -0.5431477365695176,
                    -0.593134988937329,
                    0.34747146908207727,
                    0.4488179523369502,
                    0.7434313150854555,
                    -0.47774380702209673,
                    -0.9107933784805828,
                    -0.11264181992973543,
                    0.3433841699643019,
                    -0.3924968492138112,
                    -0.6615315177936945,
                    0.8078417277161689,
                    -0.6099963262135404,
                    0.5168251279451468,
                    0.6183748219905589,
                    -0.9303925767176311,
                    0.9847588231710214,
                    -0.055338647562129806,
                    -0.11525693059868747,
                    -0.3473948559900173,
                    0.20213483531595156,
                    -0.10080423143021,
                    0.3435927708669497,
                    0.330881012547928,
                    0.8079059998445515,
                    0.035387682954434174,
                    0.43351039268248526,
                    0.04088150661187617,
                    0.12124216278891575,
                    -0.657504207639249,
                    0.9021332195829252,
                    0.4259211464793682,
                    -0.2723570388562373,
                    -0.42554780650783175,
                    -0.02994524978568358,
                    -0.469704524911674,
                    0.6465520681899082,
                    -0.8283136956007038,
                    0.8643404701204334,
                    -0.7758132899081935,
                    -0.22629860341338826,
                    -0.9236215036831528,
                    -0.1837183105746163,
                    0.016500904086271806,
                    -0.09894535573047736,
                    -0.28681159499564557,
                    0.2540723337807993,
                    -0.6227043433010016,
                    -0.7289859270591723,
                    -0.45884386905190033,
                    0.6721049362878466,
                    0.42257792116231774,
                    -0.7121867898232201,
                    0.636341265285149,
                    -0.5014304135678886,
                    -0.9198179317124939,
                    -0.0015201637751085517,
                    0.017713672405746284,
                    -0.3829070551994249,
                    0.8579796923817984,
                    0.9593230479618433,
                    -0.9947010196981145,
                    0.13373132793047193,
                    0.6079491637805892,
                    -0.8479262872011928,
                    0.9471142547977756,
                    -0.39173361263171613,
                    -0.24483989205428713,
                    -0.10514009853525486,
                    -0.6991805270923488,
                    -0.6867628374876054,
                    0.8680949885964766,
                    -0.9450602814762867,
                    -0.7856031426702204,
                    0.3511416277950776,
                    0.2839624550060338,
                    0.015475561244681302,
                    0.8613147807296233,
                    0.022188429925379838,
                    0.4240208074378591,
                    -0.10299341496692738,
                    0.8309571571995051,
                    -0.7676309286176262,
                    0.09760197216974453,
                    -0.9739527109532309,
                    0.4662977704137812,
                    0.05544647637874833,
                    -0.2980384412103452,
                    0.4528232554038687,
                    0.8984246872973269,
                    0.9714944172611102,
                    -0.4559151074693133,
                    0.3744953915948197,
                    -0.14550524335013182,
                    -0.5467091954395962,
                    -0.44426523669222284,
                    -0.42338818202296147,
                    -0.7858000573539319
                ],
                [
                    -0.6729175867362585,
                    -0.2762199617769159,
                    -0.7242327867355107,
                    0.49326861668201816,
                    -0.7889538899644013,
                    0.45877708580689824,
                    0.6708907277973433,
                    0.6731682486552046,
                    -0.10161328113404178,
                    0.38441392324851464,
                    0.9734979721391441,
                    0.35775364221553296,
                    0.5367645248896902,
                    -0.19055154785281458,
                    0.23197772908911207,
                    -0.4572340275015476,
                    0.4201583067562318,
                    0.9998520803868445,
                    0.869459520095494,
                    -0.30973786463521313,
                    -0.8770190909568205,
                    -0.5917410665554055,
                    -0.6073291491817903,
                    0.8061278950134902,
                    0.45620751650027525,
                    -0.8442151811033622,
                    -0.9568976121910595,
                    0.3398320958821659,
                    -0.2698715718333362,
                    -0.46329610256933274,
                    0.2847953129480769,
                    -0.03298401940969242,
                    0.17169627729027104,
                    0.6371588474776986,
                    -0.4165379924854533,
                    0.8680402099774738,
                    -0.17012911958316268,
                    0.5558135644123272,
                    -0.8857096834349927,
                    0.4580796156149449,
                    0.9191547204048971,
                    -0.0276776570188757,
                    0.967310807463281,
                    0.9499070378991534,
                    0.14199739613262152,
                    -0.20997043859792575,
                    -0.9183192302081915,
                    -0.3476535884026857,
                    0.43156002678798844,
                    0.1272175721327411,
                    0.15137699974351615,
                    -0.0059140243494058,
                    -0.18373734000763942,
                    -0.9586614875946953,
                    -0.8444952750359456,
                    -0.4933265786219303,
                    0.7845090291151391,
                    0.30920801403258547,
                    0.12439989458369305,
                    -0.11638090055607875,
                    0.39888143327113634,
                    0.24853232380379042,
                    0.7983981789106198,
                    0.8011038935418102,
                    -0.8671290865415924,
                    -0.3699438484121613,
                    0.466313329865627,
                    -0.029975165881849675,
                    0.5116940666778842,
                    0.31722795958708727,
                    -0.3285723844938999,
                    0.6424263832322936,
                    -0.7959777630731102,
                    -0.3227725126942147,
                    0.17751888061245058,
                    -0.1784829280931799,
                    -0.5290668386254669,
                    -0.3390713317895431,
                    0.5574575057770845,
                    -0.7433052799491002,
                    -0.5341755970197142,
                    -0.22824193270186366,
                    0.7181743256679962,
                    0.8889026450062301,
                    0.8506027380997185,
                    0.6386882006117092,
                    -0.62458834437412,
                    0.7650406094645072,
                    -0.6154950444123861,
                    0.5525022743531987,
                    0.8820930011391168,
                    0.0027970813048356913,
                    0.0794212764770359,
                    0.8626029920866558,
                    -0.0661923230412671,
                    0.12628330777675068,
                    0.568867201570211,
                    0.48697547900930305,
                    0.06466031515684456,
                    -0.7696931918461247,
                    -0.45073112136251936,
                    -0.3247419274265446,
                    -0.13954022170363967,
                    -0.41216595676463097,
                    0.6508676577889263,
                    -0.7479642847128662,
                    0.4372554700838689,
                    0.4359119002807188,
                    0.0748215136885444,
                    0.6045294084073563,
                    0.36255119095174115,
                    0.8641016275986644,
                    0.5751627514068312,
                    -0.06565330415023896,
                    0.423118051015579,
                    -0.2745489795238849,
                    -0.14344391624630237,
                    -0.03570372221251361,
                    0.9468764562221061,
                    -0.5627118898809684,
                    0.5913043870647019,
                    0.8823644704744558,
                    -0.09461752534262602,
                    0.5595572465367591,
                    0.5447888674729731,
                    0.953846305662772,
                    0.7750097090806756,
                    -0.9583482659602882
                ],
                [
                    -0.32920771283209427,
                    0.16343990523490803,
                    0.7666870795167549,
                    -0.6915070000154029,
                    -0.33950553566036645,
                    -0.4787702648747798,
                    -0.9350654735740165,
                    -0.7855199081790432,
                    0.4303685536189279,
                    -0.8856405292404805,
                    -0.30693042187164377,
                    0.5795741702439026,
                    -0.9644839162967014,
                    0.0768829685708059,
                    0.22911028974838055,
                    -0.1380636719363868,
                    -0.6157362381862925,
                    0.39201759427361016,
                    0.6375046334848959,
                    0.46046529253575064,
                    -0.43306434203909805,
                    -0.15435054050083474,
                    0.05000629241837484,
                    -0.6123738601402964,
                    0.8471190778844617,
                    -0.029784583235465956,
                    -0.1919565133385488,
                    0.2289384866354347,
                    -0.8611565914068127,
                    -0.6101987399668096,
                    0.9876854395527803,
                    -0.5009474926966482,
                    0.9050445601741597,
                    0.9442187292588944,
                    -0.7354291587216999,
                    -0.707157691321652,
                    -0.8827538887998387,
                    -0.1940188588129026,
                    0.12333383635657369,
                    0.42802967732360053,
                    0.02814878231747797,
                    0.9931883467863065,
                    -0.8030569766235567,
                    -0.05998846534164959,
                    0.4641687691031129,
                    -0.7475249010957197,
                    0.5834556232010719,
                    -0.3389523275583135,
                    0.13890620183739943,
                    -0.8366271144128739,
                    0.22054952031107478,
                    0.0025641728756913285,
                    -0.1997450191828356,
                    -0.24454269289231578,
                    0.20240739708187183,
                    -0.5592177016928022,
                    0.34004205521031605,
                    -0.4297538770151106,
                    -0.4396900235441019,
                    0.4279135373421119,
                    0.8107810210491944,
                    -0.13642510968010013,
                    -0.026760867437805036,
                    0.4283753067135512,
                    0.28038572390066463,
                    -0.810729048704427,
                    0.03954706214671222,
                    0.22368961705254375,
                    0.014597358066467336,
                    -0.29610781084437243,
                    0.040783494973913204,
                    -0.27876675253072003,
                    0.533156524380012,
                    -0.2634475207993796,
                    0.18002282571645534,
                    0.5363466864420947,
                    0.7491154951552572,
                    0.7456079990777702,
                    0.7732423558400263,
                    -0.3298104244878026,
                    -0.10410300052121024,
                    0.4404559068286067,
                    -0.7880065299873746,
                    0.9107403188516989,
                    -0.7776031260309633,
                    0.6506449167769803,
                    -0.9442872438676635,
                    -0.5354832131269298,
                    0.36239529274512106,
                    -0.27259459553806287,
                    -0.666088340419267,
                    -0.7357053334341943,
                    0.6829670981699631,
                    0.5593419224317895,
                    0.32609024498638073,
                    0.5845202651432628,
                    0.512058461385893,
                    -0.3321814797872611,
                    0.8265088676387973,
                    0.4996727742120721,
                    -0.38425933179377125,
                    0.17517559436174346,
                    0.9777273065430923,
                    0.8607655504773915,
                    0.74433971679909,
                    0.5340996221937646,
                    -0.1746632142312472,
                    0.8603690181808763,
                    0.070583480299091,
                    0.9821919033459723,
                    0.25363073490490984,
                    -0.9942963179449986,
                    0.879770110889526,
                    -0.4704098417301559,
                    0.7907487718466593,
                    0.6296459789332198,
                    -0.09921556277296095,
                    0.07297194045653721,
                    0.5828385921239814,
                    -0.0011427795128822194,
                    0.11241951005026607,
                    -0.6951921939949386,
                    -0.7909918694221025,
                    -0.541453157249228,
                    -0.029575286098854958,
                    -0.564884790279615,
                    -0.8722193080421721,
                    -0.15801098187332974
                ],
                [
                    -0.5460272887150455,
                    -0.7576607120210204,
                    -0.924605518498766,
                    -0.6935342743761157,
                    -0.682716941983607,
                    -0.0013774421272869652,
                    0.33300727062194,
                    0.41546071635566073,
                    0.17765944457511385,
                    0.968118446894876,
                    -0.23780371777307496,
                    0.4093516767905445,
                    -0.09716792441553213,
                    -0.4257907040615796,
                    -0.6743788908830524,
                    0.38686636085787574,
                    -0.9249889998100556,
                    0.6527256169162599,
                    -0.1403346869259019,
                    0.06691334180505848,
                    -0.26048582765671546,
                    -0.6616365143025535,
                    0.4872803001610615,
                    -0.5857866392725914,
                    0.1148051286877736,
                    -0.7129461557960886,
                    -0.9544185273009558,
                    -0.6165470365354395,
                    -0.6561369873250447,
                    -0.7858117807056435,
                    0.04951095441724318,
                    0.9070745260306732,
                    0.7175801184890644,
                    0.7885102027921358,
                    -0.8456438315113635,
                    0.8256680903071505,
                    0.35661186749523166,
                    0.9230218795906373,
                    -0.12704923063828,
                    -0.9533998491002404,
                    -0.3355770911157112,
                    -0.3608070621720565,
                    0.7979329688502064,
                    -0.19357728251857864,
                    -0.33740801860224856,
                    -0.2746900476891829,
                    0.6364460991970908,
                    0.12646676414807945,
                    0.8334767429637862,
                    -0.893217033407862,
                    -0.6515075474501935,
                    -0.3404879601256794,
                    -0.946125634508953,
                    -0.22811600478561544,
                    -0.29386323557018135,
                    0.6023693362325395,
                    -0.23096048260089375,
                    0.11307595947783367,
                    0.6503174424542084,
                    0.7808188702975805,
                    0.5600667980202256,
                    0.43757881371949026,
                    -0.5075346458925991,
                    0.08475805123286051,
                    -0.3129926456091814,
                    -0.8917246307427065,
                    -0.29848363862168314,
                    -0.8619866999872334,
                    0.1567385084658226,
                    0.8539967288080783,
                    -0.4176433947274174,
                    -0.7229880867820819,
                    0.10478286119994418,
                    0.6051882358417287,
                    -0.2920451137163267,
                    -0.904500116894964,
                    -0.4609228022866687,
                    -0.10254036213940121,
                    0.3800759325305001,
                    0.04139555288821306,
                    -0.5129881369053815,
                    -0.74789950872557,
                    -0.9253784347758798,
                    -0.12597780369092693,
                    -0.10768036383171475,
                    -0.10242881388722869,
                    0.2967643341460009,
                    -0.6902175780920545,
                    -0.31003451942473714,
                    -0.5962644957321117,
                    -0.5684487517816166,
                    0.5726862432716777,
                    0.9959049768455652,
                    -0.23077556257703669,
                    0.5444365351180402,
                    0.5409363920312424,
                    0.47867053855954245,
                    0.6433855738949723,
                    -0.9061615358659167,
                    0.40542372482877664,
                    -0.5719280252145746,
                    0.3720394626598378,
                    -0.1209720008339279,
                    0.3096093865949654,
                    -0.9633338313076378,
                    0.3960871451397241,
                    -0.5031230619033666,
                    -0.9853624440008544,
                    0.38758240026294044,
                    -0.40500782813884073,
                    0.9853772945561394,
                    -0.15779243609580718,
                    -0.5950540622375105,
                    -0.08517141201373235,
                    0.38143426986767626,
                    -0.08451908490665905,
                    -0.8837868767702433,
                    -0.37808642291324945,
                    -0.7183948368242095,
                    -0.19224562817636537,
                    -0.5887657415278773,
                    0.8556129056790216,
                    -0.24593950346340887,
                    -0.8750307899893424,
                    0.5482711855852096,
                    0.34016321710817143,
                    0.6799302009905186,
                    0.060421444459812124
                ],
                [
                    -0.7823263885051379,
                    -0.11134483175601284,
                    0.42474426922468145,
                    -0.7773494788430921,
                    -0.7054728098448326,
                    -0.9743815067323167,
                    -0.5796454538561451,
                    -0.16165904687958577,
                    -0.3572780287449313,
                    -0.08909980505620685,
                    0.2105552672317832,
                    -0.5266124653727715,
                    0.5317542837838976,
                    -0.966444394765765,
                    -0.8759598832919981,
                    -0.9485162104223126,
                    0.4469561639894808,
                    0.03826354551130051,
                    0.42998092272805666,
                    0.49052451441084566,
                    0.4599523943483692,
                    -0.7303109504001841,
                    0.548093541241796,
                    -0.9147794150745032,
                    0.4173977517480285,
                    0.4067231879943567,
                    -0.6251587292241829,
                    -0.06107965014949279,
                    -0.9200229817148444,
                    -0.6115263152625592,
                    0.6224346868346831,
                    0.09460512546740407,
                    0.8138012922337374,
                    -0.6996711699783082,
                    -0.45131735989217603,
                    0.8215716103394541,
                    0.024158022603564033,
                    -0.45901627475616835,
                    -0.30177333500290415,
                    0.047920461635565514,
                    -0.32045370307734977,
                    0.9598490167375922,
                    0.27399022258257566,
                    0.9144488928792176,
                    -0.3873680795105545,
                    -0.5211647582523875,
                    0.8502065073079061,
                    0.0991606643913101,
                    -0.26149517004854594,
                    -0.589953509046367,
                    -0.6667309415434683,
                    -0.12904298119545543,
                    -0.5388948826836715,
                    -0.138670111209388,
                    0.11555287226589006,
                    -0.36163836217152334,
                    0.03941318028527552,
                    0.4611567424664256,
                    0.1325139983045689,
                    -0.7514919345803863,
                    -0.2150124544247749,
                    -0.7074276424512806,
                    0.6348394993178053,
                    0.7632275793750329,
                    0.7329761684548735,
                    -0.6794074035332582,
                    -0.9175207103192653,
                    -0.12128435563896023,
                    -0.3051173882454663,
                    0.5631407818617675,
                    0.7928128880119727,
                    -0.1764129967469481,
                    -0.11368809394281398,
                    -0.703556283120675,
                    -0.5679442288829073,
                    -0.34344428185036024,
                    -0.48278451456489146,
                    -0.2668577576379707,
                    -0.49285971286115937,
                    -0.16314336919462602,
                    -0.13375233156741673,
                    0.7020627262794052,
                    0.09859361653968857,
                    -0.024531107780416894,
                    -0.13022803563423668,
                    -0.054658453740318524,
                    0.8560200446996513,
                    0.5774423512446791,
                    0.8508808975133657,
                    -0.557439557652448,
                    -0.9032633958166156,
                    -0.1874499162102874,
                    0.17578494056978644,
                    -0.6215267007742138,
                    0.5606742177079616,
                    -0.638414783966123,
                    -0.5362191167259993,
                    -0.20914914347378688,
                    0.8598776196722364,
                    -0.38655465041836545,
                    0.5050601342784375,
                    0.11992308593619638,
                    0.7124450051172693,
                    -0.26106793451576427,
                    0.8168892061844046,
                    0.16444736519881786,
                    0.27877527554457826,
                    0.301809087869614,
                    -0.08118726619846073,
                    0.2755643791925282,
                    -0.964242024017699,
                    0.7494283800662624,
                    -0.12691691184983522,
                    0.6400655385114584,
                    -0.49102536669077845,
                    0.32822529335277983,
                    -0.7031939770245126,
                    -0.991278280106304,
                    -0.701492195650071,
                    -0.8603939735449557,
                    -0.269403801970552,
                    0.3930012589473699,
                    -0.19325988270796857,
                    -0.4880163941588569,
                    0.39696609265797256,
                    -0.9616811702324304,
                    0.9020759547184596,
                    -0.936945255613312
                ]
            ],
            "biases": [
                -0.646331777967414,
                -0.4547586922956772,
                -0.9977600058935465,
                0.6736287774137184,
                -0.8775251719024129,
                -0.25513615283467184,
                0.873745999278885
            ]
        }
    ]
}