{
    "cnn_layers": [
        {
            "type": "conv",
            "filters": 8,
            "kernel_size": 3,
            "stride": 1,
            "activation": "relu",
            "weights": [
                [
                    [
                        [
                            -0.8968893282987478,
                            0.8952079626534399,
                            0.0047447708082364315
                        ],
                        [
                            0.23210023492611587,
                            -0.9066090104471385,
                            0.46993459121358616
                        ],
                        [
                            0.7732932677133244,
                            0.4619029089057278,
                            0.2386502228868641
                        ]
                    ]
                ],
                [
                    [
                        [
                            -0.37127120965066207,
                            0.8394080995760538,
                            -0.5785871840378751
                        ],
                        [
                            0.12434747928036627,
                            0.5966343035830362,
                            -0.459650822713765
                        ],
                        [
                            0.9319768558766788,
                            0.03314971872028072,
                            -0.4166093853652344
                        ]
                    ]
                ],
                [
                    [
                        [
                            0.6374278660090535,
                            -0.823723469720629,
                            0.1679518095503767
                        ],
                        [
                            0.09753871286054916,
                            0.9699884206837637,
                            -0.23976540866677754
                        ],
                        [
                            0.4909103228374865,
                            -0.485902219669722,
                            -0.48543831461486286
                        ]
                    ]
                ],
                [
                    [
                        [
                            0.12256238119194252,
                            -0.43057520875752475,
                            0.5540325053824273
                        ],
                        [
                            -0.2774000274373378,
                            0.8411776390585142,
                            -0.6040321752439806
                        ],
                        [
                            0.9176214898279749,
                            -0.37046148640947707,
                            0.46538862173587936
                        ]
                    ]
                ],
                [
                    [
                        [
                            0.4000089736043959,
                            -0.44365427385007083,
                            0.491445434022292
                        ],
                        [
                            0.6909431604801093,
                            -0.5111709256739234,
                            0.24762310085202488
                        ],
                        [
                            0.11447998753455724,
                            0.7074353217595462,
                            -0.390441119904376
                        ]
                    ]
                ],
                [
                    [
                        [
                            -0.03163076539815979,
                            0.9277200957250757,
                            0.7174797405254358
                        ],
                        [
                            0.25580436192012557,
                            0.05932158523416575,
                            0.8416411462888473
                        ],
                        [
                            -0.10401821021078295,
                            0.03489817436392029,
                            -0.19544115463781453
                        ]
                    ]
                ],
                [
                    [
                        [
                            0.23561997984250227,
                            0.34600672016473166,
                            -0.10777364133263267
                        ],
                        [
                            0.3622194408943187,
                            -0.7063588043846274,
                            -0.43834617065871573
                        ],
                        [
                            -0.29617986807299723,
                            -0.566791168839857,
                            0.43518177922749013
                        ]
                    ]
                ],
                [
                    [
                        [
                            0.3554042931571675,
                            -0.5920235529714668,
                            -0.2558256624318289
                        ],
                        [
                            0.9914145396879928,
                            -0.5620950520518986,
                            -0.06401453311057992
                        ],
                        [
                            0.4833089474015986,
                            -0.5455603869562802,
                            0.5799683384454049
                        ]
                    ]
                ]
            ],
            "biases": [
                0.9592208611053108,
                -0.08305925644438283,
                -0.2576619463526695,
                0.6696284006712119,
                -0.6863044272338426,
                0.8236372099615745,
                -0.8380539177835034,
                -0.8226362432083141
            ]
        },
        {
            "type": "pool",
            "size": 2,
            "stride": 2,
            "pool_type": "max"
        },
        {
            "type": "conv",
            "filters": 64,
            "kernel_size": 3,
            "stride": 1,
            "activation": "relu",
            "weights": [
                [
                    [
                        [
                            0.6183538136610967,
                            0.6991910068023273,
                            -0.6701881608799234
                        ],
                        [
                            -0.8364951741702531,
                            -0.44564926221218526,
                            0.8539413999932419
                        ],
                        [
                            0.36469502370966067,
                            0.056528525224636805,
                            -0.36658371547337243
                        ]
                    ],
                    [
                        [
                            -0.5019037029708862,
                            -0.15295753237234755,
                            -0.27665846073398725
                        ],
                        [
                            0.45994939090027165,
                            0.8790101046161867,
                            0.25734010552035835
                        ],
                        [
                            -0.550370821136605,
                            -0.4561186700152897,
                            -0.6733452869178835
                        ]
                    ],
                    [
                        [
                            0.847704239789306,
                            -0.44349678882192145,
                            -0.839986957089379
                        ],
                        [
                            0.5583251086890344,
                            -0.7947425611301873,
                            -0.6421995558149431
                        ],
                        [
                            0.6180251010851541,
                            0.21844699166345904,
                            0.23508927833060134
                        ]
                    ],
                    [
                        [
                            0.04013405084853483,
                            -0.40940169279096117,
                            -0.9984031927869743
                        ],
                        [
                            0.547962272436431,
                            -0.4771585959269191,
                            -0.3511412242127443
                        ],
                        [
                            0.1998197764057259,
                            0.6298210670704694,
                            0.87401873819576
                        ]
                    ],
                    [
                        [
                            0.22283677245699485,
                            -0.41627564829788777,
                            -0.729407211130241
                        ],
                        [
                            0.5799896979264403,
                            0.2417009472039624,
                            -0.1954861668061738
                        ],
                        [
                            -0.9839170601717435,
                            -0.4781565570155484,
                            0.4961961109980204
                        ]
                    ],
                    [
                        [
                            0.9756085097309737,
                            0.5626192938661703,
                            0.2894045756372776
                        ],
                        [
                            -0.12072176399235679,
                            0.44879362745466733,
                            0.5935775407110386
                        ],
                        [
                            0.6144640435059849,
                            -0.05751072030627613,
                            0.11608585931687965
                        ]
                    ],
                    [
                        [
                            -0.8614499357726291,
                            0.47930649316655116,
                            -0.9419537335104706
                        ],
                        [
                            -0.09820642552089498,
                            0.5967362785467607,
                            -0.37428297939264255
                        ],
                        [
                            -0.03224087617783722,
                            -0.7253584619688469,
                            0.43675405937518863
                        ]
                    ],
                    [
                        [
                            0.17915475941217296,
                            -0.6632847898977727,
                            0.7116243760651098
                        ],
                        [
                            0.4595222947689177,
                            -0.4102322001244303,
                            -0.28848922296463475
                        ],
                        [
                            0.8165933778452614,
                            0.8822991036494772,
                            -0.8334108933050695
                        ]
                    ]
                ],
                [
                    [
                        [
                            -0.5379811384073392,
                            -0.07749668644568719,
                            0.3094937827242732
                        ],
                        [
                            0.4288427687960199,
                            0.7819394132059403,
                            -0.2855671133257145
                        ],
                        [
                            -0.09656209936198246,
                            0.643519290005585,
                            0.6169462667912
                        ]
                    ],
                    [
                        [
                            0.9405930723481235,
                            -0.8607680150679986,
                            -0.0966201786230243
                        ],
                        [
                            0.6093408521800383,
                            0.6044999061197249,
                            0.44902583132003615
                        ],
                        [
                            -0.029345754305589278,
                            0.5318833061481796,
                            -0.5406411673966309
                        ]
                    ],
                    [
                        [
                            -0.26791525798156646,
                            -0.5464265632218486,
                            -0.388645120529149
                        ],
                        [
                            -0.9477927971501234,
                            -0.891236731186924,
                            0.8929617968760646
                        ],
                        [
                            0.2676219247192084,
                            0.6151096337880269,
                            0.5534721844500239
                        ]
                    ],
                    [
                        [
                            -0.5900828505720337,
                            -0.34019022837445867,
                            -0.9920917531604516
                        ],
                        [
                            0.009278003070151586,
                            0.9713881843768588,
                            -0.9218796395253575
                        ],
                        [
                            -0.6921263884492408,
                            -0.5990200424437853,
                            -0.8642511353386368
                        ]
                    ],
                    [
                        [
                            0.26286070790222027,
                            0.8680329626198877,
                            -0.9104364468391672
                        ],
                        [
                            -0.3404813164742915,
                            -0.7313813496727328,
                            -0.08767661566762319
                        ],
                        [
                            -0.35749033861563584,
                            0.7745023045074833,
                            -0.48489172942778236
                        ]
                    ],
                    [
                        [
                            0.4524477801267721,
                            -0.6197926669565079,
                            -0.4650383995362728
                        ],
                        [
                            -0.562127751601817,
                            0.2847422346482782,
                            0.566051979168847
                        ],
                        [
                            -0.6468424868933067,
                            -0.17304223922195838,
                            0.37449830578270826
                        ]
                    ],
                    [
                        [
                            0.9329074884800252,
                            0.07665660322768808,
                            -0.5329360767835363
                        ],
                        [
                            0.6938960096492575,
                            0.5656842490619081,
                            0.697514697048925
                        ],
                        [
                            -0.374696844679681,
                            0.12947703583656045,
                            0.14087488490273214
                        ]
                    ],
                    [
                        [
                            -0.9255362141594423,
                            0.6297030385852707,
                            0.10921114773601981
                        ],
                        [
                            -0.1127027543999981,
                            -0.8969037151138213,
                            0.014063446460045093
                        ],
                        [
                            -0.8231215217946006,
                            0.821659195631963,
                            -0.7800098676339076
                        ]
                    ]
                ],
                [
                    [
                        [
                            0.5281066002275787,
                            -0.18376877337024444,
                            0.7611059222085834
                        ],
                        [
                            0.3210058416293209,
                            -0.07453575627804132,
                            0.9863705924488659
                        ],
                        [
                            -0.41359817844342217,
                            -0.8749498751784701,
                            0.45848405331417585
                        ]
                    ],
                    [
                        [
                            -0.35752059014510573,
                            0.9561620991031474,
                            0.5363653549212204
                        ],
                        [
                            0.049458746945753695,
                            0.7229981911425303,
                            0.7820634566805389
                        ],
                        [
                            0.5004038480779616,
                            0.5096881143248619,
                            0.3968435860751185
                        ]
                    ],
                    [
                        [
                            -0.39979450531625726,
                            -0.11116056157650211,
                            0.2406518682742289
                        ],
                        [
                            0.5032216368821019,
                            0.2394149705931914,
                            0.7632244560702586
                        ],
                        [
                            -0.4702490095919596,
                            0.7155511020758782,
                            -0.7853970026298487
                        ]
                    ],
                    [
                        [
                            0.8569979571920519,
                            -0.5175498378662498,
                            0.4531539697244693
                        ],
                        [
                            0.46798497063024946,
                            0.4618007201317247,
                            -0.09175441687526442
                        ],
                        [
                            -0.4836225089657036,
                            0.08266980138451574,
                            0.9324924558503398
                        ]
                    ],
                    [
                        [
                            0.5467084418532222,
                            0.47932571126058354,
                            0.851037913769771
                        ],
                        [
                            0.8356080753923383,
                            -0.7171106918341608,
                            -0.33230657573890565
                        ],
                        [
                            0.4751264959498984,
                            0.2689522342501298,
                            0.6106325978414873
                        ]
                    ],
                    [
                        [
                            0.07826303888487196,
                            -0.43298962432070787,
                            0.520676453369638
                        ],
                        [
                            0.45321962805002225,
                            -0.5747718607856256,
                            0.12577463272718536
                        ],
                        [
                            0.2982831364761527,
                            0.011424242007497032,
                            -0.2555438078581682
                        ]
                    ],
                    [
                        [
                            0.9804207591867287,
                            -0.5094673121486399,
                            0.8914863009022729
                        ],
                        [
                            0.510218548062674,
                            -0.6907327560460479,
                            0.14721669048982777
                        ],
                        [
                            0.8932900098684735,
                            -0.28822512480385587,
                            0.679934468015158
                        ]
                    ],
                    [
                        [
                            -0.9869713198947521,
                            0.1059949788318546,
                            0.6960253518662316
                        ],
                        [
                            0.8238022624876808,
                            -0.42534762327087483,
                            0.6570655375842884
                        ],
                        [
                            0.01366886137251333,
                            0.43249277445270295,
                            0.681962646122088
                        ]
                    ]
                ],
                [
                    [
                        [
                            -0.7225105469280559,
                            -0.956323954252996,
                            0.7649059487468313
                        ],
                        [
                            0.022515100209917538,
                            0.8522880734371603,
                            0.7708628306135608
                        ],
                        [
                            0.5819904352217986,
                            0.20977122794033431,
                            0.8452274334287742
                        ]
                    ],
                    [
                        [
                            0.0047485811995156,
                            -0.7123175979282064,
                            0.730915687691688
                        ],
                        [
                            0.6276406569508182,
                            0.2431719833515651,
                            -0.04612273986200566
                        ],
                        [
                            -0.6478119535136289,
                            0.8115396164184083,
                            0.08119008808294192
                        ]
                    ],
                    [
                        [
                            0.3412556511091458,
                            -0.10171814657711131,
                            0.34210304814045256
                        ],
                        [
                            -0.1991682540036206,
                            -0.09589261719012421,
                            0.2030436188671183
                        ],
                        [
                            -0.7292454810816604,
                            -0.6884650785850002,
                            0.06989175144721416
                        ]
                    ],
                    [
                        [
                            0.10246472956274388,
                            -0.7729376977323512,
                            0.07880624055023189
                        ],
                        [
                            -0.00836536832695911,
                            -0.07724540369691191,
                            0.9369669236912403
                        ],
                        [
                            -0.46168681944129863,
                            0.4192309555760292,
                            -0.09315024933250071
                        ]
                    ],
                    [
                        [
                            -0.6956460956219186,
                            0.7203283085403096,
                            0.018038851303808556
                        ],
                        [
                            -0.7053656371184227,
                            -0.8407642115342389,
                            0.562220446982465
                        ],
                        [
                            0.6268538221887274,
                            0.7880829927091624,
                            -0.029903107654226213
                        ]
                    ],
                    [
                        [
                            -0.7054683808410764,
                            0.21440673273266708,
                            0.0807984638121444
                        ],
                        [
                            0.6936747808155674,
                            -0.7122036642593472,
                            -0.2600665892641949
                        ],
                        [
                            -0.6778776927508428,
                            -0.17291614476946626,
                            0.5203278192637599
                        ]
                    ],
                    [
                        [
                            0.7340940473855269,
                            -0.31037226352136393,
                            -0.056554125946128186
                        ],
                        [
                            -0.8242917530597498,
                            -0.6639002040267068,
                            -0.3698271462813265
                        ],
                        [
                            0.4508826513240902,
                            -0.9331813289113415,
                            0.07959430277211998
                        ]
                    ],
                    [
                        [
                            0.5132195851784207,
                            -0.589399113530962,
                            -0.7486824514221346
                        ],
                        [
                            -0.7564239248572586,
                            0.39388173457200515,
                            0.7256235474141137
                        ],
                        [
                            0.29107708223371986,
                            -0.7583294454394536,
                            0.7288832303171187
                        ]
                    ]
                ],
                [
                    [
                        [
                            0.09456697586248208,
                            0.168144470990643,
                            0.934917016284887
                        ],
                        [
                            0.4971604119491575,
                            -0.9217961202467326,
                            -0.21446923498167325
                        ],
                        [
                            -0.0919102270650698,
                            0.3462048336807062,
                            0.5458713928001646
                        ]
                    ],
                    [
                        [
                            0.42576870655403365,
                            -0.8622067574283987,
                            -0.9601514917697385
                        ],
                        [
                            0.49815080495555675,
                            -0.2992210015579131,
                            0.03444812772069428
                        ],
                        [
                            -0.8861561646475482,
                            0.4339727741521673,
                            0.25392114235256136
                        ]
                    ],
                    [
                        [
                            -0.5132111216999571,
                            0.8387919822738295,
                            -0.7132586750510923
                        ],
                        [
                            -0.4782690650869108,
                            -0.6732168135717056,
                            -0.785480405007241
                        ],
                        [
                            0.3770541573565449,
                            0.7998234831855853,
                            -0.8783245156248412
                        ]
                    ],
                    [
                        [
                            0.787081176773337,
                            -0.956480059558569,
                            -0.6518014821462497
                        ],
                        [
                            0.12929303272389392,
                            -0.8302919383852623,
                            0.6223934942358325
                        ],
                        [
                            0.9603710130540484,
                            0.14600764415329381,
                            -0.9131004751947813
                        ]
                    ],
                    [
                        [
                            0.8783309754669841,
                            -0.3584512255464216,
                            -0.5639521678193598
                        ],
                        [
                            -0.8413817539182797,
                            -0.42811372869815334,
                            0.34336944036943495
                        ],
                        [
                            -0.5125702818676088,
                            -0.24669737893206145,
                            0.981750376081866
                        ]
                    ],
                    [
                        [
                            -0.47531317139809715,
                            -0.6714433374291637,
                            0.7228104427053164
                        ],
                        [
                            0.4705954740850542,
                            0.06454299055102153,
                            -0.6510185303803857
                        ],
                        [
                            0.47143424476285545,
                            0.288189721695874,
                            -0.48318330708552826
                        ]
                    ],
                    [
                        [
                            0.5991829361796024,
                            0.8669702611077481,
                            0.5468759413258877
                        ],
                        [
                            -0.554729146896429,
                            -0.11065859901094921,
                            0.9971940945836713
                        ],
                        [
                            -0.5964556335130862,
                            0.4640186003767488,
                            -0.5113878192990067
                        ]
                    ],
                    [
                        [
                            0.4695649727003355,
                            0.3292216655903024,
                            0.03801435012586518
                        ],
                        [
                            0.7340764115371439,
                            -0.5535646657872433,
                            0.46314664673131345
                        ],
                        [
                            0.24610944807471347,
                            -0.02242612123196852,
                            0.8201657387509969
                        ]
                    ]
                ],
                [
                    [
                        [
                            0.028694313312059405,
                            -0.6905481991027387,
                            -0.9850722781838861
                        ],
                        [
                            0.3607423002326198,
                            -0.5757165867912386,
                            -0.5959361098832345
                        ],
                        [
                            -0.9826891927375918,
                            -0.8458424846835613,
                            -0.42008010174744537
                        ]
                    ],
                    [
                        [
                            -0.8857730482985395,
                            0.7452568645714335,
                            0.0473669748437735
                        ],
                        [
                            0.030683390018168666,
                            0.06807585195465027,
                            -0.8960735331467216
                        ],
                        [
                            0.027262896891342203,
                            0.05323676102796915,
                            -0.06677599176289006
                        ]
                    ],
                    [
                        [
                            0.8992654580691788,
                            -0.6235957908462952,
                            -0.0637914190870581
                        ],
                        [
                            -0.21207781760566613,
                            0.5667773345000808,
                            0.09107096317874097
                        ],
                        [
                            -0.29024933636862493,
                            -0.38290765923739745,
                            0.026121713923336287
                        ]
                    ],
                    [
                        [
                            -0.8195186047553784,
                            -0.05248585165109887,
                            -0.3439651650873141
                        ],
                        [
                            0.2625671266832119,
                            0.9753345131104485,
                            0.08005440783140849
                        ],
                        [
                            -0.10836955673002002,
                            -0.7178045883779942,
                            0.698945464557511
                        ]
                    ],
                    [
                        [
                            0.7402362883294185,
                            0.15757606292286197,
                            -0.8421999565632745
                        ],
                        [
                            -0.23638207711493808,
                            -0.013383007966795812,
                            -0.05907396866987802
                        ],
                        [
                            0.05200803147316768,
                            0.9602372632230889,
                            -0.6713460126767186
                        ]
                    ],
                    [
                        [
                            -0.29034447848466494,
                            -0.1279021818379238,
                            -0.6915040480845938
                        ],
                        [
                            -0.21091561187283325,
                            -0.6451411604457566,
                            0.5739068145694115
                        ],
                        [
                            -0.8190625416874193,
                            -0.30840119893760076,
                            -0.7316731817589293
                        ]
                    ],
                    [
                        [
                            -0.2396294128015406,
                            -0.19415738317763065,
                            0.5536090775468323
                        ],
                        [
                            -0.8254608553581291,
                            -0.7418454440504829,
                            0.7509801590663052
                        ],
                        [
                            -0.038634966039136076,
                            0.5587372885454944,
                            0.16607748975335013
                        ]
                    ],
                    [
                        [
                            0.1278085312059849,
                            -0.5105423063461823,
                            -0.3955112015294011
                        ],
                        [
                            -0.056340428348728544,
                            0.9733720404615662,
                            0.0903945249668634
                        ],
                        [
                            -0.05309395716259613,
                            -0.2649407104304826,
                            0.632384224690089
                        ]
                    ]
                ],
                [
                    [
                        [
                            -0.15390507891956595,
                            -0.1766510056582884,
                            -0.281967458352405
                        ],
                        [
                            -0.48891883565163674,
                            -0.1153383748617951,
                            0.46685927783890646
                        ],
                        [
                            0.12746048119527664,
                            -0.016715704644210128,
                            -0.7220387953150329
                        ]
                    ],
                    [
                        [
                            0.21588296898789694,
                            0.05705404715786311,
                            0.5574355447475952
                        ],
                        [
                            -0.8804983076971347,
                            -0.07683874826716486,
                            0.0516225881742014
                        ],
                        [
                            -0.017747928331938168,
                            0.09046143786243244,
                            -0.1852067066813341
                        ]
                    ],
                    [
                        [
                            -0.9810700933739129,
                            0.9961687065967448,
                            0.6722124912377578
                        ],
                        [
                            0.20980570445146918,
                            0.9372910634087419,
                            0.751757274730813
                        ],
                        [
                            -0.6591320538294578,
                            0.6809245178802865,
                            0.6472685761617034
                        ]
                    ],
                    [
                        [
                            -0.18673481733513708,
                            -0.3133973954697755,
                            0.40522354243382974
                        ],
                        [
                            -0.857752782117791,
                            0.2642250084018276,
                            -0.41867278647610284
                        ],
                        [
                            0.8278120268706626,
                            0.419724123703368,
                            -0.7528599616739351
                        ]
                    ],
                    [
                        [
                            0.1966481172211907,
                            -0.3778776350625783,
                            -0.3523924359918724
                        ],
                        [
                            0.9837599616009263,
                            0.9393992348803517,
                            0.3041476160142753
                        ],
                        [
                            -0.25071829825967606,
                            -0.6985618146844281,
                            -0.8326395684177226
                        ]
                    ],
                    [
                        [
                            -0.6881166551768381,
                            -0.8009279697400933,
                            -0.0707189646598152
                        ],
                        [
                            0.9332869266028119,
                            -0.17512850484353448,
                            0.02376038360672572
                        ],
                        [
                            -0.26899964293150513,
                            -0.9309166596878675,
                            -0.35130896097215913
                        ]
                    ],
                    [
                        [
                            0.9968691178226112,
                            -0.13007943105424857,
                            -0.5184016606419739
                        ],
                        [
                            0.6654158858127401,
                            0.11351646814406169,
                            -0.044490549370539645
                        ],
                        [
                            0.18585162523946264,
                            -0.08832663323728474,
                            0.20569945081044083
                        ]
                    ],
                    [
                        [
                            -0.3442969882139284,
                            -0.8963181891083338,
                            -0.6418038587934158
                        ],
                        [
                            -0.6224288411027958,
                            -0.11253196017527434,
                            -0.18507036875421545
                        ],
                        [
                            0.1586010164056344,
                            0.9011348002409223,
                            -0.9731889607026512
                        ]
                    ]
                ],
                [
                    [
                        [
                            -0.36520476787847156,
                            -0.2439422879467057,
                            -0.4527774885935729
                        ],
                        [
                            -0.5687106892761737,
                            0.3573125140660769,
                            0.5792164855660649
                        ],
                        [
                            0.8144562086301612,
                            0.4240510670129871,
                            0.6533932488346348
                        ]
                    ],
                    [
                        [
                            0.3489418716534405,
                            0.1191989893870371,
                            0.8342386679928426
                        ],
                        [
                            -0.9217398033298951,
                            -0.11104321818188456,
                            -0.6148043794711171
                        ],
                        [
                            -0.017214666574766113,
                            -0.005674013789522592,
                            0.1305724332177014
                        ]
                    ],
                    [
                        [
                            -0.4056628755930347,
                            0.7240124322152837,
                            0.16823344128487894
                        ],
                        [
                            -0.699366141654777,
                            0.6938340630428927,
                            -0.31266095838111885
                        ],
                        [
                            0.5331344138820993,
                            -0.9820725393545926,
                            -0.29336675646902943
                        ]
                    ],
                    [
                        [
                            -0.820850901987187,
                            -0.15575261832393594,
                            -0.239990220531084
                        ],
                        [
                            -0.35850486926993574,
                            -0.7193379679149512,
                            -0.8658340513048706
                        ],
                        [
                            -0.510474162679994,
                            -0.5942047435991016,
                            -0.8896143228567004
                        ]
                    ],
                    [
                        [
                            -0.7087333701233718,
                            0.018556868253352787,
                            0.8863403602522797
                        ],
                        [
                            0.6336240433911244,
                            0.27122906187121965,
                            -0.21944080285411127
                        ],
                        [
                            0.5666280388431477,
                            -0.24238612869856402,
                            -0.03919529508150421
                        ]
                    ],
                    [
                        [
                            -0.27833305373504524,
                            -0.4672048405649909,
                            0.33394328354006064
                        ],
                        [
                            0.03009617813658849,
                            -0.5819817203827888,
                            -0.6231869301683941
                        ],
                        [
                            -0.2588917413833911,
                            -0.9751888831639819,
                            -0.624271997138403
                        ]
                    ],
                    [
                        [
                            -0.20835307941571624,
                            -0.3448094185619719,
                            -0.35812314187763006
                        ],
                        [
                            0.40033900521443866,
                            0.7525134072343596,
                            -0.9965880734332746
                        ],
                        [
                            -0.3883878410812478,
                            0.26478296913766264,
                            -0.5854258331258
                        ]
                    ],
                    [
                        [
                            -0.4038308644634345,
                            0.07283887890904284,
                            0.23293531456918437
                        ],
                        [
                            0.2641267899015376,
                            -0.3218373855802066,
                            -0.7155894849375148
                        ],
                        [
                            -0.5132604925548294,
                            -0.6943027910677431,
                            -0.8893092505487554
                        ]
                    ]
                ],
                [
                    [
                        [
                            0.7639250072938699,
                            -0.07912062163273337,
                            -0.9165447518274317
                        ],
                        [
                            0.8978615177117453,
                            0.8872422443163299,
                            0.9273944748644345
                        ],
                        [
                            -0.2472488646127069,
                            0.4675634709765515,
                            0.723710121819324
                        ]
                    ],
                    [
                        [
                            -0.5801704594132611,
                            0.006255788153144426,
                            0.31326471622203855
                        ],
                        [
                            -0.9705149094614274,
                            -0.48386055854743426,
                            0.8283700970951324
                        ],
                        [
                            -0.7481641639225247,
                            0.42074882400014113,
                            -0.6574597511567841
                        ]
                    ],
                    [
                        [
                            0.47453969198470625,
                            -0.833910237357766,
                            0.07742807183892508
                        ],
                        [
                            -0.8526889817198489,
                            -0.07085871360292395,
                            0.9875153722757553
                        ],
                        [
                            -0.5201302665296004,
                            -0.842689762529043,
                            -0.16986945480446236
                        ]
                    ],
                    [
                        [
                            -0.7394518394202398,
                            0.27862588398558796,
                            -0.4557256885130221
                        ],
                        [
                            -0.5107044628575597,
                            -0.5237164633031095,
                            -0.3361011001691867
                        ],
                        [
                            -0.00722575824363747,
                            0.6053978592113824,
                            -0.6821356477657439
                        ]
                    ],
                    [
                        [
                            0.2483601221035423,
                            0.7729001490172003,
                            0.715194230355837
                        ],
                        [
                            0.4931237670318156,
                            -0.8366651222386932,
                            0.315586683258392
                        ],
                        [
                            -0.6360204548268447,
                            -0.6284838765670677,
                            -0.8914864418089954
                        ]
                    ],
                    [
                        [
                            -0.9344302504743209,
                            0.8542480127716134,
                            0.428416769196285
                        ],
                        [
                            -0.5160118548075783,
                            -0.1254719593567013,
                            -0.2507842018886379
                        ],
                        [
                            0.3244212519312324,
                            0.8177980323092082,
                            0.7012856093545285
                        ]
                    ],
                    [
                        [
                            0.973795402369815,
                            -0.71580865571144,
                            -0.56363507833518
                        ],
                        [
                            0.42224830994430906,
                            -0.5350247988271155,
                            -0.7260123505733242
                        ],
                        [
                            -0.36197439682637156,
                            -0.7462768547831855,
                            -0.7926664662242155
                        ]
                    ],
                    [
                        [
                            -0.9194825767437924,
                            0.4911360771448319,
                            -0.20102302575468767
                        ],
                        [
                            0.2657974346294396,
                            0.3294886309648075,
                            0.5832734337838912
                        ],
                        [
                            -0.6496505735749158,
                            0.014336589192293303,
                            0.8451990432365133
                        ]
                    ]
                ],
                [
                    [
                        [
                            0.9242456572994018,
                            -0.3747940670872183,
                            0.8457591332537537
                        ],
                        [
                            0.744614352717444,
                            -0.2744326379220985,
                            0.3471561156599461
                        ],
                        [
                            -0.7388762055528968,
                            0.9938047779545494,
                            -0.04540669549077325
                        ]
                    ],
                    [
                        [
                            -0.5740488904895098,
                            0.8690812386556035,
                            -0.99548527360465
                        ],
                        [
                            0.095172828314398,
                            0.5730282622899394,
                            0.951168818917848
                        ],
                        [
                            -0.4214439876255245,
                            -0.6684285431175034,
                            0.9245124530109796
                        ]
                    ],
                    [
                        [
                            -0.9232354601766368,
                            0.3496022266192671,
                            0.1555214758377219
                        ],
                        [
                            -0.8212574105764567,
                            0.9810346743762193,
                            -0.9754298956252183
                        ],
                        [
                            0.8614821580014373,
                            0.4237707276120868,
                            0.612113948639535
                        ]
                    ],
                    [
                        [
                            -0.08037246938692477,
                            -0.9129608366983217,
                            -0.4133360368861454
                        ],
                        [
                            -0.013740885162158545,
                            0.678873945068901,
                            0.495585873434901
                        ],
                        [
                            -0.2100253784097701,
                            -0.24055857954649573,
                            -0.3395803810473168
                        ]
                    ],
                    [
                        [
                            -0.683204854336523,
                            0.0226151601099418,
                            0.3455213667581116
                        ],
                        [
                            0.875866198876891,
                            -0.19362573786873782,
                            -0.539283572509389
                        ],
                        [
                            -0.6414596806655106,
                            0.8390563643188136,
                            0.7568118133142274
                        ]
                    ],
                    [
                        [
                            0.49190665098490194,
                            -0.9766862504534457,
                            0.8879954546490101
                        ],
                        [
                            -0.5816407403297725,
                            0.8701699694746714,
                            0.5751354315282162
                        ],
                        [
                            0.5687659970751542,
                            -0.6748470820091159,
                            -0.12363119543533041
                        ]
                    ],
                    [
                        [
                            -0.11533620494413666,
                            0.7447175775384975,
                            0.5231367297605478
                        ],
                        [
                            0.13119739340891678,
                            0.4023637681697265,
                            -0.20133268807374494
                        ],
                        [
                            0.12291775748140643,
                            0.5813291053038399,
                            0.4042894624008968
                        ]
                    ],
                    [
                        [
                            -0.4340436224018491,
                            -0.5240292260201549,
                            -0.8099398436634255
                        ],
                        [
                            -0.9886250704270312,
                            -0.15799977374976404,
                            0.1348234574277256
                        ],
                        [
                            -0.9071886781536656,
                            -0.9289777077943735,
                            -0.09205306497625743
                        ]
                    ]
                ],
                [
                    [
                        [
                            -0.7160550188472716,
                            -0.5483042918976662,
                            -0.49351898967453045
                        ],
                        [
                            0.6288114775223019,
                            -0.5209099175056693,
                            0.33416644086390956
                        ],
                        [
                            -0.9421438206613126,
                            -0.5928452996570144,
                            0.8091004943568063
                        ]
                    ],
                    [
                        [
                            0.04247178639188798,
                            -0.41435751963940604,
                            -0.3072841203584207
                        ],
                        [
                            -0.13753318352857113,
                            -0.37628002358785473,
                            0.9692337425801609
                        ],
                        [
                            -0.06761675076674623,
                            0.12903161368507,
                            -0.004636347125205109
                        ]
                    ],
                    [
                        [
                            0.34780643983383497,
                            0.868742506098817,
                            0.491760937868734
                        ],
                        [
                            -0.688174122230995,
                            -0.2905934880771135,
                            -0.10619512608891535
                        ],
                        [
                            0.8786832341694699,
                            -0.8935989627824434,
                            0.5215989683110331
                        ]
                    ],
                    [
                        [
                            -0.1218442730163174,
                            0.7469552503913353,
                            0.745235819948838
                        ],
                        [
                            0.1480507641928528,
                            0.014292524531882789,
                            -0.7289854831442633
                        ],
                        [
                            0.32737333921247846,
                            0.6966101464216685,
                            0.9159716586880036
                        ]
                    ],
                    [
                        [
                            -0.46839545059441123,
                            0.15560152405066585,
                            0.26884111652717047
                        ],
                        [
                            -0.07415007188373068,
                            -0.00032993862224151016,
                            -0.7914735723238269
                        ],
                        [
                            -0.6856873124190666,
                            0.1338459721559242,
                            -0.2778736168064537
                        ]
                    ],
                    [
                        [
                            0.03323087239050526,
                            0.7122668781384951,
                            -0.6271647156038411
                        ],
                        [
                            0.38542539594888936,
                            0.29397500513349106,
                            -0.6005317889662098
                        ],
                        [
                            -0.6283743407968978,
                            -0.17566446038393302,
                            0.47015733824951145
                        ]
                    ],
                    [
                        [
                            0.6686394886480564,
                            -0.36756889555012506,
                            0.12108886324199486
                        ],
                        [
                            0.9683573982081777,
                            0.23230897201754486,
                            0.5424881550182108
                        ],
                        [
                            0.7676528194722916,
                            0.5945737484091866,
                            -0.675988768978792
                        ]
                    ],
                    [
                        [
                            -0.1858964901107889,
                            -0.5972156716041201,
                            -0.5331935469806384
                        ],
                        [
                            -0.907390672057149,
                            -0.7629886507526507,
                            -0.8637053556861503
                        ],
                        [
                            0.08027219709964983,
                            -0.5181561945237052,
                            -0.8427752223467246
                        ]
                    ]
                ],
                [
                    [
                        [
                            0.6131126881392992,
                            -0.8634391430934967,
                            0.8911034154629451
                        ],
                        [
                            -0.08827658543437034,
                            -0.24042331289083285,
                            -0.33307164069458306
                        ],
                        [
                            0.5181862629084346,
                            -0.7043582561824961,
                            0.3380630979096837
                        ]
                    ],
                    [
                        [
                            -0.273583789198544,
                            -0.07099225283445931,
                            -0.8030141470303094
                        ],
                        [
                            0.9677501910074542,
                            0.0481712527839091,
                            -0.17350631686768114
                        ],
                        [
                            0.8049420915103513,
                            0.8992294506907119,
                            0.8947824892206642
                        ]
                    ],
                    [
                        [
                            -0.736811769165683,
                            0.027942638000990394,
                            -0.824554015399775
                        ],
                        [
                            -0.39591568511006714,
                            -0.558727300372788,
                            0.2278091299467755
                        ],
                        [
                            0.884002739626172,
                            -0.6086232636556199,
                            0.08284277412379959
                        ]
                    ],
                    [
                        [
                            0.36159831568626366,
                            0.025641395796261124,
                            0.570530703037222
                        ],
                        [
                            -0.41693779577824097,
                            -0.1565159907941891,
                            0.833070938712323
                        ],
                        [
                            -0.6747718892889765,
                            0.8146845149607362,
                            -0.4559308597455638
                        ]
                    ],
                    [
                        [
                            -0.5631595720870866,
                            0.4963925228736301,
                            -0.7131999464032612
                        ],
                        [
                            0.4694927337402659,
                            -0.8269082282934304,
                            -0.4131808360677809
                        ],
                        [
                            -0.7007355327618174,
                            -0.15580748627559693,
                            0.37265596725495076
                        ]
                    ],
                    [
                        [
                            0.9502952503943274,
                            -0.3204534480418042,
                            0.49692926109906876
                        ],
                        [
                            -0.343472474917643,
                            -0.5010968741902759,
                            -0.25204590019405404
                        ],
                        [
                            0.7179013080544248,
                            -0.4724665662358849,
                            0.5722094557069393
                        ]
                    ],
                    [
                        [
                            -0.730760084284142,
                            0.18897883394551074,
                            0.6058538743710427
                        ],
                        [
                            -0.8488481144578996,
                            -0.2935079666049545,
                            0.7797329127262949
                        ],
                        [
                            -0.3345712673781214,
                            0.5413752433444838,
                            -0.9589662999122002
                        ]
                    ],
                    [
                        [
                            -0.47926133741560784,
                            0.450214870359372,
                            -0.674128110992976
                        ],
                        [
                            0.5077490726284113,
                            0.8977013781223044,
                            -0.61945413339785
                        ],
                        [
                            -0.685824862170525,
                            0.3421746373585164,
                            0.1983995324078558
                        ]
                    ]
                ],
                [
                    [
                        [
                            -0.9298149964168871,
                            -0.08040057536284184,
                            -0.3757094856854861
                        ],
                        [
                            0.3090679992884011,
                            -0.8038115333392211,
                            -0.6009996017271668
                        ],
                        [
                            0.13596475164143373,
                            -0.22732731412688634,
                            -0.8434891634084423
                        ]
                    ],
                    [
                        [
                            -0.14380018427701824,
                            -0.477305804251863,
                            0.7483890826137054
                        ],
                        [
                            0.5256641076254933,
                            -0.4926165346683795,
                            0.012053268069908363
                        ],
                        [
                            -0.2753969430294134,
                            0.4834200532494701,
                            0.6280528989057605
                        ]
                    ],
                    [
                        [
                            -0.43523440698404636,
                            -0.020369241189367004,
                            0.7335479062422738
                        ],
                        [
                            0.208676513161415,
                            -0.7761583011275646,
                            0.9532092991117749
                        ],
                        [
                            0.8451723409975069,
                            -0.37635593158509284,
                            0.9862359171780861
                        ]
                    ],
                    [
                        [
                            -0.5327436549599387,
                            0.8013057259271494,
                            0.3670398174669176
                        ],
                        [
                            0.8415419532776822,
                            -0.30659539594741525,
                            -0.8198477951018119
                        ],
                        [
                            0.5824379264855568,
                            0.44137870154627135,
                            0.78143122288392
                        ]
                    ],
                    [
                        [
                            -0.3129873099470548,
                            -0.1751832660616024,
                            -0.11639287582750724
                        ],
                        [
                            -0.4211294585697767,
                            0.44959917438733576,
                            -0.6262811253624712
                        ],
                        [
                            0.03887673437702732,
                            0.6708174849983006,
                            0.6030988886286865
                        ]
                    ],
                    [
                        [
                            0.03473835462873698,
                            -0.5305286380191181,
                            -0.27416980162234883
                        ],
                        [
                            -0.6740547193425828,
                            0.267314681801333,
                            0.7378575229645381
                        ],
                        [
                            0.9639906716349922,
                            -0.7905620708660577,
                            0.8180415880288099
                        ]
                    ],
                    [
                        [
                            0.3259956950098961,
                            -0.08045692296947404,
                            0.4720650214589752
                        ],
                        [
                            0.05460422489253025,
                            -0.9199824348490111,
                            0.9759644319471548
                        ],
                        [
                            0.6174820126103842,
                            -0.3096744709872812,
                            0.8764884373663171
                        ]
                    ],
                    [
                        [
                            -0.2987505160967592,
                            0.5338785985478454,
                            0.23718532211494714
                        ],
                        [
                            -0.30327151077735426,
                            0.33961634477200286,
                            0.8763363971767022
                        ],
                        [
                            -0.4750334705216024,
                            0.6638492999366694,
                            -0.4370685314550298
                        ]
                    ]
                ],
                [
                    [
                        [
                            0.6168470332166487,
                            0.23192955609148824,
                            0.7672691359302015
                        ],
                        [
                            -0.9730214321191961,
                            -0.8981843805276926,
                            -0.1522443786315788
                        ],
                        [
                            -0.5224427876509723,
                            -0.8848367026910477,
                            0.7968831749086902
                        ]
                    ],
                    [
                        [
                            0.282308486520803,
                            -0.5952000298538789,
                            0.8799969632705307
                        ],
                        [
                            0.6546359275636227,
                            -0.9183180167720679,
                            0.7211489606663795
                        ],
                        [
                            -0.718362035518326,
                            0.04016133238005404,
                            0.5909707078437243
                        ]
                    ],
                    [
                        [
                            0.2446462642927596,
                            0.43839217100582095,
                            0.07482407005535263
                        ],
                        [
                            -0.45023993777608906,
                            0.7073550247409159,
                            -0.49390111351949395
                        ],
                        [
                            -0.933619440807272,
                            0.29026057335174427,
                            0.016933245439025857
                        ]
                    ],
                    [
                        [
                            -0.6992661339589601,
                            -0.6695858374348964,
                            0.1269516196912175
                        ],
                        [
                            -0.21431107106601055,
                            -0.12993936300469988,
                            0.839322327904034
                        ],
                        [
                            0.5750590560029125,
                            -0.04168955991827317,
                            0.18829307859243993
                        ]
                    ],
                    [
                        [
                            -0.5654462546531256,
                            0.6268134059219663,
                            -0.6943875190530493
                        ],
                        [
                            0.7731717043404274,
                            -0.5931280216001689,
                            0.45519576219821367
                        ],
                        [
                            0.1360614649049685,
                            -0.16145921696239696,
                            -0.8332730571280507
                        ]
                    ],
                    [
                        [
                            0.09726841140905051,
                            -0.6920188076556086,
                            -0.8957034134222173
                        ],
                        [
                            0.6481506814576503,
                            0.3229110675782578,
                            -0.9062150487181209
                        ],
                        [
                            -0.27011596869787224,
                            -0.33888608679900534,
                            -0.9644799029590663
                        ]
                    ],
                    [
                        [
                            0.9459783251763023,
                            0.7672626353870406,
                            0.8131511962023934
                        ],
                        [
                            -0.3381264833041704,
                            0.48006839282069835,
                            -0.10673015387594909
                        ],
                        [
                            0.7332567011241562,
                            0.8153977799061163,
                            -0.1197892829397531
                        ]
                    ],
                    [
                        [
                            -0.6580708281706733,
                            -0.5502607043146832,
                            -0.9279623894725839
                        ],
                        [
                            0.6740254785914932,
                            0.14833653847741113,
                            0.527963383164167
                        ],
                        [
                            -0.18271240578596415,
                            0.8147994766846927,
                            -0.47519653606944123
                        ]
                    ]
                ],
                [
                    [
                        [
                            0.34270749008575585,
                            0.3552679458069319,
                            -0.6219086681355461
                        ],
                        [
                            0.8458277744847509,
                            0.5516893449760691,
                            0.4272468784403938
                        ],
                        [
                            -0.14320877234581086,
                            0.4265817171833022,
                            0.887922423804753
                        ]
                    ],
                    [
                        [
                            0.24080977219237498,
                            0.6136128458900589,
                            0.6998500641993239
                        ],
                        [
                            -0.44056653772061405,
                            -0.938966852902926,
                            0.08000709294108521
                        ],
                        [
                            -0.24214907474598513,
                            -0.45199807886680476,
                            -0.0182557363867617
                        ]
                    ],
                    [
                        [
                            0.647480559997009,
                            0.24780723832221252,
                            -0.16612827422225185
                        ],
                        [
                            0.44438054779760106,
                            0.11441806841341973,
                            -0.7112983462809712
                        ],
                        [
                            -0.563541989945826,
                            -0.3863170886623575,
                            -0.5071527183894828
                        ]
                    ],
                    [
                        [
                            -0.4631097219953413,
                            0.3931312362170023,
                            -0.11281345155339251
                        ],
                        [
                            -0.9150517850269986,
                            -0.9042930519137313,
                            0.5140463930446268
                        ],
                        [
                            -0.9897454665184979,
                            0.5069966935581662,
                            -0.05363653832258586
                        ]
                    ],
                    [
                        [
                            -0.20715021462957606,
                            0.7409307578027342,
                            -0.9417287753439982
                        ],
                        [
                            0.8025898576603638,
                            0.10268513597836781,
                            0.19319329673551433
                        ],
                        [
                            -0.14912151974794785,
                            0.5713917411928553,
                            -0.9347512496304053
                        ]
                    ],
                    [
                        [
                            -0.7149434139346165,
                            -0.6680374884178346,
                            -0.6874515124657943
                        ],
                        [
                            -0.1341799243451236,
                            0.24950148845639375,
                            -0.1949705096883021
                        ],
                        [
                            0.460025105177025,
                            0.48661047588772677,
                            0.7696925510071577
                        ]
                    ],
                    [
                        [
                            0.4170218443081042,
                            0.23850236527229152,
                            0.988520590668035
                        ],
                        [
                            -0.5736608240931658,
                            0.30906379517445504,
                            -0.7097705363623317
                        ],
                        [
                            0.6905503883423616,
                            0.550260017014468,
                            0.4609047452663413
                        ]
                    ],
                    [
                        [
                            -0.4704759413081181,
                            0.8065009780753887,
                            -0.7607211843994732
                        ],
                        [
                            -0.2809419347124258,
                            0.9189001091819087,
                            0.9068885722084559
                        ],
                        [
                            0.41604437474741074,
                            0.5585526769352205,
                            0.3352281678190401
                        ]
                    ]
                ],
                [
                    [
                        [
                            0.8860218321632123,
                            0.430939011348499,
                            -0.856902174519937
                        ],
                        [
                            -0.6966423896299789,
                            -0.9779005177305795,
                            -0.3683984807514664
                        ],
                        [
                            -0.24558943551653245,
                            0.1056257309208588,
                            -0.11624041561803633
                        ]
                    ],
                    [
                        [
                            0.7176209193512257,
                            0.25279126008996733,
                            0.015825422268449962
                        ],
                        [
                            0.6512276385439297,
                            0.5603968135042943,
                            -0.8253684803622394
                        ],
                        [
                            0.9717729278601237,
                            0.08852726248999221,
                            0.7018145090900627
                        ]
                    ],
                    [
                        [
                            -0.4698774061187143,
                            -0.20016167950548702,
                            -0.9934503547066771
                        ],
                        [
                            0.9589165817828076,
                            -0.5925377150888176,
                            0.7266160746406591
                        ],
                        [
                            0.8424551591120437,
                            0.8310040845729243,
                            -0.27457238247967997
                        ]
                    ],
                    [
                        [
                            -0.7130615608277038,
                            -0.5384240884927949,
                            -0.697128679957554
                        ],
                        [
                            -0.8140036897688516,
                            0.13870172277542903,
                            -0.0874244810973619
                        ],
                        [
                            0.854845755898352,
                            -0.25531933429797116,
                            0.2997485364747112
                        ]
                    ],
                    [
                        [
                            -0.2626521246760145,
                            -0.007023023314445043,
                            0.43952096194609935
                        ],
                        [
                            0.30041281416238164,
                            -0.20732549396558442,
                            -0.6531290430296022
                        ],
                        [
                            -0.17317900414860588,
                            -0.0009444443830994853,
                            -0.07930061323163007
                        ]
                    ],
                    [
                        [
                            0.8796635603322038,
                            0.46084798665873294,
                            -0.7926183139254739
                        ],
                        [
                            -0.10949343894019803,
                            -0.5958075917437129,
                            0.12019614660338251
                        ],
                        [
                            0.30197682890563504,
                            0.9614868164273762,
                            -0.3749235705902938
                        ]
                    ],
                    [
                        [
                            0.14690452816979072,
                            0.22608514032259208,
                            -0.9507684916283052
                        ],
                        [
                            0.19198502550322072,
                            0.48045979655777016,
                            -0.18905599600555867
                        ],
                        [
                            -0.79502158886149,
                            0.39060379800950784,
                            0.16843968909256302
                        ]
                    ],
                    [
                        [
                            -0.9403288404013346,
                            -0.5599107182058947,
                            0.5616805127268643
                        ],
                        [
                            0.5620776698776477,
                            -0.6502612872523839,
                            0.04039250495694535
                        ],
                        [
                            0.8231382356853796,
                            0.22596294610608014,
                            -0.9652261879808839
                        ]
                    ]
                ],
                [
                    [
                        [
                            -0.30319097869675304,
                            0.4974481389312524,
                            0.2131390205590562
                        ],
                        [
                            -0.347561008033364,
                            -0.4100905834758457,
                            0.7691259359389697
                        ],
                        [
                            0.7083128626155244,
                            0.5672019506995212,
                            0.38770545292829794
                        ]
                    ],
                    [
                        [
                            0.7382161153727504,
                            -0.9274786665562378,
                            -0.7683645172698272
                        ],
                        [
                            -0.0231338232510665,
                            0.5551013644073113,
                            0.3111300582828125
                        ],
                        [
                            -0.08745934851325754,
                            -0.5894586822857413,
                            0.013435325978103041
                        ]
                    ],
                    [
                        [
                            0.839249288190461,
                            -0.2830343349064355,
                            -0.10711904163380459
                        ],
                        [
                            0.9443506387466687,
                            0.007751931395104883,
                            -0.8818441444479936
                        ],
                        [
                            0.5291626187555925,
                            -0.18841664998335794,
                            -0.0720946881867337
                        ]
                    ],
                    [
                        [
                            -0.7512221549004898,
                            -0.01886872983967014,
                            -0.3686505784700691
                        ],
                        [
                            0.14163127754335214,
                            0.03154193883761636,
                            -0.8257884482420654
                        ],
                        [
                            -0.5866547286874422,
                            0.18188581304760487,
                            0.9725825061283015
                        ]
                    ],
                    [
                        [
                            0.2742395248589451,
                            0.6804176804679396,
                            0.5262387067626062
                        ],
                        [
                            0.46697606090358557,
                            -0.1992344382468343,
                            0.5451192582557427
                        ],
                        [
                            0.21663715324619393,
                            -0.3638849863822351,
                            -0.4572533184377705
                        ]
                    ],
                    [
                        [
                            0.6219283262273989,
                            0.5663366580318785,
                            -0.5255312051631598
                        ],
                        [
                            0.061652374110558794,
                            -0.9504553418682691,
                            0.1573186779016127
                        ],
                        [
                            -0.914355055437889,
                            -0.36586755382948466,
                            -0.3023750414904465
                        ]
                    ],
                    [
                        [
                            -0.04176730714898813,
                            -0.736476575130018,
                            0.9388090411428476
                        ],
                        [
                            0.49978602804809946,
                            -0.5772209784496396,
                            0.6104981373536396
                        ],
                        [
                            -0.43279608819211934,
                            -0.28949286093208926,
                            -0.32674791057862373
                        ]
                    ],
                    [
                        [
                            -0.4996900882745541,
                            -0.7032877432934448,
                            0.8785759140286276
                        ],
                        [
                            -0.6963624281312808,
                            -0.3346427152569693,
                            0.8112706843132866
                        ],
                        [
                            -0.7573692300848069,
                            -0.2697277612939455,
                            -0.7472718855629699
                        ]
                    ]
                ],
                [
                    [
                        [
                            -0.38116476222550255,
                            -0.19748479529708463,
                            -0.5479236198556896
                        ],
                        [
                            0.05424941226513913,
                            0.8667306543356552,
                            -0.8905940205471208
                        ],
                        [
                            0.4617327809809175,
                            -0.621227553268189,
                            -0.13156921489727247
                        ]
                    ],
                    [
                        [
                            0.46427899158942965,
                            -0.8016816763264378,
                            -0.9174753225554155
                        ],
                        [
                            0.5435760887308625,
                            0.2058614617591592,
                            0.6703485568057093
                        ],
                        [
                            0.16795569812818223,
                            -0.48394996577102023,
                            0.7882945025182846
                        ]
                    ],
                    [
                        [
                            -0.15729714063509048,
                            -0.42224206038021217,
                            -0.8907011808623715
                        ],
                        [
                            0.9800478462460234,
                            -0.10483259972244241,
                            -0.38979984157259695
                        ],
                        [
                            -0.05464909421810016,
                            0.23725616111753145,
                            -0.04838050909870306
                        ]
                    ],
                    [
                        [
                            -0.5940905946494193,
                            -0.7710728184657403,
                            -0.8411993033334244
                        ],
                        [
                            -0.4311743309473117,
                            -0.36176489114584687,
                            -0.6259886163538737
                        ],
                        [
                            -0.9191087226588657,
                            -0.5894577234581266,
                            -0.1392517324428526
                        ]
                    ],
                    [
                        [
                            -0.15565838014361733,
                            -0.8267140401415485,
                            0.42648201649247386
                        ],
                        [
                            0.08463701896051457,
                            0.4583909385286489,
                            0.2472630401704614
                        ],
                        [
                            0.8561152501895273,
                            0.012007790913399763,
                            -0.03332428075320415
                        ]
                    ],
                    [
                        [
                            -0.1321926454510527,
                            -0.028397908046369436,
                            0.8679298132959619
                        ],
                        [
                            0.8658655411009428,
                            0.8474186576484453,
                            0.6009368059943743
                        ],
                        [
                            0.40690946239347126,
                            -0.5687625642727625,
                            0.9043433481442473
                        ]
                    ],
                    [
                        [
                            0.3397821278575486,
                            0.4246199023927697,
                            -0.31173699789491405
                        ],
                        [
                            0.18035190059950046,
                            -0.6146933252318294,
                            0.8680547708363306
                        ],
                        [
                            -0.4758320021952478,
                            -0.5466356708209013,
                            -0.9776722844287384
                        ]
                    ],
                    [
                        [
                            -0.9144576429205569,
                            0.20824673526619297,
                            0.37511847476923066
                        ],
                        [
                            -0.7000532120430021,
                            0.23364556133119097,
                            -0.13265641952941332
                        ],
                        [
                            -0.7122298137174818,
                            -0.741951699642869,
                            0.4298546879401577
                        ]
                    ]
                ],
                [
                    [
                        [
                            0.2730543542957269,
                            -0.4290267807652903,
                            -0.08413035699090621
                        ],
                        [
                            0.29767387110505017,
                            -0.8254846106378635,
                            0.4423621017013053
                        ],
                        [
                            -0.12749619556059488,
                            -0.40283098082193236,
                            0.5358084993238352
                        ]
                    ],
                    [
                        [
                            0.058753518757198586,
                            -0.989591231215835,
                            -0.251489821061214
                        ],
                        [
                            0.2512438770475809,
                            0.24194985401919222,
                            -0.02360666203386863
                        ],
