{
    "cnn_layers": [
        {
            "type": "conv",
            "filters": 8,
            "kernel_height": 1,
            "kernel_width": 1,
            "activation": "tanh",
            "weights": [
                [
                    [
                        [
                            0.992980838382783
                        ]
                    ]
                ],
                [
                    [
                        [
                            0.8681462390403227
                        ]
                    ]
                ],
                [
                    [
                        [
                            -0.5540132587404549
                        ]
                    ]
                ],
                [
                    [
                        [
                            0.9243045730415005
                        ]
                    ]
                ],
                [
                    [
                        [
                            0.6302685037514992
                        ]
                    ]
                ],
                [
                    [
                        [
                            0.0848174644199875
                        ]
                    ]
                ],
                [
                    [
                        [
                            0.31428545600909685
                        ]
                    ]
                ],
                [
                    [
                        [
                            0.2919353959828874
                        ]
                    ]
                ]
            ],
            "biases": [
                0.1360885574759363,
                -0.4032016783632262,
                0.8366247569836218,
                0.8610110559938908,
                -0.912242607935186,
                -0.16863496991078097,
                -0.38683693886043913,
                0.7773732036746406
            ]
        },
        {
            "type": "conv",
            "filters": 2,
            "kernel_height": 3,
            "kernel_width": 3,
            "activation": "relu",
            "weights": [
                [
                    [
                        [
                            -0.39547705671417654,
                            -0.8446070433804169,
                            0.7919015934405369
                        ],
                        [
                            -0.8783391114551953,
                            0.4789463174977724,
                            -0.662512912135667
                        ],
                        [
                            0.8508705485890324,
                            0.929868247403991,
                            0.18306652761804543
                        ]
                    ],
                    [
                        [
                            0.541698898704315,
                            0.9251491171003818,
                            -0.06707349007490881
                        ],
                        [
                            0.45562680232741437,
                            -0.9994485674436822,
                            -0.6766803972506399
                        ],
                        [
                            -0.9109209811193382,
                            -0.6854180823018297,
                            0.7765645491874296
                        ]
                    ],
                    [
                        [
                            -0.6031856037863621,
                            0.5090976965300675,
                            0.8962937834128406
                        ],
                        [
                            0.0261705340391869,
                            0.540901076373955,
                            0.7912201431226353
                        ],
                        [
                            0.7607616536817525,
                            -0.37936541320887374,
                            -0.09577377091331907
                        ]
                    ],
                    [
                        [
                            -0.7563066840272636,
                            -0.04937064910692657,
                            0.4785859432078008
                        ],
                        [
                            -0.706914701367797,
                            -0.7841964184639403,
                            -0.3231637162801322
                        ],
                        [
                            0.6006813990204851,
                            -0.9035352270202788,
                            -0.8807825707531283
                        ]
                    ],
                    [
                        [
                            -0.9014860987628461,
                            0.06937693714394588,
                            -0.8949111290157323
                        ],
                        [
                            0.2779862401306161,
                            0.8758532685280755,
                            0.45028762343042583
                        ],
                        [
                            0.20631977263085766,
                            -0.8984312305865836,
                            -0.8025409834758337
                        ]
                    ],
                    [
                        [
                            -0.28486002099875085,
                            -0.03913764988229862,
                            -0.5365251984066373
                        ],
                        [
                            -0.8366549892705695,
                            0.658016500163302,
                            0.3691041221600253
                        ],
                        [
                            -0.4887152288759078,
                            -0.6259768225096192,
                            -0.7450346871513442
                        ]
                    ],
                    [
                        [
                            -0.7704754209242666,
                            -0.04018583095735728,
                            -0.9521896657093694
                        ],
                        [
                            -0.5753540701255138,
                            -0.863207931759469,
                            0.10154690286324053
                        ],
                        [
                            0.14966839845315016,
                            0.8234281470025699,
                            -0.7730558127694991
                        ]
                    ],
                    [
                        [
                            -0.7490001974687881,
                            -0.13031592604637487,
                            0.5995174898705014
                        ],
                        [
                            -0.9541224937186559,
                            -0.8885691342143618,
                            0.923028913981824
                        ],
                        [
                            -0.27962319174945116,
                            -0.3248556534655236,
                            -0.35208131459167924
                        ]
                    ]
                ],
                [
                    [
                        [
                            -0.8255006985922231,
                            0.6349454760102269,
                            -0.8303524199972852
                        ],
                        [
                            0.5928454788774289,
                            -0.6822032898106416,
                            0.3396175656163487
                        ],
                        [
                            0.21328255374217364,
                            -0.6768431702183786,
                            -0.8156277401422753
                        ]
                    ],
                    [
                        [
                            0.25029732682996797,
                            0.2840130733877184,
                            0.6570114433521861
                        ],
                        [
                            0.1694824990934054,
                            0.8653134080133658,
                            0.970476972243419
                        ],
                        [
                            -0.41626790955393655,
                            -0.22587903684079635,
                            0.9044263408034883
                        ]
                    ],
                    [
                        [
                            -0.8108664863395805,
                            -0.9090382040108171,
                            0.2440756837712268
                        ],
                        [
                            0.09502644216234124,
                            -0.6952290062098523,
                            -0.6835995289585968
                        ],
                        [
                            -0.00999001553117207,
                            0.9529421090788024,
                            0.2368862941225891
                        ]
                    ],
                    [
                        [
                            -0.8965947040246196,
                            0.281651388527546,
                            -0.9839987704302486
                        ],
                        [
                            0.764894651104874,
                            0.08318846282086123,
                            0.2160366174280064
                        ],
                        [
                            0.8748450000336143,
                            -0.4036092990240312,
                            0.07529739617205333
                        ]
                    ],
                    [
                        [
                            0.6661652323443363,
                            -0.566703428993721,
                            0.9368863814277244
                        ],
                        [
                            -0.4015687054628996,
                            -0.6729561465518845,
                            -0.14027044619692464
                        ],
                        [
                            -0.7048701136051001,
                            0.5209338230608074,
                            0.3198892932800599
                        ]
                    ],
                    [
                        [
                            0.8640233348153601,
                            -0.10695467990366803,
                            -0.36274138485396135
                        ],
                        [
                            0.8347161240576526,
                            0.2209446926409422,
                            -0.4888330595194508
                        ],
                        [
                            0.663491157549071,
                            0.7607748605475781,
                            0.8669423914230943
                        ]
                    ],
                    [
                        [
                            -0.7406835544615251,
                            0.6069420476002474,
                            -0.9217272381080481
                        ],
                        [
                            -0.46305683671860565,
                            -0.21517617435651526,
                            -0.5507469990354152
                        ],
                        [
                            0.7767522477329245,
                            -0.30046139627208746,
                            -0.38266164344518305
                        ]
                    ],
                    [
                        [
                            0.9672624277850475,
                            -0.7494703237263893,
                            -0.07128596885457816
                        ],
                        [
                            0.4618454085962649,
                            -0.0281891611895988,
                            -0.13187421490721807
                        ],
                        [
                            0.057512688446636595,
                            0.03584288932153634,
                            0.9268825483658456
                        ]
                    ]
                ]
            ],
            "biases": [
                -0.8575267882045212,
                0.6989929277291338
            ]
        },
        {
            "type": "conv",
            "filters": 2,
            "kernel_height": 1,
            "kernel_width": 1,
            "activation": "tanh",
            "weights": [
                [
                    [
                        [
                            -0.7517055300453768
                        ]
                    ],
                    [
                        [
                            0.9704469194089782
                        ]
                    ]
                ],
                [
                    [
                        [
                            -0.8048312165353808
                        ]
                    ],
                    [
                        [
                            0.7699980795618508
                        ]
                    ]
                ]
            ],
            "biases": [
                -0.013699599465860857,
                0.9560616043516659
            ]
        },
        {
            "type": "pool",
            "size": 1,
            "stride": 1,
            "pool_type": "avg"
        },
        {
            "type": "pool",
            "size": 3,
            "stride": 1,
            "pool_type": "avg"
        },
        {
            "type": "pool",
            "size": 1,
            "stride": 2,
            "pool_type": "avg"
        }
    ],
    "ffn_layers": [
        {
            "neurons": 128,
            "activation": "relu",
            "weights": [
                [
                    0.975719290140002,
                    -0.3355355217649134,
                    0.4385988864238466,
                    -0.17119504161131505
                ],
                [
                    0.007988938176804572,
                    -0.3704677841544437,
                    -0.517206161494274,
                    0.8075691652896628
                ],
                [
                    0.03208583053012881,
                    0.6227720733313895,
                    0.9919976138122286,
                    0.45344563543451333
                ],
                [
                    -0.9944826109039524,
                    0.3472950713787182,
                    0.5731504286405651,
                    -0.17569565663840825
                ],
                [
                    0.052799835381444504,
                    -0.2711167414769904,
                    -0.9050546522000056,
                    0.7958993517058197
                ],
                [
                    -0.2775805008889196,
                    -0.2619386505489347,
                    0.48147969344841,
                    0.8231493620435106
                ],
                [
                    -0.9705779838209307,
                    0.9905818091290228,
                    -0.24445707065826627,
                    -0.35000513049070436
                ],
                [
                    -0.9886598423861923,
                    -0.6524759925711798,
                    -0.3705411501797278,
                    -0.7145732303315806
                ],
                [
                    -0.037820428834961284,
                    0.8100996024371432,
                    0.27381985328508507,
                    0.40464219294631354
                ],
                [
                    -0.8617014877080862,
                    -0.8556908076554146,
                    -0.24129595379139568,
                    0.6607194206349796
                ],
                [
                    0.5931581305709057,
                    -0.48659041679312853,
                    -0.9789177545382113,
                    0.09508678797801351
                ],
                [
                    0.16037777873893733,
                    -0.7938907324738513,
                    -0.7792785704247276,
                    0.09907486970993307
                ],
                [
                    -0.33579930564467686,
                    0.9971187411541462,
                    0.8080628473025888,
                    -0.43490436443918834
                ],
                [
                    -0.49652272361229755,
                    0.08440528880900144,
                    -0.9444406803028209,
                    -0.4297914966372278
                ],
                [
                    -0.4652201100158935,
                    0.4618076519525831,
                    0.5600779475767041,
                    -0.9288759203103159
                ],
                [
                    0.3597547612876526,
                    -0.9959877385206835,
                    -0.34095370936527525,
                    0.9748581063497439
                ],
                [
                    0.3367042227644603,
                    -0.5045030341005681,
                    -0.3224121572822156,
                    -0.6332169319135079
                ],
                [
                    -0.3883005686126122,
                    -0.7293738925395348,
                    0.2871999419371629,
                    -0.9922960101670466
                ],
                [
                    0.010304299247370974,
                    0.686733730880132,
                    -0.06632433848892205,
                    0.06348171149749171
                ],
                [
                    0.14656467571554144,
                    0.7822602438399582,
                    0.07314650937185774,
                    0.5112037706615309
                ],
                [
                    0.2258922618226884,
                    0.31494462754227115,
                    -0.15773287395205204,
                    0.16671112699202006
                ],
                [
                    -0.9303341316656522,
                    0.1589003320635356,
                    0.8644562030204175,
                    -0.8673205357647553
                ],
                [
                    -0.9587447098849877,
                    0.21311779657087593,
                    0.31738696277329503,
                    0.732411605153213
                ],
                [
                    -0.01567030367063027,
                    -0.9465868865930154,
                    -0.186846333319183,
                    0.8240474492278222
                ],
                [
                    -0.6791759640763206,
                    0.9908049738287636,
                    -0.6410624694496843,
                    -0.9716085510947043
                ],
                [
                    0.9790487898619409,
                    0.6881472517061977,
                    -0.9014348136230743,
                    -0.055296707260899636
                ],
                [
                    0.6033519761437818,
                    0.38802932355916897,
                    -0.6314685724962288,
                    0.8334720217818226
                ],
                [
                    -0.3929198594099277,
                    0.9515516241190327,
                    -0.5473808705002632,
                    -0.7846810082797058
                ],
                [
                    0.10396467061701564,
                    0.9506992718727207,
                    -0.2642743995763812,
                    -0.9242806380877571
                ],
                [
                    -0.6640707864433699,
                    0.904587205616916,
                    -0.611461067866848,
                    0.4322384487035844
                ],
                [
                    0.7266163371989525,
                    0.8206318811378785,
                    -0.49210185261694894,
                    0.3860468595526041
                ],
                [
                    -0.6150203247965458,
                    -0.03235701085405074,
                    -0.6723351673292199,
                    -0.039856825982512056
                ],
                [
                    0.8135387012163027,
                    0.28666207559468204,
                    -0.5310506730499471,
                    0.22485562384820224
                ],
                [
                    0.9906960698003353,
                    0.8745090959328727,
                    -0.923113642723014,
                    -0.5490772535970154
                ],
                [
                    0.3899008180151906,
                    0.6907192715643049,
                    -0.16234562981580192,
                    -0.10003518914542342
                ],
                [
                    0.7195468887952148,
                    0.07504634763910945,
                    0.26866224070921296,
                    0.09111863952509469
                ],
                [
                    0.31582771922493547,
                    0.23166074474969522,
                    0.7921752431072842,
                    0.04000414375141048
                ],
                [
                    0.19516476082862044,
                    0.30305776517321625,
                    -0.3373273321350607,
                    -0.42798589016666533
                ],
                [
                    -0.9295021783321442,
                    0.46156920933517775,
                    -0.9699119558128992,
                    0.38634852096926786
                ],
                [
                    -0.2877798804316867,
                    0.7282157285164963,
                    0.5098104887244697,
                    0.6816695331656335
                ],
                [
                    -0.35888464014547683,
                    0.13121056453239555,
                    -0.318682682260953,
                    0.9136000115390999
                ],
                [
                    -0.9545302644611913,
                    -0.7850433541712769,
                    -0.7786626053786287,
                    0.9517314540514756
                ],
                [
                    0.18306965091243543,
                    0.5632394155340612,
                    0.08865931992112897,
                    -0.72999717516623
                ],
                [
                    -0.3461462400473003,
                    0.05741804531141215,
                    -0.7102385827681563,
                    -0.33765630558573934
                ],
                [
                    0.33497563536719777,
                    -0.31315250079698354,
                    -0.016239893015365103,
                    -0.02440877602735947
                ],
                [
                    0.36085160660615645,
                    0.8577899278031609,
                    -0.5270043330937273,
                    0.1800497337588074
                ],
                [
                    0.05063167799438828,
                    0.15960673209564402,
                    0.5869591126325888,
                    -0.480943500021193
                ],
                [
                    -0.5202663235001812,
                    0.2697863048560274,
                    0.1626118630338489,
                    0.957517745106792
                ],
                [
                    -0.7616585446578601,
                    0.9856606671486703,
                    0.2900836572450336,
                    -0.11040371834022711
                ],
                [
                    0.07979837288580116,
                    0.07353874831283957,
                    0.7514187670519639,
                    0.7407597484055322
                ],
                [
                    -0.673362336762642,
                    -0.6582040077430347,
                    -0.7700507166630148,
                    -0.3674605098183663
                ],
                [
                    0.9737052434130737,
                    -0.16793971939746077,
                    0.4779691747284438,
                    0.725360946799666
                ],
                [
                    0.5115206131486174,
                    0.5796516369431342,
                    0.8584999760146508,
                    0.3739314968521048
                ],
                [
                    -0.8934779629046457,
                    0.26633496617709773,
                    -0.6058148623857749,
                    -0.7755400604883038
                ],
                [
                    -0.00017778453067895938,
                    0.2607421122017437,
                    0.4055163926710601,
                    -0.8487044412228362
                ],
                [
                    -0.2256905779962619,
                    -0.4239681425254458,
                    0.1157104690107924,
                    0.5961809319371956
                ],
                [
                    -0.15165718533148076,
                    0.23055471972832842,
                    -0.3719709770662405,
                    -0.17500312653951045
                ],
                [
                    -0.11376461786808023,
                    0.16934270369391857,
                    -0.0613446497432939,
                    -0.5649442782300758
                ],
                [
                    0.983143586836486,
                    0.327212942987134,
                    0.8459133331226123,
                    0.5506560664157971
                ],
                [
                    0.7380266183144291,
                    0.564009262250639,
                    -0.45524541312952405,
                    -0.09141783504408041
                ],
                [
                    -0.9450393158897825,
                    0.45419823818932525,
                    -0.8236366572236546,
                    -0.19790416324763993
                ],
                [
                    -0.4061706268965024,
                    0.5127556927770358,
                    -0.28948395867712495,
                    -0.22421923406432231
                ],
                [
                    0.9544930875494717,
                    -0.4397294349046832,
                    -0.8606385538662356,
                    0.07636615841638172
                ],
                [
                    -0.8881665359686475,
                    -0.15864709484820572,
                    0.780501456095251,
                    -0.2514752694983695
                ],
                [
                    0.4536936599882415,
                    -0.5026188219936867,
                    -0.011182872207349037,
                    0.33102187090578084
                ],
                [
                    -0.5329631935935686,
                    0.5487805728501871,
                    -0.47519361177569186,
                    0.9204331974992617
                ],
                [
                    -0.7690517417576217,
                    0.2631477319654396,
                    -0.9504776955289218,
                    0.10989246681738085
                ],
                [
                    -0.855902265001502,
                    -0.6196341136600247,
                    -0.03978795136176361,
                    0.8963019309110161
                ],
                [
                    -0.042528307964765144,
                    0.11835108400008054,
                    -0.4041560142704814,
                    -0.30456148199252864
                ],
                [
                    -0.6995503150612923,
                    0.3878140939118935,
                    0.18079165925193807,
                    -0.3151193775445893
                ],
                [
                    -0.31176555705109044,
                    -0.8705076078969582,
                    -0.7537589435868866,
                    0.03198906129848167
                ],
                [
                    -0.2753665838964432,
                    -0.7761244043517563,
                    0.6508041290062652,
                    0.9799406168853877
                ],
                [
                    0.7247987930327286,
                    -0.3984292778452867,
                    -0.380659303284663,
                    0.01375519429331784
                ],
                [
                    0.9069107346966769,
                    0.8702998901967436,
                    -0.492429124883071,
                    0.39545261671418364
                ],
                [
                    -0.07609421822898299,
                    0.9443446155755932,
                    0.3247706749895307,
                    0.31064075365664245
                ],
                [
                    0.5740077166442765,
                    -0.6398249461308676,
                    -0.5782977578974164,
                    -0.26810347590104633
                ],
                [
                    0.7432084014849563,
                    -0.920448345747279,
                    -0.11103876018168402,
                    -0.18536646467421392
                ],
                [
                    -0.8098750668475647,
                    -0.09716824543503844,
                    0.09972410220797112,
                    0.29183789119723813
                ],
                [
                    -0.610791801300155,
                    0.2181257829237524,
                    0.9928532594343016,
                    -0.6345127628423628
                ],
                [
                    0.2136693171888293,
                    0.7668854020168523,
                    -0.8793669494186382,
                    0.7726074699873242
                ],
                [
                    0.9712838015213368,
                    -0.8852435031960144,
                    -0.07653154052879096,
                    0.5345794691278665
                ],
                [
                    -0.8435850917033925,
                    -0.674709816842828,
                    0.8095327326116393,
                    0.9191715447615316
                ],
                [
                    0.37110617448203453,
                    -0.6025347115801973,
                    -0.7357766431801342,
                    -0.2389720849492094
                ],
                [
                    -0.8521092257751388,
                    -0.9543692187242769,
                    -0.9716494921083969,
                    0.18634976429956795
                ],
                [
                    0.8836537442020183,
                    -0.9934469346496713,
                    0.9250810790344133,
                    0.2129542907606803
                ],
                [
                    -0.19991258270010603,
                    -0.48519669355171846,
                    -0.3337574806163417,
                    0.9094370237517608
                ],
                [
                    0.1755210662106208,
                    0.6974061105874112,
                    -0.9985004878775927,
                    -0.04919857575913977
                ],
                [
                    -0.0362024062619819,
                    -0.2222992449789707,
                    0.36040217935102925,
                    -0.7716486713444397
                ],
                [
                    0.4647469716086319,
                    0.9542368228665956,
                    -0.391576063078495,
                    -0.7803036174559959
                ],
                [
                    0.8606644351895321,
                    -0.7650545949765633,
                    0.557798967682053,
                    0.7586891604781325
                ],
                [
                    -0.5488190958998769,
                    -0.5296135897924652,
                    0.008549205288958417,
                    0.704813749289779
                ],
                [
                    0.4217042372253099,
                    -0.050228955029517186,
                    -0.5102930729586717,
                    0.6289993766020201
                ],
                [
                    0.6266200433368354,
                    0.13314036390815076,
                    0.17498371804584756,
                    0.39492377991351146
                ],
                [
                    -0.6905325628831671,
                    0.8200164110589179,
                    0.039083803130516515,
                    0.34048460737540553
                ],
                [
                    0.07348431473587436,
                    0.8553937423338165,
                    0.4531507350924098,
                    0.266297581136558
                ],
                [
                    0.11385746872223601,
                    0.4455724013390583,
                    0.416141432054399,
                    0.5165910132698575
                ],
                [
                    0.4549535195855956,
                    -0.44745258145529077,
                    -0.4141860690775867,
                    0.38370223413638116
                ],
                [
                    -0.6508377406722134,
                    -0.3201807318316312,
                    0.3351168810073766,
                    0.3666392837028887
                ],
                [
                    0.939851697845717,
                    -0.6730952429673682,
                    -0.32427399918176536,
                    -0.7757497963521192
                ],
                [
                    0.07522438751042193,
                    -0.03923714432839054,
                    0.1115536324892119,
                    -0.9725773118370808
                ],
                [
                    0.7263589854140502,
                    0.38889520368711294,
                    0.8493068246183919,
                    0.407861352531002
                ],
                [
                    0.39796114854894693,
                    0.11766401219994793,
                    -0.4530155927471433,
                    0.7903813817600229
                ],
                [
                    0.9175822433508476,
                    -0.22860285016648807,
                    -0.8131430839340126,
                    0.032685836069511254
                ],
                [
                    0.6194112115852553,
                    0.8285186873539703,
                    -0.7833059734920464,
                    0.552448799400306
                ],
                [
                    -0.9533200585151258,
                    -0.4897454012849036,
                    -0.005089731084996885,
                    0.028788305526816105
                ],
                [
                    0.10422107081595544,
                    0.010956574893618676,
                    0.18313234240512966,
                    0.18388710071981595
                ],
                [
                    -0.714694643897446,
                    -0.6256468435977398,
                    0.03727514133241372,
                    0.9385442574271607
                ],
                [
                    -0.9770527817654624,
                    0.11371130726673173,
                    -0.42485068395464953,
                    -0.5299880071615426
                ],
                [
                    0.4421836164362154,
                    0.7690847656764848,
                    -0.9510314747005495,
                    -0.8054106119550859
                ],
                [
                    -0.9954011335677619,
                    -0.21848973668414717,
                    -0.7438829860209486,
                    -0.6219147732624004
                ],
                [
                    0.4762371277222377,
                    0.7765521938789317,
                    0.4669222971834155,
                    -0.3435997091180458
                ],
                [
                    0.274250063111245,
                    0.36286290577638525,
                    0.9514657594800031,
                    -0.7878063845404173
                ],
                [
                    -0.5204960875597162,
                    -0.05556866221667067,
                    0.49280896195806556,
                    -0.6515252303871817
                ],
                [
                    -0.9790886505172121,
                    -0.955254953493853,
                    -0.44103236740810403,
                    0.8386050347205978
                ],
                [
                    -0.6233224051288919,
                    0.4015237018324067,
                    0.9836399933776103,
                    0.015862860523046196
                ],
                [
                    0.450455131352125,
                    -0.49369116644210886,
                    -0.4349556989537551,
                    -0.828869216650103
                ],
                [
                    -0.4449029641876421,
                    -0.6128092601497523,
                    0.491455015842416,
                    0.9664960591373153
                ],
                [
                    0.1615968806644119,
                    0.20829750162875516,
                    0.04860214549979314,
                    -0.486525141996377
                ],
                [
                    0.07504413369520124,
                    -0.4701777517009196,
                    -0.7231676370473656,
                    -0.29322824806166725
                ],
                [
                    -0.4617816711989211,
                    0.6515704310887835,
                    -0.7767927828878998,
                    -0.2431416293427633
                ],
                [
                    -0.5245309975444399,
                    0.7573520775114677,
                    -0.5003208710396709,
                    0.638247939000939
                ],
                [
                    -0.49831595073294666,
                    0.812236743169549,
                    -0.581849348638263,
                    -0.9755303100759651
                ],
                [
                    0.3058433921053225,
                    0.6277045661613347,
                    0.6127495259622779,
                    0.006957182216771329
                ],
                [
                    -0.0994324542589724,
                    0.6342945707363719,
                    0.9699865949152735,
                    0.526611582265172
                ],
                [
                    -0.28936079679556004,
                    -0.9404135468128001,
                    0.3973773228361237,
                    -0.5570764920533129
                ],
                [
                    -0.787413211450549,
                    -0.3562045636014597,
                    0.8013110414183511,
                    -0.5888890838165912
                ],
                [
                    0.9400834593633647,
                    -0.11873929826315566,
                    -0.3365684810737237,
                    -0.0867453360435837
                ],
                [
                    0.6460372316106797,
                    0.3046148310765451,
                    0.13891458615671382,
                    -0.870727949180333
                ]
            ],
            "biases": [
                0.45107289046459065,
                0.4441814160648745,
                0.46918396931656536,
                -0.10790780755036922,
                -0.7168206387807534,
                0.4094317139326902,
                -0.5746522246946411,
                0.6028660527902026,
                0.6976813124852199,
                0.6903554667210698,
                -0.7356524634558514,
                -0.9352724505746133,
                0.0858067189046623,
                0.1371181563454844,
                0.6906366899506742,
                0.3100199726957713,
                -0.0437234049329307,
                0.5912673287587877,
                -0.2604892242595036,
                0.6376791359531826,
                -0.7962984278018028,
                -0.6711715215169229,
                -0.19105345641412197,
                0.6029390647126494,
                0.4733639167502721,
                -0.2006389517921514,
                0.37988075775451624,
                -0.1920036716676483,
                0.066454471692728,
                0.12531408570966707,
                0.5183192202791562,
                -0.5307519170092385,
                -0.2342270443607979,
                -0.47061210912672946,
                -0.2571049250160349,
                0.5958244718357126,
                -0.0009642766813255932,
                0.80855181963481,
                -0.7694021014577817,
                0.6921761324911451,
                -0.6371935364753998,
                0.2478070835053543,
                0.4013913734753718,
                0.7231372334861914,
                -0.6265023950502107,
                0.11417747409418344,
                -0.45896927151237277,
                0.9138769547320889,
                0.926927747038016,
                -0.9860370721259661,
                0.8604029569365328,
                0.31360550630730133,
                -0.795745523061637,
                -0.9019304296892472,
                0.9250306954746317,
                -0.013575546072609912,
                -0.7732139779396474,
                0.015015034642813063,
                -0.532400099159916,
                0.5354148348205681,
                -0.16572691646412108,
                0.12081492028535457,
                -0.44725384862539896,
                0.25211357086463826,
                0.395154285395531,
                -0.3885366463989197,
                -0.09169498509604757,
                0.3306089146225759,
                0.1138972681103878,
                -0.4288977893798156,
                0.8434579528045947,
                -0.9439460021011503,
                -0.10091021839436864,
                0.24817064500202157,
                -0.012604684402130362,
                -0.8397369094979839,
                -0.5545113247611875,
                0.4007090069653214,
                0.7058623852532213,
                -0.43096325680584413,
                0.8200152402451182,
                0.4816512105566153,
                -0.23316338947482151,
                0.21461512938895821,
                0.012345716937353979,
                -0.4455884177607732,
                0.6604860252423421,
                0.01521263724505495,
                -0.5721093974096614,
                -0.8263064823518256,
                -0.218045883943651,
                0.29336027397786757,
                -0.7539619039328691,
                -0.6667551044442097,
                0.5606922064693263,
                0.6233810661995431,
                0.9722086610854461,
                0.5454903982191379,
                0.5110535322484764,
                0.5515249751548088,
                -0.8755659908623201,
                0.8423796660755352,
                0.7428781522366079,
                0.8608802388957819,
                0.3012271208974042,
                -0.7859379214966169,
                -0.4597149065074315,
                -0.5368963513783693,
                -0.5755673166372186,
                -0.0556965687430353,
                -0.2226896497293014,
                -0.09917259888457353,
                -0.9929809244591856,
                0.5108376222530469,
                -0.6125105176706716,
                0.3521177277861671,
                -0.6239924628130533,
                0.13549162849301988,
                0.8598657248708848,
                0.3775395327897164,
                -0.5791903916245873,
                0.0007644964369251106,
                0.11659590245287532,
                0.4515601395700526,
                0.6525278638284984,
                0.7512575126066823,
                -0.4933893950838859,
                -0.5360828765654995
            ]
        },
        {
            "neurons": 7,
            "activation": "softmax",
            "weights": [
                [
                    0.7258823030541248,
                    -0.19694136909461757,
                    -0.8803452763409569,
                    0.8350294473650337,
                    -0.03782811472079817,
                    0.15711507290007543,
                    -0.18639153310480472,
                    -0.9937140235506958,
                    0.04295715629382468,
                    0.47034049816652734,
                    0.8131751728093821,
                    -0.7914720361613212,
                    0.05897001183105122,
                    -0.7058703091615637,
                    -0.6651266609489446,
                    0.3742563227620097,
                    0.29699832133128234,
                    -0.8438160389513769,
                    0.43169892078140504,
                    0.5394975225304015,
                    0.9552500890558393,
                    -0.13164157707844093,
                    0.37427373190821367,
                    -0.8003071183966997,
                    -0.21870142648776492,
                    -0.04995376407103369,
                    0.8345135165482467,
                    -0.47842710800242183,
                    -0.42813590975607996,
                    -0.9284422446322831,
                    -0.3967761256004172,
                    -0.023257610938073103,
                    -0.35462073473696676,
                    0.23811389120584026,
                    -0.28663169454967496,
                    0.13250423361966424,
                    0.15620082646184152,
                    0.045995275048812845,
                    -0.5690160696474953,
                    -0.4096441181274566,
                    -0.5041927144938092,
                    -0.4238360142317992,
                    -0.7428223819671442,
                    -0.7618591081113448,
                    0.3996781487788912,
                    -0.8724841165800441,
                    -0.47883752082977526,
                    0.5147650081055399,
                    -0.2259849084437049,
                    0.9687263985517185,
                    -0.31123417239462703,
                    -0.6847259831572807,
                    0.11074603413861528,
                    0.5777083197279387,
                    0.5228615955831271,
                    0.18940292526251978,
                    -0.21394401881133973,
                    0.4320594724651654,
                    0.8498139568089742,
                    -0.3738089734464918,
                    -0.7806933673872221,
                    -0.843578996454035,
                    0.54988929905914,
                    0.6485206956232614,
                    0.7792110965573877,
                    -0.2083252224646932,
                    -0.32901678620631203,
                    0.9183192553272261,
                    0.9475486080408917,
                    0.97178296704031,
                    0.2652659064300198,
                    0.14631603743309585,
                    0.19439203232621582,
                    0.02295208245150193,
                    -0.7913071539322067,
                    0.28307463119951914,
                    0.13662977124389664,
                    -0.5492890544653235,
                    0.2877929544207538,
                    0.9994235384687562,
                    -0.6702851903743268,
                    0.6477480072858603,
                    0.3241273317827602,
                    0.8558511745794706,
                    0.9181888851507634,
                    -0.37575349641193445,
                    0.2988229871998993,
                    -0.7468655492176259,
                    -0.28124679365077254,
                    -0.594371154638411,
                    0.15080649990197426,
                    -0.8454696645390984,
                    0.3399431124525387,
                    -0.7287569208022624,
                    0.8181553165278412,
                    -0.36458998268151444,
                    0.527800029557064,
                    0.7019468368508015,
                    0.51497181171827,
                    -0.09023702232066233,
                    -0.5862386171748042,
                    -0.24314379729099556,
                    0.3657767480949359,
                    0.8894850683741766,
                    -0.9563929446200625,
                    0.67826421080768,
                    -0.9881848217507954,
                    -0.007228724410471399,
                    -0.9483257836870413,
                    -0.5598184144625269,
                    -0.9607901937751244,
                    0.5407165419667914,
                    0.1896704366545321,
                    -0.5662208424197819,
                    -0.5893910661670003,
                    -0.18171336065221744,
                    -0.2765373598909775,
                    -0.5097035324636552,
                    0.27165280382846935,
                    -0.4660266434195428,
                    -0.24206362419080296,
                    0.6753824926856113,
                    -0.9550208061204779,
                    -0.41248105725665174,
                    -0.14537953692789385,
                    0.099168222266101,
                    -0.9930784041636282,
                    0.6884541588291386
                ],
                [
                    0.5156428867969416,
                    0.5796958696938128,
                    -0.0837809340915796,
                    -0.5976393432059046,
                    0.09899620048347946,
                    -0.5799265097597612,
                    0.3954275620923364,
                    -0.36725105698730265,
                    -0.5264158696221792,
                    0.8575030770703744,
                    0.4087163500585116,
                    -0.7963279208380507,
                    0.7912573148906434,
                    -0.9162926304584378,
                    0.3139472113274895,
                    -0.5034316547955118,
                    -0.539318740624336,
                    -0.3455814980926524,
                    0.5758602479323482,
                    -0.6670582598992039,
                    0.786507947875577,
                    0.16181335940533348,
                    -0.18678049253467122,
                    0.7221023878856705,
                    0.8845191753163881,
                    0.17797034829949587,
                    -0.6739056982728071,
                    -0.25358295175546663,
                    0.2989383650572308,
                    -0.20046421280646687,
                    0.8819200909605134,
                    0.24965887070741966,
                    -0.6381741393092613,
                    0.5249555729732232,
                    0.07722614932353022,
                    -0.11809160170345123,
                    0.6004287289107182,
                    -0.1284612087148007,
                    -0.09254033606105949,
                    0.15254715196084856,
                    -0.9995798944205381,
                    0.4270244622125672,
                    0.8533245498412783,
                    0.06730654691005489,
                    -0.5767551485634017,
                    0.24039505820266327,
                    0.17478307769162016,
                    -0.32636339413604687,
                    0.7305881100914839,
                    -0.1884981053355579,
                    -0.9128355421829548,
                    0.46477946902972467,
                    -0.9534263535820611,
                    0.15710582237813742,
                    -0.7914998010590835,
                    0.6971314384681695,
                    0.6245852382172687,
                    -0.73515795657692,
                    0.14916219340813086,
                    -0.5860209459919299,
                    0.2784528146925358,
                    0.999004539227331,
                    0.45383871584654223,
                    0.17383343772055504,
                    -0.9225895010752898,
                    0.6794911486332,
                    -0.7578685227801525,
                    0.9301518881400235,
                    -0.9627345935555573,
                    0.09578028870134747,
                    -0.2753543017628053,
                    0.994747048636569,
                    -0.5949612281484704,
                    -0.5638755348807889,
                    -0.09765400445622219,
                    0.21630088939632564,
                    0.6705354219551403,
                    0.13086243272308495,
                    0.7918293131950787,
                    -0.04140397703045173,
                    -0.2514568780719033,
                    -0.12690242102806337,
                    0.12340369931416806,
                    -0.6957209726726201,
                    -0.19686723825930486,
                    -0.47517532597456835,
                    0.7054295099614942,
                    -0.6124605050251528,
                    -0.6024029303868002,
                    -0.31845835868088246,
                    -0.996430235804534,
                    -0.30362179636449294,
                    0.47210163756287415,
                    -0.008397776515880251,
                    -0.04630268264615167,
                    -0.9782331330615699,
                    -0.16456428903493614,
                    -0.1914422631169559,
                    -0.14474075663890695,
                    0.18155757291607721,
                    -0.9587215148859136,
                    -0.05086971494712911,
                    -0.3750342364371182,
                    0.2979708267029164,
                    -0.49126432969966505,
                    -0.15966908652191614,
                    -0.9824174746428334,
                    -0.13657249595675336,
                    -0.537088044757688,
                    0.5977104738863823,
                    -0.6640961154961778,
                    0.10385531314783392,
                    0.7576903579156575,
                    0.7139015824571939,
                    -0.20957292977356112,
                    -0.20715084112083537,
                    -0.3537136227734585,
                    -0.5935605010137042,
                    -0.10089773588124062,
                    -0.09682843236453897,
                    0.5659979621353917,
                    -0.8052615083129875,
                    0.7798019054016032,
                    0.4743689344339159,
                    0.5811854862265091,
                    -0.7554954146110013,
                    -0.5174956100539814,
                    0.31054422520939795
                ],
                [
                    -0.735563126870113,
                    -0.33948970254035715,
                    -0.21587740652229126,
                    -0.010001316144881978,
                    -0.3528406812142868,
                    0.947342383354107,
                    0.7198678562889831,
                    0.3409094907830166,
                    0.2844542779385777,
                    -0.17022444195081454,
                    -0.0004025606231514711,
                    -0.6069569066285956,
                    0.8552139562494228,
                    -0.09956758090187123,
                    -0.5899184317477131,
                    -0.25131773780864863,
                    -0.48458431279628855,
                    0.5883143907223591,
                    -0.7891676325469437,
                    -0.3810330329600573,
                    0.15119533200587543,
                    -0.8102065921726538,
                    0.3256405875672552,
                    -0.05613010437720156,
                    -0.5614175843159472,
                    -0.01834601098250266,
                    0.6433878484040298,
                    -0.2527709287455129,
                    -0.6520152037010141,
                    0.5276385707135678,
                    0.44823821074433856,
                    -0.9063594751741006,
                    0.4240194943301101,
                    -0.8215588317436828,
                    -0.95742304948663,
                    0.14993929564772057,
                    0.5663234314967582,
                    0.4209681469197022,
                    -0.37953208331637,
                    0.6350752855982638,
                    -0.027260127493300867,
                    -0.8001875185760299,
                    0.6504573178738746,
                    0.4244348737114205,
                    0.02449121327014181,
                    0.15829174360849008,
                    0.9345767287445019,
                    0.21455652232371047,
                    0.20379791417989956,
                    -0.11491151600170268,
                    -0.4071921624556789,
                    0.4199889202893621,
                    0.3420834928039329,
                    0.720708795396406,
                    -0.9035448538585509,
                    -0.3961298391770067,
                    0.645567981144771,
                    0.4202830252337606,
                    0.05848727471127013,
                    0.8331297313768931,
                    0.9123871805367954,
                    -0.5844961481750097,
                    0.7825471268856932,
                    0.15075398266508566,
                    -0.9514191886626091,
                    -0.6776746005221008,
                    -0.9263902696444284,
                    0.07354377756974162,
                    0.20597008161854258,
                    -0.1891791837390313,
                    0.8010401718037099,
                    0.6009375569361135,
                    -0.11297498476510692,
                    0.2106652288358999,
                    0.5981703196393582,
                    0.602215786519728,
                    0.1189722424170625,
                    0.1193210515120613,
                    -0.22805764262222117,
                    0.45894002126619604,
                    0.27795961310055195,
                    -0.10333547212393679,
                    0.4729143350249754,
                    0.09629960179091634,
                    0.682640635372251,
                    -0.4016579280939505,
                    0.24123690908118145,
                    0.6803470787757218,
                    -0.050256662534342134,
                    0.981431036542336,
                    -0.02125720472550685,
                    0.7915557861546578,
                    -0.3552304193173961,
                    0.22467472608825934,
                    -0.0002048559378462489,
                    -0.9818958900455377,
                    -0.6942882227995768,
                    -0.1889805731915961,
                    -0.8712907996028203,
                    0.007650208361774213,
                    -0.8834899401265885,
                    0.970304020272863,
                    -0.3883774404387923,
                    -0.7740121686772754,
                    -0.8539085463654814,
                    -0.026823534250341785,
                    -0.42389067253784285,
                    -0.9703039768769641,
                    0.32572543673338483,
                    -0.08375766781678307,
                    -0.43392888346265845,
                    -0.8034014162364611,
                    0.47626321222292445,
                    0.6747549456961575,
                    0.09915837841247566,
                    0.5621244544763058,
                    -0.1230180280967641,
                    0.43244197276398677,
                    -0.8775328293284601,
                    -0.23184968563122066,
                    -0.8116772913933508,
                    -0.06100350265036525,
                    0.06481193193279311,
                    0.5852915124651157,
                    0.6425242856307618,
                    -0.523645802170704,
                    -0.8233884540200282,
                    -0.8503597432271655
                ],
                [
                    -0.19411691182109636,
                    0.1812598970914585,
                    0.5447767954713889,
                    -0.08238881149953259,
                    -0.7239915755763988,
                    0.5676005420641175,
                    -0.5398786766571002,
                    -0.3488621694054188,
                    0.40562842831923596,
                    0.41434194669082736,
                    -0.12374624334625439,
                    -0.6585029674087024,
                    0.08046833650876106,
                    -0.12362090037197682,
                    -0.23229624708241614,
                    0.6101594245797755,
                    -0.05726634729674607,
                    0.7919944545059456,
                    -0.9332075294282938,
                    -0.022085437568874156,
                    -0.3765696087538062,
                    -0.7995371874185913,
                    0.871722888895526,
                    -0.09151860432149705,
                    0.35915764182697196,
                    0.20850496143632347,
                    -0.24341188808822567,
                    0.251107110989208,
                    0.680777000260625,
                    -0.6501382057066569,
                    -0.8649114814248096,
                    0.8765821745916622,
                    -0.35257374691619625,
                    -0.7999351400268466,
                    0.8132849729008695,
                    -0.888344746157858,
                    0.5121077330772532,
                    -0.283877482878341,
                    -0.009283780203536818,
                    -0.6825089787678071,
                    0.3540067859721028,
                    -0.8079870315554141,
                    -0.024649012521277047,
                    -0.26077636515014446,
                    -0.6951243063339636,
                    0.8744438021551386,
                    -0.9678334550679377,
                    -0.688110459412387,
                    0.10587395966354274,
                    -0.5051626003513039,
                    0.9504629073089219,
                    -0.6001329987567001,
                    -0.997184875767039,
                    0.9374735174329214,
                    0.6053386616889787,
                    0.8666648249345938,
                    0.05623229551372355,
                    0.797308717926138,
                    0.46913903362676823,
                    0.4954961158472122,
                    0.3605516818736525,
                    0.34518446014754245,
                    -0.9185775189305043,
                    0.5106834702111964,
                    0.09624163667651287,
                    0.4206856668193879,
                    0.5864008266804528,
                    0.557239598610396,
                    -0.6917034914349554,
                    0.44232723587771905,
                    0.33322529048709515,
                    0.6465125152339877,
                    -0.837734556123785,
                    0.7710834675122886,
                    -0.05297628238644281,
                    0.11821531384636419,
                    0.197310619616905,
                    0.24872898423071566,
                    -0.2920924178388795,
                    0.08546718658148333,
                    0.27358750220333783,
                    -0.2012422040160431,
                    -0.8556339284933359,
                    -0.24057409822695597,
                    -0.7340149928528346,
                    0.7516529150477571,
                    -0.6255341274923301,
                    -0.3268067503924226,
                    0.19016193665448733,
                    0.3042250496075811,
                    0.08800322961327156,
                    0.5367948840658623,
                    -0.6049410682681957,
                    0.14858738965048435,
                    0.6867559118449937,
                    -0.32273413472108237,
                    0.34892132005624665,
                    -0.9161004238121162,
                    0.32396799547024346,
                    0.2306563759849125,
                    0.32615679588798585,
                    -0.8250303540128416,
                    -0.11141804145501877,
                    -0.8424912126908961,
                    0.12616121382302148,
                    -0.10378008679732376,
                    -0.7825167975393337,
                    -0.7037644534333409,
                    -0.3864775305007555,
                    -0.06804253853575304,
                    0.03168435207587361,
                    0.22104963872486394,
                    0.3430252140723449,
                    0.8828331631214885,
                    -0.611502242386847,
                    -0.9271329847466356,
                    -0.49675565015624024,
                    -0.09498779331967122,
                    0.6199598679407441,
                    0.0716680672303458,
                    0.7586960526455675,
                    -0.6920853542854186,
                    0.7215111214678542,
                    -0.8625178955012653,
                    -0.10880762701423907,
                    -0.692676916058163,
                    0.3679487090874163,
                    0.9692519522076648
                ],
                [
                    -0.4557125903834023,
                    -0.22327738290195143,
                    -0.8201922014021568,
                    -0.8070645452355558,
                    0.7718912080997702,
                    -0.38006391671886397,
                    -0.7444825260710568,
                    0.21434305776871776,
                    0.7041484012717956,
                    0.3542003566581098,
                    -0.7663638813336966,
                    0.9247879227874687,
                    0.5896328793614996,
                    -0.9258309345900857,
                    -0.16253638660164338,
                    -0.9361539903657223,
                    -0.1612866889568747,
                    0.9429155207824325,
                    -0.7972833532981916,
                    -0.11920423547020387,
                    0.36748115038145346,
                    -0.483612949151109,
                    -0.6190392860578144,
                    0.9450572149956407,
                    -0.09027486872698054,
                    -0.2782191034482231,
                    -0.9474658125555966,
                    -0.7080174290399255,
                    0.8107930306341358,
                    -0.6878533465297045,
                    0.3737668753973744,
                    0.32758316792179154,
                    0.5433241837768146,
                    0.050457755538352744,
                    -0.5154180421730477,
                    0.04257565368071137,
                    0.8626708171633903,
                    0.768796432092753,
                    -0.6942056900367277,
                    0.280554348014048,
                    0.08844890224538604,
                    0.9883712125999,
                    -0.4028342619356682,
                    -0.02240687436463329,
                    0.3346783329507965,
                    -0.5855490168054045,
                    0.08042025217439597,
                    -0.2694360363264503,
                    -0.6056503211977315,
                    -0.36247878989958804,
                    0.23739726693225527,
                    0.576644065428261,
                    -0.751240351896832,
                    -0.3687055064828364,
                    -0.8306725393933385,
                    -0.9514704354926362,
                    0.3686774280545708,
                    -0.7919971424614443,
                    0.5544577670883704,
                    -0.24053087552207275,
                    0.06147233970303034,
                    0.3873818369443005,
                    -0.6795556767114874,
                    -0.10299675207028924,
                    0.6430293718554059,
                    -0.9425234082478591,
                    -0.3157041039298698,
                    0.6119784705690114,
                    0.1158967008274423,
                    -0.38836121897409037,
                    0.43631628474782125,
                    0.3808957467151517,
                    -0.28421105005553504,
                    0.3190571914830227,
                    0.4920400303674528,
                    0.8586730939483429,
                    -0.8174552152752737,
                    -0.22218106677236804,
                    -0.6245363633377687,
                    -0.7210416059767069,
                    -0.0807229761909185,
                    -0.10150566282253926,
                    0.16857376419111025,
                    -0.7165187640734516,
                    0.09568930019083055,
                    0.6013505849031708,
                    -0.5827024959280334,
                    -0.7141328305485688,
                    -0.806337012870783,
                    0.17822946927282302,
                    0.9211879723240188,
                    -0.2289245777507649,
                    0.023357167504759024,
                    0.7589782644817862,
                    -0.37796358685205966,
                    0.3311152156025803,
                    -0.4357169369771361,
                    0.7745147066536591,
                    0.10660924959627027,
                    0.18515248195798706,
                    0.8942083611400382,
                    -8.903847530095099e-05,
                    -0.942105905178044,
                    -0.9306742473527461,
                    -0.9620943612603883,
                    -0.9785634976605038,
                    0.5188345582163931,
                    -0.002425537968026248,
                    0.7493101325428164,
                    -0.9043277128215514,
                    -0.47984948794579174,
                    -0.48935674007609364,
                    0.9395110765275081,
                    -0.08767304158304468,
                    0.1084947552759401,
                    0.9780372472148895,
                    0.5412848256403073,
                    0.09623737040401448,
                    0.6995547468634191,
                    0.0685442890809993,
                    0.25402473818367466,
                    0.12770148190997954,
                    0.483160561382904,
                    0.7639298648095385,
                    -0.747408554769021,
                    -0.06795099936817683,
                    0.2763516322659967,
                    0.9717938751404533
                ],
                [
                    0.6404419085093644,
                    -0.10750865523141062,
                    0.03672338444432577,
                    -0.6150215679437006,
                    -0.7423338894511231,
                    -0.0437744499128101,
                    -0.9719440716501273,
                    0.07644909207928863,
                    -0.9527449909041663,
                    -0.7381113098923706,
                    -0.8722085664625527,
                    0.8338527451066051,
                    -0.3551605699106837,
                    -0.6573775400752921,
                    0.6373412594141208,
                    0.9569775793879507,
                    0.6201702661943298,
                    0.8981705320242805,
                    -0.321288389504256,
                    0.22366667526041173,
                    0.8590379172987066,
                    0.7978757113813666,
                    -0.37524701860647736,
                    -0.984928801385673,
                    0.49250328772969976,
                    0.017424552935568327,
                    -0.07068228365448381,
                    0.8067900374623684,
                    -0.014076116784460968,
                    -0.6589507703603465,
                    0.7465605599999896,
                    -0.7803003241559128,
                    0.4558574113862972,
                    0.37863555055027454,
                    -0.37632387233177544,
                    0.8443252628730473,
                    0.3742083845006683,
                    -0.6895131539005932,
                    -0.665930773083721,
                    0.35350734129897754,
                    -0.07255790801498097,
                    0.40374201641476515,
                    0.6091042294790661,
                    -0.6585595836503315,
                    -0.9835937051463934,
                    0.6350669019386657,
                    -0.25161806958096267,
                    -0.5052848112135426,
                    0.45245198161388256,
                    -0.30014623897279824,
                    -0.34690275960640227,
                    -0.8931799064625532,
                    -0.7563343829462414,
                    0.9448291307623653,
                    0.9687614525303627,
                    0.9598565863940414,
                    0.32470363693560644,
                    -0.4058479227108438,
                    0.22395267468789126,
                    -0.3354930259446878,
                    -0.4589590802064605,
                    -0.8192811244313614,
                    -0.03462696258352449,
                    0.8495394117845843,
                    0.43001440658944845,
                    0.05622885528643495,
                    -0.7775620538670869,
                    0.5540051294335437,
                    -0.8153002594232011,
                    0.4465604613244072,
                    0.5893948466249561,
                    0.28033777747741895,
                    0.1316061507189541,
                    -0.43748080826213576,
                    0.8818491633103183,
                    0.20437005333024327,
                    -0.7205418652892075,
                    -0.8253660728609786,
                    -0.9840056279144966,
                    0.634483316491034,
                    -0.0634177305567265,
                    -0.3325376685297714,
                    0.6495915212551899,
                    -0.892681077954526,
                    0.7734312236153114,
                    0.6300136700886116,
                    -0.556586070098785,
                    -0.06999570666360144,
                    0.10086299560656253,
                    -0.390724382299348,
                    0.778425427754301,
                    0.5504812975887063,
                    0.5123795948445431,
                    -0.26017340889329055,
                    -0.4789868657595284,
                    -0.8597027562115978,
                    -0.3928652130992607,
                    0.5261849875910021,
                    0.7722807281746322,
                    0.8347259904786481,
                    0.9534548105215972,
                    0.18638539638449347,
                    -0.5522368184359607,
                    0.3383667028450792,
                    0.36589288427007793,
                    -0.6193794777432913,
                    -0.6860955102380137,
                    0.6890669317997258,
                    0.6040992579342013,
                    0.8091679339951814,
                    -0.9523150894406733,
                    0.20299511396719883,
                    0.4597681318600797,
                    -0.15117246288838304,
                    -0.3820986452472779,
                    -0.729110598722088,
                    -0.3724933813790261,
                    -0.3043251900004249,
                    -0.9472722544558025,
                    0.2523054127262847,
                    0.8811543325661284,
                    -0.20039419205094067,
                    0.38779558656705526,
                    -0.59075534605795,
                    -0.6667715764735893,
                    -0.43279424455693394,
                    0.028648103537243674,
                    -0.08055522012045824
                ],
                [
                    -0.6814541019495097,
                    -0.48211567601388006,
                    -0.8726762168761171,
                    -0.878780659124212,
                    0.4371611006538847,
                    -0.08371175460460734,
                    0.5594165659962327,
                    -0.677117282415004,
                    0.9794320159370808,
                    -0.5850739854572313,
                    0.1063011636793596,
                    0.9196842254185371,
                    0.08961963868650091,
                    -0.7137058744030831,
                    -0.8970594488575152,
                    -0.028256621616576938,
                    -0.6051326566053428,
                    -0.3082454185929826,
                    0.21049309073218225,
                    0.08320648972861622,
                    0.48327227274901907,
                    -0.1508153617836061,
                    -0.7377862475388468,
                    0.5820041083252663,
                    0.4265528413809516,
                    -0.480736103796352,
                    -0.3102028380490598,
                    0.7494649763536223,
                    0.037274813003301155,
                    -0.5565406862337017,
                    0.1212494729408351,
                    -0.6192835605379612,
                    -0.7856254907526763,
                    0.22482007420162686,
                    0.1931416809587272,
                    0.2338879177119273,
                    -0.9906705167894512,
                    -0.6708652457285373,
                    -0.9203389474048094,
                    -0.07101418076206123,
                    0.7894244886957855,
                    -0.28017596912095644,
                    -0.3262145556377747,
                    -0.14132236606904414,
                    0.2537865390597238,
                    -0.3798513544898088,
                    0.11554529750552556,
                    0.6879250532862327,
                    0.5670329773032101,
                    -0.40742675204148404,
                    -0.21356303727988957,
                    -0.9131678171031341,
                    0.6731893117430234,
                    -0.2995834909289883,
                    -0.10849763994163752,
                    0.0474937821732615,
                    -0.3092922139493337,
                    -0.7328860929254579,
                    -0.012528028083315768,
                    0.12423767554672027,
                    -0.6834395259462018,
                    -0.25755590012669205,
                    -0.5276626706713567,
                    -0.20827494802387592,
                    -0.04165727550624809,
                    -0.8269389967720155,
                    0.5451514005980698,
                    0.3148358489358938,
                    0.9881983790023725,
                    -0.8196090279539885,
                    -0.1358564338070396,
                    -0.31919486790386675,
                    0.2283967392120596,
                    0.9279412874306314,
                    0.8493109553154157,
                    -0.03917060894771751,
                    0.6790618227586509,
                    -0.17182363778419396,
                    -0.3161661160689837,
                    0.6012961965610566,
                    -0.08805761882085683,
                    0.638044080870573,
                    0.8398947424868215,
                    -0.9679264846353137,
                    0.8123259030202703,
                    0.96683598772799,
                    -0.2731607440600139,
                    -0.6857544296300571,
                    -0.8925308521378292,
                    0.8722699571820423,
                    0.979185384671557,
                    -0.930376950485899,
                    0.7092190385833408,
                    -0.8646167049568134,
                    -0.7804709160096777,
                    -0.2990853420174109,
                    -0.15244652448124407,
                    0.5757097692886148,
                    -0.608281256734339,
                    0.23936996164531732,
                    0.1769518998290438,
                    0.022688662117645197,
                    0.07055822087505326,
                    -0.3052330722378187,
                    0.8478748294242342,
                    0.08356643469582914,
                    0.09362217687445162,
                    -0.5381569059266491,
                    -0.5995878634985168,
                    -0.8040007353137366,
                    0.21120621777031134,
                    0.5842271970448931,
                    0.3541822774507988,
                    -0.5617746358967604,
                    -0.4785833874530263,
                    0.6222509733954609,
                    -0.4023560609096244,
                    -0.12279661386347596,
                    0.7641264893986006,
                    -0.7236560788935984,
                    0.13062588173166256,
                    0.6039930666434492,
                    0.35568957022205283,
                    0.7767394232072407,
                    -0.42580087891364493,
                    -0.6855755717855845,
                    0.19820749313143282,
                    0.8434905929037566
                ]
            ],
            "biases": [
                -0.5027544636684329,
                0.9905084867723248,
                -0.7953178543428174,
                -0.5198005758781552,
                -0.2443750254025261,
                -0.8720964154756445,
                0.6145989212130847
            ]
        }
    ]
}