{
    "cnn_layers": [
        {
            "type": "pool",
            "size": 3,
            "stride": 2,
            "pool_type": "max"
        },
        {
            "type": "conv",
            "filters": 10,
            "kernel_height": 1,
            "kernel_width": 3,
            "activation": "sigmoid",
            "weights": [
                [
                    [
                        [
                            0.715990842141716,
                            -0.7281354334876238,
                            -0.7720501644932627
                        ]
                    ]
                ],
                [
                    [
                        [
                            0.18188648381127637,
                            -0.3671725209996757,
                            0.2399409858170367
                        ]
                    ]
                ],
                [
                    [
                        [
                            0.5292736554242201,
                            -0.7940963012118047,
                            -0.17782124799144872
                        ]
                    ]
                ],
                [
                    [
                        [
                            0.8274144600461966,
                            0.5269855386006905,
                            -0.7021479848212375
                        ]
                    ]
                ],
                [
                    [
                        [
                            -0.14378908076328578,
                            -0.8937457320355835,
                            -0.0858030515027528
                        ]
                    ]
                ],
                [
                    [
                        [
                            -0.8757751379075753,
                            -0.24031735779983032,
                            0.6162933061463189
                        ]
                    ]
                ],
                [
                    [
                        [
                            0.8816138906491229,
                            0.04567097274430809,
                            -0.9010584095412772
                        ]
                    ]
                ],
                [
                    [
                        [
                            0.6743912339347538,
                            0.26621350739071015,
                            0.7436799074388898
                        ]
                    ]
                ],
                [
                    [
                        [
                            0.9809943061968667,
                            -0.35850434886246396,
                            0.5645860820276996
                        ]
                    ]
                ],
                [
                    [
                        [
                            0.728980148609973,
                            -0.13945061859364816,
                            -0.5203433638695654
                        ]
                    ]
                ]
            ],
            "biases": [
                0.802970576270738,
                0.8779669187950538,
                -0.06719181579175126,
                -0.29035654260895916,
                0.32121676475691285,
                -0.7643851334242879,
                -0.39919986073312597,
                0.3020013220249438,
                -0.8475853265128463,
                0.3589327751539366
            ]
        },
        {
            "type": "conv",
            "filters": 9,
            "kernel_height": 2,
            "kernel_width": 1,
            "activation": "sigmoid",
            "weights": [
                [
                    [
                        [
                            -0.5781873890156133
                        ],
                        [
                            0.11850243450716369
                        ]
                    ],
                    [
                        [
                            -0.8568384328347873
                        ],
                        [
                            0.5417790839164545
                        ]
                    ],
                    [
                        [
                            -0.725844811823255
                        ],
                        [
                            0.6512690964622185
                        ]
                    ],
                    [
                        [
                            0.8827206102242116
                        ],
                        [
                            -0.8944333569188707
                        ]
                    ],
                    [
                        [
                            -0.416710628999742
                        ],
                        [
                            -0.5053083855141478
                        ]
                    ],
                    [
                        [
                            0.06453300307499332
                        ],
                        [
                            0.07728221958700598
                        ]
                    ],
                    [
                        [
                            -0.6159539406923886
                        ],
                        [
                            -0.020176497506896762
                        ]
                    ],
                    [
                        [
                            0.4620960601197277
                        ],
                        [
                            0.44340789893865806
                        ]
                    ],
                    [
                        [
                            0.2219742548066106
                        ],
                        [
                            -0.6353989931196349
                        ]
                    ],
                    [
                        [
                            0.8349122862349154
                        ],
                        [
                            -0.6825414623348678
                        ]
                    ]
                ],
                [
                    [
                        [
                            0.09860832837665034
                        ],
                        [
                            0.158247554110156
                        ]
                    ],
                    [
                        [
                            0.18616413067327242
                        ],
                        [
                            0.49151338139605705
                        ]
                    ],
                    [
                        [
                            0.8170344371528913
                        ],
                        [
                            0.575094771739675
                        ]
                    ],
                    [
                        [
                            0.5324208280656069
                        ],
                        [
                            0.0438481920726943
                        ]
                    ],
                    [
                        [
                            -0.44337042640578916
                        ],
                        [
                            0.11918179239504578
                        ]
                    ],
                    [
                        [
                            -0.1762262770083376
                        ],
                        [
                            -0.6242794415934081
                        ]
                    ],
                    [
                        [
                            -0.2039733042617946
                        ],
                        [
                            -0.0032840409751493382
                        ]
                    ],
                    [
                        [
                            0.3920843363927633
                        ],
                        [
                            -0.28759200099730986
                        ]
                    ],
                    [
                        [
                            -0.04244186854959775
                        ],
                        [
                            -0.07031522514505184
                        ]
                    ],
                    [
                        [
                            0.9651355016278609
                        ],
                        [
                            0.06491107051811462
                        ]
                    ]
                ],
                [
                    [
                        [
                            0.670391126667198
                        ],
                        [
                            -0.26468237711938736
                        ]
                    ],
                    [
                        [
                            0.9583451131455856
                        ],
                        [
                            0.07159024596825203
                        ]
                    ],
                    [
                        [
                            -0.6254886732140612
                        ],
                        [
                            -0.9490065426367333
                        ]
                    ],
                    [
                        [
                            -0.1373487543708165
                        ],
                        [
                            -0.3129452509344035
                        ]
                    ],
                    [
                        [
                            0.6060459144101797
                        ],
                        [
                            -0.6186709996236222
                        ]
                    ],
                    [
                        [
                            0.362816827255664
                        ],
                        [
                            0.39815106580061377
                        ]
                    ],
                    [
                        [
                            0.2783128024669499
                        ],
                        [
                            0.6646416999306883
                        ]
                    ],
                    [
                        [
                            0.429717370467924
                        ],
                        [
                            -0.9111054164658607
                        ]
                    ],
                    [
                        [
                            -0.2967353547600844
                        ],
                        [
                            -0.7462648321661021
                        ]
                    ],
                    [
                        [
                            0.20448422136096944
                        ],
                        [
                            0.6471365838544252
                        ]
                    ]
                ],
                [
                    [
                        [
                            -0.32583142281603195
                        ],
                        [
                            0.3669571242203604
                        ]
                    ],
                    [
                        [
                            0.7649348329415806
                        ],
                        [
                            0.24420699905380094
                        ]
                    ],
                    [
                        [
                            0.06617281478426817
                        ],
                        [
                            0.1257754037820007
                        ]
                    ],
                    [
                        [
                            -0.2936398121494923
                        ],
                        [
                            -0.19268774453036053
                        ]
                    ],
                    [
                        [
                            -0.1208865608817784
                        ],
                        [
                            0.7861776448112177
                        ]
                    ],
                    [
                        [
                            0.724272560358592
                        ],
                        [
                            0.4900446325231125
                        ]
                    ],
                    [
                        [
                            -0.5545855372904391
                        ],
                        [
                            -0.301144285677432
                        ]
                    ],
                    [
                        [
                            0.22222014074050955
                        ],
                        [
                            -0.023853643881690978
                        ]
                    ],
                    [
                        [
                            -0.900585907820747
                        ],
                        [
                            0.7863810219319474
                        ]
                    ],
                    [
                        [
                            -0.35957325240163573
                        ],
                        [
                            0.3912767928969836
                        ]
                    ]
                ],
                [
                    [
                        [
                            -0.817529418449142
                        ],
                        [
                            -0.8174980639380449
                        ]
                    ],
                    [
                        [
                            -0.04467799602875999
                        ],
                        [
                            0.9429810009998398
                        ]
                    ],
                    [
                        [
                            -0.5196760092366755
                        ],
                        [
                            -0.6464453978695508
                        ]
                    ],
                    [
                        [
                            -0.2093705661630232
                        ],
                        [
                            -0.25016933324608215
                        ]
                    ],
                    [
                        [
                            -0.8583581914257445
                        ],
                        [
                            -0.002947127883527134
                        ]
                    ],
                    [
                        [
                            -0.5032352390229309
                        ],
                        [
                            -0.6114499409869603
                        ]
                    ],
                    [
                        [
                            -0.1598194656227212
                        ],
                        [
                            0.5195758143449856
                        ]
                    ],
                    [
                        [
                            -0.7166046601999203
                        ],
                        [
                            -0.36147235662550714
                        ]
                    ],
                    [
                        [
                            -0.42981636057897976
                        ],
                        [
                            -0.16133774693049396
                        ]
                    ],
                    [
                        [
                            0.4723277718916663
                        ],
                        [
                            0.23472917676631533
                        ]
                    ]
                ],
                [
                    [
                        [
                            0.5404215395519067
                        ],
                        [
                            -0.4604145921467173
                        ]
                    ],
                    [
                        [
                            -0.09731709765406782
                        ],
                        [
                            0.28696695588909904
                        ]
                    ],
                    [
                        [
                            -0.4890836974322881
                        ],
                        [
                            -0.963091673870859
                        ]
                    ],
                    [
                        [
                            0.42508085379842075
                        ],
                        [
                            0.5854427709872463
                        ]
                    ],
                    [
                        [
                            0.5938467420190272
                        ],
                        [
                            -0.9482193836598898
                        ]
                    ],
                    [
                        [
                            -0.8189776998301375
                        ],
                        [
                            0.34666057062703426
                        ]
                    ],
                    [
                        [
                            -0.8014875623337154
                        ],
                        [
                            0.2977749487764081
                        ]
                    ],
                    [
                        [
                            0.8392784218774494
                        ],
                        [
                            0.023915804120104633
                        ]
                    ],
                    [
                        [
                            0.9683663574419976
                        ],
                        [
                            -0.16564913533896086
                        ]
                    ],
                    [
                        [
                            0.3860186202488971
                        ],
                        [
                            -0.3268668400784067
                        ]
                    ]
                ],
                [
                    [
                        [
                            -0.2576270346443379
                        ],
                        [
                            0.2914546724233591
                        ]
                    ],
                    [
                        [
                            -0.3124808635919354
                        ],
                        [
                            0.7098883198725847
                        ]
                    ],
                    [
                        [
                            -0.1839968980010529
                        ],
                        [
                            0.807738382785534
                        ]
                    ],
                    [
                        [
                            -0.44727633835825586
                        ],
                        [
                            -0.2256053686433861
                        ]
                    ],
                    [
                        [
                            -0.5418192529121328
                        ],
                        [
                            0.07128790597588597
                        ]
                    ],
                    [
                        [
                            -0.1681948747768467
                        ],
                        [
                            0.9236057394673927
                        ]
                    ],
                    [
                        [
                            0.9814143132767839
                        ],
                        [
                            -0.4879592526281855
                        ]
                    ],
                    [
                        [
                            -0.6731624319162473
                        ],
                        [
                            -0.021087716908663845
                        ]
                    ],
                    [
                        [
                            0.24995179755873687
                        ],
                        [
                            -0.7877988011775061
                        ]
                    ],
                    [
                        [
                            -0.899263783237896
                        ],
                        [
                            -0.8071382800008788
                        ]
                    ]
                ],
                [
                    [
                        [
                            0.9120914884350613
                        ],
                        [
                            0.47117528476248793
                        ]
                    ],
                    [
                        [
                            -0.5112012468557721
                        ],
                        [
                            0.49181463591844476
                        ]
                    ],
                    [
                        [
                            0.8050174104589967
                        ],
                        [
                            -0.7807266829246953
                        ]
                    ],
                    [
                        [
                            -0.9120624144227321
                        ],
                        [
                            -0.3420313843833209
                        ]
                    ],
                    [
                        [
                            -0.8259111976603084
                        ],
                        [
                            -0.3252605049226225
                        ]
                    ],
                    [
                        [
                            -0.8752090733087547
                        ],
                        [
                            0.33313084309644636
                        ]
                    ],
                    [
                        [
                            -0.6950344863770974
                        ],
                        [
                            0.16312726800993715
                        ]
                    ],
                    [
                        [
                            0.23211170442896933
                        ],
                        [
                            0.46980944325360263
                        ]
                    ],
                    [
                        [
                            -0.783254386079199
                        ],
                        [
                            0.7470834216402329
                        ]
                    ],
                    [
                        [
                            0.1922731564328537
                        ],
                        [
                            -0.6923138813317189
                        ]
                    ]
                ],
                [
                    [
                        [
                            -0.799565869565857
                        ],
                        [
                            -0.9727412575044325
                        ]
                    ],
                    [
                        [
                            0.26022898189468613
                        ],
                        [
                            0.4283715687011449
                        ]
                    ],
                    [
                        [
                            -0.8563314874520431
                        ],
                        [
                            0.5473644765860752
                        ]
                    ],
                    [
                        [
                            0.7765130464661283
                        ],
                        [
                            -0.12220138322459406
                        ]
                    ],
                    [
                        [
                            -0.8676476253988215
                        ],
                        [
                            0.5056827553153265
                        ]
                    ],
                    [
                        [
                            0.020714196642526383
                        ],
                        [
                            0.024352669076045386
                        ]
                    ],
                    [
                        [
                            -0.09718318379495328
                        ],
                        [
                            0.01812182569763099
                        ]
                    ],
                    [
                        [
                            0.8649569200065514
                        ],
                        [
                            0.6635414255731888
                        ]
                    ],
                    [
                        [
                            -0.11448290127400873
                        ],
                        [
                            0.7000932288771569
                        ]
                    ],
                    [
                        [
                            0.9407862211691704
                        ],
                        [
                            0.7082125067702199
                        ]
                    ]
                ]
            ],
            "biases": [
                -0.1383396120118201,
                -0.4910508803768465,
                0.784591267947077,
                0.11949564676114033,
                -0.029358471543161624,
                0.33587419965341536,
                0.9694717741378716,
                -0.8107914819590571,
                -0.8584494035509951
            ]
        },
        {
            "type": "pool",
            "size": 1,
            "stride": 2,
            "pool_type": "avg"
        },
        {
            "type": "pool",
            "size": 1,
            "stride": 2,
            "pool_type": "avg"
        },
        {
            "type": "pool",
            "size": 1,
            "stride": 2,
            "pool_type": "avg"
        },
        {
            "type": "pool",
            "size": 1,
            "stride": 2,
            "pool_type": "max"
        },
        {
            "type": "pool",
            "size": 1,
            "stride": 2,
            "pool_type": "avg"
        },
        {
            "type": "pool",
            "size": 1,
            "stride": 2,
            "pool_type": "avg"
        }
    ],
    "ffn_layers": [
        {
            "neurons": 122,
            "activation": "relu",
            "weights": [
                [
                    -0.8987139052212043,
                    -0.7795460348805614,
                    -0.5550208999047264,
                    0.4512584228733245,
                    -0.5598645639511479,
                    -0.8896431170826289,
                    0.8034720725195355,
                    0.8087195479002489,
                    -0.6672448535069941
                ],
                [
                    0.8266080776579794,
                    0.6006536119358201,
                    -0.4889322839749861,
                    0.732331882841972,
                    0.17432595659941885,
                    -0.933676952721106,
                    0.9733609484698218,
                    -0.5122991609277896,
                    0.4325279155320181
                ],
                [
                    0.5681622769311772,
                    0.26547967277740225,
                    -0.7136994083891173,
                    0.5086118304703648,
                    -0.4967082589245839,
                    0.8107674446825268,
                    0.13191282906211055,
                    0.5964758937624768,
                    0.08581602438758229
                ],
                [
                    0.9584061377221047,
                    0.17260013960731646,
                    0.8082857479318493,
                    0.994814249365807,
                    0.5361335203681579,
                    0.02882402020832986,
                    0.5550220930141552,
                    0.8799537184971931,
                    -0.25008872830224393
                ],
                [
                    0.23316128622098398,
                    -0.7821178453603908,
                    0.14080383870078217,
                    -0.046923497034181194,
                    0.0346617192445402,
                    -0.3639929615139328,
                    0.16970793535245732,
                    -0.13007040677007176,
                    0.3383849578497671
                ],
                [
                    -0.6594660117193405,
                    -0.558973874771149,
                    -0.5279035612506859,
                    0.5336224181401801,
                    -0.127972776836768,
                    0.9491802496568902,
                    -0.5693624816460212,
                    -0.399675323646171,
                    0.2480290831949057
                ],
                [
                    -0.757628106002403,
                    -0.02511288541414869,
                    -0.03802797303392169,
                    -0.004345189052793685,
                    0.783413547893393,
                    0.571396226982974,
                    -0.5037531805160451,
                    -0.007643947309132315,
                    -0.9429398563545581
                ],
                [
                    -0.8005681587277991,
                    -0.8624174192507381,
                    -0.6193084793409547,
                    0.07740872820727285,
                    0.7123702597432453,
                    0.6263493319360964,
                    0.8097618383448257,
                    -0.07627696227295,
                    -0.48008295976702753
                ],
                [
                    -0.15970179115238614,
                    0.8497191873762797,
                    0.8316380409386268,
                    -0.21968276632665762,
                    -0.40952867937265247,
                    -0.16599371628786042,
                    0.39564353040050615,
                    0.4311562681607277,
                    0.5845814898422013
                ],
                [
                    -0.9426709648137612,
                    -0.3580306961567472,
                    0.0025345275767529873,
                    0.0962749779436125,
                    -0.4961511812021715,
                    -0.8967681499261171,
                    -0.20311158925404182,
                    -0.3813665294715869,
                    0.3480234091893646
                ],
                [
                    -0.25226303148251206,
                    -0.9161144579482745,
                    -0.660165600832149,
                    0.36219798179722473,
                    0.7005608036444699,
                    0.6528337903389743,
                    0.31282452513701786,
                    -0.5214350057636503,
                    -0.35517550227592265
                ],
                [
                    -0.19095617994726322,
                    0.1650177470151981,
                    0.8920011622676856,
                    -0.6885980500578681,
                    0.1695816932352292,
                    0.90784792347872,
                    -0.7009389788217373,
                    0.10007366341740465,
                    -0.9375811332767057
                ],
                [
                    -0.8917588665612317,
                    0.06363574178248532,
                    -0.1706185198003174,
                    -0.32264344326671,
                    -0.3790862050425996,
                    -0.3607592372647206,
                    -0.06485511936022581,
                    -0.17588088593109164,
                    -0.523153879689368
                ],
                [
                    -0.9523557213440839,
                    0.22712766023682485,
                    0.4164585286315623,
                    -0.7726313250839001,
                    0.9721820723825092,
                    0.4847919007688748,
                    -0.8355126115284106,
                    0.7245724682679451,
                    0.9560848808339946
                ],
                [
                    0.9995375265012441,
                    0.03984895828795354,
                    0.638823034083283,
                    0.12110274312059799,
                    -0.10866116651958735,
                    0.9340578205087187,
                    0.7992448355354189,
                    -0.13541204212508928,
                    -0.5867567243709102
                ],
                [
                    -0.6121802036523853,
                    0.5446794682041383,
                    0.2874922384732832,
                    -0.43090400342369106,
                    0.6903196123414181,
                    0.4525693594822815,
                    -0.5283409951333806,
                    -0.3895461549059138,
                    0.6729547080813414
                ],
                [
                    0.15553098330658344,
                    0.16257519733525538,
                    -0.7952118932262187,
                    0.040744342746865,
                    -0.8480147527573181,
                    0.9548572304864655,
                    -0.6528808601441713,
                    -0.6671916725130249,
                    0.6553146417673099
                ],
                [
                    -0.07584358998859542,
                    -0.00697761147223197,
                    -0.2343087179117016,
                    -0.7051838482936299,
                    -0.807596527464179,
                    -0.5430645245611629,
                    0.0011955703697110742,
                    -0.9619045216152631,
                    -0.7300836717571537
                ],
                [
                    0.9241988456752521,
                    0.9212372141869611,
                    0.29649327297461014,
                    0.6750022327343415,
                    0.3083709318693728,
                    -0.8603990533381392,
                    0.29113605801024645,
                    0.3076844776671257,
                    -0.31346081073665477
                ],
                [
                    0.6569139657862986,
                    0.8446222974513529,
                    -0.037441463157394494,
                    -0.5502838277718649,
                    -0.9091361353899872,
                    0.9790212738419288,
                    -0.8569554798740859,
                    -0.3986787595516612,
                    0.724332650098988
                ],
                [
                    -0.14050695215676146,
                    -0.03593590152875592,
                    -0.14213800215744987,
                    -0.3668605904266591,
                    -0.5813022598069457,
                    -0.45930471402622985,
                    0.4979745242924518,
                    0.3031405599218595,
                    -0.31054731228447663
                ],
                [
                    -0.20374392081565262,
                    -0.09593514395484326,
                    -0.8601193758580756,
                    0.48266011076021775,
                    0.27456052891421123,
                    -0.8924714116109584,
                    -0.48631217620552936,
                    0.0660477957708121,
                    -0.1857996030069633
                ],
                [
                    -0.895418832298464,
                    0.9723789672393468,
                    0.1828487171102,
                    -0.8324748773892074,
                    0.4007356945710874,
                    -0.5847058655069921,
                    0.07494553078087485,
                    -0.49640589750784136,
                    -0.7395959296925512
                ],
                [
                    0.9981563950848065,
                    -0.677779664556047,
                    -0.09276890344527233,
                    0.8036851474338211,
                    0.7950931639699823,
                    -0.19483758167281806,
                    0.7347561307759163,
                    0.17321792271264647,
                    0.28146711766365917
                ],
                [
                    0.13038756584108957,
                    0.5919298529611567,
                    -0.9007839321643643,
                    -0.2370880621357312,
                    -0.622575964692861,
                    0.8127310216671078,
                    0.16796064397297905,
                    -0.9566774348563885,
                    -0.5153394168390426
                ],
                [
                    -0.3966452111818888,
                    0.3175784544436522,
                    0.9787093567089693,
                    0.6053779242848631,
                    0.678691103926631,
                    0.07635069923314597,
                    -0.6214430378263132,
                    0.3344530896314353,
                    -0.6175628949226519
                ],
                [
                    0.2552300040401132,
                    -0.9939640589759151,
                    0.43895425958588175,
                    0.6970416464426104,
                    0.18535465535089712,
                    0.37630264873971564,
                    -0.8333847274126325,
                    0.8092631844422051,
                    -0.057192476684424065
                ],
                [
                    -0.1371434194877852,
                    -0.342157165997542,
                    0.6535595376371202,
                    -0.7224310727359831,
                    -0.027984344636780678,
                    0.37894631824649894,
                    0.2318697666420848,
                    0.5405616010526246,
                    0.7413909416873299
                ],
                [
                    0.12143916720708203,
                    -0.10000960546883841,
                    0.4575209728663814,
                    -0.7694740519030847,
                    -0.186696608525049,
                    0.002731574707969253,
                    0.9524928991087862,
                    0.17754850160646063,
                    -0.5536957609367439
                ],
                [
                    -0.7826341947645377,
                    0.6838939235090795,
                    -0.481296923745665,
                    -0.18260940910224255,
                    -0.5442998476293788,
                    -0.8714814190995224,
                    -0.8706857398653376,
                    0.5611101302236736,
                    0.9183061103754406
                ],
                [
                    0.9535856710955026,
                    -0.39070185244779077,
                    0.277434328741893,
                    -0.16363325646232307,
                    -0.35333238855640325,
                    0.003987729610091417,
                    -0.9098599446144024,
                    0.33605889902288855,
                    0.5096293813355464
                ],
                [
                    0.5404641313001257,
                    0.5278686998422628,
                    -0.6354460501581127,
                    0.3415870870814304,
                    0.26682954341300036,
                    -0.8002131098470202,
                    -0.8376778532005895,
                    -0.15741361506360985,
                    -0.4634029325450404
                ],
                [
                    -0.7858298071566114,
                    0.42295938473087613,
                    -0.8100665907838531,
                    -0.5709718592613471,
                    0.20669033768153655,
                    0.7175867556302908,
                    -0.3196820382000465,
                    0.25238275431969037,
                    0.9928488383544263
                ],
                [
                    0.9343683964232234,
                    -0.9381039760481757,
                    -0.8770937421394485,
                    -0.18494868184356683,
                    0.518040999605355,
                    -0.2988955348950688,
                    -0.6580307450742202,
                    0.9323385235890416,
                    -0.857149614547924
                ],
                [
                    0.9788942416232953,
                    0.14792522531129237,
                    -0.029227054775885053,
                    0.7615398596254941,
                    -0.09066439284577266,
                    0.7314725933823909,
                    -0.12549584338581532,
                    -0.5626292487828326,
                    0.4044524253800148
                ],
                [
                    -0.3299015776558627,
                    -0.687060819594562,
                    -0.7205158299601679,
                    -0.09460141379892795,
                    0.7593395618385321,
                    -0.8756824033394432,
                    -0.06232793721019414,
                    0.5477528101381026,
                    0.5672324046824264
                ],
                [
                    -0.017832758615938804,
                    0.29923103566060827,
                    -0.4963200816078135,
                    0.05225331809885447,
                    -0.06943526139123679,
                    0.31267017381999684,
                    0.539434852079977,
                    0.4423079980735236,
                    0.6595311219811391
                ],
                [
                    0.356283529881229,
                    -0.25610629136726293,
                    -0.40883027915089376,
                    0.5120091218074003,
                    0.13517559205670815,
                    -0.6441790837098904,
                    0.6397906233246735,
                    0.4897501656946679,
                    0.6640663600474865
                ],
                [
                    0.8593372419349137,
                    -0.7947038553195136,
                    0.9167445763910869,
                    0.8420090275607024,
                    -0.7506254877309955,
                    0.26353061930694555,
                    -0.4743429719772527,
                    -0.989243216921005,
                    -0.7431094534095128
                ],
                [
                    -0.7213859045399327,
                    0.635662208928957,
                    0.9673853859799133,
                    0.17535322016585986,
                    0.847037490169859,
                    -0.5816808324033524,
                    0.1464729763973529,
                    -0.4116936331197609,
                    0.15267820439556345
                ],
                [
                    0.6886132564457612,
                    -0.39012643389053925,
                    -0.008549848319816533,
                    0.9823325761151371,
                    -0.7241148077019133,
                    0.9090072827004607,
                    -0.32210001325091264,
                    -0.1893779971557661,
                    0.3180163361691397
                ],
                [
                    0.44631605406430497,
                    -0.02951263604253751,
                    0.23794469822891795,
                    -0.5969199845976421,
                    -0.9811336248353026,
                    0.7990151487089405,
                    -0.4606646863526134,
                    0.11412267354935612,
                    -0.7771214609164674
                ],
                [
                    -0.4460948893115937,
                    0.23457087796940623,
                    0.026899414783637,
                    0.5853538441445925,
                    -0.289664506068124,
                    0.5425095338176411,
                    0.9890627918151729,
                    -0.6375867997751012,
                    0.5773633664693958
                ],
                [
                    -0.02064472221324043,
                    0.9413971342613792,
                    -0.8410209581938084,
                    0.5882468285440912,
                    -0.1315591712520352,
                    -0.9954893732278429,
                    0.9188073631851554,
                    0.6937328080397815,
                    0.6078480632826782
                ],
                [
                    0.17302432146164048,
                    0.9784369289295449,
                    0.9428427179915233,
                    -0.8153849338499499,
                    0.7143776228808452,
                    0.6858559537919668,
                    -0.4449260430990347,
                    -0.8214632240082607,
                    0.6200386682996231
                ],
                [
                    0.4562284339721696,
                    -0.4464325009300698,
                    0.11946983950569878,
                    0.08156789848625468,
                    0.8063481041246539,
                    -0.6000937276926803,
                    -0.20340421634756867,
                    0.6921396566929199,
                    -0.9735286004891139
                ],
                [
                    0.24511182621040528,
                    -0.557816234622518,
                    0.41388259292793017,
                    0.7592891874231193,
                    -0.9962760360172793,
                    0.9126956931917283,
                    -0.3170577994180408,
                    -0.12751773266154798,
                    -0.6513507240844132
                ],
                [
                    -0.84099824818453,
                    -0.4166784117274569,
                    -0.7727528478500476,
                    0.13171852636139603,
                    0.5914729244467416,
                    0.9200120576818525,
                    -0.9113607458108015,
                    0.2796317207997947,
                    -0.1213271601129009
                ],
                [
                    0.5920377565561543,
                    0.36377507794021957,
                    0.011769850032836038,
                    -0.8221169206440018,
                    0.6012271895990369,
                    -0.10376736476488224,
                    -0.06571154313932737,
                    0.13588097160389712,
                    0.2767063980050002
                ],
                [
                    0.45577339496049807,
                    0.42387532511896664,
                    -0.09954369217826842,
                    0.5781902374019285,
                    0.60602313582712,
                    -0.9208959896592992,
                    0.3559242866362473,
                    -0.39974172172607436,
                    0.05793941615824072
                ],
                [
                    -0.2519554261367438,
                    -0.3890192944821482,
                    -0.20253254850254887,
                    0.7290466466538816,
                    0.16951039843191573,
                    -0.22454948057386015,
                    -0.6550481052532731,
                    -0.9428772788277793,
                    -0.12259866630142291
                ],
                [
                    0.1831653327588907,
                    0.8519981359965192,
                    -0.018844674723561328,
                    0.1401239304923072,
                    0.25465890884739073,
                    0.7964977015353989,
                    0.39853811182862686,
                    -0.22018381077411986,
                    0.3811351926159994
                ],
                [
                    -0.8667229373093623,
                    0.17077214771870608,
                    0.32062964570594343,
                    -0.3771655011521706,
                    -0.3381345772053561,
                    0.08072151288857454,
                    -0.7612961752706346,
                    0.8058687968128491,
                    -0.4094065615791207
                ],
                [
                    -0.7376923525558121,
                    0.3521887019505765,
                    -0.899990884917057,
                    -0.6073618296311372,
                    0.0313042613744996,
                    0.24164175425246293,
                    -0.5408534252033936,
                    0.0760260228563987,
                    0.3068975940916845
                ],
                [
                    0.044015494587974935,
                    -0.2304988336608591,
                    0.6782678202925088,
                    -0.5234806332641482,
                    0.4491149907167853,
                    0.2707262801266035,
                    0.30109794744425056,
                    0.7295204390449863,
                    0.8482808816514444
                ],
                [
                    -0.5364677784062599,
                    0.8320935843161592,
                    -0.5038940533505525,
                    0.3078484223906821,
                    -0.32184336386424617,
                    0.6326561941157667,
                    0.21906848341659746,
                    -0.5484262028660103,
                    -0.39393664900735437
                ],
                [
                    0.7701980385335201,
                    -0.08742169991173787,
                    0.7574202934136987,
                    -0.10789416285348952,
                    0.7936847327074161,
                    0.8362469297950794,
                    0.3839891270943099,
                    -0.29477325221472483,
                    -0.7991312506059289
                ],
                [
                    0.1336743312033719,
                    -0.10913301974457257,
                    0.7731257640042211,
                    0.25279019404319025,
                    0.942937387850955,
                    0.7396648818489975,
                    0.7133134249586497,
                    -0.3734574818194485,
                    -0.5142465988282627
                ],
                [
                    0.8307954665228567,
                    -0.568622596541037,
                    0.11812914479197922,
                    -0.19864740226288724,
                    0.05427700024525439,
                    0.7235564834378176,
                    0.8272595422920319,
                    0.7487762276643617,
                    -0.4505363888510394
                ],
                [
                    -0.190401202485726,
                    -0.11747823341041341,
                    0.29860126774244855,
                    -0.8059945065425036,
                    -0.5035604706963845,
                    -0.3720219611811528,
                    0.6688652251278076,
                    -0.9789441022318259,
                    -0.29874265524362054
                ],
                [
                    -0.7736716107724257,
                    -0.2232810861835166,
                    0.5878041316021638,
                    0.5046818678631881,
                    -0.2813472660326708,
                    -0.2625017945916972,
                    -0.15898074669383422,
                    -0.8590424362834888,
                    -0.7620254857383837
                ],
                [
                    0.9659478434937367,
                    0.26812190531954117,
                    -0.608530036434028,
                    -0.878836180763358,
                    0.35009746733291114,
                    0.6667843662375996,
                    -0.4213797302826465,
                    -0.9758960197254749,
                    0.017021991007007742
                ],
                [
                    0.7240515358955131,
                    0.288800512157553,
                    0.3002660208211372,
                    0.45904809832222737,
                    -0.7135921885638459,
                    -0.11093866360118065,
                    0.3194046298479005,
                    -0.2817012839401094,
                    0.7436013940522641
                ],
                [
                    -0.45668935243204745,
                    0.870501272777527,
                    0.08324846067797087,
                    0.20163281194810123,
                    -0.6794048761630809,
                    0.44343908942678634,
                    0.9236326425377199,
                    -0.5293664721500657,
                    -0.48255504198074917
                ],
                [
                    0.002506920872474838,
                    -0.26645035775445547,
                    0.020085979305817903,
                    0.22855011570037753,
                    0.616856784889191,
                    -0.024397805586761745,
                    0.4877701592023749,
                    -0.6080617378392128,
                    -0.8216921053010857
                ],
                [
                    -0.6900376617603332,
                    0.46919816389296365,
                    -0.2299007696031936,
                    -0.005081235723860988,
                    -0.28953744549883464,
                    -0.5207387363886087,
                    -0.993409724522893,
                    -0.282044557574487,
                    0.6685128061179613
                ],
                [
                    -0.5847674889420627,
                    -0.9726517185199794,
                    0.6712913662460025,
                    -0.8931182624974352,
                    -0.30477388020597873,
                    0.23071665883842263,
                    -0.354603129459375,
                    0.4641051049385625,
                    -0.3424958479258442
                ],
                [
                    0.9251280712805625,
                    0.7576245842016092,
                    0.11618192633559898,
                    0.16797932514707647,
                    0.7721484583435816,
                    -0.297904555977091,
                    0.2355883694560359,
                    -0.7398454644907007,
                    -0.604123767744422
                ],
                [
                    -0.7108942691456108,
                    -0.025221596767351695,
                    0.8529537984535256,
                    0.03433977068489158,
                    -0.5568337122364722,
                    -0.18311637324411523,
                    0.525772293558028,
                    -0.2476763273318512,
                    0.45951404726747436
                ],
                [
                    -0.355660700567773,
                    0.527190359689304,
                    -0.7590498166607886,
                    0.9549125544733874,
                    -0.7255574703726098,
                    -0.9178437731523665,
                    0.3023196535244097,
                    -0.2144509191131485,
                    -0.4767799028516506
                ],
                [
                    -0.5720653230524275,
                    -0.9136979796792999,
                    0.8182974608774372,
                    -0.54472013825966,
                    0.6394927298193716,
                    0.5858474568863878,
                    -0.08534803226459475,
                    0.012223259623797444,
                    -0.9008167236696005
                ],
                [
                    -0.7811334108804981,
                    -0.6540318175816893,
                    0.7001869428787852,
                    0.19863433015209853,
                    -0.42425631628034943,
                    0.9524433279711704,
                    -0.8017213554546254,
                    0.8279324562080383,
                    -0.37006084607452694
                ],
                [
                    0.5621280497995487,
                    0.6135309200335262,
                    0.5586405574069917,
                    0.8205948782900545,
                    0.48357349758034496,
                    -0.5789332294404985,
                    0.8098525177665943,
                    -0.8306455168771107,
                    -0.7460878697728992
                ],
                [
                    -0.43756553001817755,
                    -0.779156212206874,
                    -0.3302521768271318,
                    -0.885790785401003,
                    0.4429588139846694,
                    -0.20043567872835322,
                    -0.2758247353809209,
                    0.6935444917155331,
                    -0.6333246582409173
                ],
                [
                    -0.4047915900144199,
                    -0.5495937508743518,
                    -0.46709352575749685,
                    -0.651039034391353,
                    0.35745638931208923,
                    -0.7722585453685984,
                    0.212968117313304,
                    -0.4608399983881959,
                    0.6140564005133522
                ],
                [
                    -0.6199104056572176,
                    0.19323993254825167,
                    0.5993065661013994,
                    0.21419489918828938,
                    -0.5110992990310042,
                    -0.7319272301264363,
                    -0.3406064261069468,
                    -0.9291504371986288,
                    -0.37914648148942964
                ],
                [
                    0.18355869437104677,
                    0.5433641528307165,
                    -0.09987210033176352,
                    0.26224654219938204,
                    0.291542156357375,
                    0.8300361848199806,
                    -0.8075949745372788,
                    -0.4962289809382847,
                    -0.8284318274930123
                ],
                [
                    0.8377176403107767,
                    -0.31933462198759344,
                    0.7691108505468733,
                    -0.024616931200299952,
                    0.07711477908250419,
                    -0.6048341046091299,
                    0.6492107713395152,
                    0.9305179662196081,
                    -0.6377226698969642
                ],
                [
                    0.9737903118211928,
                    -0.6866389723384503,
                    0.16851953976898448,
                    -0.02665082786327777,
                    0.9371479819726953,
                    -0.8640034821625164,
                    -0.45783287632268554,
                    0.30062064697544666,
                    0.9677470132883588
                ],
                [
                    -0.007122558038243687,
                    0.8655393488296981,
                    -0.17789081157386422,
                    0.024163351931346222,
                    -0.4034682601491726,
                    0.2731730935540748,
                    -0.39460433510044557,
                    0.25299829186736655,
                    -0.47077318038071136
                ],
                [
                    0.4684851467451814,
                    0.31905721933191766,
                    -0.5850941422614986,
                    0.10095350373384537,
                    -0.8435160904837904,
                    0.7847978060107492,
                    0.008075374575178484,
                    0.03831125544842928,
                    -0.6818110273187048
                ],
                [
                    -0.04159567567864264,
                    -0.9598937281462983,
                    0.001883689179175585,
                    -0.969287998884341,
                    -0.5660134880069319,
                    -0.3636335353013449,
                    0.9992644213372841,
                    -0.13151612071254593,
                    0.11651370673261363
                ],
                [
                    0.45464596320546846,
                    -0.3477468072698988,
                    -0.4903693484713094,
                    0.7852990730172307,
                    0.6819599715992806,
                    -0.770420802958085,
                    -0.7739986706856967,
                    -0.6507852776171998,
                    0.2822088364909954
                ],
                [
                    -0.585244602437629,
                    0.04244782731460606,
                    0.6963034670763524,
                    -0.24145681230384897,
                    -0.3541832854907436,
                    0.4799676039497853,
                    0.8850876889688744,
                    -0.015164021464285415,
                    0.09654556225010147
                ],
                [
                    0.6048224356369991,
                    0.9546027852767391,
                    0.4545065745818597,
                    0.33691419988848037,
                    -0.13911227990405428,
                    0.21253372523966996,
                    -0.9204912718474989,
                    -0.9974149186248642,
                    -0.32573666081281494
                ],
                [
                    -0.9331131556913386,
                    -0.4953833316050398,
                    0.654583637280844,
                    0.18670295656903058,
                    0.3240394739093939,
                    0.6493721969455382,
                    0.9102993171558842,
                    0.8297994106796209,
                    -0.4771547015005775
                ],
                [
                    0.6156403656184017,
                    -0.5256904842741958,
                    0.2408708670063353,
                    -0.24883564830468696,
                    -0.7728231529208183,
                    0.7108014543915104,
                    0.45353128049834246,
                    -0.49297396485152345,
                    0.7549323775919579
                ],
                [
                    -0.11844503006701146,
                    0.19238763010041815,
                    0.6485348839591711,
                    0.812993353423582,
                    0.5623786348714861,
                    -0.8324313311319429,
                    -0.7207645095950588,
                    -0.6723091723767327,
                    -0.07011252158854586
                ],
                [
                    0.8073306366496853,
                    -0.48847959588574064,
                    -0.36790942117832426,
                    -0.5531352138528254,
                    0.7144447703810586,
                    -0.3172477528984079,
                    0.5512992145486366,
                    -0.0855477631261563,
                    -0.39892863904092946
                ],
                [
                    -0.9976675307872678,
                    -0.6259747858320948,
                    -0.845514279242715,
                    0.23809862348556354,
                    -0.33875670161268423,
                    0.44459848521912737,
                    0.46593038878288007,
                    -0.7790915121396378,
                    -0.9919204301369813
                ],
                [
                    0.08898908027555641,
                    0.5949576308999651,
                    0.029872408397870753,
                    -0.05120672975118046,
                    -0.06363989815910664,
                    -0.5998379316041642,
                    -0.9750591855214679,
                    0.23322471307206194,
                    -0.003810903764831064
                ],
                [
                    0.06030285321905571,
                    0.0061397524236985745,
                    0.7540908652781391,
                    0.35974810225253906,
                    -0.11089335921801502,
                    -0.7376684541434329,
                    -0.20021341517089497,
                    -0.7241302746172649,
                    -0.511231084594765
                ],
                [
                    0.9334251774866578,
                    0.9672022469729828,
                    -0.3684891112999358,
                    -0.3031967354363756,
                    -0.23147157994766943,
                    -0.8941060925389546,
                    0.42122392196902614,
                    0.08889818494638257,
                    -0.4599915915139061
                ],
                [
                    0.10720915035728673,
                    0.5126332052209346,
                    0.803212552175709,
                    0.37878192781000974,
                    0.2586901128085257,
                    -0.48246733777019446,
                    0.6976642073176531,
                    0.5022870332085647,
                    0.42513932756602113
                ],
                [
                    0.372829994771092,
                    0.07822579352665215,
                    0.1707147371898452,
                    -0.9025315891461094,
                    0.9364703939127732,
                    -0.8926707720225786,
                    -0.42326489679998414,
                    0.45709606308672446,
                    -0.4258145933401778
                ],
                [
                    0.44448488042621737,
                    0.3504616644781331,
                    0.11552959414489972,
                    0.6724222958311683,
                    -0.19769367264183946,
                    -0.38354020094124386,
                    0.34712442717529557,
                    -0.4496965876490977,
                    -0.04644823733105974
                ],
                [
                    -0.9560296374312678,
                    -0.4981476291148781,
                    -0.39565983184218756,
                    0.923493771463844,
                    -0.6484481372184177,
                    -0.23813958572975436,
                    -0.38134789805582203,
                    0.7940732914314854,
                    0.02212212476639852
                ],
                [
                    0.9558561485090162,
                    0.15840372369884514,
                    0.08153014745363829,
                    -0.24854616629795534,
                    0.6057222158005975,
                    -0.7319330879250341,
                    0.6641604738566007,
                    -0.592685423709876,
                    0.018148017984558784
                ],
                [
                    -0.9469643943672277,
                    -0.9590087941796832,
                    0.6278001373356978,
                    -0.4207341694115534,
                    0.26632052864198874,
                    -0.9119824715962821,
                    -0.9256692681571996,
                    0.16776031112719836,
                    -0.7863598206998366
                ],
                [
                    0.2798955904807494,
                    -0.6683052055316876,
                    -0.23987966694937524,
                    -0.6204174757664349,
                    -0.19599383743052967,
                    -0.8592428621366783,
                    -0.7306889808209114,
                    -0.706395415142137,
                    0.4009973132320772
                ],
                [
                    0.8499031072465957,
                    -0.2793592927058062,
                    -0.26983808052667846,
                    -0.6400457168242464,
                    -0.046475933276126424,
                    -0.9085202724430035,
                    -0.24430531166635627,
                    0.745169525396536,
                    0.966438741965151
                ],
                [
                    -0.9816210757995112,
                    0.7066370987644368,
                    -0.024319194418581436,
                    -0.5094616261562146,
                    -0.4658273135394473,
                    0.9861005951687591,
                    0.3284045327781615,
                    0.3010948835092708,
                    -0.3732671074775584
                ],
                [
                    -0.028394659471963513,
                    0.20092569361714796,
                    0.47694653894790395,
                    0.5188135717824351,
                    0.3875312859474782,
                    0.9375233645894376,
                    -0.638836320877697,
                    -0.836296920462885,
                    0.3018626337236987
                ],
                [
                    -0.43296137943085466,
                    0.7765294440833466,
                    -0.04420871165728446,
                    0.6710155942402127,
                    -0.6595396454185833,
                    -0.9554526341533971,
                    -0.578741824856015,
                    0.010866627352908553,
                    0.5526033091604781
                ],
                [
                    -0.9536390714833134,
                    -0.5840815005704341,
                    -0.9616957521962957,
                    0.5150668480920968,
                    0.21705297444704597,
                    -0.14685838337378443,
                    0.6625976634211672,
                    -0.15302127763730322,
                    -0.07428058517606484
                ],
                [
                    0.7312337233723001,
                    -0.048339925229213154,
                    0.831441102042735,
                    -0.931467805751343,
                    0.16206321726943895,
                    0.1717184973248156,
                    0.3654393698121563,
                    0.47231829880073195,
                    -0.6948277457941023
                ],
                [
                    -0.8510396505075541,
                    -0.3641479549638096,
                    -0.33064177589785637,
                    0.6567345554340607,
                    0.7394160906826908,
                    -0.36670829766423996,
                    -0.5816392129657022,
                    -0.5848767620835273,
                    -0.592890829322074
                ],
                [
                    -0.1635701061481989,
                    0.8774688753275008,
                    0.8635405215570624,
                    -0.019331543993095668,
                    -0.9685753843572247,
                    0.9415223609854788,
                    0.36779382714273234,
                    -0.9251913712238395,
                    0.32910346937948853
                ],
                [
                    -0.2456429957253703,
                    -0.45875147463147936,
                    0.6169871281321957,
                    0.12897309044745753,
                    0.1919764103074013,
                    0.6471618773563679,
                    -0.09002916738510569,
                    -0.6731426132771439,
                    -0.4665424002080112
                ],
                [
                    0.34911594851203276,
                    -0.018804456321724228,
                    0.3537088594617819,
                    0.07310346290194625,
                    0.3089490005013036,
                    0.7952745836667432,
                    0.31352020676841397,
                    -0.4846836809675832,
                    -0.578275419460277
                ],
                [
                    -0.2342413473968732,
                    -0.9623450326420666,
                    -0.15528860224504948,
                    -0.052903617233755806,
                    0.46862928041018126,
                    0.5455092491933233,
                    0.48822012186545716,
                    0.09471103794463609,
                    0.35048743185907894
                ],
                [
                    -0.8511410960893833,
                    0.5965551198917938,
                    0.43513780488183174,
                    0.17428002739767234,
                    -0.8679983646578073,
                    -0.8840143203118906,
                    -0.9872466602063943,
                    -0.5255811218194666,
                    0.46278305984651213
                ],
                [
                    -0.08888717190448481,
                    -0.5588242157102106,
                    0.7030952333233289,
                    0.9656558568323987,
                    -0.9852365528832132,
                    -0.12162037429013073,
                    0.8020786700522251,
                    -0.6384930203560766,
                    -0.8325505616219107
                ],
                [
                    0.373585568481807,
                    -0.8534488064735382,
                    0.0006001421387338279,
                    0.3801786346690186,
                    -0.688719246976202,
                    -0.985883119749895,
                    0.45096157609776566,
                    -0.6692602582377631,
                    0.22857922540519193
                ],
                [
                    0.9754554186252333,
                    -0.444788788249181,
                    -0.6376616197980003,
                    0.6223887400342523,
                    0.401593809271819,
                    0.2852900131456493,
                    0.4265577274404875,
                    -0.4336632317515754,
                    0.7842298085643937
                ],
                [
                    -0.6964579660456829,
                    0.005171858145538222,
                    -0.9991087735372088,
                    -0.8407829634345703,
                    -0.18673158020516345,
                    -0.6726683895649226,
                    -0.12416379480426087,
                    0.23594364210177243,
                    0.07332638042926232
                ],
                [
                    -0.18508165641672703,
                    -0.5419928311652229,
                    0.654290221522585,
                    0.6593923763822052,
                    -0.7960358329764021,
                    0.28860131942729206,
                    0.8620408419746002,
                    0.9301228685070906,
                    0.4175542345509653
                ],
                [
                    0.27523514761652,
                    0.5985593729344778,
                    0.32535123072049466,
                    -0.8143174902403298,
                    -0.6899213567441409,
                    -0.9430027913392283,
                    0.08923483772650265,
                    -0.7589685244111688,
                    0.6364378035453224
                ],
                [
                    -0.6746573485652341,
                    0.12076731369040172,
                    0.9208289240744552,
                    0.15635895979245795,
                    0.10359681008585153,
                    0.21333700619647922,
                    0.2227871376179691,
                    -0.9885534146818038,
                    0.09468541595119495
                ],
                [
                    0.6070631158684208,
                    0.06095231897630504,
                    0.07898941614483745,
                    -0.5870027733057797,
                    -0.5895838914908165,
                    -0.8581736114836684,
                    0.2492827003038376,
                    0.01061802592761163,
                    0.34772536456065417
                ],
                [
                    0.4600665824101404,
                    -0.8623633919982434,
                    -0.996309530793984,
                    0.7694819388826304,
                    -0.4508251474111178,
                    0.5997029328544274,
                    0.3763711019544458,
                    0.2381052961154546,
                    0.8829201383952219
                ],
                [
                    0.6427756693854614,
                    -0.8454529968562345,
                    0.9111980251954073,
                    0.4361172281082182,
                    -0.47306667256229895,
                    -0.16678026629000975,
                    -0.4726114161399382,
                    -0.6119111182751504,
                    -0.44938601667141054
                ]
            ],
            "biases": [
                0.5466720736670831,
                -0.9332528963438891,
                -0.7937896231223649,
                -0.630657897906665,
                -0.5930434801794913,
                -0.7141468981000296,
                -0.3033044863047829,
                -0.30728649732320834,
                -0.8093147806392278,
                -0.173128930335662,
                0.7320068327673397,
                -0.1226330530190336,
                -0.2992030922794233,
                -0.5932115294223563,
                -0.23989093512005333,
                0.3436477195464951,
                -0.1456637014122164,
                0.03738730712386773,
                -0.44341433830294785,
                0.7839411307573214,
                -0.16321663715728985,
                -0.9980726407013483,
                -0.19567515424476012,
                -0.7629773240554607,
                -0.04829991256523458,
                -0.24599013028391892,
                0.1492914409972299,
                -0.1390898988671192,
                -0.4610736241859046,
                0.3868867901717836,
                -0.6657801369375067,
                -0.4799440230907033,
                -0.3154499645590616,
                -0.009938478278152418,
                -0.0019200269040042794,
                0.95268515031411,
                -0.5910371494145381,
                -0.4995681687295248,
                -0.5182734623406757,
                0.4717375136745807,
                -0.8337113849430833,
                0.7933678066693721,
                -0.5682579726575332,
                -0.15082782622952662,
                -0.7907731097157922,
                -0.7666067966040944,
                0.6303548425599252,
                -0.7879436295280453,
                -0.14442250946015123,
                -0.2888863747561192,
                0.1850608410095902,
                -0.7798636271854356,
                -0.880471195143345,
                -0.9827303451046363,
                0.5852190901417185,
                0.22022376872303306,
                -0.5358786468649526,
                0.13762045801545364,
                0.9101353403824961,
                -0.3948674870925768,
                -0.7491462567788927,
                -0.9178669141617648,
                0.5479727755403969,
                -0.8140169300867117,
                0.3370923929732881,
                -0.3251739757477783,
                -0.9831860589891246,
                0.9507452189696128,
                0.970694950604432,
                0.9216951399122004,
                0.5423531460554676,
                0.8889580292624573,
                -0.8932123679427182,
                -0.29253902675473165,
                0.5309155690247476,
                0.48518215845297674,
                -0.6931035085693578,
                0.2548636296740445,
                0.2803914141652042,
                -0.8922434105762596,
                -0.25070628843971354,
                -0.6689991950877483,
                0.09624476934526882,
                0.7327474819301774,
                -0.6421812745495219,
                0.8843069205509806,
                0.5308963478954205,
                0.4538335071824071,
                -0.42048486642590865,
                0.9485745836319674,
                0.33376258754497057,
                0.5694530639847608,
                0.0021548849037742457,
                0.10810932784392646,
                -0.4272569377344988,
                0.5785954830202531,
                0.26751750071837566,
                0.31637236922448553,
                -0.4377514392570634,
                -0.9582603356996442,
                0.15135126714767932,
                -0.824012747203057,
                -0.6301267335640424,
                0.987883117270161,
                0.7531731717155024,
                -0.16443319725793093,
                -0.6282809142527468,
                0.4783497262537162,
                -0.15585353136724422,
                0.9782827111552597,
                0.6322017373938205,
                -0.9482824780194157,
                -0.1506324087221813,
                0.4416954222685776,
                0.7038773548070751,
                -0.44383512305225437,
                -0.39125382864744584,
                -0.012562836415514145,
                -0.4179251632750878,
                -0.8520077504102106,
                0.72795452528572,
                -0.0071824584040534045
            ]
        },
        {
            "neurons": 7,
            "activation": "softmax",
            "weights": [
                [
                    0.14174239462423954,
                    0.7668391088128106,
                    -0.9582119138185843,
                    -0.2511793781880054,
                    0.5805459306188201,
                    0.7088571532128753,
                    0.47472404630117326,
                    -0.4512879468044031,
                    -0.7152487197994806,
                    -0.03451778335181532,
                    -0.5200330827615267,
                    0.9268089360712177,
                    0.3620125840589825,
                    -0.9022758594343172,
                    0.691618044108923,
                    -0.29035600340928314,
                    0.7769586884573967,
                    -0.5716067932388496,
                    0.3355128925254929,
                    -0.17446251597866014,
                    -0.020507219055160286,
                    -0.5092591122522143,
                    -0.738788715613687,
                    0.27138574801099224,
                    -0.8802124335169783,
                    -0.9540247907826869,
                    0.15036478603840653,
                    0.5153003290957725,
                    -0.9996135166034992,
                    0.29332635276852326,
                    0.8606881833710311,
                    0.8960927383746262,
                    -0.08615809503695115,
                    -0.2820898128009375,
                    -0.4847090720905032,
                    -0.5453206045221801,
                    0.9170385815273834,
                    0.8335218762181582,
                    0.35113421813035517,
                    -0.8310294192413594,
                    0.6230440360926868,
                    -0.45007302383771175,
                    0.21398563459663777,
                    -0.6027862081903241,
                    -0.5706006028055242,
                    -0.35533639910030623,
                    -0.017057282586389944,
                    -0.26609922190533686,
                    0.22191977273956498,
                    0.2295707144210033,
                    -0.3302527315992363,
                    -0.5996380946009856,
                    -0.4848790266863412,
                    0.1814628457468881,
                    -0.2674918620178812,
                    -0.7084334401016188,
                    -0.8707067912198965,
                    -0.6124963131720222,
                    -0.5944464809635164,
                    0.4478529040365351,
                    -0.46497487993121767,
                    0.7408283291420905,
                    0.22191019737965978,
                    0.04313194697941691,
                    0.15140441468839194,
                    -0.39059715393529126,
                    0.6104413024278734,
                    0.056663487766158926,
                    0.950027691071909,
                    0.9922956174457924,
                    0.6372445884155982,
                    0.33055824334667117,
                    -0.30031504692950595,
                    -0.6810732234401298,
                    -0.7032398724513556,
                    0.8604020561432009,
                    0.8035335969690816,
                    0.6664882925720232,
                    -0.10101428599743811,
                    -0.42706367703326165,
                    0.5197853763590892,
                    -0.6861912690881438,
                    -0.6669204164767388,
                    -0.5654738464758942,
                    0.8508286167945112,
                    0.9924320392460793,
                    0.7626806158461907,
                    -0.9903211805196332,
                    -0.9739702732853608,
                    0.6722344600142209,
                    -0.9252544065249684,
                    0.9467297611562218,
                    0.09454039394649394,
                    -0.6826722699316277,
                    0.6543434151224636,
                    0.1624506632656879,
                    0.37432552335464875,
                    -0.63131315249474,
                    -0.7414397799743555,
                    -0.7796670582104042,
                    0.6460756954746576,
                    0.8822145330665447,
                    -0.6248808337056657,
                    0.10366906233121287,
                    -0.07184323557744476,
                    -0.908548625070615,
                    0.6866259860880393,
                    0.9443869353883616,
                    -0.0846278720316409,
                    -0.7095216340558848,
                    -0.5601312987676763,
                    -0.3625266334049533,
                    -0.789391375917623,
                    0.1567119795274945,
                    0.03470360876829215,
                    0.17833768385200655,
                    0.2093057693745195,
                    0.11384515645328275,
                    0.8343058350607213,
                    0.7993818127968317,
                    0.7561830342770346,
                    0.20251054359784582
                ],
                [
                    -0.21756651046794584,
                    0.03250247172587328,
                    -0.7989284332906952,
                    0.819630184954582,
                    -0.9601449035910758,
                    0.8042092489179822,
                    0.6864389764427512,
                    0.6942389088540071,
                    0.4350228640078775,
                    0.05480952880660839,
                    0.2675412687969061,
                    0.5704647560737974,
                    0.7599762188915327,
                    -0.5628542132776353,
                    -0.49986797355743584,
                    0.04452139683760681,
                    0.8558231001015117,
                    0.4190822206194127,
                    -0.9280760010589915,
                    -0.8259240217499697,
                    0.09851453812347177,
                    0.6944495180212962,
                    -0.15663523113262556,
                    0.7981275771715264,
                    -0.34453364146711096,
                    0.290270179821855,
                    0.37553492027658564,
                    0.6711598676921697,
                    -0.8934507118881831,
                    -0.05217181780182756,
                    -0.7406858268857832,
                    0.34632270737683557,
                    0.6908466594062748,
                    -0.09236074616646817,
                    -0.9950373011264584,
                    -0.9646763851083113,
                    -0.23350407571116882,
                    0.9196276621053419,
                    -0.9865652045293787,
                    -0.6552789225450324,
                    0.809665012640882,
                    0.026546887640752637,
                    -0.46827008778918877,
                    0.42950637168090133,
                    -0.038943077253770886,
                    -0.08296043936136321,
                    0.15147591824469053,
                    -0.305629247036977,
                    -0.9192141833355785,
                    -0.15662778923076148,
                    -0.1984426719885466,
                    -0.9960731425031324,
                    0.06185752955767976,
                    -0.20258072240688274,
                    -0.9587051194763063,
                    0.6943368999595534,
                    -0.037588512149066666,
                    0.9485383865537416,
                    -0.6754810266797577,
                    0.3822711302658377,
                    -0.7325786200504869,
                    -0.4611014062561214,
                    0.6453405746122485,
                    -0.4607580761090626,
                    0.85283326291937,
                    0.7922420609847851,
                    -0.8984137073490366,
                    0.7719689058762325,
                    0.25668967230700734,
                    0.3636710908937466,
                    0.06643287040851376,
                    -0.09952701807455022,
                    0.8676771298861425,
                    0.08248301709010142,
                    -0.6986835965390601,
                    0.3910463365715018,
                    0.6016229264376178,
                    -0.2722902593049725,
                    0.7227552943601578,
                    0.02807395169265492,
                    0.2603242989707233,
                    0.8556924509468937,
                    0.3934051640458711,
                    -0.16415299375967551,
                    0.2708856020731849,
                    -0.2522937003623211,
                    -0.8133253483924232,
                    -0.22660264719941825,
                    -0.720185982047695,
                    0.8211509665997221,
                    -0.6523888085735616,
                    0.34795277545236414,
                    -0.12504365340950763,
                    0.37387935597606714,
                    0.04299505746894883,
                    -0.45844602789553623,
                    -0.1980680026063284,
                    -0.729229228495599,
                    0.5543844782602212,
                    0.4812268719512194,
                    0.9457748052143138,
                    -0.38043334140596685,
                    0.4316730021677566,
                    -0.07672280124813136,
                    -0.9069547359958463,
                    -0.99655449195499,
                    -0.18023056072042865,
                    -0.6662601239941952,
                    -0.9638698225508091,
                    0.47230556829793047,
                    0.2750474618759946,
                    -0.5592528806788568,
                    -0.8539185184994134,
                    0.478081359209914,
                    -0.39594175485949346,
                    -0.15140115120405673,
                    0.6282335574937548,
                    -0.8803039177429672,
                    -0.9187012075394403,
                    -0.9873131958302326,
                    -0.44346913483650674,
                    -0.03712798565874165
                ],
                [
                    0.9114261059999726,
                    0.40056554743185013,
                    -0.9137277151482623,
                    0.9944000630807734,
                    0.22297879833721113,
                    -0.29763974996946474,
                    0.338190398325789,
                    0.9888282165611224,
                    0.9346799977489946,
                    -0.9477748442851415,
                    0.948293217167036,
                    0.7854330977702941,
                    0.8807487861493843,
                    -0.23086233627655672,
                    0.7427631062603326,
                    0.3096490739456623,
                    0.8185564558271272,
                    -0.8350152576949723,
                    -0.18338485513877845,
                    0.045387562805710324,
                    -0.45609690820378934,
                    -0.42592480344083716,
                    0.4071366001902095,
                    0.28563830125157597,
                    -0.14788909378376958,
                    -0.26514279923644235,
                    0.7872777114013074,
                    -0.9142779426041601,
                    -0.38764963964145394,
                    0.263674148261434,
                    0.8091601199958534,
                    -0.7712018087962824,
                    0.1807723655410356,
                    -0.13556171045588794,
                    0.21299337503744953,
                    -0.58038996459987,
                    0.24653618863463267,
                    0.6826681906028991,
                    -0.025906213174023973,
                    0.8022916489140641,
                    -0.41087759443578054,
                    -0.08752844108831037,
                    0.7960646796815329,
                    0.5056377757126824,
                    0.7716580500248305,
                    -0.7688337732623229,
                    0.8326047330603676,
                    -0.7186205464769764,
                    -0.5349507338517914,
                    -0.2732275711971348,
                    -0.932474820404716,
                    -0.9710055832324314,
                    -0.302991983156625,
                    -0.023916351128021596,
                    -0.6622248097261163,
                    0.8854590568400051,
                    -0.7528323440501328,
                    0.5492537782802305,
                    0.24189336735961775,
                    -0.9595661800225994,
                    0.9625856658239607,
                    0.09019310294873617,
                    -0.7722766412334037,
                    0.1502241200990042,
                    0.7782784399111118,
                    -0.30484010337599354,
                    0.11825059136588223,
                    0.33277723628431066,
                    0.2945969855792385,
                    -0.18247355838943502,
                    -0.3669512905244361,
                    0.527647109822966,
                    0.8048233566181511,
                    -0.6048977416555807,
                    0.566975876878276,
                    0.04560086752634107,
                    0.7294365037669321,
                    -0.18891780065845842,
                    -0.1901951325976241,
                    -0.4510805265772231,
                    0.5570536451056303,
                    -0.08570146593361994,
                    -0.9194902939106602,
                    0.7087982485753694,
                    0.10406437873396146,
                    0.713951161166974,
                    0.14027162272325877,
                    -0.29184355228999714,
                    -0.06764570951401105,
                    -0.9365608241037009,
                    -0.5640028721153179,
                    0.23401495799638128,
                    -0.3255990438905929,
                    0.8217435742523793,
                    -0.43227285680688543,
                    -0.8809980300364675,
                    -0.15909727660297635,
                    -0.6945793575631363,
                    -0.8263696740085156,
                    0.6493612873153793,
                    -0.7819156997745986,
                    0.1347355607959173,
                    0.6672444782099314,
                    -0.912930384311673,
                    0.5191907542744896,
                    -0.47093431930464424,
                    -0.543461581702956,
                    0.670986509284305,
                    -0.9687565593060763,
                    0.11934650948075087,
                    0.031338872157524955,
                    -0.9507600458996459,
                    -0.7296980385850735,
                    0.710733546514569,
                    0.4018106686902805,
                    -0.9984797808936274,
                    -0.419861207475938,
                    0.5236638955429089,
                    -0.6175810137892506,
                    -0.6687636591505288,
                    -0.09644682170716457,
                    0.3119315396643072
                ],
                [
                    0.03985306454380466,
                    -0.841997895108038,
                    -0.9000231224188691,
                    -0.34983680355218216,
                    0.8694562676418454,
                    0.11929057137366006,
                    0.4384831144223551,
                    0.018735964882003797,
                    -0.24359932555128783,
                    -0.021496677956136745,
                    -0.41259527193783696,
                    0.821411622962942,
                    -0.2050335499097904,
                    0.8137282533739838,
                    0.716363273031317,
                    0.9450696495654944,
                    -0.545730005521688,
                    -0.29298115223679067,
                    0.35868002140255584,
                    -0.9410558245865033,
                    0.5856344933224458,
                    0.3942199829682287,
                    0.6933770668517998,
                    0.12049001388465186,
                    -0.9303347759148173,
                    -0.8542775965986784,
                    -0.8700822546521929,
                    0.20891736016383944,
                    -0.9842785853389111,
                    -0.024289095613077683,
                    -0.29535159466866623,
                    -0.30952811721714246,
                    -0.20367087495108938,
                    0.7834002066384764,
                    -0.8462472061722757,
                    -0.6568916054463207,
                    0.10080074288571717,
                    0.5650780286904145,
                    -0.41609920942766854,
                    -0.9338028154173812,
                    0.19147367745179023,
                    -0.22681623871831413,
                    -0.9400481424905416,
                    -0.053971554355049634,
                    -0.05298991228478811,
                    0.42882097416942666,
                    -0.6421159215772709,
                    -0.035102012457530085,
                    0.6363388686273312,
                    -0.3225194442332828,
                    0.020021462363529308,
                    0.2666031515386671,
                    0.21755741348234348,
                    0.9467587930215666,
                    -0.27927889030765285,
                    0.0747931310942258,
                    0.7024376235378207,
                    0.9268448715736703,
                    0.9496800851975167,
                    -0.8194917670088535,
                    0.5277987047392698,
                    0.7166597145064517,
                    -0.9885678677711638,
                    0.628186505801076,
                    -0.8588032057021104,
                    0.9947695543825139,
                    -0.03431524732500768,
                    -0.23872089611233838,
                    -0.10659524414963184,
                    0.09894615773873494,
                    0.9660761007171625,
                    0.17691442849463002,
                    0.3913316805733309,
                    0.3801944350424338,
                    0.8712369726391345,
                    -0.7676527683038215,
                    0.8285704810857573,
                    -0.4670418473795437,
                    0.6459688731278617,
                    0.5669556165890015,
                    -0.44778720961918705,
                    -0.8108915844528424,
                    -0.6107777886797545,
                    0.6908760021816569,
                    -0.32244086976320663,
                    0.12521545723439043,
                    0.871382214490342,
                    -0.9095332026423699,
                    0.4985507464373735,
                    0.9259033274425179,
