{
    "cnn_layers": [
        {
            "type": "conv",
            "filters": 8,
            "kernel_size": 3,
            "stride": 1,
            "activation": "relu",
            "weights": [
                [
                    [
                        [
                            -1.234054603839988,
                            0.31960028220529,
                            1.4247529396019272
                        ],
                        [
                            -3.459189027452736,
                            0.35701459662141277,
                            -2.9990068349029393
                        ],
                        [
                            0.5448634821042223,
                            -0.23957370648439338,
                            -2.183727003702605
                        ]
                    ]
                ],
                [
                    [
                        [
                            3.207864981664849,
                            1.4142157522732437,
                            -1.3991541543335955
                        ],
                        [
                            0.2970684743874473,
                            -1.3909740460963822,
                            -0.8481035063168609
                        ],
                        [
                            -0.719756670379668,
                            -0.26325280458414224,
                            -1.8732416199569524
                        ]
                    ]
                ],
                [
                    [
                        [
                            1.322627644823883,
                            -0.9855950571956891,
                            -2.3056629802600623
                        ],
                        [
                            -2.0000308476797204,
                            1.3189123182994642,
                            1.1478033945667496
                        ],
                        [
                            -0.3895215714859168,
                            -2.08642420336322,
                            -0.8466414629151574
                        ]
                    ]
                ],
                [
                    [
                        [
                            -0.36978756688094827,
                            0.0494935963276565,
                            1.893232626958428
                        ],
                        [
                            0.5190099430093922,
                            1.2306383011887483,
                            -2.9593136901306636
                        ],
                        [
                            1.2181400292664322,
                            1.5933889386229723,
                            2.0969262676698373
                        ]
                    ]
                ],
                [
                    [
                        [
                            1.8366898458821417,
                            0.9515419986050399,
                            5.425856168780553
                        ],
                        [
                            -0.628050681133713,
                            1.0476952553190635,
                            -1.1303186599459878
                        ],
                        [
                            1.151841159846998,
                            -0.08266805229743143,
                            0.1679284556444214
                        ]
                    ]
                ],
                [
                    [
                        [
                            1.915006100557951,
                            -2.5732787035842595,
                            2.0331317409174656
                        ],
                        [
                            0.9795344348626455,
                            -1.8925312404167085,
                            -1.5626445954974268
                        ],
                        [
                            -2.124780056395186,
                            -1.5193582966497552,
                            -0.9315339065671342
                        ]
                    ]
                ],
                [
                    [
                        [
                            -2.0396216783935857,
                            1.7971173050872495,
                            -2.56932817997471
                        ],
                        [
                            1.872416398156969,
                            -1.5067242848931626,
                            4.208491307297765
                        ],
                        [
                            -0.4510229903211588,
                            -2.1296710220019484,
                            0.8223555199457183
                        ]
                    ]
                ],
                [
                    [
                        [
                            0.9788062206385335,
                            1.4707248229616738,
                            -2.3288883796200777
                        ],
                        [
                            1.0558865303446336,
                            -2.7832826599490925,
                            0.2374105177633613
                        ],
                        [
                            -0.21587003222415654,
                            -0.6871352646106004,
                            -1.2593679049254445
                        ]
                    ]
                ]
            ],
            "biases": [
                -0.9842763499839489,
                0.6740706365720047,
                1.0992613674441996,
                0.2091233055446932,
                -1.32174617524781,
                0.09509122001417936,
                0.4293246203931412,
                0.15051697580386023
            ]
        },
        {
            "type": "pool",
            "size": 2,
            "stride": 2,
            "pool_type": "max"
        },
        {
            "type": "conv",
            "filters": 64,
            "kernel_size": 3,
            "stride": 1,
            "activation": "tanh",
            "weights": [
                [
                    [
                        [
                            -0.14240321563011954,
                            -0.006927517781963488,
                            -2.646588034971033
                        ],
                        [
                            -0.9262118549324952,
                            0.018463942579758502,
                            0.9867961249321294
                        ],
                        [
                            -0.9903031923500382,
                            0.5225160937357619,
                            0.770751426143303
                        ]
                    ],
                    [
                        [
                            -0.4110332510133028,
                            -0.6804817616025733,
                            -1.3685711071746542
                        ],
                        [
                            0.16091219695330297,
                            -1.2323294701700958,
                            -1.395495114684281
                        ],
                        [
                            -0.7978467175294349,
                            0.09127747926892593,
                            -1.0543795613759679
                        ]
                    ],
                    [
                        [
                            1.8744957937365592,
                            -0.8766564352806142,
                            0.36144397707370246
                        ],
                        [
                            -2.137890351255475,
                            -0.8438833296997976,
                            1.2387767323561583
                        ],
                        [
                            0.3948685163830437,
                            -0.057353936769115904,
                            -1.2595101160173365
                        ]
                    ],
                    [
                        [
                            0.7686369251621707,
                            -1.3247398842217915,
                            1.5890889272594597
                        ],
                        [
                            -0.3629287900691194,
                            -0.022520461248941734,
                            1.2308697274421163
                        ],
                        [
                            -0.5047098648541,
                            0.0918756061298446,
                            0.5260098166422864
                        ]
                    ],
                    [
                        [
                            0.012998284502928392,
                            -0.8224042887789755,
                            0.19880715062258936
                        ],
                        [
                            0.21070542746064316,
                            3.3562757157948537,
                            -0.09446217625668611
                        ],
                        [
                            0.8974280903832088,
                            1.3509624997831025,
                            -1.573232952791005
                        ]
                    ],
                    [
                        [
                            1.474700600865944,
                            0.6357931146498539,
                            0.6824403297867419
                        ],
                        [
                            2.080239502649987,
                            -1.472192810128852,
                            0.5060245461736781
                        ],
                        [
                            -2.0938297064725884,
                            4.020833626946501,
                            -0.3681937904431196
                        ]
                    ],
                    [
                        [
                            -1.0152186053101866,
                            2.323329108362055,
                            -1.54788779565456
                        ],
                        [
                            -0.2763760148057872,
                            -1.6103888326772855,
                            1.0394841834365613
                        ],
                        [
                            1.8083923781653761,
                            -0.6118249922595189,
                            1.4931773889378348
                        ]
                    ],
                    [
                        [
                            -1.101771328960331,
                            2.1691604481006586,
                            -4.0220528461181795
                        ],
                        [
                            -1.492406385892444,
                            -1.0663491577181523,
                            1.9016186748385355
                        ],
                        [
                            1.351243327617896,
                            2.367764501432704,
                            1.502286592608815
                        ]
                    ]
                ],
                [
                    [
                        [
                            -2.2749400320847677,
                            1.5573417320443177,
                            2.2676841428303574
                        ],
                        [
                            -2.6310249207329326,
                            -0.018550619541324198,
                            -1.7659528325376865
                        ],
                        [
                            2.788469022032074,
                            1.066346058258653,
                            -0.3821490422436374
                        ]
                    ],
                    [
                        [
                            -1.0135550761034675,
                            0.17949922514214703,
                            -2.3855617064160666
                        ],
                        [
                            0.7737348553687453,
                            -0.9625983992121374,
                            -1.6038499636719865
                        ],
                        [
                            1.3729872361136501,
                            2.0388004094369254,
                            3.1171337991059063
                        ]
                    ],
                    [
                        [
                            0.268026202005674,
                            1.4118097493366504,
                            -1.2565249742215565
                        ],
                        [
                            1.7227791517934063,
                            1.5580256648879847,
                            -0.13053324104003522
                        ],
                        [
                            1.4984140945792568,
                            -0.8329276953076464,
                            4.334735119564091
                        ]
                    ],
                    [
                        [
                            0.18930282530373355,
                            0.4671905334240068,
                            0.452084126436169
                        ],
                        [
                            0.5409871086326257,
                            0.48763052727733314,
                            0.3123681892580339
                        ],
                        [
                            1.8407352718143442,
                            -1.0912333776246357,
                            -0.083149765248224
                        ]
                    ],
                    [
                        [
                            1.5621648512671538,
                            1.7745428229542424,
                            0.6539637372716814
                        ],
                        [
                            0.7943078275855509,
                            2.7756416246019477,
                            0.08772998358180409
                        ],
                        [
                            -1.7734470664920385,
                            -1.1588970803551577,
                            0.41362375602700013
                        ]
                    ],
                    [
                        [
                            1.0975742601050635,
                            2.989990190023375,
                            2.9527062970978504
                        ],
                        [
                            0.22964671584888247,
                            -0.010323861685479468,
                            -0.6641893419709435
                        ],
                        [
                            -2.8227720247651122,
                            0.28800529786457146,
                            -0.8560116928494893
                        ]
                    ],
                    [
                        [
                            0.3197748372454827,
                            2.1207643857336493,
                            1.6213018240922925
                        ],
                        [
                            0.6676663170008498,
                            -0.702546027948408,
                            -1.428781865723294
                        ],
                        [
                            0.7696440150348802,
                            1.6405793507002338,
                            -1.8463031962630443
                        ]
                    ],
                    [
                        [
                            0.8795047862483958,
                            -1.3195051086244232,
                            -1.4976581898345496
                        ],
                        [
                            2.138726142257839,
                            2.0361663467468336,
                            1.1036629405937055
                        ],
                        [
                            1.5333179890671702,
                            -2.6583295393307056,
                            -2.390277623889151
                        ]
                    ]
                ],
                [
                    [
                        [
                            2.0457656215281297,
                            1.6548930111938134,
                            2.7830528097027316
                        ],
                        [
                            1.2334940050126375,
                            -0.6943887913566749,
                            -0.2591108521965325
                        ],
                        [
                            0.9466747654971658,
                            -0.014728954601592084,
                            2.6933635559409264
                        ]
                    ],
                    [
                        [
                            -0.49910090546949687,
                            -0.4800141090255764,
                            -0.35531863180488493
                        ],
                        [
                            -0.012866665907249566,
                            -2.8089316537739903,
                            0.2622971621241912
                        ],
                        [
                            -2.164042424550706,
                            -0.246926118451876,
                            -0.5790614728569561
                        ]
                    ],
                    [
                        [
                            -1.3053186163358563,
                            -0.6715044677270509,
                            -1.9438251484260118
                        ],
                        [
                            1.6987575312165042,
                            0.8047777507450155,
                            1.7699921125194529
                        ],
                        [
                            -0.36300513755015307,
                            3.309792614161663,
                            -1.149659970200024
                        ]
                    ],
                    [
                        [
                            2.5221494795313353,
                            0.5263944202792452,
                            0.4995509885568047
                        ],
                        [
                            -0.12692607617250434,
                            1.8849605185837328,
                            -2.1244646461696184
                        ],
                        [
                            1.3701656911340228,
                            0.15287624976618275,
                            0.6429415350042736
                        ]
                    ],
                    [
                        [
                            -3.6043251884109933,
                            -2.128800821713247,
                            1.2056040361482068
                        ],
                        [
                            0.3663932663311833,
                            -0.554590253932027,
                            1.0228020399140463
                        ],
                        [
                            -3.1442969899251136,
                            0.4300530040424955,
                            -0.7320746628805357
                        ]
                    ],
                    [
                        [
                            -0.16065052295232995,
                            -0.7041753418968493,
                            0.3364359182046882
                        ],
                        [
                            -2.5989848580044073,
                            0.49865242867433535,
                            -3.013899376451482
                        ],
                        [
                            -0.11477420805996097,
                            0.020717020684414583,
                            -1.4249700766918547
                        ]
                    ],
                    [
                        [
                            -0.31991707813304593,
                            2.2975262774663765,
                            -0.5935627430120614
                        ],
                        [
                            0.3939738964721275,
                            1.8783667262355468,
                            -0.8735186080710209
                        ],
                        [
                            0.1085987920267669,
                            -1.2066514807239683,
                            -1.7516997558387704
                        ]
                    ],
                    [
                        [
                            0.05204299879043679,
                            -2.167563604343218,
                            -2.3971967730840036
                        ],
                        [
                            -0.8968666361388014,
                            2.061805389238116,
                            -2.3307234111503217
                        ],
                        [
                            0.5902839047695315,
                            -0.10370763787500745,
                            0.4213509487253182
                        ]
                    ]
                ],
                [
                    [
                        [
                            0.1682796982656714,
                            -1.8629348033429929,
                            -0.8099937243701261
                        ],
                        [
                            0.4330159932208402,
                            3.209544796935955,
                            -0.4743031648790627
                        ],
                        [
                            -1.902045013721945,
                            1.1052220440125435,
                            0.036555148602883836
                        ]
                    ],
                    [
                        [
                            -0.05872932449841162,
                            2.61641076820066,
                            0.21690951379203538
                        ],
                        [
                            -1.9980951351957268,
                            1.590967224215092,
                            -1.3727926252681109
                        ],
                        [
                            -3.7646841300457803,
                            -1.1596383261417287,
                            -0.8126358400003035
                        ]
                    ],
                    [
                        [
                            2.050707078551838,
                            3.089568612362804,
                            -3.3476676080188255
                        ],
                        [
                            -1.2053346224498749,
                            1.816487278504483,
                            -0.41248877791581207
                        ],
                        [
                            0.44637720632274747,
                            0.19887771582354416,
                            -2.11355180305507
                        ]
                    ],
                    [
                        [
                            3.360936139552094,
                            2.0782339231145435,
                            0.9592048574406482
                        ],
                        [
                            -0.8199722890728971,
                            0.13295320789547105,
                            -2.197849459778882
                        ],
                        [
                            0.09821322242940446,
                            -0.7436925739845209,
                            1.3625878236049618
                        ]
                    ],
                    [
                        [
                            -0.8038146268001077,
                            0.9344050248655758,
                            -0.668727900480383
                        ],
                        [
                            -0.9138015908563898,
                            0.4217046970351481,
                            -0.5435134074112621
                        ],
                        [
                            -2.712974070304023,
                            -2.2630014676607297,
                            0.5935582384311063
                        ]
                    ],
                    [
                        [
                            0.9813080454137203,
                            4.211626812168817,
                            -0.40887639246413776
                        ],
                        [
                            0.9990902633683568,
                            0.1524198660104156,
                            -2.6990436848905306
                        ],
                        [
                            -1.0871338751225372,
                            0.676697764755541,
                            1.283588934885993
                        ]
                    ],
                    [
                        [
                            0.8093127961499953,
                            -4.809384418402123,
                            0.7830110299833298
                        ],
                        [
                            0.0544748744859727,
                            -1.5676801196382297,
                            1.6672499856258272
                        ],
                        [
                            2.651893368426801,
                            2.2651113087446118,
                            0.9125617947047041
                        ]
                    ],
                    [
                        [
                            1.675630017356147,
                            0.873984196309245,
                            -0.8770276750536194
                        ],
                        [
                            2.2352053612531355,
                            0.27285212102280915,
                            -0.6776627071616835
                        ],
                        [
                            0.17688648193914733,
                            -1.8361654491446049,
                            -0.34315660942818915
                        ]
                    ]
                ],
                [
                    [
                        [
                            0.028597331275531025,
                            -0.897706893626779,
                            -2.034353756998103
                        ],
                        [
                            0.6552397709927306,
                            -0.5597730270264953,
                            0.9487477867416495
                        ],
                        [
                            -0.25926464671357347,
                            2.320211745743637,
                            0.9054248891123474
                        ]
                    ],
                    [
                        [
                            1.8257064700817942,
                            1.0696071473513005,
                            -0.3923802687639855
                        ],
                        [
                            -0.5532027223409967,
                            0.08668422311492079,
                            -0.8642422223113132
                        ],
                        [
                            0.45506459199577254,
                            -1.3377444909344622,
                            0.9338417236979992
                        ]
                    ],
                    [
                        [
                            -0.2423611731541536,
                            -0.25700481902894046,
                            0.22324579223986116
                        ],
                        [
                            -1.7429488281867034,
                            -0.30433945649460525,
                            1.6665609073550243
                        ],
                        [
                            -0.4884553451350116,
                            1.4781174374156179,
                            -2.4287529550657956
                        ]
                    ],
                    [
                        [
                            -1.4556782013097638,
                            -0.20025068491940476,
                            0.6730106874279355
                        ],
                        [
                            0.30903686830083377,
                            0.962045739319832,
                            4.02014672228965
                        ],
                        [
                            0.7071835605070036,
                            -2.473485831309245,
                            -0.28577873327009473
                        ]
                    ],
                    [
                        [
                            0.3431012987433876,
                            -0.9052788065457245,
                            -2.621658091533815
                        ],
                        [
                            -0.04988770786840205,
                            -0.3660398847149892,
                            -0.46949540909388465
                        ],
                        [
                            -3.1287443068807095,
                            1.6414840917315052,
                            -2.725616142549515
                        ]
                    ],
                    [
                        [
                            1.549756996267438,
                            0.44964597431880543,
                            0.08097153351334713
                        ],
                        [
                            -1.4916910192837856,
                            -0.47171720797233685,
                            -0.08399021382851654
                        ],
                        [
                            1.1621900144547868,
                            -0.015439902234113206,
                            0.5984139862775528
                        ]
                    ],
                    [
                        [
                            1.875247575126462,
                            -0.9418962657393305,
                            -0.572602862444697
                        ],
                        [
                            -1.4163663890611293,
                            -0.7639564151500585,
                            -0.1633282630646629
                        ],
                        [
                            -0.473342212653431,
                            0.7842750536487001,
                            -1.229297654160102
                        ]
                    ],
                    [
                        [
                            -3.158670442928342,
                            -0.4026128206175571,
                            0.6563076811033661
                        ],
                        [
                            2.0935330476660363,
                            -1.2884838175943254,
                            -1.019881433636745
                        ],
                        [
                            2.150388721591441,
                            0.9296983406844963,
                            0.5729653396718193
                        ]
                    ]
                ],
                [
                    [
                        [
                            1.9584370549972039,
                            2.2579845416716915,
                            -0.02773816412101298
                        ],
                        [
                            -1.64465751062674,
                            -0.3013783271170084,
                            -0.8140820469318992
                        ],
                        [
                            2.3392269265890313,
                            2.02317579725701,
                            2.2853487335283935
                        ]
                    ],
                    [
                        [
                            -1.7330481774199404,
                            0.40547228999466217,
                            0.7626558548521771
                        ],
                        [
                            -1.9931828371423685,
                            -0.9353892312446676,
                            -1.7593118938623302
                        ],
                        [
                            2.019867530453194,
                            -0.987143392953458,
                            1.2191481601209024
                        ]
                    ],
                    [
                        [
                            -2.4788884475035515,
                            0.13611450436405603,
                            -2.87394042426336
                        ],
                        [
                            -0.051991080456026295,
                            1.7879586827151273,
                            -2.4157294912224514
                        ],
                        [
                            -0.30026668037930426,
                            -1.7982076903459632,
                            -0.7751697378790466
                        ]
                    ],
                    [
                        [
                            -1.3695134831552958,
                            -0.8471692537336998,
                            1.3650995413152003
                        ],
                        [
                            -0.6908037756821566,
                            0.7587798042950958,
                            1.326897019879794
                        ],
                        [
                            -1.8359998134871731,
                            1.9828384861566661,
                            2.174029355241989
                        ]
                    ],
                    [
                        [
                            -3.810066614699882,
                            1.285750854542819,
                            -1.123403971234512
                        ],
                        [
                            -3.381242267175013,
                            1.0259712360373263,
                            -2.3872259874444905
                        ],
                        [
                            2.224718752826435,
                            1.1150709765919626,
                            0.024374764481711914
                        ]
                    ],
                    [
                        [
                            1.0656994858161417,
                            0.9833953077557217,
                            -1.8136215530811612
                        ],
                        [
                            0.3505556383556454,
                            -3.9258552426845355,
                            0.8808958657411128
                        ],
                        [
                            0.8028625917836895,
                            2.6536265698440684,
                            -0.9965202920002583
                        ]
                    ],
                    [
                        [
                            -1.0416082874930777,
                            0.26244872596682517,
                            -0.9128546199491272
                        ],
                        [
                            -1.2886537440074262,
                            -0.7417579596964783,
                            -0.16052548479041265
                        ],
                        [
                            -1.7586768571628648,
                            0.4513921716920941,
                            2.2647010055166765
                        ]
                    ],
                    [
                        [
                            -1.315063939575173,
                            3.372434253103342,
                            -1.670953070897494
                        ],
                        [
                            -2.6424091374659557,
                            -0.1327007097837923,
                            1.4097769346883435
                        ],
                        [
                            -0.37682998224019437,
                            1.1998084289888837,
                            0.6383931769108828
                        ]
                    ]
                ],
                [
                    [
                        [
                            0.612580621812778,
                            -0.622381476214641,
                            1.5977417665534668
                        ],
                        [
                            -2.6194366278824903,
                            -0.961922807583106,
                            0.6146146624534897
                        ],
                        [
                            0.7784137426738258,
                            0.280037207886522,
                            0.30328869527620667
                        ]
                    ],
                    [
                        [
                            0.17875087830436626,
                            -0.49221328374894135,
                            -0.3487040118937512
                        ],
                        [
                            2.4456796907117813,
                            -2.029608320899062,
                            3.4212010405462983
                        ],
                        [
                            -1.983254181214139,
                            0.5610095063110078,
                            -1.280061599671943
                        ]
                    ],
                    [
                        [
                            2.4504161510069866,
                            -0.3211276477086745,
                            -1.8147250011168303
                        ],
                        [
                            -0.0542864665051961,
                            0.08961509234351453,
                            -0.0911631007349006
                        ],
                        [
                            -2.3838097036712482,
                            -1.1846561556650788,
                            0.5035638284902566
                        ]
                    ],
                    [
                        [
                            -2.252312613554377,
                            -0.36320293971415935,
                            1.8078516879897522
                        ],
                        [
                            0.4931434753165213,
                            0.6222026095989054,
                            -0.5041033386231346
                        ],
                        [
                            1.5238649808693325,
                            0.05731580646626011,
                            -3.1486496008144162
                        ]
                    ],
                    [
                        [
                            1.1338143605427577,
                            -0.3423515936028913,
                            -0.5921085262232764
                        ],
                        [
                            -1.2740329286037495,
                            0.487253458849638,
                            -0.0038426456409569737
                        ],
                        [
                            0.6167976378957167,
                            -2.005901583374113,
                            2.916488638747762
                        ]
                    ],
                    [
                        [
                            1.446505486371584,
                            1.2745078913084116,
                            3.6184282821758247
                        ],
                        [
                            0.18961427642203554,
                            -0.9428944260768969,
                            0.3429389065686897
                        ],
                        [
                            1.322894375097507,
                            -0.38754395174976786,
                            -1.7782124368150967
                        ]
                    ],
                    [
                        [
                            -1.2183569755484982,
                            0.7840856510817409,
                            -1.0598139917858203
                        ],
                        [
                            3.0945748299658833,
                            1.2426787827040437,
                            -2.6360462457614564
                        ],
                        [
                            1.3079391670002318,
                            -0.38994014087914886,
                            -0.39062168774972456
                        ]
                    ],
                    [
                        [
                            1.5022126703024128,
                            -1.084975491199888,
                            3.0899467805538574
                        ],
                        [
                            -1.2117429216653248,
                            -0.4038022398115667,
                            0.5380121333557755
                        ],
                        [
                            0.2534561156295915,
                            -0.538481643438765,
                            0.7698357372860324
                        ]
                    ]
                ],
                [
                    [
                        [
                            -1.6942858456488283,
                            -2.3480748766990382,
                            0.23740295169299533
                        ],
                        [
                            1.675408904582821,
                            1.0969745236135635,
                            -1.722824550596056
                        ],
                        [
                            1.262922608716391,
                            0.7047436504467706,
                            -1.8391172073195738
                        ]
                    ],
                    [
                        [
                            -0.47441577069587637,
                            -1.9929759728614156,
                            1.8080485163562652
                        ],
                        [
                            0.7885916597275513,
                            -0.22293572418720356,
                            1.715196466556372
                        ],
                        [
                            0.27735774518078665,
                            -0.1636487745071565,
                            1.3975973574008278
                        ]
                    ],
                    [
                        [
                            -0.7241998332788183,
                            -3.0844630995746147,
                            -1.3216463344178677
                        ],
                        [
                            2.3855406782325304,
                            0.07520176651557409,
                            1.5085982650317045
                        ],
                        [
                            1.4262164592295608,
                            1.3950808904756367,
                            -1.6654018470402217
                        ]
                    ],
                    [
                        [
                            2.014072305723882,
                            -0.016900165646104304,
                            1.5550864264592523
                        ],
                        [
                            -0.9136594730096571,
                            0.8421279028786981,
                            1.6677060489018853
                        ],
                        [
                            -1.157106602268031,
                            0.4574054411267825,
                            0.9163713764523915
                        ]
                    ],
                    [
                        [
                            1.185595594246294,
                            -0.3394425909168824,
                            -1.1453918777898873
                        ],
                        [
                            0.31470606956073843,
                            1.0898502732039104,
                            -0.202105052814132
                        ],
                        [
                            0.8660360939422117,
                            -0.27214582662885434,
                            -0.2879349289445156
                        ]
                    ],
                    [
                        [
                            0.3588084947772298,
                            0.5678471128914584,
                            -0.05598715637190943
                        ],
                        [
                            2.239011567252473,
                            -0.1649006053987641,
                            -2.8541729590904747
                        ],
                        [
                            1.1456011152205052,
                            2.0374899950647247,
                            -2.101731794175079
                        ]
                    ],
                    [
                        [
                            0.14559591014719242,
                            -1.920441079557778,
                            1.692497903307557
                        ],
                        [
                            0.3522129569530842,
                            -0.644084557223543,
                            1.098923342994067
                        ],
                        [
                            0.8304183155076044,
                            -0.10296549843340316,
                            0.19965962084883282
                        ]
                    ],
                    [
                        [
                            0.6122772834971876,
                            -0.6000272040845721,
                            1.8525071271194524
                        ],
                        [
                            -2.162060075502105,
                            0.19361525600163437,
                            -1.113889547643926
                        ],
                        [
                            -3.35608040237378,
                            0.9768870243938033,
                            0.4718508909310847
                        ]
                    ]
                ],
                [
                    [
                        [
                            -3.843645976428141,
                            0.4468835602187146,
                            -0.9962507980502406
                        ],
                        [
                            1.1799183384923,
                            1.527580296389405,
                            0.38677650256163
                        ],
                        [
                            -0.625274453424651,
                            2.59493293720423,
                            -0.11066443249523392
                        ]
                    ],
                    [
                        [
                            1.3449564265216407,
                            -2.2502196799750576,
                            -0.47535478721861446
                        ],
                        [
                            0.5101911802848547,
                            -0.1340870880824807,
                            -1.0353592049044924
                        ],
                        [
                            1.4491139173342138,
                            0.24644174085584858,
                            -0.8427604115526166
                        ]
                    ],
                    [
                        [
                            1.4301103521214236,
                            0.3834416198156361,
                            -2.0339599259192895
                        ],
                        [
                            0.23880843128072154,
                            -0.656022806503704,
                            2.8125941127792395
                        ],
                        [
                            -3.2026478044726345,
                            0.6893623869911879,
                            0.2687615336370983
                        ]
                    ],
                    [
                        [
                            -1.5255891336775795,
                            -1.071389264841685,
                            0.917127744180496
                        ],
                        [
                            2.997829601592401,
                            -1.5764607457167696,
                            2.342531184653044
                        ],
                        [
                            -0.38077311448808027,
                            -0.21379699973842556,
                            1.2135652227720763
                        ]
                    ],
                    [
                        [
                            1.0896294307173282,
                            -0.7281822335037662,
                            -0.7278465803895451
                        ],
                        [
                            4.248092782894403,
                            -0.19923360027423018,
                            0.16878507819666053
                        ],
                        [
                            2.364772625379329,
                            -1.619620493659666,
                            0.9003114061869595
                        ]
                    ],
                    [
                        [
                            -0.022667012291437083,
                            -1.1021058200279976,
                            0.46452258974486316
                        ],
                        [
                            0.4798751131795297,
                            -1.800490990777929,
                            2.4890792842191196
                        ],
                        [
                            -0.4169047967779236,
                            1.0185899015400872,
                            0.004722281692121327
                        ]
                    ],
                    [
                        [
                            2.8428295907353953,
                            1.4158206251450154,
                            1.4100314596391659
                        ],
                        [
                            0.7827909293921236,
                            0.96465271290857,
                            2.144476188210259
                        ],
                        [
                            2.4850831056855545,
                            0.11160769579092081,
                            -1.4021226457649105
                        ]
                    ],
                    [
                        [
                            -1.0855893904036038,
                            -5.710702994329644,
                            -0.272393630479136
                        ],
                        [
                            -1.4641341599192086,
                            0.3380812786042231,
                            -0.9453571501963303
                        ],
                        [
                            -1.467642678695447,
                            0.5582629955567836,
                            -1.774016174357403
                        ]
                    ]
                ],
                [
                    [
                        [
                            1.767641700675931,
                            -2.5563674469213167,
                            -0.23987944353896096
                        ],
                        [
                            1.40238205760561,
                            -1.6101367027257536,
                            -1.9593701542426594
                        ],
                        [
                            -1.3479383746881224,
                            -0.431054516753014,
                            0.8577502410354595
                        ]
                    ],
                    [
                        [
                            -0.07583154722397639,
                            -0.9613850894774394,
                            -0.4138403658812482
                        ],
                        [
                            0.5643149586220724,
                            -1.118294798800911,
                            1.0998651144187952
                        ],
                        [
                            -1.5038740437750966,
                            -1.5315367729206946,
                            -1.3539247279943731
                        ]
                    ],
                    [
                        [
                            0.8055884275757927,
                            0.4252224769788544,
                            1.671759753207209
                        ],
                        [
                            3.0426795943255436,
                            0.5888944557387825,
                            0.9681864569992292
                        ],
                        [
                            0.8286990250391837,
                            2.7420604334876333,
                            1.7198939550607673
                        ]
                    ],
                    [
                        [
                            -1.7794357411206168,
                            -0.1326741996157653,
                            4.113147741574431
                        ],
                        [
                            -1.9214205378440519,
                            -0.22773684604339658,
                            1.3015419894594282
                        ],
                        [
                            -0.4269539867819062,
                            0.8212707772393888,
                            -0.7806848756784546
                        ]
                    ],
                    [
                        [
                            0.7345379240775969,
                            0.31780222970004396,
                            0.6726550853163059
                        ],
                        [
                            -0.7336740640765501,
                            -0.14512884602290377,
                            1.5329888577823234
                        ],
                        [
                            0.763919393431692,
                            -0.574303438359682,
                            -3.419544972286813
                        ]
                    ],
                    [
                        [
                            -0.9761564355663743,
                            2.1290390453199413,
                            -0.4952521419962566
                        ],
                        [
                            0.03931025971489839,
                            -0.438903217892911,
                            0.5185825467372823
                        ],
                        [
                            0.7461913499143958,
                            0.048896983301974284,
                            1.2187592247646357
                        ]
                    ],
                    [
                        [
                            1.7811064993120345,
                            1.098093267586818,
                            -1.2078266452828175
                        ],
                        [
                            0.0724942603208919,
                            0.1784140271026473,
                            0.6267285200918764
                        ],
                        [
                            1.9249565102008819,
                            0.7795794360412455,
                            -0.11860914324468089
                        ]
                    ],
                    [
                        [
                            -0.2643406054260066,
                            -0.3203510680523069,
                            -3.0309625663359308
                        ],
                        [
                            -4.134859674791128,
                            1.6624154006212826,
                            -1.884494915170223
                        ],
                        [
                            -2.950895463948254,
                            0.4003683828520316,
                            1.1205619938270273
                        ]
                    ]
                ],
                [
                    [
                        [
                            -0.5160088450220114,
                            -0.7930511976606778,
                            0.41685797229230415
                        ],
                        [
                            -3.171009144667593,
                            0.29422427228312353,
                            -0.13867097624711572
                        ],
                        [
                            0.6661619762772698,
                            -1.3670316718742723,
                            0.12106551568599222
                        ]
                    ],
                    [
                        [
                            1.216004545753275,
                            -0.6166826940953436,
                            1.299819564481556
                        ],
                        [
                            -0.1537359895567574,
                            -0.4051195394160373,
                            -0.9634406951052548
                        ],
                        [
                            -1.2257070931503977,
                            -3.808651573832452,
                            -0.05461284544623854
                        ]
                    ],
                    [
                        [
                            1.5072759246588259,
                            -2.833544866500429,
                            1.3465171283622035
                        ],
                        [
                            -0.3473292795514461,
                            -0.7283542647464246,
                            -0.8974155934601578
                        ],
                        [
                            0.6797904818892226,
                            -0.7398982775982772,
                            0.3800552441770462
                        ]
                    ],
                    [
                        [
                            0.744882738897837,
                            -1.4553462406566888,
                            1.6793470231629115
                        ],
                        [
                            2.541758697378984,
                            -1.9842031859703515,
                            3.4140495779862676
                        ],
                        [
                            0.01670301756579623,
                            0.7043394183766089,
                            0.40025481524897627
                        ]
                    ],
                    [
                        [
                            2.0376774312490107,
                            0.4471419431908771,
                            2.7582923293666677
                        ],
                        [
                            0.3153965574032529,
                            -0.9852295989330304,
                            -0.3898912817147786
                        ],
                        [
                            0.8535751449996075,
                            -2.6580544895442517,
                            1.4422468624435825
                        ]
                    ],
                    [
                        [
                            2.230791637725667,
                            -0.8702874436271469,
                            -3.050393756527379
                        ],
                        [
                            -0.6161378045063413,
                            -1.175039409431912,
                            0.6612707233261399
                        ],
                        [
                            -1.6842917526170382,
                            0.5212496973780236,
                            2.8631101846007985
                        ]
                    ],
                    [
                        [
                            2.511645493198874,
                            -1.2703632164522043,
                            2.4062635022494674
                        ],
                        [
                            1.669355065038809,
                            -0.34517238047880733,
                            0.8337419226301757
                        ],
                        [
                            -1.3485754092213342,
                            -1.52335373060413,
                            -3.2203225444911165
                        ]
                    ],
                    [
                        [
                            1.0604326628760503,
                            -0.6233663697032464,
                            -1.5615167948140531
                        ],
                        [
                            -2.2313819081730655,
                            -3.470051536226543,
                            -1.6513173985475063
                        ],
                        [
                            0.07944895416918735,
                            -0.8513890799002828,
                            2.6786079277115515
                        ]
                    ]
                ],
                [
                    [
                        [
                            -2.6793065609824365,
                            -0.08412481622053589,
                            -1.2184403354990294
                        ],
                        [
                            0.24265127847052562,
                            0.9123496924546449,
                            0.6790430796881706
                        ],
                        [
                            -0.48217924503873066,
                            -2.3190186873517162,
                            1.3413743947022834
                        ]
                    ],
                    [
                        [
                            0.27760938090860565,
                            1.1393460383702163,
                            -1.325167140751934
                        ],
                        [
                            -0.17301200915468035,
                            -0.5363878896297483,
                            -0.72389897136056
                        ],
                        [
                            -2.879749895343419,
                            2.023522477830951,
                            -1.1933874020465185
                        ]
                    ],
                    [
                        [
                            0.16583926655427936,
                            1.1850156730348758,
                            1.819142926982506
                        ],
                        [
                            -0.11873833461457875,
                            -0.502501158565876,
                            -0.45975142734542823
                        ],
                        [
                            -1.5021791241449611,
                            -2.238404173366405,
                            -0.6105945964012515
                        ]
                    ],
                    [
                        [
                            0.8080129599918717,
                            1.76179773641207,
                            2.8247517098625066
                        ],
                        [
                            0.6875851530894355,
                            0.5859892767242707,
                            0.6766761267007341
                        ],
                        [
                            1.9903949745332805,
                            -1.1603935595765322,
                            -0.3304119216982319
                        ]
                    ],
                    [
                        [
                            0.2035573675376329,
                            -3.062213625365434,
                            -0.05749951662197189
                        ],
                        [
                            -1.2197051350894548,
                            -1.4228899131625206,
                            -2.5793488100243196
                        ],
                        [
                            -0.770335410848011,
                            0.9258853776451049,
                            -0.23596814985759768
                        ]
                    ],
                    [
                        [
                            1.6846043075294255,
                            0.11875330834398211,
                            2.221211394627421
                        ],
                        [
                            2.0926809140340668,
                            -0.8788987388602506,
                            -0.2460265369173331
                        ],
                        [
                            1.5776586761663711,
                            -0.19383648410398685,
                            -0.4141527575484949
                        ]
                    ],
                    [
                        [
                            -0.3248607171444776,
                            1.8119575745218297,
                            0.8299949411280126
                        ],
                        [
                            -0.4929797741431694,
                            -0.7822709842520196,
                            -0.06848848291539761
                        ],
                        [
                            2.5366739495889172,
                            0.6688480559299002,
                            -0.47549367087731265
                        ]
                    ],
                    [
                        [
                            1.278645080666964,
                            -1.489828730443351,
                            1.5808812134446633
                        ],
                        [
                            0.7250084519823601,
                            0.036274017446918536,
                            0.35968728231823033
                        ],
                        [
                            3.097108313298523,
                            0.4568243304330246,
                            -3.0019224390793617
                        ]
                    ]
                ],
                [
                    [
                        [
                            1.4011664589844117,
                            1.233083585003914,
                            -0.77705719708844
                        ],
                        [
                            1.855559655473704,
                            -0.35349071926420483,
                            3.9826716890450187
                        ],
                        [
                            0.4821637061184324,
                            0.3561773389499404,
                            0.4145413144964669
                        ]
                    ],
                    [
                        [
                            -0.219618972704005,
                            -0.2387861729418255,
                            -3.0798739913062825
                        ],
                        [
                            -0.27950473860509384,
                            1.478788858523793,
                            -3.370743092613315
                        ],
                        [
                            0.7251586495193557,
                            -1.7627832170758149,
                            0.14838211320863953
                        ]
                    ],
                    [
                        [
                            2.3818309700086,
                            1.7830013179764967,
                            -2.5712581475032503
                        ],
                        [
                            0.17538881146386154,
                            2.515376542191397,
                            -0.12549566964880549
                        ],
                        [
                            1.1770245195032754,
                            0.6251979836592654,
                            -3.680861647241667
                        ]
                    ],
                    [
                        [
                            -1.990546923565766,
                            0.8686940477637916,
                            0.3838982251048529
                        ],
                        [
                            -1.1741897665671135,
                            1.8503940192965835,
                            2.3036337296521037
                        ],
                        [
                            -1.0680207640147077,
                            0.6358629126555437,
                            -0.5131002787620733
                        ]
                    ],
                    [
                        [
                            -0.2800209948524736,
                            1.429388782703007,
                            -0.45087167319646704
                        ],
                        [
                            -0.32759705021264285,
                            -3.188860714790729,
                            -1.264786281571147
                        ],
                        [
                            -2.4502197361846165,
                            -0.49776306029936396,
                            1.2659824208301191
                        ]
                    ],
                    [
                        [
                            -0.07719141216210718,
                            3.1104775293993536,
                            2.044553919048871
                        ],
                        [
                            0.10871712185367681,
                            -1.4871457117649656,
                            1.3386769158168645
                        ],
                        [
                            2.215584910912079,
                            0.7162035629293704,
                            2.665859457525933
                        ]
                    ],
                    [
                        [
                            -1.3600878703491854,
                            0.334039072673716,
                            1.1946130587284305
                        ],
                        [
                            -2.305480236455734,
                            1.5899749429405718,
                            -4.360781986822461
                        ],
                        [
                            -1.4644208236606455,
                            -0.9368834307128822,
                            0.2617301348287435
                        ]
                    ],
                    [
                        [
                            -0.002164901576710322,
                            -2.1263442877824583,
                            0.18271613873142922
                        ],
                        [
                            0.21932132651812386,
                            -1.3938585828126937,
                            -1.9867371304630619
                        ],
                        [
                            -1.650543350999623,
                            1.948634202103371,
                            -0.5616733586344862
                        ]
                    ]
                ],
                [
                    [
                        [
                            3.0955478011317266,
                            0.5693813549789883,
                            -3.3047704878350497
                        ],
                        [
                            3.1139547101800185,
                            -1.9779884761430409,
                            -1.5938433781309627
                        ],
                        [
                            0.7037187562374891,
                            -1.0212738789234366,
                            1.1567809935461124
                        ]
                    ],
                    [
                        [
                            2.254748963429251,
                            -0.36988628109727234,
                            -0.4174837321364986
                        ],
                        [
                            -0.4146754572602526,
                            2.5490528547108595,
                            -3.1982733049330903
                        ],
                        [
                            1.107410341011553,
                            -1.4911756951918025,
                            -1.552130426056734
                        ]
                    ],
                    [
                        [
                            0.7071895876100092,
                            -0.05620387925016901,
                            -1.1939931889549316
                        ],
                        [
                            -0.764729288944679,
                            1.7634677606148665,
                            0.9851148491235546
                        ],
                        [
                            1.5605675761080269,
                            0.9752105588243617,
                            -0.4065773394886206
                        ]
                    ],
                    [
                        [
                            -0.6807634074907585,
                            0.83190559342948,
                            -0.4307820028352084
                        ],
                        [
                            -0.09170406260497727,
                            -1.2855796787831313,
                            -0.48724012189539934
                        ],
                        [
                            -0.5926640917029522,
                            -0.8603260087810836,
                            0.8881242828309739
                        ]
                    ],
                    [
                        [
                            0.1079387812058574,
                            -1.3385926512608581,
                            -0.8021713121455893
                        ],
                        [
                            -2.3753601103951114,
                            0.15660690842497937,
                            2.589915283932744
                        ],
                        [
                            -1.8646716070690696,
                            -1.6744575376571085,
                            -1.6221484895643856
                        ]
                    ],
                    [
                        [
                            2.3645979550813383,
                            0.5143885984238019,
                            -1.4835033347793973
                        ],
                        [
                            0.8340243269084917,
                            -1.9116555197391332,
                            -3.3784111041094076
                        ],
                        [
                            3.608706175565523,
                            1.1850231482793232,
                            0.3616386547899788
                        ]
                    ],
                    [
                        [
                            -2.255394317912331,
                            0.24795161783601452,
                            -0.14728637426929467
                        ],
                        [
                            0.42843642721056263,
                            0.05945863460068389,
                            -2.278522742602879
                        ],
                        [
                            -0.3893515426814427,
                            4.657750595408477,
                            -0.48776825140333024
                        ]
                    ],
                    [
                        [
                            0.3901993152488965,
                            -1.1915133410825416,
                            -0.25023667511223646
                        ],
                        [
                            -1.2170186281415845,
                            -0.191187591064698,
                            -1.0002998082812546
                        ],
                        [
                            -2.253376046021511,
                            0.8853793961066216,
                            -0.324846793685551
                        ]
                    ]
                ],
                [
                    [
                        [
                            -1.0541039913613324,
                            1.599608156230627,
                            1.9795582381417292
                        ],
                        [
                            0.8663246608064834,
                            -0.6006662868900653,
                            0.6109437464475747
                        ],
                        [
                            -3.1549535660632153,
                            -0.5460551004201393,
                            0.9215227569428783
                        ]
                    ],
                    [
                        [
                            2.2140892029984998,
                            1.2956351534726698,
                            -0.037957105889738885
                        ],
                        [
                            -0.5562962533146164,
                            4.350282640748747,
                            0.48350975555724124
                        ],
                        [
                            0.4414725525244734,
                            -1.3405492184411698,
                            -0.521374192025609
                        ]
                    ],
                    [
                        [
                            -2.500950770738257,
                            1.0274825440941484,
                            2.016576175895963
                        ],
                        [
                            -1.3782823430829099,
                            -1.197154523069556,
                            1.178940990777326
                        ],
                        [
                            -0.23302283779537467,
                            0.00976961857086249,
                            0.18830351387226668
                        ]
                    ],
                    [
                        [
                            0.7452142624626459,
                            1.3677631095142797,
                            -0.06221725044729243
                        ],
                        [
                            -2.0013038910051333,
                            -1.696480524693182,
                            0.1953832887394763
                        ],
                        [
                            -0.6882485929763454,
                            1.230743295784788,
                            -0.17431096267188118
                        ]
                    ],
                    [
                        [
                            0.7928683913331269,
                            -1.8028076926982193,
                            1.6788486984852935
                        ],
                        [
                            -0.048750168471148006,
                            0.009885059632091964,
                            -1.7544247314017616
                        ],
                        [
                            -0.22125548331982553,
                            -1.355981982415634,
                            0.04361175839025906
                        ]
                    ],
                    [
                        [
                            -1.3118010934190558,
                            -1.245788658870239,
                            -1.363133867704772
                        ],
                        [
                            2.1897635508698277,
                            -0.20040765503805924,
                            1.3676356594032497
                        ],
                        [
                            0.030450277177981072,
                            3.039293174683952,
                            1.7059166366668848
                        ]
                    ],
                    [
                        [
                            -0.692826562303215,
                            -0.46532541655428367,
                            -1.7118903360705486
                        ],
                        [
                            1.1985891163075004,
                            -0.33717795373487347,
                            -0.09899604647316956
                        ],
                        [
                            0.36311309345505705,
                            -0.2966207359598084,
                            0.1022221291243053
                        ]
                    ],
                    [
                        [
                            1.0276508449415191,
                            0.6489515808886512,
                            2.445371792453449
                        ],
                        [
                            0.619624419652289,
                            -2.268766663266317,
                            0.014731706114143359
                        ],
                        [
                            -0.47613356540131263,
                            -0.7533431859687441,
                            -1.3886641007681582
                        ]
                    ]
                ],
                [
                    [
                        [
                            0.33233488218949575,
                            -1.8443312249872428,
                            -2.652919020630212
                        ],
                        [
                            0.1543707197759111,
                            2.668618021510348,
                            0.10775146185995148
                        ],
                        [
                            1.672741505783397,
                            2.1178823362868173,
                            4.1997799247209
                        ]
                    ],
                    [
                        [
                            1.3631545097029094,
                            -1.4533808802515085,
                            1.0555286843567702
                        ],
                        [
                            0.09666745632278927,
                            0.44251497975208653,
                            -1.0526410272761388
                        ],
                        [
                            -1.687741946453645,
                            0.865547063800474,
                            -3.8590291524648044
                        ]
                    ],
                    [
                        [
                            -3.2059532645995383,
                            1.0328520782257338,
                            0.627082503507043
                        ],
                        [
                            0.9269038340740335,
                            -1.4933070362864767,
                            1.1591659277721298
                        ],
                        [
                            0.30597491955267625,
                            -0.5694266615350437,
                            -0.4827706630293118
                        ]
                    ],
                    [
                        [
                            -1.1080340450371735,
                            0.14494427599109955,
                            0.6821494448650314
                        ],
                        [
                            -0.32501663369742784,
                            1.4790274260673772,
                            1.9463040268689744
                        ],
                        [
                            -0.3995968942617242,
                            0.42917659516556017,
                            -1.9861012343000803
                        ]
                    ],
                    [
                        [
                            -1.910598231869849,
                            0.38877801568036346,
                            -0.6285186132699387
                        ],
                        [
                            0.5114115919552128,
                            0.9195613318631234,
                            1.5831920468955072
                        ],
                        [
                            0.844185298546267,
                            -1.238696739488914,
                            1.6125973804267484
                        ]
                    ],
                    [
                        [
                            -2.8235920193412958,
                            -3.171331775644442,
                            -0.2014031332419494
                        ],
                        [
                            -0.15122718626789675,
                            1.0643494339991644,
                            -0.6394569347447929
                        ],
                        [
                            3.0468639447714256,
                            -2.333508260941216,
                            -0.11289508815254687
                        ]
                    ],
                    [
                        [
                            1.2075384268666909,
                            0.5138294601274442,
                            -0.8160968479610011
                        ],
                        [
                            -0.459039322549582,
                            -1.9843881947737292,
                            -0.8346157534371261
                        ],
                        [
                            -0.9955123753661435,
                            0.4163551328145866,
                            -1.232000864688746
                        ]
                    ],
                    [
                        [
                            -1.6623332359891463,
                            0.4671646102348619,
                            0.9649384919163428
                        ],
                        [
                            -0.023476952885572056,
                            0.48035471377993805,
                            -1.2004330053640928
                        ],
                        [
                            3.3374459638848806,
                            3.1898064044047794,
                            0.06430685002598208
                        ]
                    ]
                ],
                [
                    [
                        [
                            0.8370660089937223,
                            -2.4730761738735456,
                            -1.0934245013124486
                        ],
                        [
                            1.3291268648102577,
                            -0.433371875216762,
                            -3.7661159221827916
                        ],
                        [
                            -1.5825282862023733,
                            -0.47245010574868385,
                            1.4625861241780593
                        ]
                    ],
                    [
                        [
                            -1.1891998554896261,
                            2.7131026529919433,
                            0.26562951353395436
                        ],
                        [
                            0.4763900333540681,
                            0.47082708876941065,
                            1.7086600180838012
                        ],
                        [
                            0.006589047991977612,
                            -0.8557646246688522,
                            3.3051538547266444
                        ]
                    ],
                    [
                        [
                            -0.6628535066036506,
                            3.401295960163215,
                            -0.7030080367650066
                        ],
                        [
                            0.6373789567624171,
                            0.6186656378292654,
                            1.135208355214236
                        ],
                        [
                            4.173137234351453,
                            0.5431494798843183,
                            -2.958325118321256
                        ]
                    ],
                    [
                        [
                            -0.33188203592776955,
                            -0.9856554776748997,
                            0.5090336889240751
                        ],
                        [
                            1.794447746866234,
                            0.6064235795758492,
                            -3.228544538560864
                        ],
                        [
                            -1.047164257204336,
                            1.6933445963381368,
                            -0.9237168229004855
                        ]
                    ],
                    [
                        [
                            -1.6671168639759744,
                            -0.8728951227007197,
                            -0.8538153963885702
                        ],
                        [
                            -0.14300149808935494,
                            -0.6911969889354412,
                            0.9782059960744901
                        ],
                        [
                            0.9617983170206268,
                            -1.7319653836541773,
                            -0.7850417932284548
                        ]
                    ],
                    [
                        [
                            2.043513068323349,
                            2.5122738284420514,
                            -0.8127667051716013
                        ],
                        [
                            2.3193931873164764,
                            -0.7339985719297131,
                            2.7193127701809523
                        ],
                        [
                            -0.041272437535160786,
                            -0.10696119501951104,
                            -1.1678898327548082
                        ]
                    ],
                    [
                        [
                            -0.5902765749097734,
                            -1.745671571348732,
                            -0.10590764942548808
                        ],
                        [
                            -1.0507422941577982,
                            -1.1055919276776836,
                            -1.948960310282925
                        ],
                        [
                            -2.509825418198012,
                            2.2699313921720514,
                            -0.25371928179476533
                        ]
                    ],
                    [
                        [
                            -1.2360159689731942,
                            -0.8602251834344452,
                            0.9679554571228821
                        ],
                        [
                            0.6751848382380241,
                            2.232878305679581,
                            0.5614267848742489
                        ],
                        [
                            -1.8770573592148405,
                            -1.8451319139316615,
                            1.5792095530188552
                        ]
                    ]
                ],
                [
                    [
                        [
                            -1.874282484306602,
                            2.312866011846585,
                            1.0119766298780126
                        ],
                        [
                            1.0100621079844943,
                            -2.9411270403014544,
                            0.7531749637740008
                        ],
                        [
                            -0.7594273953673987,
                            0.9388170693214275,
                            0.25268783809646067
                        ]
                    ],
                    [
                        [
                            -3.1781211243121605,
                            -0.3815269046887508,
                            1.2331515962703479
                        ],
                        [
                            -0.09898795059729755,
                            0.2941454848422958,
                            -1.595492863141122
                        ],
                        [
                            -3.0563880228879574,
                            0.5588458727881994,
                            0.5303885067589443
                        ]
                    ],
                    [
                        [
                            -0.6530885763264093,
                            -2.243964714252598,
                            1.807115007748135
                        ],
                        [
                            1.2891332447564796,
                            -0.7385011197914331,
                            1.1337259127363621
                        ],
                        [
                            0.30997624961545217,
                            -1.5855075512253227,
                            -3.8274048767166406
                        ]
                    ],
                    [
                        [
                            -0.10957808945986713,
                            -0.8384076441865325,
                            -1.553119837810553
                        ],
                        [
                            0.0015233979570943162,
                            2.4572292285989383,
                            2.0829659674675356
                        ],
                        [
                            0.7053174822869761,
                            -1.122388413891781,
                            -1.4585941744558937
                        ]
                    ],
                    [
                        [
                            -0.8744317233417286,
                            1.8331214863987515,
                            -1.0573669285414016
                        ],
                        [
                            1.7353986421082994,
                            -0.6138410947097669,
                            0.8127013727602576
                        ],
                        [
                            -0.5001484167049552,
                            1.085123977042011,
                            0.6233986509446756
                        ]
                    ],
                    [
                        [
                            -4.175680596136483,
                            0.12793257081652393,
                            0.7296767318738995
                        ],
                        [
                            -1.0799561957671582,
                            -0.8218453246995906,
                            -1.1696052853155778
                        ],
                        [
                            -0.04062373444164514,
                            0.8418427139282842,
                            -4.191810914778195
                        ]
                    ],
                    [
                        [
                            -0.5524108553079738,
                            2.1224107762710127,
                            2.285753774705568
                        ],
                        [
                            1.3181806196125938,
                            1.0453512567712844,
                            -0.31454634831750194
                        ],
                        [
                            1.5465437785186644,
                            1.8518036882699973,
                            -0.8054595739373044
                        ]
                    ],
                    [
                        [
                            0.08370121670724853,
                            -2.017712320767217,
                            -4.155926388349108
                        ],
                        [
                            2.97367719953805,
                            4.3402987954374455,
                            -0.9245543857516316
                        ],
                        [
                            -0.4352061072033468,
                            1.570103408345216,
                            -2.6440672416734454
                        ]
                    ]
                ],
                [
                    [
                        [
                            -0.49695920224120993,
                            1.9162396160967925,
                            -0.9729291691324895
                        ],
                        [
                            0.5799208698317236,
                            -0.8059394736926376,
                            1.4395037668110497
                        ],
                        [
                            0.4820347236339939,
                            -0.5343950508601519,
                            -0.008951141311967642
                        ]
                    ],
                    [
                        [
                            1.832086482275935,
                            1.8195341956038045,
                            -2.3554995958231313
                        ],
                        [
                            0.4392149472395216,
                            0.3352841452081198,
                            2.4425166142760313
                        ],
                        [
                            -2.795911583493415,
                            -0.9488850888415924,
                            1.8500821904105096
                        ]
                    ],
                    [
                        [
                            0.19781800285603365,
                            -1.1853080600915864,
                            1.5032571928503016
                        ],
