{
    "cnn_layers": [
        {
            "type": "conv",
            "filters": 2,
            "kernel_height": 1,
            "kernel_width": 1,
            "activation": "tanh",
            "weights": [
                [
                    [
                        [
                            0.6052532552082877
                        ]
                    ]
                ],
                [
                    [
                        [
                            0.17459559537864444
                        ]
                    ]
                ]
            ],
            "biases": [
                -0.7043815995911447,
                -0.5155002835439433
            ]
        },
        {
            "type": "pool",
            "size": 2,
            "stride": 2,
            "pool_type": "max"
        },
        {
            "type": "conv",
            "filters": 8,
            "kernel_height": 2,
            "kernel_width": 3,
            "activation": "relu",
            "weights": [
                [
                    [
                        [
                            0.02509918875272943,
                            0.35916226326835776,
                            0.2977223551120898
                        ],
                        [
                            -0.09555552225707697,
                            0.7478517186721814,
                            0.38339950235983
                        ]
                    ],
                    [
                        [
                            -0.09013812952971967,
                            -0.15524333569528448,
                            0.7666774012359674
                        ],
                        [
                            -0.2705777523405566,
                            -0.882115120940951,
                            0.31672213359495016
                        ]
                    ]
                ],
                [
                    [
                        [
                            0.3825681516459911,
                            0.9457713860359442,
                            -0.09791094606536155
                        ],
                        [
                            -0.03733491012152346,
                            0.40411668246572696,
                            -0.4255280005660753
                        ]
                    ],
                    [
                        [
                            0.06635631586624768,
                            -0.6986398537500162,
                            0.9450470667284905
                        ],
                        [
                            0.7154080764691821,
                            -0.8651142895456674,
                            -0.7507551219964987
                        ]
                    ]
                ],
                [
                    [
                        [
                            -0.5872956662848077,
                            0.1745015739199547,
                            -0.8789230467010583
                        ],
                        [
                            0.7660255182624518,
                            -0.4920991020560419,
                            0.11976492725692278
                        ]
                    ],
                    [
                        [
                            -0.7060629613612379,
                            0.9162081988180897,
                            -0.9313413860914685
                        ],
                        [
                            -0.49829793361825625,
                            -0.8171290660773636,
                            0.9177319705073712
                        ]
                    ]
                ],
                [
                    [
                        [
                            0.9227100444044272,
                            -0.2591874230867801,
                            0.46629478194276386
                        ],
                        [
                            -0.04057719565500584,
                            0.1396259602520713,
                            -0.3881295018904565
                        ]
                    ],
                    [
                        [
                            0.9282524550418638,
                            -0.751618263973983,
                            0.20877573699329455
                        ],
                        [
                            -0.6418352297071077,
                            -0.7587832467262006,
                            -0.3400036253483014
                        ]
                    ]
                ],
                [
                    [
                        [
                            -0.6171813552830814,
                            0.5829601830875837,
                            0.21569546714646437
                        ],
                        [
                            -0.39177234555129736,
                            -0.42342928863433493,
                            -0.4030648976971154
                        ]
                    ],
                    [
                        [
                            0.9828346085553137,
                            -0.5894201726949806,
                            0.5854209176524146
                        ],
                        [
                            -0.5135546216571361,
                            -0.08389412527786533,
                            -0.21510081906875356
                        ]
                    ]
                ],
                [
                    [
                        [
                            0.18284076248211423,
                            0.16856189787959042,
                            0.2578967941295973
                        ],
                        [
                            -0.7476419795855866,
                            0.549953669328795,
                            -0.5025688357018887
                        ]
                    ],
                    [
                        [
                            0.9496573780417217,
                            0.7314283478529136,
                            0.2109120310257362
                        ],
                        [
                            -0.7318396858112999,
                            -0.9511665060764825,
                            -0.8265414781215568
                        ]
                    ]
                ],
                [
                    [
                        [
                            -0.5596264319770705,
                            0.4670047473462673,
                            0.467554906596666
                        ],
                        [
                            0.20500509073413165,
                            -0.927063973110098,
                            0.9792487078506031
                        ]
                    ],
                    [
                        [
                            0.34923954890266784,
                            -0.6674496103932281,
                            0.9851425068492561
                        ],
                        [
                            0.3397789499226622,
                            0.25279668905726127,
                            -0.043207332331343995
                        ]
                    ]
                ],
                [
                    [
                        [
                            -0.9126283151504342,
                            -0.8130938703977706,
                            0.3404052051248263
                        ],
                        [
                            -0.692804451677939,
                            0.15300888544228752,
                            -0.051212343177381214
                        ]
                    ],
                    [
                        [
                            -0.31679092538743814,
                            -0.5331689713637016,
                            -0.16984272353003593
                        ],
                        [
                            0.14772642920168,
                            0.9337151637841332,
                            -0.13651776225265788
                        ]
                    ]
                ]
            ],
            "biases": [
                -0.3042981931461315,
                -0.6944587785838592,
                0.30330418919965596,
                -0.6741009648454268,
                0.6208289194720364,
                0.9021377864417064,
                0.27178321948106543,
                -0.8236457964448596
            ]
        },
        {
            "type": "pool",
            "size": 1,
            "stride": 2,
            "pool_type": "avg"
        },
        {
            "type": "conv",
            "filters": 9,
            "kernel_height": 1,
            "kernel_width": 1,
            "activation": "tanh",
            "weights": [
                [
                    [
                        [
                            -0.900176398503783
                        ]
                    ],
                    [
                        [
                            0.9389258220723711
                        ]
                    ],
                    [
                        [
                            0.9315175320599098
                        ]
                    ],
                    [
                        [
                            -0.2708554183332168
                        ]
                    ],
                    [
                        [
                            0.6313012738615575
                        ]
                    ],
                    [
                        [
                            0.4025883539346329
                        ]
                    ],
                    [
                        [
                            -0.5678684422246252
                        ]
                    ],
                    [
                        [
                            -0.8494554515220294
                        ]
                    ]
                ],
                [
                    [
                        [
                            -0.10655820533867444
                        ]
                    ],
                    [
                        [
                            -0.4256264178340632
                        ]
                    ],
                    [
                        [
                            0.8448248780035004
                        ]
                    ],
                    [
                        [
                            -0.406336595711986
                        ]
                    ],
                    [
                        [
                            -0.5841177141938134
                        ]
                    ],
                    [
                        [
                            -0.5890687104993262
                        ]
                    ],
                    [
                        [
                            0.01763864265647963
                        ]
                    ],
                    [
                        [
                            0.39485977053094734
                        ]
                    ]
                ],
                [
                    [
                        [
                            0.7802880454043772
                        ]
                    ],
                    [
                        [
                            0.6382370919052276
                        ]
                    ],
                    [
                        [
                            -0.2507025271569696
                        ]
                    ],
                    [
                        [
                            -0.003981142120459635
                        ]
                    ],
                    [
                        [
                            -0.32590275525385737
                        ]
                    ],
                    [
                        [
                            -0.2747354102981707
                        ]
                    ],
                    [
                        [
                            0.11841878063784939
                        ]
                    ],
                    [
                        [
                            -0.7361203400391523
                        ]
                    ]
                ],
                [
                    [
                        [
                            -0.44561207840397876
                        ]
                    ],
                    [
                        [
                            -0.5744383794809909
                        ]
                    ],
                    [
                        [
                            -0.9076793534445058
                        ]
                    ],
                    [
                        [
                            0.4461037228627007
                        ]
                    ],
                    [
                        [
                            0.8728533121602147
                        ]
                    ],
                    [
                        [
                            -0.7458760437695888
                        ]
                    ],
                    [
                        [
                            -0.9070181220389888
                        ]
                    ],
                    [
                        [
                            -0.370995072293999
                        ]
                    ]
                ],
                [
                    [
                        [
                            0.756466586747484
                        ]
                    ],
                    [
                        [
                            -0.10886726825194337
                        ]
                    ],
                    [
                        [
                            -0.16254952187014426
                        ]
                    ],
                    [
                        [
                            0.17534717414042555
                        ]
                    ],
                    [
                        [
                            -0.40637139946176215
                        ]
                    ],
                    [
                        [
                            -0.40775136661443256
                        ]
                    ],
                    [
                        [
                            0.7202285043926235
                        ]
                    ],
                    [
                        [
                            -0.6464667982423069
                        ]
                    ]
                ],
                [
                    [
                        [
                            -0.9675927349529898
                        ]
                    ],
                    [
                        [
                            -0.2753493276475567
                        ]
                    ],
                    [
                        [
                            0.8305605321847849
                        ]
                    ],
                    [
                        [
                            -0.9441013309783668
                        ]
                    ],
                    [
                        [
                            0.668121233311403
                        ]
                    ],
                    [
                        [
                            0.8120518662393159
                        ]
                    ],
                    [
                        [
                            -0.05929515258077678
                        ]
                    ],
                    [
                        [
                            -0.8961599910372222
                        ]
                    ]
                ],
                [
                    [
                        [
                            0.371586387024047
                        ]
                    ],
                    [
                        [
                            0.20205834373185838
                        ]
                    ],
                    [
                        [
                            0.122402063693974
                        ]
                    ],
                    [
                        [
                            0.9593422138382997
                        ]
                    ],
                    [
                        [
                            -0.17569278603046046
                        ]
                    ],
                    [
                        [
                            -0.1270081710082871
                        ]
                    ],
                    [
                        [
                            -0.2272504545865104
                        ]
                    ],
                    [
                        [
                            0.3859609773223609
                        ]
                    ]
                ],
                [
                    [
                        [
                            -0.7334479949101831
                        ]
                    ],
                    [
                        [
                            -0.300600288849759
                        ]
                    ],
                    [
                        [
                            0.9600634825717818
                        ]
                    ],
                    [
                        [
                            -0.5844602837775557
                        ]
                    ],
                    [
                        [
                            -0.13883831618961362
                        ]
                    ],
                    [
                        [
                            -0.6516303024052492
                        ]
                    ],
                    [
                        [
                            -0.33133876855798894
                        ]
                    ],
                    [
                        [
                            0.7332911160833882
                        ]
                    ]
                ],
                [
                    [
                        [
                            -0.6540720484564257
                        ]
                    ],
                    [
                        [
                            0.34441577765182174
                        ]
                    ],
                    [
                        [
                            0.946107457417795
                        ]
                    ],
                    [
                        [
                            0.07267835131500133
                        ]
                    ],
                    [
                        [
                            -0.6580302729795671
                        ]
                    ],
                    [
                        [
                            -0.8881125156667582
                        ]
                    ],
                    [
                        [
                            0.34546211979536334
                        ]
                    ],
                    [
                        [
                            -0.2656910640711838
                        ]
                    ]
                ]
            ],
            "biases": [
                -0.2694324691085235,
                0.1261116677409413,
                0.9803052141417181,
                -0.040451440150964135,
                -0.7573554805139477,
                0.1340930428185021,
                -0.08491201725309994,
                -0.9577005627991602,
                -0.8177351552809582
            ]
        },
        {
            "type": "conv",
            "filters": 5,
            "kernel_height": 1,
            "kernel_width": 1,
            "activation": "relu",
            "weights": [
                [
                    [
                        [
                            -0.4162854064421442
                        ]
                    ],
                    [
                        [
                            -0.2410204089840653
                        ]
                    ],
                    [
                        [
                            0.6530933557020024
                        ]
                    ],
                    [
                        [
                            0.8581180103287047
                        ]
                    ],
                    [
                        [
                            0.05054309462927975
                        ]
                    ],
                    [
                        [
                            0.7690659992003821
                        ]
                    ],
                    [
                        [
                            0.35899758862158326
                        ]
                    ],
                    [
                        [
                            0.11095325025822222
                        ]
                    ],
                    [
                        [
                            -0.8988484373225267
                        ]
                    ]
                ],
                [
                    [
                        [
                            -0.2944509440722274
                        ]
                    ],
                    [
                        [
                            0.5292378121315218
                        ]
                    ],
                    [
                        [
                            0.08484727478304976
                        ]
                    ],
                    [
                        [
                            0.26141039311512215
                        ]
                    ],
                    [
                        [
                            -0.37442107227144716
                        ]
                    ],
                    [
                        [
                            -0.4854330825187174
                        ]
                    ],
                    [
                        [
                            0.42525540605551937
                        ]
                    ],
                    [
                        [
                            -0.26342530121398267
                        ]
                    ],
                    [
                        [
                            0.10965488193613315
                        ]
                    ]
                ],
                [
                    [
                        [
                            0.5946460720900113
                        ]
                    ],
                    [
                        [
                            0.889790103150359
                        ]
                    ],
                    [
                        [
                            0.10160099957285262
                        ]
                    ],
                    [
                        [
                            -0.10353988519538548
                        ]
                    ],
                    [
                        [
                            0.32907389183029934
                        ]
                    ],
                    [
                        [
                            0.3970194385582657
                        ]
                    ],
                    [
                        [
                            -0.14277980396271128
                        ]
                    ],
                    [
                        [
                            -0.9540385507798657
                        ]
                    ],
                    [
                        [
                            0.3737706030168375
                        ]
                    ]
                ],
                [
                    [
                        [
                            -0.12051002331714145
                        ]
                    ],
                    [
                        [
                            0.4344441013626932
                        ]
                    ],
                    [
                        [
                            0.9634748772360122
                        ]
                    ],
                    [
                        [
                            0.9221877056545986
                        ]
                    ],
                    [
                        [
                            0.010150646331025692
                        ]
                    ],
                    [
                        [
                            -0.11510666047287121
                        ]
                    ],
                    [
                        [
                            -0.6955797071641543
                        ]
                    ],
                    [
                        [
                            -0.13049228515282496
                        ]
                    ],
                    [
                        [
                            -0.32965221329735916
                        ]
                    ]
                ],
                [
                    [
                        [
                            0.10878015188354606
                        ]
                    ],
                    [
                        [
                            -0.6250440530689718
                        ]
                    ],
                    [
                        [
                            0.099790648721086
                        ]
                    ],
                    [
                        [
                            -0.9007240512884709
                        ]
                    ],
                    [
                        [
                            0.41428103187590715
                        ]
                    ],
                    [
                        [
                            -0.3663900785223888
                        ]
                    ],
                    [
                        [
                            -0.6801096933714066
                        ]
                    ],
                    [
                        [
                            -0.7282211218321861
                        ]
                    ],
                    [
                        [
                            0.7586461548100951
                        ]
                    ]
                ]
            ],
            "biases": [
                -0.4367668762596484,
                -0.6230932452396218,
                -0.30964333393101784,
                -0.18849542030617306,
                0.1925396347476127
            ]
        }
    ],
    "ffn_layers": [
        {
            "neurons": 126,
            "activation": "relu",
            "weights": [
                [
                    0.940100584152556,
                    0.7434693845697511,
                    0.10842183047667664,
                    0.27764204773308543,
                    -0.37372493877420254
                ],
                [
                    -0.2304776192595448,
                    -0.06689903254798568,
                    0.07317225981129094,
                    -0.3586734349642928,
                    0.6795981079691855
                ],
                [
                    -0.34684839917333954,
                    0.8416725149265749,
                    -0.7730505328144412,
                    0.37846373585730664,
                    0.30071942588502854
                ],
                [
                    -0.674675897996247,
                    -0.30138357887243283,
                    -0.5081648189108026,
                    -0.6441057215847314,
                    -0.4868435774100841
                ],
                [
                    -0.9597279807746273,
                    -0.8251200963627696,
                    0.877205586081131,
                    0.527219967173753,
                    0.6482100812715574
                ],
                [
                    -0.12965424342414522,
                    -0.7505658134662982,
                    -0.2892372574483604,
                    0.10514651254322427,
                    0.09220406862521502
                ],
                [
                    0.1605056240243019,
                    0.8259289445502112,
                    -0.6756199626927055,
                    0.34665287754232565,
                    0.45276810749266305
                ],
                [
                    -0.67726394259365,
                    0.34836640059134694,
                    -0.8485017543679689,
                    -0.8260347065991431,
                    0.022836627423409306
                ],
                [
                    0.17747688599114042,
                    -0.7113882263920501,
                    0.9336546024694314,
                    0.7574227907187232,
                    0.03552498379870217
                ],
                [
                    0.13416406434534411,
                    -0.9284934892591457,
                    0.133938555570144,
                    -0.45891984639655625,
                    0.6604737853019229
                ],
                [
                    -0.9035075055164754,
                    0.026509662886442298,
                    0.3005553658222688,
                    -0.48936511121102466,
                    0.5109382186696874
                ],
                [
                    -0.9485237089553571,
                    -0.468826986675301,
                    -0.7300241357695614,
                    0.9630433931402966,
                    -0.6129832850450412
                ],
                [
                    0.4982802706437979,
                    -0.6418926258065782,
                    -0.407030203269662,
                    -0.5901747263646477,
                    -0.0460800999682307
                ],
                [
                    -0.10649354045629811,
                    0.0960948911809949,
                    -0.24673872256711005,
                    -0.22444545062191912,
                    0.5955735330671987
                ],
                [
                    0.2179879652993888,
                    0.8905903434974942,
                    -0.8809158224419882,
                    -0.9641000529718593,
                    -0.14541537059167564
                ],
                [
                    -0.4586026104951497,
                    0.8180265868688195,
                    0.9125543564396523,
                    -0.8862589366835136,
                    -0.26545738402850527
                ],
                [
                    -0.7033951013792066,
                    -0.46670653862544853,
                    -0.20378475991578227,
                    0.3218709404908753,
                    -0.4675932342738691
                ],
                [
                    -0.7316395028317866,
                    0.27018975983549787,
                    0.4046880476998691,
                    -0.3491863730018294,
                    0.8122697767440645
                ],
                [
                    0.8699160909126284,
                    -0.9916062752564117,
                    -0.06831534239444292,
                    0.13984312443130098,
                    -0.7359001050540455
                ],
                [
                    0.13244027941864744,
                    0.21182638446112878,
                    -0.8683200212088606,
                    0.4680238358911135,
                    -0.5436378574766054
                ],
                [
                    0.42444467916827655,
                    0.4713558032435847,
                    -0.4100726120141944,
                    0.7737372088454764,
                    -0.5843088936651768
                ],
                [
                    0.3341813578733459,
                    -0.11290456688991068,
                    -0.1705163259483733,
                    0.4790684275531567,
                    -0.4812462849545083
                ],
                [
                    -0.029004640810396998,
                    0.6364543314479634,
                    0.9602332161853013,
                    0.7272090892337828,
                    -0.1294342605274863
                ],
                [
                    -0.03822573472219304,
                    0.041639357362544205,
                    -0.38836450885623996,
                    0.7883660186171733,
                    0.23914323277507377
                ],
                [
                    -0.17258554191618392,
                    -0.21378268441048842,
                    -0.9918635920997296,
                    -0.19044152634834965,
                    0.3463729773097235
                ],
                [
                    -0.7444381907146842,
                    0.13317481944097365,
                    0.6546701671803121,
                    0.9150180166752566,
                    -0.3962413080932954
                ],
                [
                    0.4612842719191028,
                    -0.6230006116154501,
                    0.48524599193622575,
                    0.055675761788442246,
                    0.7608288329341204
                ],
                [
                    0.5275964436137772,
                    -0.5471984532399039,
                    0.20262215170482145,
                    -0.13589142702341417,
                    -0.39042086748285687
                ],
                [
                    -0.4879862322605011,
                    -0.3910667247003876,
                    0.0025571590435966574,
                    0.5229518032842804,
                    -0.5221930471638145
                ],
                [
                    0.7424530793144342,
                    -0.5200961996524947,
                    -0.6656461704204188,
                    0.044981394833495836,
                    0.45243810283715313
                ],
                [
                    -0.14432852302023624,
                    -0.8577865560505433,
                    0.9029808260563508,
                    -0.8607484037500741,
                    -0.38029859873290195
                ],
                [
                    -0.10102482606491403,
                    -0.7235508396809034,
                    -0.689282435899734,
                    0.477586081565355,
                    0.45333717658903927
                ],
                [
                    -0.020427078787558006,
                    -0.18335893242581291,
                    -0.3223272941092963,
                    0.33411089099671076,
                    0.0896201352909669
                ],
                [
                    0.645161283858878,
                    -0.0012673140588848053,
                    -0.2774350834012693,
                    -0.8834387467884863,
                    0.977999548361459
                ],
                [
                    -0.6786269398528431,
                    -0.01905075460041017,
                    0.6890275225505551,
                    0.1729053523878641,
                    0.7254808079601831
                ],
                [
                    -0.4342955094187808,
                    -0.25875964515330785,
                    -0.4017472991785487,
                    0.5866542816146798,
                    0.08861812847907236
                ],
                [
                    -0.08288492568893568,
                    0.41494185385019855,
                    0.4086272746438231,
                    0.7629358886122215,
                    -0.2651001396943904
                ],
                [
                    0.6831983701648661,
                    0.3694665199925742,
                    -0.9683225857498123,
                    -0.625464361953264,
                    0.76709873771224
                ],
                [
                    -0.8072076917904603,
                    0.015479111824774794,
                    0.03386798200782448,
                    -0.6059286514577271,
                    0.9734207112963493
                ],
                [
                    0.024819843937923913,
                    0.666136973873565,
                    0.4372406214052058,
                    -0.8543131626875962,
                    -0.14686014958154492
                ],
                [
                    0.041972270645451726,
                    0.37413949293663884,
                    -0.5816778587946323,
                    0.14872366439288065,
                    -0.24952633049504525
                ],
                [
                    0.8244782099997943,
                    0.2164202239096964,
                    -0.7209818207496308,
                    -0.9736857516001043,
                    0.9316163054907936
                ],
                [
                    -0.9423925443953807,
                    0.6325290739517042,
                    0.31541522989992954,
                    -0.3672716660480513,
                    -0.6198950234266052
                ],
                [
                    -0.3327528563629667,
                    -0.35932547569035056,
                    0.6670060563584008,
                    0.3004122057550329,
                    -0.47984937511367654
                ],
                [
                    0.3389002221777895,
                    -0.4255595990448644,
                    -0.3737388627122642,
                    0.8867465004627983,
                    0.043728752213383126
                ],
                [
                    0.7059320638377182,
                    0.035415723057587334,
                    -0.604602653622369,
                    0.43197193385281785,
                    0.817894497958612
                ],
                [
                    0.6037739223527088,
                    -0.6361585423306733,
                    0.6079998834580402,
                    0.7949782675009003,
                    -0.48578227428328313
                ],
                [
                    -0.5906320277775454,
                    0.9195433252306748,
                    0.5580958290793459,
                    0.12964024048044775,
                    -0.6098151805810796
                ],
                [
                    0.4511858868469736,
                    -0.8473883909033757,
                    -0.6727884843683243,
                    -0.2888325644824832,
                    0.5197719778969088
                ],
                [
                    0.735405471718894,
                    0.7018916670516164,
                    -0.7115241094009233,
                    -0.6333834840261321,
                    0.9558744608047665
                ],
                [
                    0.5919085155174122,
                    0.6525343297619042,
                    -0.3166371409491322,
                    -0.9867567263365542,
                    0.8117889881065599
                ],
                [
                    0.1865377545018927,
                    0.935524092324499,
                    -0.3174984630501594,
                    0.40789362082367386,
                    -0.9702065002055846
                ],
                [
                    0.6301796827043362,
                    -0.18431056477007046,
                    -0.23320436120008137,
                    -0.4679229359446879,
                    -0.5979618548228063
                ],
                [
                    -0.1231104186664691,
                    0.04377538145986404,
                    -0.30930683607329557,
                    0.11672080426218034,
                    0.6693045416673924
                ],
                [
                    -0.3403939143135546,
                    -0.04861875831563056,
                    -0.16033287265436402,
                    0.43503093279304195,
                    0.9997042668363174
                ],
                [
                    0.4018503424229676,
                    -0.2713242891170775,
                    -0.5868733716826715,
                    0.4166975706355116,
                    0.10020663590613688
                ],
                [
                    -0.20743918844244402,
                    -0.17251527159045232,
                    0.6705271441179004,
                    0.7205962520090694,
                    0.810851538391167
                ],
                [
                    0.3562879802706984,
                    -0.7804634829557364,
                    0.5087705399170415,
                    0.7219066965663588,
                    -0.7323771910026196
                ],
                [
                    0.1377514285894783,
                    0.8288992622675555,
                    -0.3534357487833517,
                    0.08346822436562995,
                    0.029080422230219893
                ],
                [
                    0.7927858124468949,
                    -0.015944112773145225,
                    -0.5315009307028216,
                    -0.1920456901823111,
                    0.5690850632611388
                ],
                [
                    -0.44314131866175765,
                    0.5157128089614609,
                    0.4072852380034011,
                    0.5031329525978676,
                    0.04682830090060941
                ],
                [
                    -0.8235648389316179,
                    -0.900861663097716,
                    -0.0046500325501188655,
                    -0.7549057068443252,
                    0.9986760741996308
                ],
                [
                    -0.11283343725890416,
                    0.7426655678746465,
                    -0.9118312847559427,
                    -0.6518814987758899,
                    -0.10160148442537498
                ],
                [
                    -0.14265065221094675,
                    0.738804219280127,
                    0.6674104570990558,
                    -0.8764168187140473,
                    -0.8202056159965094
                ],
                [
                    0.4835634887550069,
                    -0.8348241745509988,
                    -0.9101277766685949,
                    0.40539288025380027,
                    0.7100603996751909
                ],
                [
                    0.2136246542165119,
                    0.4047511526394485,
                    -0.04291781433492825,
                    0.9865442125767803,
                    0.7710173096130528
                ],
                [
                    0.5663106927481982,
                    0.007221252133669198,
                    -0.5907513993788129,
                    0.7721545415680859,
                    -0.3269670750672049
                ],
                [
                    0.9238661860049542,
                    -0.7006966081338699,
                    -0.8911056250564211,
                    0.9642059302284183,
                    0.22285976353139159
                ],
                [
                    0.6880636199315329,
                    0.8535112389476709,
                    -0.8004988789660246,
                    -0.6652746258362723,
                    0.5745421112173899
                ],
                [
                    -0.7335828034603864,
                    0.9211734604865414,
                    0.8882568172320298,
                    -0.580884606161471,
                    0.9965594509994946
                ],
                [
                    -0.8257261765220392,
                    0.6245055738109899,
                    -0.27885818517186545,
                    0.8862528558868006,
                    -0.7718082838974372
                ],
                [
                    -0.9681821632165706,
                    0.6660460712725722,
                    -0.9024247075657685,
                    0.44520701411450103,
                    0.2137647295425409
                ],
                [
                    0.40723061650917214,
                    0.522398289312465,
                    -0.633405650753464,
                    -0.11893593405356806,
                    0.6342026362457565
                ],
                [
                    -0.6209754504906455,
                    0.6598928919795837,
                    0.301820287986619,
                    -0.507788350727113,
                    -0.017952166828158145
                ],
                [
                    0.6753384232623951,
                    0.8390039129419951,
                    -0.9405171311721017,
                    0.5967852955323238,
                    -0.11241924807900161
                ],
                [
                    -0.7640368757998459,
                    0.47275949360219083,
                    -0.7395545329381856,
                    0.0700011956218638,
                    0.32667385095956525
                ],
                [
                    0.40136319915018426,
                    0.17839670235674765,
                    0.3641512392348769,
                    -0.494152023291176,
                    0.4633897338018529
                ],
                [
                    0.4214972177758822,
                    0.7952218040848347,
                    0.13316524121228168,
                    -0.9030026880912077,
                    -0.5577729075058482
                ],
                [
                    0.43587639254459587,
                    0.34476780643388194,
                    0.09713930681394523,
                    0.9099613469699157,
                    0.6559270754328774
                ],
                [
                    0.5616985186682195,
                    -0.8552871103547801,
                    0.28213637076111797,
                    -0.8301370435993267,
                    -0.46793418152787747
                ],
                [
                    -0.13244553461936937,
                    0.6548159228348054,
                    -0.5690170318881842,
                    -0.7601462164167319,
                    0.0076942733660405604
                ],
                [
                    0.09644716094349048,
                    -0.15466606622574175,
                    -0.6887142696085671,
                    -0.29241263385705607,
                    -0.7407365497120526
                ],
                [
                    -0.40437499440044733,
                    0.24990446311983527,
                    0.26867001606352603,
                    0.6029780727112566,
                    -0.008183757933925673
                ],
                [
                    0.23061005962119596,
                    0.7413139501422046,
                    0.7207131704539984,
                    0.14274800364030016,
                    -0.12597725157376694
                ],
                [
                    0.5494744229016397,
                    0.555768694516197,
                    0.7437385704417145,
                    0.8412071152989113,
                    0.05014805348469431
                ],
                [
                    0.5983311764496619,
                    0.5870723539528768,
                    -0.3994545652614716,
                    0.7493522077204327,
                    -0.9733359559921777
                ],
                [
                    0.7363908820985077,
                    -0.721300830795085,
                    -0.10287723368144408,
                    -0.020476310186621882,
                    -0.8925472989473733
                ],
                [
                    -0.10957602958138635,
                    0.8032068599055231,
                    0.41770255842240744,
                    0.38752834000176684,
                    0.49277733134628954
                ],
                [
                    0.01842602146843575,
                    0.6033905814591707,
                    0.9305456180140159,
                    0.2818316831665204,
                    0.7349515531985251
                ],
                [
                    0.8878271600442,
                    -0.022760982811121044,
                    0.25320965975251997,
                    0.8556419859918101,
                    0.36806196951658654
                ],
                [
                    0.051681576411400254,
                    0.8593271152917534,
                    -0.39286338289505296,
                    0.7661566876060539,
                    -0.8239397662190542
                ],
                [
                    0.2539780268676075,
                    -0.2030513994286347,
                    0.738050224961964,
                    0.9152196856322183,
                    0.21843334579394336
                ],
                [
                    -0.1193170899713758,
                    -0.577864956884536,
                    -0.3662701551487668,
                    -0.30166289784822475,
                    0.7008362577894696
                ],
                [
                    0.17212931005676135,
                    -0.38783423019170105,
                    -0.24994614331997433,
                    0.5638193971427963,
                    -0.8298361616495122
                ],
                [
                    0.09456704061368226,
                    -0.10846670820932491,
                    0.10372794235076466,
                    0.3140774353716167,
                    -0.5939094576256927
                ],
                [
                    -0.4637954217841491,
                    -0.07473498111010035,
                    0.06433946636480448,
                    -0.2815599615111293,
                    0.010056294259250365
                ],
                [
                    0.6721382275443173,
                    0.8492360098361262,
                    -0.18523759447607002,
                    0.386914353082372,
                    -0.6852488457003254
                ],
                [
                    0.40736879906697854,
                    0.792308674793873,
                    0.22493458893132368,
                    -0.8242623479575351,
                    -0.7743142364751743
                ],
                [
                    -0.4588963967065651,
                    -0.8459526496218392,
                    -0.1675425569355231,
                    -0.3047113576454594,
                    -0.5383060837838709
                ],
                [
                    -0.3277622595724954,
                    0.3890705050077914,
                    0.23266919730184843,
                    -0.46934998012185214,
                    -0.2598196437982583
                ],
                [
                    -0.234437067234758,
                    -0.38888692822427573,
                    -0.6107503972067769,
                    -0.2839996966735867,
                    -0.882524309135724
                ],
                [
                    0.9822499823376405,
                    -0.2146186970854882,
                    -0.47151089571623594,
                    -0.14945698199945956,
                    -0.630543714725784
                ],
                [
                    -0.3211855212983086,
                    -0.025269887402554758,
                    0.284193358196841,
                    -0.5392226117995256,
                    -0.4372762811804829
                ],
                [
                    0.6799560775732434,
                    0.7806936429647493,
                    0.9786284137344166,
                    0.2019280544089206,
                    -0.9992848381617874
                ],
                [
                    0.6200298718514474,
                    0.48904304649849273,
                    0.6284931958760127,
                    0.04414071250829199,
                    -0.9106615831153961
                ],
                [
                    0.3383028827558574,
                    -0.37013209032650085,
                    0.6827611078121152,
                    -0.703641532731635,
                    0.262932874049459
                ],
                [
                    -0.5693120850037423,
                    0.31518861103343654,
                    -0.1175126880525017,
                    -0.8959094526009894,
                    -0.6892585795890034
                ],
                [
                    -0.3573682450345277,
                    0.5875819434918543,
                    -0.4756048057666433,
                    0.34960021379615913,
                    0.8692964464581461
                ],
                [
                    -0.2572499576258045,
                    0.5862969003295555,
                    -0.03247837544119281,
                    -0.76811399322974,
                    0.10958473249852352
                ],
                [
                    0.2919888874287273,
                    -0.6194452746974874,
                    -0.8553298508221587,
                    0.6025927234317408,
                    0.05141137562627596
                ],
                [
                    0.05644705706303266,
                    0.7734863896944417,
                    0.06579222711498223,
                    0.3459228699583592,
                    -0.33117559023938536
                ],
                [
                    0.7954804601041332,
                    0.5671363825580229,
                    -0.39118182804576684,
                    0.17146057421244176,
                    -0.8618568465895007
                ],
                [
                    0.12481131135340728,
                    -0.983072838713632,
                    -0.0928540146383956,
                    -0.825792730298702,
                    -0.10027126853031043
                ],
                [
                    0.09308804421216643,
                    0.3570940149434112,
                    0.1935699779173614,
                    -0.5138529216067729,
                    0.871371884571861
                ],
                [
                    0.31849108671938686,
                    -0.7963870700619373,
                    -0.6132835425344456,
                    0.15946481006360358,
                    0.6816685913343064
                ],
                [
                    -0.36906555806170527,
                    0.8019707071166766,
                    0.2504703285438601,
                    0.07906974629617491,
                    0.8270502095972465
                ],
                [
                    0.9355107421224287,
                    0.3486085821369693,
                    -0.14909229896018839,
                    -0.17409371866890044,
                    -0.41244143091203966
                ],
                [
                    -0.7928303462353656,
                    0.8117766420440471,
                    0.510977768277773,
                    0.7676958863480219,
                    0.6422309934647918
                ],
                [
                    0.0682638170350931,
                    0.2777715348355738,
                    0.7355624022305967,
                    -0.12034210856324012,
                    -0.2041115590036282
                ],
                [
                    0.5254893255787951,
                    0.5761936778120742,
                    -0.8729165297363872,
                    0.9206990881134398,
                    0.6399152851862395
                ],
                [
                    0.4104967684225109,
                    0.4366886183121259,
                    -0.6852781847728802,
                    -0.5672285654938252,
                    -0.4863452283016867
                ],
                [
                    0.1783623274001649,
                    -0.6115705528936732,
                    0.18602835199980117,
                    -0.4364876142543068,
                    -0.6218618278836654
                ],
                [
                    -0.4772616883031451,
                    0.35731990088238574,
                    -0.5455956024665107,
                    0.3438597030829591,
                    0.09557572185733809
                ],
                [
                    -0.5217066023788792,
                    -0.9156847010445468,
                    0.9446218381684457,
                    0.26443055946855987,
                    -0.859040521614862
                ],
                [
                    0.5987607710895366,
                    0.373966764765548,
                    0.4367805043627677,
                    0.600084565755622,
                    0.9592613421972094
                ],
                [
                    0.33515261424548726,
                    0.49603849148452506,
                    0.6756752835217983,
                    -0.4625225613910209,
                    0.8360804380353588
                ]
            ],
            "biases": [
                0.3132252230820596,
                -0.0426132940178392,
                0.7147975366128023,
                -0.9180301925976941,
                0.492871087262851,
                0.028631379153271963,
                0.7544595503657034,
                -0.17659744520117093,
                0.5320596638794066,
                0.6004343787331685,
                -0.5669224603622229,
                0.023247040962658838,
                -0.05545796825678173,
                0.01132324429810172,
                0.7850119723763436,
                -0.48736700960024537,
                0.8345637658206948,
                0.6267021973787696,
                -0.4701915421181453,
                -0.2910162395962723,
                -0.8885493395280417,
                0.10232114694550876,
                -0.9803185990367305,
                -0.29778859964065707,
                0.7515728592378006,
                0.3996614321518024,
                -0.7258762019405693,
                -0.8417538014910724,
                -0.7376801111060884,
                -0.8681593401278203,
                0.604703823164431,
                -0.3902891691148225,
                0.46898207634235956,
                0.806910962747283,
                -0.9441636541949565,
                -0.5827459479457584,
                0.6201556863651831,
                -0.570375967813707,
                -0.16339853964101403,
                -0.6156721795637208,
                -0.8711533755141541,
                -0.5598363043691301,
                -0.4488907989722559,
                0.15236397777652644,
                -0.007120270373565107,
                0.596484803315926,
                -0.6478190362028522,
                -0.4934326770941453,
                -0.3219554965840352,
                0.8717362665369099,
                0.9950807249959706,
                0.8711550839038085,
                -0.9207661098054762,
                -0.5057438674749484,
                0.7073186204262558,
                -0.5619266453943379,
                -0.16403981923692568,
                -0.7164688331363855,
                -0.9766385604115015,
                -0.7631921354163791,
                0.49497992759671683,
                -0.3341996159363274,
                0.6181106415691866,
                0.7353461108738246,
                -0.05556666183514425,
                0.8742970000199792,
                -0.2363146450455138,
                -0.21790416742164043,
                0.37031757778983665,
                0.23528850781575827,
                0.5114441506833887,
                0.8507905036033478,
                -0.39000403528193717,
                0.6153077077116207,
                -0.9271080309960897,
                0.3989773869484077,
                0.01905918022409181,
                0.040141715283142254,
                0.030981289892790587,
                -0.6797245805520031,
                -0.9058614978641695,
                0.1852206840660604,
                -0.942419242378234,
                0.30735177418412074,
                -0.22883454521418334,
                0.8325791913748162,
                0.3733662734741825,
                0.8895669491980771,
                0.5357321927555454,
                -0.380473601121196,
                -0.8872038595455563,
                0.29250065623067734,
                0.42239585318993544,
                -0.1142666280484923,
                0.7784500666091103,
                0.46172515664826874,
                0.5153399949560591,
                -0.048318492895518705,
                -0.8370908208703971,
                -0.746791595029104,
                0.575032193621386,
                0.3832174477703061,
                0.9941318455156847,
                -0.772278805267808,
                0.4871576401729676,
                0.18245011566598457,
                0.40408967887775304,
                0.7148734142115047,
                -0.7698542782210769,
                -0.7890983055893346,
                0.9501172650940142,
                -0.9308849975197286,
                -0.6722799875470693,
                -0.6871481513842377,
                0.2806201546867608,
                0.9702370583191708,
                -0.4212715368403417,
                -0.2044389630113539,
                0.9483166392618962,
                -0.664668795700923,
                -0.0875470178477391,
                -0.37702323564382634,
                -0.027890301341342072,
                -0.7582763463116162,
                0.7277710839304468,
                0.26335162674882384
            ]
        },
        {
            "neurons": 7,
            "activation": "softmax",
            "weights": [
                [
                    0.22036918863298172,
                    0.7074682919609605,
                    -0.4423464364175014,
                    0.8511320376980818,
                    -0.5030848575976592,
                    0.6813011274113017,
                    0.6859214053139853,
                    -0.32516748206525614,
                    -0.19828541573050318,
                    -0.8031249310067423,
                    0.8724174471833555,
                    0.9926570108390305,
                    0.6860721991650685,
                    -0.9855804668478849,
                    0.14275510100328748,
                    -0.5211158521420249,
                    0.32878597339586846,
                    -0.14269535703614555,
                    0.38496087536429546,
                    -0.0060346948185190374,
                    0.27898763383308434,
                    -0.7681314950278411,
                    -0.9893537932289858,
                    -0.35438681149268203,
                    0.10703342136000749,
                    -0.48808433737954005,
                    -0.6586370296169606,
                    -0.9087396429543786,
                    0.3839370846086234,
                    -0.8254260318258044,
                    0.9893750849350387,
                    -0.964565409993337,
                    -0.3260242271377485,
                    0.508848240701776,
                    -0.9813405520374601,
                    -0.28056774958936126,
                    -0.40062084985770596,
                    0.01350167990292328,
                    -0.009766881196530575,
                    0.8218276481035218,
                    -0.4227873812659475,
                    0.4555565518737339,
                    -0.41568082232715575,
                    0.2538497084687421,
                    -0.24300195857405127,
                    0.2214934120987917,
                    -0.14391742999477541,
                    -0.4145870301676666,
                    -0.023965066473656593,
                    -0.4208168842292048,
                    -0.12675339718967127,
                    0.6470651879622011,
                    -0.46444515535211495,
                    -0.4687443788074639,
                    -0.6809533224829456,
                    0.7473002979170287,
                    0.4638342508458537,
                    -0.48691854116819666,
                    0.20692192785189056,
                    -0.19203700678139435,
                    -0.3581793454633866,
                    0.523149457710351,
                    0.10045658709033001,
                    -0.4932809657704622,
                    -0.6290095311370387,
                    0.8853653368296468,
                    0.050591426220399915,
                    -0.28973129512089546,
                    0.8217027228797704,
                    -0.6508665586224454,
                    0.090612016033768,
                    -0.819673454040023,
                    -0.24253355836406265,
                    -0.0016577249915483705,
                    -0.907832741033032,
                    -0.039758149307183244,
                    0.32217025337798066,
                    0.9008806941154912,
                    -0.8454500661203666,
                    -0.40759084768441434,
                    -0.26977413991988386,
                    -0.7016365688219994,
                    -0.18196632212795905,
                    -0.2002180359697694,
                    0.49733275370598307,
                    -0.23245671575767846,
                    0.9161872551627712,
                    -0.5898181618149259,
                    -0.8685793541418221,
                    0.515397590634908,
                    0.5604618475560259,
                    -0.38457078863780003,
                    -0.9899930660159155,
                    -0.3842730842390676,
                    -0.8820348145323582,
                    -0.8060911714736056,
                    -0.43382115114746167,
                    -0.19606448657279785,
                    0.9384097765708388,
                    0.2961615187778175,
                    -0.9556996724672977,
                    0.7388958379534996,
                    0.7882314246167674,
                    -0.08310739895699526,
                    -0.6713695498768415,
                    0.021620281429436616,
                    0.9079152986764709,
                    -0.6602745640948704,
                    -0.3557603847687232,
                    0.8038579527999823,
                    0.12705108200182247,
                    -0.2854267726405266,
                    -0.7316482969156115,
                    0.9622840017368472,
                    -0.7855891203648238,
                    0.3677299036555526,
                    -0.8019663489267437,
                    -0.6190665557630479,
                    -0.4179087552982548,
                    0.6233722741033021,
                    0.6160639913244417,
                    0.5130470834799754,
                    -0.14075669239869137,
                    0.19469659128269234,
                    -0.940480558264688,
                    0.06612802417681585
                ],
                [
                    -0.47633421967638934,
                    0.6538765814900922,
                    -0.45632023171544445,
                    -0.1280167834910828,
                    0.8403887148736808,
                    0.603153215541222,
                    -0.6459122100121253,
                    0.3577070345438653,
                    -0.6469004500289182,
                    0.5195906084641491,
                    -0.2845080412904841,
                    -0.9565346809545145,
                    0.25036616494183384,
                    -0.3538171012629887,
                    0.6485786207327617,
                    -0.9831278333039006,
                    -0.6754406604724241,
                    -0.7561130922455166,
                    0.8074380793881819,
                    -0.7064666970862481,
                    0.12626317380592833,
                    0.7289352809522613,
                    -0.8280878038559509,
                    -0.6819355631660542,
                    -0.4576268407477926,
                    -0.13136287954685089,
                    0.6809590727261678,
                    0.1772798883743032,
                    -0.9932469313576013,
                    -0.12110767842071968,
                    0.06033891486081511,
                    0.5262042105190394,
                    -0.7191713576781744,
                    -0.07241360526215002,
                    -0.21484528665600466,
                    -0.9182271077735069,
                    -0.5606170395667949,
                    0.7897727651655229,
                    -0.8043022986392647,
                    -0.35833924277500806,
                    0.16680911684415145,
                    -0.3716525726864315,
                    -0.45999812443866195,
                    0.972599058411578,
                    0.5248293915289777,
                    0.6241024180334771,
                    -0.6026149482001628,
                    0.6760588778221226,
                    -0.5166028475211208,
                    0.9687083677422446,
                    0.9548056149916238,
                    0.181920603085437,
                    0.26500380292421677,
                    -0.17358994652980142,
                    -0.4884247321314057,
                    0.791462781430263,
                    -0.9508874371051634,
                    0.6415146205602211,
                    0.6435223463840436,
                    0.042705142548818076,
                    0.38184514120512936,
                    0.008863217301290138,
                    0.6265367722624327,
                    0.693799963954546,
                    -0.2836742100533929,
                    0.3910947038871533,
                    -0.5920833257001041,
                    0.9329283136293594,
                    0.5727684284497108,
                    0.7890561198026034,
                    0.11635396697267031,
                    0.5970938561827457,
                    -0.3648450557048837,
                    -0.7175014260988084,
                    -0.18880430422798722,
                    0.5452355626180605,
                    0.06460032861306608,
                    0.45812247804702966,
                    -0.377787970634323,
                    0.9377583398006919,
                    -0.11238787354783653,
                    -0.4873793730254534,
                    0.17606476955964356,
                    0.057971625924777115,
                    0.26041811776646173,
                    -0.6950086831848976,
                    -0.1364014980585937,
                    -0.8135388795347998,
                    -0.7744426091595524,
                    0.09506188371792423,
                    0.767493299687841,
                    -0.4692645631241663,
                    -0.2789671903147415,
                    -0.15986288503848267,
                    -0.12621248326880496,
                    -0.06601528600520257,
                    0.7197238648509572,
                    0.6637740857355998,
                    -0.1148284327893152,
                    -0.07707789903970075,
                    0.9407030710096278,
                    0.04644250271223793,
                    -0.3213399900189897,
                    0.19456101664377656,
                    -0.17931497532063023,
                    -0.34241290606964014,
                    -0.49793416863418116,
                    -0.6388113572766374,
                    -0.07360222217352486,
                    -0.8130668158652012,
                    -0.8352095366752499,
                    0.2722487408008485,
                    -0.14595517980560557,
                    -0.809362705912936,
                    -0.43321399149631756,
                    0.3834484862504537,
                    0.03596969344077783,
                    0.45516781375513427,
                    -0.025186436523110478,
                    -0.3852177824240284,
                    -0.19634030369896727,
                    -0.1372034931035584,
                    0.36636513920222,
                    0.4367155485913141,
                    0.29519580776706755,
                    -0.10578323071344853
                ],
                [
                    0.2594356849765789,
                    0.07042176639187891,
                    -0.8894419960485898,
                    -0.6217137885873023,
                    -0.4783212746621124,
                    0.2756921131802359,
                    0.23264809974844836,
                    -0.632840517036577,
                    -0.26614547903934205,
                    -0.09036298990826164,
                    0.5878001380720028,
                    -0.22329556627492786,
                    -0.3329430311210131,
                    0.01172824771325609,
                    0.7767429171464184,
                    -0.171323069216333,
                    -0.7713534550093397,
                    -0.08374064350094335,
                    -0.8577501256155915,
                    0.7895347791579548,
                    0.6388139390771195,
                    0.9836308631269195,
                    -0.5500834891403372,
                    0.2900104738510201,
                    -0.7666521425227979,
                    -0.27693043073014034,
                    -0.16378496955829203,
                    -0.5658035400187604,
                    -0.33683299065495786,
                    0.050394432331531736,
                    -0.2807911403243042,
                    0.42915074785433616,
                    -0.6691546254397078,
                    0.5385060781037752,
                    -0.11566451899544461,
                    -0.8975681991219975,
                    0.07729421529719605,
                    0.49683790574755204,
                    -0.2913731032340867,
                    0.2813086188626439,
                    0.9785754410494039,
                    0.7635988283917725,
                    0.18163395387034909,
                    -0.43032559473013055,
                    -0.26707955447058196,
                    -0.09850185339779549,
                    -0.6942018101749825,
                    0.872931029674471,
                    -0.3070077796670534,
                    -0.07345751612493756,
                    0.28259354129771097,
                    0.0008199061700318033,
                    0.38618552203808565,
                    -0.5703994093312896,
                    0.05158669279370787,
                    -0.549212841163055,
                    0.025032076836223105,
                    0.8428157613098295,
                    -0.003043883603805808,
                    -0.9746444653913269,
                    -0.616805724838688,
                    -0.5999016013036109,
                    0.451299551163314,
                    -0.3888534680968785,
                    0.5275613593801161,
                    0.05156278472318232,
                    0.7095890121077124,
                    0.5916558338101088,
                    -0.05035762057044746,
                    0.7339192664823799,
                    0.7829555980228453,
                    0.56219956337902,
                    0.7273091130542981,
                    -0.6285549151610599,
                    0.5158156284737221,
                    0.18519739876429964,
                    0.8666562295151377,
                    0.5283375523821736,
                    -0.8863303478071392,
                    0.7343195633687365,
                    0.3423275112930553,
                    -0.05844294978697584,
                    0.711289959916992,
                    0.2246733309219564,
                    -0.27248272449332234,
                    0.17509487157931414,
                    0.679561672446249,
                    0.7987921345705242,
                    -0.5469353480670283,
                    0.8766940053861392,
                    -0.2510628975811213,
                    -0.3184151180159567,
                    0.5188832744765643,
                    0.481557573738165,
                    -0.6727698049385902,
                    0.43658700944737117,
                    0.6145762767981382,
                    0.004412365451996747,
                    -0.8493130482321354,
                    -0.3738269634400908,
                    0.38043382295661843,
                    -0.5813541168995013,
                    0.6431986542021806,
                    0.9837437676795964,
                    -0.3325536626336747,
                    0.6865819100225259,
                    0.6187949105496782,
                    0.6346414735600479,
                    0.8064984816723377,
                    -0.6066287851519183,
                    -0.901659847606834,
                    0.6016040173395865,
                    -0.30161053089947476,
                    -0.07981574409834802,
                    0.5282946787345815,
                    -0.38067453315965327,
                    -0.041110773536838785,
                    -0.864172592866056,
                    0.9744930646206711,
                    0.7508358966614812,
                    -0.7340942406937947,
                    0.9145647598071656,
                    0.5307910909784077,
                    0.8615110889503239,
                    -0.34113856914172014,
                    -0.05273598946472813
                ],
                [
                    0.25396065627386344,
                    -0.6385495462703472,
                    -0.8183352323019122,
                    -0.7818568300656512,
                    0.9532852871621122,
                    -0.18673266268389277,
                    -0.08945757874912585,
                    0.7346626080452623,
                    -0.03412910596130048,
                    0.308160242120906,
                    0.5152693387000864,
                    -0.606163886511577,
                    0.6601061679294558,
                    -0.3437555626907347,
                    -0.9311661492451577,
                    -0.841948259006285,
                    0.5895962016877898,
                    0.6252569893111479,
                    -0.5182443552451748,
                    -0.05061081561777958,
                    0.07212916353613896,
                    -0.15752955924245104,
                    -0.07592399099595526,
                    -0.3468792956432316,
                    0.7656338300207193,
                    -0.9575854224429561,
                    0.4209787375550158,
                    0.14724759869608128,
                    0.8929513632931274,
                    0.4599725540407278,
                    -0.3041618363282079,
                    -0.9523579288763881,
                    -0.030012703920804462,
                    -0.1412055826890919,
                    0.23135081290046156,
                    -0.37748204967734655,
                    0.22714467443625774,
                    -0.772460920358232,
                    -0.5009014320171008,
                    0.8613218094188038,
                    0.6854734218551473,
                    0.715998295952206,
                    0.8411100304842585,
                    -0.5197041383560908,
                    -0.8307754349218763,
                    -0.8546020183649823,
                    -0.612570211346279,
                    0.5586143951278184,
                    -0.18086029976274864,
                    0.4474296525167234,
                    -0.09815734938511711,
                    0.27777975023862234,
                    -0.909943707658392,
                    0.6909821624333967,
                    -0.7168474428081948,
                    -0.7531336110969826,
                    0.9815070747796246,
                    0.3586139359120426,
                    -0.7622480724602649,
                    0.04229381836788981,
                    -0.8279932242654244,
                    0.12830780346417714,
                    0.15426762045872722,
                    0.04510042737774733,
                    -0.19563156779492874,
                    -0.2962830759520778,
                    -0.504663710696388,
                    0.334267661687484,
                    -0.4947818724052617,
                    0.7434878583213613,
                    0.6727896905193143,
                    0.890276354754221,
                    -0.1982076346446382,
                    -0.9674663259201717,
                    0.35348815287649793,
                    -0.5375655027628596,
                    -0.07450824220074748,
                    0.4764893270763011,
                    -0.5714962179738379,
                    -0.4011533642820575,
                    -0.15521076690427904,
                    -0.10543608826365758,
                    -0.21597935335974294,
                    -0.13509953089616977,
                    0.5343643759458478,
                    -0.7335989894695585,
                    -0.5044784625347045,
                    -0.2714119094222458,
                    0.0400250295541571,
                    0.4946596082939363,
                    -0.4596517189699638,
                    0.36507759358175695,
                    -0.4956968609253427,
                    0.10690629767427628,
                    -0.9617372752752864,
                    0.9802846035939163,
                    -0.6525197916856191,
                    -0.8313924089644618,
                    -0.37053539221702425,
                    -0.09548656889400053,
                    0.4814279421005856,
                    -0.8907033897735186,
                    -0.2666976191429704,
                    -0.2140137859542326,
                    0.7909762633435227,
                    0.4431015844080166,
                    0.20633613070967094,
                    0.4959904216734885,
                    0.8651962745527813,
                    -0.24444727412685885,
                    0.3294409831391698,
                    -0.7799005398384868,
                    -0.8936770188692038,
                    -0.328190620644063,
                    0.5289722272012287,
                    -0.9610523674607245,
                    0.06520114537314625,
                    0.7770658084805104,
                    0.9406106303272128,
                    -0.9222386326898866,
                    -0.08835159627310718,
                    -0.48610493690835654,
                    -0.2382854414359603,
                    0.35760313660461174,
                    0.3496499184583379,
                    -0.9503760108182162
                ],
                [
                    0.4928100255649366,
                    -0.9572231976151666,
                    -0.9502137231094314,
                    0.5870976907559815,
                    0.45916475708077176,
                    -0.2303950989735295,
                    -0.7001863298787201,
                    -0.16196740558150502,
                    0.9430007562464648,
                    -0.1869865297816562,
                    -0.9595471134596147,
                    0.6146737272176113,
                    -0.8899393982791546,
                    -0.5894765565242619,
                    0.9804260854818312,
                    -0.8177374652777691,
                    0.3422098233048865,
                    -0.4820089793209026,
                    0.6998440981669063,
                    0.3646303145807068,
                    0.23721823186539148,
                    -0.7616487174205091,
                    -0.3613244501924582,
                    0.6479396270540962,
                    0.5763857654829212,
                    -0.5592314640035065,
                    0.7477721102102399,
                    -0.5956467354844337,
                    -0.24272600606047523,
                    -0.9050138535805115,
                    -0.2568274997460658,
                    0.962575164333171,
                    0.5003998016539519,
                    0.571881940812415,
                    -0.8820329810426759,
                    0.9278513577721723,
                    -0.7207169561178892,
                    -0.25623551167757874,
                    -0.2291118174810276,
                    0.5146481414332462,
                    0.7906362396443662,
                    -0.3532743731701542,
                    -0.5263283439055211,
                    0.2843831458393604,
                    -0.7309378841264225,
                    -0.1220818663359271,
                    0.4860415605248509,
                    0.04345349369282525,
                    -0.6160163805167647,
                    0.4599768705633269,
                    -0.829931397168965,
                    -0.8382471425067486,
                    0.03151600615618655,
                    0.4132826258104598,
                    0.37603006952155815,
                    0.45857202913875916,
                    0.7364491972897738,
                    -0.3250443464361308,
                    -0.04635424509347774,
                    0.10449966709090308,
                    0.7671731772091348,
                    0.6586012980898155,
                    -0.7906993490276475,
                    0.976546191475679,
                    0.4258702979888782,
                    0.7775446644255908,
                    -0.8281571663926155,
                    -0.25817830317343526,
                    0.7666099843970706,
                    0.22083270866041804,
                    -0.14670725620890646,
                    0.23472350086948746,
                    -0.39695485707652534,
                    0.44694365730483554,
                    0.26689399451993845,
                    0.8535460024822921,
                    -0.1005255424542284,
                    0.43700106238307734,
                    0.345480573975778,
                    -0.6669329930041934,
                    -0.8873727649763348,
                    -0.23008937956978648,
                    0.22365922042418274,
                    -0.504639014763353,
                    -0.01110545520195605,
                    0.8362817615673597,
                    0.16435019074766766,
                    -0.8002055300747972,
                    0.6650020378385588,
                    0.5763335481770526,
                    -0.8830967636892773,
                    -0.5355242379891432,
                    0.9080623169090754,
                    -0.41230969109469595,
                    -0.4966099033650102,
                    0.42924305715350686,
                    -0.8711580798516487,
                    -0.005172376746644947,
                    0.8439498400823169,
                    0.7378301227399722,
                    -0.1290935759137768,
                    0.9790808285253831,
                    -0.5696198886521842,
                    -0.4159139621481218,
                    -0.45819290492770137,
                    -0.6062280249566607,
                    0.4150055158888215,
                    -0.18442098093378223,
                    0.7329713835297706,
                    -0.5761768955001869,
                    0.7205112493541541,
                    0.20859899017950156,
                    0.6057070693726032,
                    -0.04322335589608994,
                    0.44242367992547704,
                    0.9927428744834854,
                    0.5980249908129616,
                    -0.7756656455235937,
                    -0.6898804582193419,
                    -0.4912370611284673,
                    -0.10099508384821054,
                    -0.7342852481084448,
                    -0.5136049194069772,
                    -0.9425740848224566,
                    0.4009694352779265,
                    -0.3676857013933139
                ],
                [
                    -0.2932383117427819,
                    0.8101593199075907,
                    0.8787950288659045,
                    -0.9503467434070214,
                    0.8287636890551335,
                    0.7255732539221633,
                    -0.2850497529162028,
                    -0.9993306182189998,
                    0.8878803152923866,
                    0.9952939954501592,
                    0.2629940552626959,
                    -0.7434630015575587,
                    0.15545302325076626,
                    0.28719887103241537,
                    0.9568842569508029,
                    0.5418926732569347,
                    -0.6288851772742712,
                    0.7851239989479217,
                    0.21554282904770616,
                    0.12435601405684671,
                    0.47070591627002,
                    0.5903323674315484,
                    0.9521223313311113,
                    0.18749390797573517,
                    -0.1374900930034566,
                    0.578706235861354,
                    0.971241004315962,
                    0.4514404998234518,
                    0.8501928712862177,
                    -0.23058964441029173,
                    0.43298304271147803,
                    -0.9370088489003572,
                    0.7007509844765074,
                    0.638566559916339,
                    -0.9107780232233176,
                    0.14967702605035416,
                    0.8733897803266291,
                    -0.586716515303231,
                    -0.4713803892255424,
                    0.41244222773322736,
                    0.4112377477562219,
                    0.7680661071766803,
                    -0.5458967103650865,
                    0.2919757181182947,
                    -0.19069855339127773,
                    0.46196721037339494,
                    -0.9854818383786268,
                    -0.5337801799803958,
                    -0.703837912039385,
                    -0.34606613847529655,
                    0.7610629402542597,
                    -0.21796124258129734,
                    0.6956417341282326,
                    0.8224441518860113,
                    -0.7797872990372305,
                    0.9502344703396448,
                    0.8444358814468416,
                    -0.9095034858969493,
                    0.5114471095139972,
                    0.5404501117464848,
                    -0.5223331070028019,
                    -0.6132411585730566,
                    0.07613216564605185,
                    0.1667953631507333,
                    0.451985201353585,
                    0.5241534459077877,
                    -0.7248297600503482,
                    0.2686891952033488,
                    -0.23393420399331544,
                    0.7819765278995501,
                    0.12332899806241993,
                    -0.6664460968395249,
                    0.08617454692962179,
                    -0.4456291947121245,
                    -0.3933793411224875,
                    -0.06646396623463047,
                    -0.6413880595262247,
                    0.9351079703716514,
                    0.4540534615748002,
                    -0.6465086172390357,
                    0.6084030639732234,
                    0.4591290571402522,
                    0.49855509658883523,
                    0.7253053425536216,
                    -0.4237698237815235,
                    -0.57153278955976,
                    0.1667432141647367,
                    -0.8496041488951669,
                    0.27499206211769356,
                    -0.6185826759093014,
                    -0.7619099447305024,
                    -0.7318420003062809,
                    0.9900989430510128,
                    0.6551087784847822,
                    -0.07668270366305951,
                    -0.6693263757218477,
                    0.49652434771298837,
                    0.6400325625563468,
                    -0.3102260775077901,
                    -0.41051124505064296,
                    -0.06821920031844675,
                    -0.8679248584369257,
                    0.7265587336217361,
                    -0.9276213092251144,
                    0.14925746528888584,
                    0.5049508953685438,
                    0.0454715042006808,
                    -0.9919547524514116,
                    0.41356372414337583,
                    0.27775433293999874,
                    0.1521904989574112,
                    -0.8403705446176601,
                    -0.3807847174273915,
                    -0.8315541110036515,
                    0.8581640582879435,
                    -0.4255446357742052,
                    -0.8586325879545584,
                    -0.6638657194208679,
                    -0.032471317462777094,
                    0.1505346724144181,
                    -0.465849176744195,
                    0.6082364920542684,
                    -0.21573377541423921,
                    -0.6628822816539675,
                    0.40956619634467284,
                    0.8773995016122837
                ],
                [
                    -0.4917053562792961,
                    -0.7908170208735634,
                    -0.6767842305656273,
                    -0.13774779793223502,
                    -0.6871776748782694,
                    -0.7883153120289239,
                    -0.28526043026242043,
                    -0.862919267166641,
                    0.32403121177304084,
                    -0.506351997332432,
                    -0.051771037979666534,
                    -0.11190481011602427,
                    -0.9333985116143761,
                    0.9527072362792659,
                    0.01521681521787932,
                    -0.9503275905168007,
                    0.32130435871047314,
                    -0.6058717184875768,
                    -0.10084136370055519,
                    0.649013983427333,
                    -0.41483237849446497,
                    -0.40373476004920916,
                    -0.6452673578167145,
                    -0.31200535474770597,
                    -0.13568067806695927,
                    -0.25272240059570317,
                    -0.6653190596393181,
                    -0.059237874415932756,
                    -0.06538614797957276,
                    -0.7298575007871133,
                    -0.34309357804213736,
                    -0.19964843827107548,
                    0.31638246254396063,
                    -0.5051949308818502,
                    0.7899033474970967,
                    -0.9098546154565423,
                    0.42072432778812496,
                    -0.9353486224335972,
                    -0.90171279595634,
                    0.39154881688261756,
                    0.14261957209592047,
                    -0.665258537410649,
                    -0.3410507982803159,
                    0.853800897235401,
                    0.7831489493298656,
                    0.5614756205027269,
                    -0.6199354856929764,
                    -0.6807159887983587,
                    0.5175588319370978,
                    0.8238075235740205,
                    0.9670303061543954,
                    0.4422267232666586,
                    -0.014026771162237273,
                    -0.9011988337700543,
                    0.36741168139609415,
                    0.5727455023137886,
                    -0.1398946935273051,
                    -0.5143784053233915,
                    -0.004069332622217869,
                    -0.7181271200878507,
                    0.039521246485429096,
                    0.6654338312086636,
                    0.039612793017389514,
                    -0.7033462523967355,
                    -0.8223101676771865,
                    -0.7885555630192767,
                    -0.3903410988888285,
                    -0.7968822792686867,
                    -0.728380982477874,
                    -0.3169501122486995,
                    -0.8211764347714869,
                    -0.1755949893440465,
                    0.9148306651824396,
                    0.780449377711911,
                    -0.22444417002331019,
                    0.8119733973896559,
                    -0.9259543026842552,
                    0.6022375549716916,
                    -0.19906190264321189,
                    0.22159697549579005,
                    -0.8763389056437942,
                    0.4204780590022452,
                    0.5233348837359377,
                    -0.3410667896688695,
                    -0.3835183467274432,
                    0.9985676779978849,
                    -0.2624631164597415,
                    0.5206861095854534,
                    0.5554183651672056,
                    0.5289213885231687,
                    0.18805757331964124,
                    0.0711235034501092,
                    -0.23452112685710613,
                    -0.08570573625678968,
                    0.03120256849739711,
                    0.3216757769748153,
                    0.5537973578539459,
                    0.39986691539065333,
                    0.06874043441119526,
                    -0.1135747366132589,
                    0.2691429200369875,
                    -0.8876653912068826,
                    -0.6068884882750452,
                    -0.2937998234242185,
                    -0.2884415968823837,
                    -0.03214695879410212,
                    0.511061603392158,
                    0.9629851573731318,
                    -0.3736093630990609,
                    -0.04536958623253673,
                    -0.24400322874538083,
                    0.9071188125849698,
                    -0.6491657861476021,
                    -0.4038202113406355,
                    0.8852761295159626,
                    0.8207315652455611,
                    -0.16437969667124208,
                    0.2697828331126457,
                    0.1837803242526459,
                    0.4118165649635319,
                    0.8312339373449198,
                    0.08214292784002586,
                    0.6871544645124072,
                    0.9782094528284848,
                    0.20969095428520257,
                    -0.19961567376678535
                ]
            ],
            "biases": [
                0.4111285454970519,
                0.42106992142529265,
                0.14393362232304585,
                -0.19682335410891771,
                0.9171521843300832,
                -0.10992891833848106,
                -0.26369906902233375
            ]
        }
    ]
}