{
    "cnn_layers": [
        {
            "type": "pool",
            "size": 3,
            "stride": 2,
            "pool_type": "avg"
        },
        {
            "type": "conv",
            "filters": 3,
            "kernel_height": 2,
            "kernel_width": 1,
            "activation": "relu",
            "weights": [
                [
                    [
                        [
                            0.6048423116452817
                        ],
                        [
                            -0.9809703441071764
                        ]
                    ]
                ],
                [
                    [
                        [
                            -0.9989288213260692
                        ],
                        [
                            -0.7605894448269013
                        ]
                    ]
                ],
                [
                    [
                        [
                            -0.8050471930255627
                        ],
                        [
                            -0.8302730379399363
                        ]
                    ]
                ]
            ],
            "biases": [
                0.15951608894571256,
                -0.7793648936935955,
                -0.5257684844409967
            ]
        },
        {
            "type": "conv",
            "filters": 7,
            "kernel_height": 1,
            "kernel_width": 1,
            "activation": "relu",
            "weights": [
                [
                    [
                        [
                            -0.38207813483819275
                        ]
                    ],
                    [
                        [
                            0.7949785578331354
                        ]
                    ],
                    [
                        [
                            -0.2454972658988055
                        ]
                    ]
                ],
                [
                    [
                        [
                            -0.20949741436407243
                        ]
                    ],
                    [
                        [
                            0.4674982005054362
                        ]
                    ],
                    [
                        [
                            0.6672624863226952
                        ]
                    ]
                ],
                [
                    [
                        [
                            -0.042487338959229515
                        ]
                    ],
                    [
                        [
                            -0.1665428555206403
                        ]
                    ],
                    [
                        [
                            -0.7693159338913433
                        ]
                    ]
                ],
                [
                    [
                        [
                            0.6058940502041148
                        ]
                    ],
                    [
                        [
                            0.5010297688847041
                        ]
                    ],
                    [
                        [
                            0.7676060605205108
                        ]
                    ]
                ],
                [
                    [
                        [
                            0.15310357723291435
                        ]
                    ],
                    [
                        [
                            -0.7331384168488875
                        ]
                    ],
                    [
                        [
                            -0.2898448192253693
                        ]
                    ]
                ],
                [
                    [
                        [
                            -0.12371010605186505
                        ]
                    ],
                    [
                        [
                            -0.584412363206376
                        ]
                    ],
                    [
                        [
                            -0.8372010714347087
                        ]
                    ]
                ],
                [
                    [
                        [
                            0.7507245256263926
                        ]
                    ],
                    [
                        [
                            0.23315299508152676
                        ]
                    ],
                    [
                        [
                            -0.13076170554727118
                        ]
                    ]
                ]
            ],
            "biases": [
                0.6649332484850679,
                0.6886153701881745,
                -0.389727457719391,
                -0.05228053410162348,
                -0.22694981495426747,
                0.6243887550005358,
                -0.8861780975259905
            ]
        },
        {
            "type": "conv",
            "filters": 4,
            "kernel_height": 1,
            "kernel_width": 1,
            "activation": "sigmoid",
            "weights": [
                [
                    [
                        [
                            0.8080749893917929
                        ]
                    ],
                    [
                        [
                            0.9344449166778368
                        ]
                    ],
                    [
                        [
                            -0.9449761789303992
                        ]
                    ],
                    [
                        [
                            0.2721162140970268
                        ]
                    ],
                    [
                        [
                            -0.23057486744410194
                        ]
                    ],
                    [
                        [
                            -0.862048502537109
                        ]
                    ],
                    [
                        [
                            -0.06921844478780192
                        ]
                    ]
                ],
                [
                    [
                        [
                            -0.8190401626340162
                        ]
                    ],
                    [
                        [
                            -0.5455142327301199
                        ]
                    ],
                    [
                        [
                            -0.27683007500993995
                        ]
                    ],
                    [
                        [
                            0.06258366578045305
                        ]
                    ],
                    [
                        [
                            -0.21684087449773526
                        ]
                    ],
                    [
                        [
                            0.8253441943603659
                        ]
                    ],
                    [
                        [
                            0.634720476526661
                        ]
                    ]
                ],
                [
                    [
                        [
                            -0.3910125885442779
                        ]
                    ],
                    [
                        [
                            -0.7800212434184477
                        ]
                    ],
                    [
                        [
                            -0.8580297664804457
                        ]
                    ],
                    [
                        [
                            0.4961467852023729
                        ]
                    ],
                    [
                        [
                            -0.17776807075119216
                        ]
                    ],
                    [
                        [
                            0.4233748175318339
                        ]
                    ],
                    [
                        [
                            -0.7467759323878727
                        ]
                    ]
                ],
                [
                    [
                        [
                            0.13372902162173372
                        ]
                    ],
                    [
                        [
                            -0.7638160323875909
                        ]
                    ],
                    [
                        [
                            -0.6883037042661275
                        ]
                    ],
                    [
                        [
                            -0.6387951963861647
                        ]
                    ],
                    [
                        [
                            -0.6356630379574979
                        ]
                    ],
                    [
                        [
                            -0.6261556250416775
                        ]
                    ],
                    [
                        [
                            -0.7734025644023141
                        ]
                    ]
                ]
            ],
            "biases": [
                0.30978309100593426,
                0.7533278236554619,
                0.7593886703269055,
                -0.9687703477145413
            ]
        },
        {
            "type": "conv",
            "filters": 4,
            "kernel_height": 1,
            "kernel_width": 1,
            "activation": "sigmoid",
            "weights": [
                [
                    [
                        [
                            0.9797978556987372
                        ]
                    ],
                    [
                        [
                            -0.364036632260585
                        ]
                    ],
                    [
                        [
                            -0.8947344216804585
                        ]
                    ],
                    [
                        [
                            -0.9710488765068961
                        ]
                    ]
                ],
                [
                    [
                        [
                            -0.8650603004972981
                        ]
                    ],
                    [
                        [
                            -0.026295990185219553
                        ]
                    ],
                    [
                        [
                            -0.7193447457706743
                        ]
                    ],
                    [
                        [
                            0.02461534502277396
                        ]
                    ]
                ],
                [
                    [
                        [
                            0.3001827662122638
                        ]
                    ],
                    [
                        [
                            0.18325564713720954
                        ]
                    ],
                    [
                        [
                            0.49238999220294954
                        ]
                    ],
                    [
                        [
                            -0.006419057368858505
                        ]
                    ]
                ],
                [
                    [
                        [
                            0.721659265226128
                        ]
                    ],
                    [
                        [
                            -0.9022228210571983
                        ]
                    ],
                    [
                        [
                            0.6827533814546407
                        ]
                    ],
                    [
                        [
                            -0.9867080036653435
                        ]
                    ]
                ]
            ],
            "biases": [
                -0.6736348857779311,
                -0.7845147255519258,
                0.7542785316220697,
                0.7599304042219077
            ]
        }
    ],
    "ffn_layers": [
        {
            "neurons": 71,
            "activation": "relu",
            "weights": [
                [
                    0.5888378404089312,
                    0.8102202229152753,
                    0.5682078235052628,
                    0.9489983939298503,
                    0.6412197762332807,
                    0.7275328373239385,
                    0.0003877512048238163,
                    0.6623203764168777,
                    -0.4641306276163013,
                    0.06554629828617387,
                    -0.007493907109394682,
                    0.6657931514793345
                ],
                [
                    -0.6230845858203755,
                    0.7731642795542957,
                    -0.23373999577754545,
                    0.37026641263364546,
                    -0.7860090892423977,
                    -0.7971571602062073,
                    0.4548642180433957,
                    0.12376471406787348,
                    -0.1485860096968028,
                    -0.3216627094606972,
                    -0.12077415485510201,
                    -0.8331221007726779
                ],
                [
                    -0.09817467358467291,
                    0.730485936780888,
                    0.8145531535854502,
                    -0.15582619120963526,
                    0.30956820322506284,
                    0.02859358860177008,
                    -0.9515888147103737,
                    -0.5657476462954598,
                    -0.9244975111408587,
                    0.3669941511243522,
                    0.004514758446813927,
                    0.6532272633034206
                ],
                [
                    -0.8047529822915789,
                    0.32187473064957484,
                    -0.2780752364257244,
                    0.5098654652307286,
                    0.1523795639104737,
                    -0.7696166223734167,
                    -0.29845247529993224,
                    0.24095035312567115,
                    0.39875481941974966,
                    0.5486384921138658,
                    -0.17047101323278002,
                    0.686766842879861
                ],
                [
                    -0.9931458711761985,
                    -0.906786909514679,
                    0.7890899547172616,
                    -0.5310384666284604,
                    0.4275010002562558,
                    0.5835960567580858,
                    -0.9651112964807802,
                    -0.12042642494848521,
                    -0.011256269613845182,
                    0.004039804547571801,
                    0.408411154653324,
                    0.40026976449378293
                ],
                [
                    -0.9838159914253859,
                    -0.3712434562274014,
                    0.30354852304176827,
                    0.7255815323353041,
                    0.5735970215025208,
                    0.08809940585833687,
                    0.30613353492490725,
                    -0.4276917404410616,
                    0.569245292948461,
                    -0.19742989234179809,
                    -0.421141466594372,
                    -0.058151949626836785
                ],
                [
                    0.27520029423306513,
                    -0.5056339652189612,
                    0.9609821192562753,
                    0.8760571804565214,
                    0.23212523443201083,
                    0.4703207642555811,
                    0.802521214214335,
                    0.5641847532019009,
                    0.432862852285695,
                    -0.2404128324146384,
                    0.5334947943684825,
                    0.43176125975927104
                ],
                [
                    0.9462025886723511,
                    0.8857702036064419,
                    -0.2846618836251189,
                    -0.1892868368041014,
                    0.05985907643877342,
                    -0.04765340936830453,
                    -0.7797072598522554,
                    -0.12101423643659226,
                    0.7869612630279428,
                    -0.27379002189746693,
                    0.9040064029900055,
                    -0.2598063022243997
                ],
                [
                    0.24435708565044245,
                    0.4969727230885379,
                    -0.19357168213889686,
                    -0.012545433064390377,
                    0.08715122967688793,
                    0.8626497142075233,
                    0.5649724296804746,
                    -0.6795725538782036,
                    -0.2532655820869043,
                    0.0038283949629540626,
                    0.612860791269122,
                    0.24200618590315415
                ],
                [
                    -0.08141464028837819,
                    -0.8659184992636673,
                    -0.47540109267529784,
                    0.2771374791943251,
                    -0.8749224722634736,
                    -0.23410454455513507,
                    -0.9118448715760603,
                    -0.43411081136587204,
                    -0.21641480506180621,
                    0.03035011942458432,
                    -0.8427864558327653,
                    0.7548944689355261
                ],
                [
                    0.957294030485466,
                    0.13256095615455288,
                    0.07419843782111846,
                    -0.20911281224859568,
                    -0.7783267267136693,
                    0.48447730277305756,
                    0.5407426064802583,
                    -0.13504398695453634,
                    0.48959629962520923,
                    0.050465368051546555,
                    0.559145682575789,
                    -0.4157967002644649
                ],
                [
                    -0.8666464437699422,
                    -0.6020454252136349,
                    0.7904479546254066,
                    -0.6386563648672043,
                    0.3799515088685479,
                    0.9676144926593451,
                    0.8652940799663553,
                    -0.10363063189050359,
                    0.8519404920654472,
                    -0.042327721279938224,
                    0.05207338707373377,
                    -0.8733881179120473
                ],
                [
                    0.02883310604586886,
                    -0.9941168049638109,
                    -0.5596012257448051,
                    0.9529297747997771,
                    -0.03085543362291787,
                    0.2964959433824015,
                    0.6902337097873363,
                    0.4953637283492802,
                    -0.7692449668020911,
                    -0.8489582560966384,
                    0.8578139173514443,
                    -0.6235272755657522
                ],
                [
                    -0.14440759219139543,
                    0.1762065429762496,
                    0.011892340308532479,
                    -0.5095320227523974,
                    -0.08969624646955654,
                    -0.631766175138228,
                    -0.13351145139072185,
                    -0.7984159617199009,
                    0.6815579460214762,
                    -0.10975032693313103,
                    -0.28952110473933934,
                    -0.6340203287652508
                ],
                [
                    -0.42500519992332975,
                    -0.4507353141449413,
                    -0.15763996829508753,
                    -0.3228475231714063,
                    0.7074347328907107,
                    -0.1092947445308976,
                    -0.5807387241991435,
                    0.7161513970513671,
                    0.21000995997536065,
                    -0.8317444724407583,
                    -0.08186043859207515,
                    0.678638404518392
                ],
                [
                    0.8696748460509314,
                    0.9678961092220328,
                    -0.6378470893363244,
                    -0.46365661780847955,
                    -0.48899533516458504,
                    0.8221232694670058,
                    -0.14051954561558588,
                    0.7924672979450911,
                    0.2500757709055106,
                    -0.6074062930903157,
                    0.41200760514123336,
                    -0.04748056262459066
                ],
                [
                    0.9919823201743838,
                    0.5766375583812846,
                    0.19751371168159815,
                    -0.11317418451242545,
                    0.8213445175461123,
                    0.2858209462709884,
                    -0.06838353643640627,
                    -0.45609143474359337,
                    0.437429697852191,
                    0.8480611630405364,
                    -0.496620038204165,
                    -0.8401932244266324
                ],
                [
                    0.466875182800923,
                    -0.7308703734813726,
                    0.49064329944104434,
                    -0.3839123691070927,
                    -0.8700715176564471,
                    -0.6839297257817722,
                    0.8563443799087787,
                    -0.6007886668350104,
                    0.4844168344168549,
                    -0.7222036156721583,
                    -0.4742939422022887,
                    0.4650577943958547
                ],
                [
                    0.1375745806701283,
                    -0.7702573778349893,
                    -0.03597592044133591,
                    -0.7939506263985887,
                    -0.7853334972350021,
                    0.90987603451401,
                    -0.8046724573188744,
                    -0.9813405938592155,
                    0.17037300502574126,
                    -0.5087097661628424,
                    0.4531059096046257,
                    0.288425815002884
                ],
                [
                    0.963661908776084,
                    -0.23707858771819934,
                    0.7894731715273575,
                    -0.40618970612131755,
                    -0.42609635164939164,
                    0.45263231163269846,
                    -0.6932968678458713,
                    0.5376748119369212,
                    0.6681238559247924,
                    -0.08154086532383853,
                    -0.3187516591798156,
                    -0.24105365429381265
                ],
                [
                    -0.3242698944409119,
                    -0.7006470387543215,
                    -0.06910757610894946,
                    -0.6237460372128778,
                    0.018114103617373978,
                    0.3969122466712638,
                    -0.7025242434969634,
                    -0.648778435386322,
                    0.05801860068720499,
                    0.264663759525537,
                    0.47070719293608887,
                    0.19105804230130818
                ],
                [
                    -0.4695280150317569,
                    0.049541756925741254,
                    0.4143989370348362,
                    0.9738632986633833,
                    -0.7663898627648809,
                    -0.8867244264705876,
                    -0.2994234959742059,
                    -0.4805872384296901,
                    0.821041624058608,
                    0.03494273234866907,
                    -0.09262264528139341,
                    -0.8207230148824394
                ],
                [
                    -0.8330086284314173,
                    0.43678795544327365,
                    -0.5206036562145562,
                    -0.8322904075101636,
                    -0.434228122960137,
                    -0.9830757705453614,
                    -0.909152174043536,
                    -0.32586529405074716,
                    0.04936875806000196,
                    0.2676812086749465,
                    -0.15129667665715996,
                    -0.6205845454837668
                ],
                [
                    0.7200909799069304,
                    -0.9324956664632738,
                    -0.9880892306782467,
                    -0.7816483229158655,
                    0.7942023825336235,
                    -0.7426715167055993,
                    0.9588695993984728,
                    0.5938320180950365,
                    0.45445418074262145,
                    -0.5919070717277046,
                    -0.2254800910727195,
                    -0.6296798822551024
                ],
                [
                    -0.28907048250196965,
                    -0.4397727906675244,
                    0.546862421883503,
                    0.12690765435037665,
                    -0.4328508230301571,
                    -0.44317182454601345,
                    0.33798529397128796,
                    -0.7544502533123141,
                    0.5483863639069071,
                    0.8561703561713356,
                    -0.9490129230696631,
                    -0.1871598591000483
                ],
                [
                    0.4772701238055237,
                    -0.8700142885232915,
                    0.17868589754456998,
                    -0.7680485564946169,
                    -0.44442705521410586,
                    -0.9516913612076312,
                    0.3342689414205049,
                    0.7710430822741257,
                    -0.5130301671232931,
                    0.7246926349976535,
                    0.17203778656577695,
                    -0.7235278178231956
                ],
                [
                    -0.020832480087772165,
                    0.2937683285170045,
                    0.2315547893325809,
                    -0.506582025554309,
                    -0.9498386797946858,
                    -0.04304187484243904,
                    0.5386068868913527,
                    -0.3739175698572903,
                    0.6583492164070806,
                    -0.13506577307229817,
                    -0.7785017219190398,
                    0.4822547761010545
                ],
                [
                    0.9670103931030489,
                    -0.2229969066107138,
                    0.8720818338933229,
                    0.9505293218967883,
                    -0.8227067198858811,
                    0.04840685025491864,
                    0.9847140789316144,
                    -0.06469564565695474,
                    -0.8888381726232715,
                    0.24451607695916522,
                    -0.29027330863070766,
                    -0.12552816864119398
                ],
                [
                    -0.8334961562769947,
                    -0.5023755510503636,
                    0.28640276326365854,
                    0.5432801327501631,
                    -0.09941252887788954,
                    -0.24146219587780338,
                    0.4316360447191874,
                    -0.9950172706188178,
                    -0.6713862564123025,
                    -0.25577033249272296,
                    -0.0009241059901321513,
                    -0.08714791780860676
                ],
                [
                    0.09487426650410002,
                    -0.8450181105845807,
                    0.7595084584386358,
                    -0.7398028926235092,
                    -0.3197367472793149,
                    -0.20169578230416674,
                    0.9874054621962383,
                    0.7632460654528608,
                    -0.795897328894136,
                    0.7664214082028094,
                    0.4214589353817173,
                    0.029850142215290365
                ],
                [
                    -0.7337308004366294,
                    -0.4054316173249304,
                    -0.7387934000104259,
                    0.12505105102505376,
                    0.9054242500839726,
                    0.7053824434972111,
                    0.3223420618482664,
                    -0.6651939080271729,
                    0.9927068368702954,
                    -0.7799934973041907,
                    -0.7994078768076696,
                    0.5396058491675721
                ],
                [
                    0.5974397284179804,
                    0.03527531666956474,
                    0.38639146272343217,
                    0.8457935578919964,
                    -0.6187833520469743,
                    -0.768388879825086,
                    0.4685749467268212,
                    -0.029799100648423726,
                    0.05457662906943783,
                    0.11808783683715895,
                    0.3452402258670404,
                    0.707255541663983
                ],
                [
                    0.3322686940503541,
                    0.6752113517251981,
                    0.8041918751047912,
                    0.07192955735292017,
                    0.70342030093829,
                    0.7726301265001001,
                    -0.5691828096559048,
                    -0.317952213450732,
                    -0.23065140157498987,
                    0.8559144613561336,
                    0.36413374507900764,
                    0.6518524602930988
                ],
                [
                    0.08419783220317245,
                    -0.3556440045328675,
                    -0.5395791804454391,
                    0.05431275451237405,
                    -0.5076542694233812,
                    -0.8699398728423946,
                    0.42632497639662326,
                    0.8457487017510237,
                    -0.22199201524724343,
                    0.2822032225362765,
                    0.5808814271089862,
                    -0.5893496046805129
                ],
                [
                    0.15470199963323084,
                    0.46443762742524064,
                    -0.6678853299728313,
                    0.8781977527205058,
                    0.000891818480065254,
                    -0.3415541503408157,
                    -0.05155378747183459,
                    0.4020442691739694,
                    -0.1849465817690994,
                    -0.2623664420302063,
                    0.8542615320462026,
                    0.7902819029016313
                ],
                [
                    0.5304002875366425,
                    -0.24921082445532128,
                    0.593211591995336,
                    -0.2978563258095448,
                    0.7751917723548807,
                    0.14339004602991134,
                    -0.6379085219633354,
                    -0.18846945866634712,
                    0.5808736024947114,
                    -0.979514057781939,
                    0.5141283252624116,
                    0.32774301340385925
                ],
                [
                    -0.332677739534305,
                    -0.33005040695883436,
                    -0.4992193011882342,
                    0.7920245237786079,
                    -0.38432779996843003,
                    0.45863594454851864,
                    0.5357666893280513,
                    0.1974106261362043,
                    -0.47878349727863023,
                    -0.28775844337580003,
                    -0.7020768092482672,
                    -0.6533392614148501
                ],
                [
                    0.2847991139496504,
                    0.7011218293413837,
                    -0.23714686808384422,
                    0.17821139203790515,
                    0.14114640786349208,
                    -0.04789478390929225,
                    -0.16423650410168467,
                    0.5844729723188935,
                    -0.18925836325955792,
                    -0.45217417552303685,
                    0.9387837600495936,
                    0.971923004736511
                ],
                [
                    -0.6995745897430918,
                    0.4622442302630443,
                    0.016637083318705503,
                    0.988759301891817,
                    0.3813660230823399,
                    -0.4950568038066434,
                    -0.9068784391108191,
                    -0.6462494195855397,
                    -0.7443196037551951,
                    0.7997138002072204,
                    0.9069620954971795,
                    0.260052070584027
                ],
                [
                    -0.5615845844388561,
                    0.7439674386425956,
                    0.5465997399926859,
                    -0.19198895863629417,
                    -0.8765257313821297,
                    -0.44707297648871247,
                    -0.2670210272450675,
                    0.789522277079665,
                    -0.09746790352963797,
                    0.6348664255716672,
                    -0.25575469120594385,
                    0.22124072688978114
                ],
                [
                    0.35633437308018645,
                    0.13667830999613462,
                    -0.14915726015899056,
                    0.7326152071162313,
                    -0.24368110710904967,
                    0.5636875830228658,
                    -0.846529021532467,
                    0.8314699914207755,
                    0.5687421061434752,
                    -0.7269947159211012,
                    -0.8914675404998271,
                    -0.33083925364972444
                ],
                [
                    0.8236720582924273,
                    -0.7164766403974505,
                    -0.6360484936609614,
                    0.22019830612497548,
                    0.7241293606176791,
                    0.7030937656693426,
                    0.25738712988586876,
                    0.005306118361591228,
                    -0.7612145694610326,
                    -0.9704949323385526,
                    0.4778365409468819,
                    -0.3869145600440458
                ],
                [
                    -0.11919750251918892,
                    0.00894198697876325,
                    -0.9932866566265546,
                    0.45226698247559804,
                    0.6798150315103146,
                    0.5692838183096107,
                    0.9720776825259234,
                    -0.15896822518872367,
                    -0.02907566871168865,
                    0.4031572344287755,
                    0.5258858487343152,
                    0.045696585591850525
                ],
                [
                    0.38356445067936273,
                    0.24452476157146807,
                    -0.5398459887890019,
                    0.7171558593134408,
                    -0.6093829145752132,
                    0.05197059575428953,
                    -0.3468490463823477,
                    0.5819359530043002,
                    0.983404886546503,
                    0.20024162893606,
                    -0.1992792981841054,
                    0.6611154164972841
                ],
                [
                    -0.9840694191249177,
                    -0.6573523569063049,
                    0.851213856355,
                    -0.6183144374326659,
                    0.41652402431092117,
                    -0.8207136260087211,
                    0.7721575380327041,
                    0.17104715949642757,
                    -0.013541944458371757,
                    0.6031220037920586,
                    0.6537427953392427,
                    0.275835790111423
                ],
                [
                    0.2527965134831289,
                    -0.8500046821300196,
                    0.023509101992549963,
                    0.3385016002543466,
                    -0.3785105297197835,
                    0.945997109444823,
                    0.7298985990824491,
                    0.10687080881799949,
                    -0.02084806178229881,
                    -0.112664565185435,
                    0.25482646548780785,
                    -0.22388961178205458
                ],
                [
                    -0.4825900225737443,
                    -0.6152658176168364,
                    -0.3746656425131196,
                    -0.2120666680529153,
                    -0.27868048246617927,
                    0.9003452618409482,
                    0.411246911881048,
                    -0.9503128956922418,
                    0.2867351696745366,
                    -0.6464103868371291,
                    0.6964796973963148,
                    -0.09285334820754043
                ],
                [
                    0.9310144973342303,
                    -0.43840635368012815,
                    0.5275160967677968,
                    -0.9991678919439946,
                    0.2719539513387945,
                    -0.9386499958902876,
                    0.6418392486645654,
                    0.016354160456515165,
                    0.55776760881767,
                    0.606875778353761,
                    -0.9560095871366099,
                    -0.714658946193304
                ],
                [
                    0.5732746309398367,
                    0.3151455994063297,
                    -0.44029218231327594,
                    0.8211008869518412,
                    -0.8561359143787002,
                    -0.6144300197357957,
                    0.18073829357278615,
                    -0.17782676992515523,
                    0.8892873181972616,
                    -0.29557068429057676,
                    0.8184865581717231,
                    -0.18869632275412074
                ],
                [
                    0.4255304695385107,
                    0.30656864428013963,
                    0.31967048926545805,
                    -0.4372260324867494,
                    0.5162775154197228,
                    0.8054072542370381,
                    -0.5657774927627892,
                    0.04838232945326659,
                    0.6818762690352917,
                    -0.6869270402928807,
                    -0.5515999616282501,
                    -0.8842796334444329
                ],
                [
                    0.10355130955554648,
                    0.7688816997117311,
                    -0.5824962971868175,
                    0.43252598124139285,
                    0.16694245462377544,
                    -0.4599104415702564,
                    0.6396261505122183,
                    0.5347421062941857,
                    0.2889816570859933,
                    -0.902960938037431,
                    0.48163986295643335,
                    0.8347862151045957
                ],
                [
                    0.6448266956123856,
                    -0.40322679352565105,
                    -0.12442083781269275,
                    0.03211070104791092,
                    -0.8348976133049166,
                    0.09949387443566815,
                    -0.9617420371810357,
                    -0.5108166165826948,
                    -0.7402523631503513,
                    -0.6697973683575789,
                    -0.04973323142784691,
                    0.02328998790831749
                ],
                [
                    0.5482996809710066,
                    0.34709735073294623,
                    0.7552511877742181,
                    -0.3855992797004455,
                    0.22729708531521076,
                    0.08441865678139293,
                    -0.7444190433100091,
                    0.14030187141039696,
                    -0.5418044713452961,
                    -0.7652298330451635,
                    0.9614224216798444,
                    -0.11819188566180605
                ],
                [
                    -0.13648141070043973,
                    0.2165656693797826,
                    0.5623845162917123,
                    0.9643065989432626,
                    0.32700271315860663,
                    0.10998358627851101,
                    -0.5155565790016368,
                    0.21998153224382833,
                    0.2159679942792494,
                    0.1774637300903077,
                    -0.8800500157805076,
                    -0.6123695656976467
                ],
                [
                    0.6973666950108282,
                    -0.39180796631114445,
                    0.14811955766058404,
                    -0.12264443049258578,
                    -0.9583810941038331,
                    0.8730223824810546,
                    0.6914505063008163,
                    -0.09153339295215868,
                    0.7134865884443171,
                    0.6606087561764729,
                    -0.4394024397240135,
                    0.08003310449129541
                ],
                [
                    -0.16571254849924144,
                    0.9313322022981476,
                    0.48884705047079824,
                    -0.4038984270185546,
                    0.03654767060654662,
                    -0.5005354932111925,
                    0.7720727140192056,
                    -0.2833263818960279,
                    0.8312575617947515,
                    0.7505319922790585,
                    0.16344927771634943,
                    0.23656283747762408
                ],
                [
                    0.38970376617606095,
                    0.548377202645338,
                    0.805405763559812,
                    -0.8659000229801694,
                    0.5619253378844271,
                    -0.8523384008052086,
                    -0.9302594075544475,
                    0.6834960411702709,
                    -0.18522667415725835,
                    0.06921113568772852,
                    -0.9617735235893603,
                    -0.94941637520505
                ],
                [
                    0.7917181500693729,
                    0.03401306925742631,
                    0.5605400496633091,
                    -0.35568153651913703,
                    0.7988489088147364,
                    0.03808738713557491,
                    -0.8653204974000925,
                    0.1354523373325529,
                    0.5082069107714944,
                    0.02114420919471871,
                    -0.12438200053597548,
                    0.041908017506981476
                ],
                [
                    0.17639440765980408,
                    -0.3130468609325614,
                    0.13360425985590663,
                    0.6793727195378496,
                    -0.6834707231047357,
                    0.8233620334905916,
                    -0.7738137172223183,
                    0.981722751637258,
                    0.5299538971328248,
                    -0.41191780836254366,
                    0.09702076713700492,
                    0.8084373035703747
                ],
                [
                    0.9988965691746037,
                    -0.6597904979720801,
                    -0.5943789744970476,
                    -0.5770920964106294,
                    0.6225635072901954,
                    0.4693730081368772,
                    -0.277793429339559,
                    -0.6704044533835811,
                    -0.6055364464345638,
                    0.7176161853547713,
                    -0.4073437129435509,
                    0.2694263714870959
                ],
                [
                    0.9942775508972006,
                    0.26652892400247663,
                    0.9318097743731724,
                    0.011730832991911466,
                    -0.647008908252727,
                    -0.28004003212673845,
                    -0.992675682280312,
                    0.18270165733143662,
                    0.243001628929983,
                    0.912672021781862,
                    -0.20766148515260352,
                    0.15966116763397342
                ],
                [
                    -0.5120965151069705,
                    0.5852816348249525,
                    -0.16909691974778385,
                    0.6961624249333289,
                    -0.5004948950402899,
                    0.2762963308877695,
                    0.20160178009592844,
                    0.7000409301320221,
                    -0.7790377907131134,
                    0.43155066766315153,
                    -0.08478352948010781,
                    -0.02247753710227962
                ],
                [
                    0.6471007868996626,
                    -0.8892209083205127,
                    -0.1408383990556734,
                    -0.5507479828983315,
                    -0.17180429880274728,
                    0.06872789875377494,
                    0.02721562434220881,
                    -0.1712183861528831,
                    0.2404552009041745,
                    -0.5438513123159352,
                    0.43027441473637085,
                    0.02937343007767712
                ],
                [
                    -0.062457108626087,
                    0.9593752259602417,
                    0.9947007828990952,
                    -0.6080393326206628,
                    0.9419337439535445,
                    0.7137373470681545,
                    -0.20217305739610825,
                    -0.3010065210366113,
                    -0.5476158845417007,
                    -0.3719586217937467,
                    -0.9588676380004042,
                    -0.5647307020183765
                ],
                [
                    0.9776484728200361,
                    0.25090724279738175,
                    0.5409843974069821,
                    0.6429053733947678,
                    0.3389691355793425,
                    -0.11548479321586536,
                    0.8445038380929659,
                    0.9409995682479879,
                    0.08926465897326752,
                    0.611293656281295,
                    0.9355838376211567,
                    0.4359379741441074
                ],
                [
                    -0.16662500125771107,
                    0.9112588357405398,
                    -0.4793922172766705,
                    -0.2528966493421059,
                    -0.09347022618526624,
                    0.5613517817853502,
                    -0.9494304514630088,
                    -0.5911549711406756,
                    0.4482250070543288,
                    0.4886335263124204,
                    -0.04223756222865194,
                    -0.9162061293062351
                ],
                [
                    -0.5263880886464747,
                    -0.1233362526113091,
                    0.21229751065108537,
                    -0.2352892561616864,
                    -0.17695135684019636,
                    -0.21620201788713556,
                    -0.18703785158501796,
                    0.33863220474937616,
                    0.3902089725640556,
                    -0.507598525918199,
                    -0.46550141878054085,
                    -0.5049108982620647
                ],
                [
                    -0.34497036985793517,
                    -0.3979779397699068,
                    -0.8503921355881068,
                    0.3070047356505887,
                    -0.13391110832369613,
                    -0.01815629870626445,
                    0.9945718324131532,
                    0.03445817155223696,
                    -0.3897548686466137,
                    -0.18578653117811372,
                    0.5353987403964817,
                    -0.280708807836785
                ],
                [
                    0.15488359159633536,
                    -0.5655953551654349,
                    0.41447077039824176,
                    -0.5226852242799949,
                    0.04046408573843818,
                    -0.7124084992783166,
                    -0.44835022683171766,
                    -0.6813591309041804,
                    -0.7945462474361387,
                    0.546485861410674,
                    -0.045630812987299096,
                    0.15758774123527597
                ],
                [
                    0.3732638774541066,
                    -0.46173080498662067,
                    0.9138763220958652,
                    0.08609130323504743,
                    0.43048700511358406,
                    0.17718151179361263,
                    -0.10448198394257613,
                    -0.0443294094303015,
                    -0.2488114521625997,
                    -0.5999061685585334,
                    0.987742945225532,
                    0.3661249578343957
                ],
                [
                    0.7538824200858398,
                    0.08786119168690365,
                    0.9670115512167232,
                    -0.2861375718140906,
                    0.4159420942911367,
                    -0.9491915238464257,
                    0.7440469701860142,
                    0.30152883209798054,
                    0.7137910186918137,
                    -0.8838652881535924,
                    0.8143126926429332,
                    0.27609090120819224
                ]
            ],
            "biases": [
                0.1828206844423239,
                0.28766007638676006,
                0.24619918668570095,
                0.7699409541443378,
                0.7243981283908458,
                0.7999915148196353,
                -0.41851294269012507,
                -0.046664677247580055,
                -0.8047195171339798,
                0.012311307064468702,
                0.48393844526654584,
                -0.9971819598408078,
                0.6784131061567154,
                0.49080485793055817,
                0.017857243863153904,
                -0.28658475428340946,
                0.726070676147061,
                -0.7409874629540214,
                -0.10529802508249908,
                0.20943715686851783,
                0.2520698691459151,
                -0.43853442751580074,
                0.025300304375879268,
                0.12883415465299874,
                -0.25020764200233736,
                -0.587746617383994,
                -0.9099239596712816,
                0.7741657361104417,
                -0.8413632986211688,
                -0.778058478937792,
                0.2680613034421335,
                -0.34616615090808356,
                -0.23044728023514738,
                0.15484577674631517,
                -0.7017793353305519,
                -0.12412869000763216,
                0.9518748619354758,
                0.26444875792327927,
                -0.7239775213902839,
                -0.24759705528966536,
                0.11914474941330577,
                -0.4679853673313641,
                0.7971962919351154,
                0.02532466594123628,
                -0.713430702620333,
                -0.21799927133039043,
                -0.5669710767617127,
                0.8602350736637798,
                0.140427613547357,
                0.011454379643769164,
                -0.6941208767588951,
                -0.5348097133807774,
                -0.5210408378616642,
                0.020666767979780065,
                -0.295455658353476,
                0.7282549226320136,
                0.8837501544204529,
                0.10464875621234704,
                -0.18105449176799215,
                -0.2838950010544701,
                0.11818460010762322,
                -0.5628627784716866,
                -0.8497876466642009,
                -0.197249881184284,
                0.08394120322552334,
                0.4615719522541364,
                -0.11747284186757034,
                -0.7450422433352704,
                -0.49960946908702564,
                0.2915529711778193,
                -0.1341767327410286
            ]
        },
        {
            "neurons": 7,
            "activation": "softmax",
            "weights": [
                [
                    0.6040208309027129,
                    0.9272444152459038,
                    -0.11934587524483731,
                    -0.4571338253182635,
                    -0.04295314892985891,
                    0.01130907463091746,
                    -0.6803145638500501,
                    -0.6387618619774764,
                    0.8290202890674696,
                    0.29057383002363824,
                    -0.09378774523855427,
                    -0.5266989437959053,
                    0.5005833534705804,
                    -0.5808640569639658,
                    -0.7622060275428739,
                    -0.049488440600297334,
                    0.39772859117836656,
                    -0.6994561185311667,
                    0.027671559437131066,
                    0.49862129728904003,
                    -0.18338975876617103,
                    0.6640047760561234,
                    -0.06792463000064863,
                    -0.2185892624326149,
                    0.6368111780616281,
                    -0.14851292465424315,
                    -0.15479635458128094,
                    -0.5212806661182461,
                    0.07912499434075237,
                    -0.9454597990259443,
                    -0.4381913128625563,
                    -0.7328069972544777,
                    -0.4959348491155624,
                    0.4662320922655685,
                    0.07880367258847443,
                    0.15872135368941054,
                    0.7999053345509306,
                    0.11503909678786717,
                    0.5388356782408763,
                    0.35804829635925106,
                    -0.8159532164948176,
                    0.8442939217409495,
                    -0.7670206050271886,
                    -0.18597891352870644,
                    0.012744231510658066,
                    0.6019191400748536,
                    0.9953767657755399,
                    -0.33712087252992484,
                    0.9621669338266208,
                    -0.023048379067537095,
                    -0.11249637286824332,
                    -0.48598169707260275,
                    0.14805824183412608,
                    0.18085219079339865,
                    0.02970217280515519,
                    0.2180216548047933,
                    -0.7355639196276031,
                    0.7174658041136439,
                    0.43563579110878314,
                    -0.2144173953886157,
                    0.6923407899046914,
                    -0.9572356580965029,
                    0.6992733219542888,
                    0.2764312930401138,
                    -0.8867088093885895,
                    -0.8679583415606393,
                    -0.26076208908912846,
                    -0.7528492976029371,
                    -0.12193614170962608,
                    -0.9432089292070682,
                    0.7637937958477488
                ],
                [
                    -0.9524992037322249,
                    -0.5171496791657837,
                    -0.695465361687654,
                    0.8799938454414764,
                    -0.9372130464135349,
                    0.7488218992578093,
                    -0.4679708289832405,
                    0.34867489717516365,
                    0.9257147149714953,
                    -0.37132368690183193,
                    -0.8296111321785562,
                    0.43222081834732173,
                    -0.3481933663508101,
                    -0.8337117866171071,
                    -0.5381508777163033,
                    0.8349772102373916,
                    0.21991791596075783,
                    -0.5855775942971495,
                    0.6613272990688011,
                    -0.040410215391411874,
                    -0.15596522715553696,
                    -0.2403170511414503,
                    0.9713116753631117,
                    0.7546450411157541,
                    -0.47711186765820135,
                    -0.35527361081341535,
                    -0.49338417066982854,
                    0.27157013449766887,
                    0.9268972820731289,
                    -0.11181067550359969,
                    0.6186352306508485,
                    -0.13013897073966096,
                    -0.6472578089934513,
                    -0.059621231294124444,
                    0.4644900748169105,
                    -0.9755499772736362,
                    0.2624404598847647,
                    0.7260273975618534,
                    0.04233120028389581,
                    0.10263292819231151,
                    0.12941860895101076,
                    -0.19995773981823106,
                    0.49527196657562245,
                    -0.685623824297177,
                    0.5938691661941355,
                    0.932258976968132,
                    -0.07790119403020834,
                    0.3646533149317299,
                    -0.834065123092397,
                    0.1532716110572805,
                    -0.9442374484351621,
                    -0.915310921852273,
                    0.46344385626354856,
                    -0.3894638598125064,
                    -0.20600163819962414,
                    -0.626199105648056,
                    0.35614113600868347,
                    0.9767275796836088,
                    -0.39508486099072937,
                    -0.582056814483235,
                    0.5297855276950312,
                    0.49041565203101967,
                    0.7641466396130865,
                    -0.21526532060565295,
                    -0.784645855886285,
                    -0.31297780885282167,
                    0.945529060493828,
                    -0.6081964135023372,
                    0.7923789465386601,
                    -0.5287585317559285,
                    -0.8233888072092466
                ],
                [
                    0.9763344756698942,
                    0.11739788970411569,
                    0.4046998727900568,
                    0.11022387532387756,
                    -0.615726000276511,
                    0.4005661256403761,
                    -0.442611793774047,
                    0.30644083987463233,
                    -0.9247966009278974,
                    -0.6636948996347394,
                    -0.7967310438348665,
                    0.24001745895655358,
                    -0.0006856162902231233,
                    -0.5002913985722024,
                    -0.7484348039019735,
                    0.36414888113669686,
                    -0.16295398504088365,
                    0.7613689160219248,
                    0.7645692000277955,
                    -0.28627573004271323,
                    -0.44733725678372127,
                    -0.6387156778530105,
                    -0.6588918196195981,
                    -0.6031930854481686,
                    0.22980277274674332,
                    0.5769936173511176,
                    -0.2832649502326612,
                    -0.5306970499311541,
                    -0.7114671719858463,
                    -0.5380843245692024,
                    -0.3892024020949292,
                    0.6225871110581929,
                    0.25601846881714807,
                    0.5129479228551304,
                    0.7724259427879705,
                    0.8093620271262039,
                    -0.04192373293224061,
                    0.21011370651807515,
                    -0.8094116726835181,
                    0.6900010687031335,
                    0.9421305947001684,
                    -0.5135957504369006,
                    -0.7207579789092726,
                    0.29272774421492365,
                    -0.5965022444860133,
                    -0.7950592512622043,
                    -0.659483925573412,
                    0.7736438977449998,
                    0.8997002418994973,
                    -0.6093898998993732,
                    0.6395068533779862,
                    -0.6264108303789466,
                    0.2448652889941123,
                    -0.4501378115120176,
                    -0.5823813826616617,
                    0.21613366527692435,
                    -0.43336052767021593,
                    -0.8340119402829067,
                    -0.6526273575645434,
                    0.7123591457444272,
                    -0.6461833230510203,
                    -0.36815755825619667,
                    -0.39876564400667536,
                    0.6453739968224632,
                    -0.1189074255093554,
                    0.5176850403515523,
                    0.07553010195630083,
                    -0.77262547337025,
                    -0.08267153023615914,
                    0.07046715508860446,
                    0.33878289962542096
                ],
                [
                    -0.637735883185164,
                    0.2823115500116351,
                    0.22961992177388502,
                    0.10737130325074906,
                    -0.17175440858743363,
                    -0.421267622892636,
                    0.536302684476893,
                    0.419896809969762,
                    -0.5786494645048768,
                    -0.17081534555482913,
                    -0.8218916552547904,
                    -0.07550790820474251,
                    0.8654903138297148,
                    -0.7179711083179732,
                    -0.9918623491378904,
                    0.5816468908102492,
                    -0.11599745987350674,
                    -0.1180462563359459,
                    0.7640726100571797,
                    -0.6400573508222642,
                    -0.6665689841315077,
                    -0.8549542533150676,
                    -0.41545554783584104,
                    0.6839472122186911,
                    -0.8960390015285158,
                    -0.9882022846385166,
                    0.26773068918050424,
                    0.8333494206686527,
                    0.1790006141572289,
                    0.03005039546795074,
                    -0.41687295804660995,
                    0.36957439794201874,
                    0.4255598077613638,
                    0.7874531996031751,
                    0.37944744701768984,
                    -0.7796521999688597,
                    0.93117058805791,
                    -0.3312801696743293,
                    -0.8120422082988541,
                    -0.021832490336592514,
                    -0.6840178551437526,
                    -0.13629634270610613,
                    0.6699576183907145,
                    0.7306527726226355,
                    -0.8412587804665013,
                    0.629301955609398,
                    0.5848346188880769,
                    0.43661779510528786,
                    -0.36721595975059085,
                    0.14241705798959647,
                    -0.5852690070095881,
                    -0.5771746277002927,
                    -0.5503347512809684,
                    0.6416981457605433,
                    -0.3632048356331754,
                    -0.9623675843455626,
                    -0.5895511930008173,
                    0.44037681402782525,
                    0.072025890727061,
                    0.9954865842689673,
                    0.6963684539533483,
                    0.8731160828110691,
                    0.39396985432987575,
                    0.22949657421972347,
                    0.42607033521898074,
                    0.5499968180774708,
                    0.0849064270553539,
                    -0.052808191049669606,
                    -0.1259311118526616,
                    -0.8302424224651539,
                    0.2929786474570113
                ],
                [
                    0.33222163366808943,
                    0.31411826483507843,
                    0.37039343085794485,
                    0.7422003598932656,
                    0.9067083468954218,
                    0.00011164583802125705,
                    0.20531354387119394,
                    -0.10158589032825538,
                    -0.5945775347013467,
                    0.16665947593653407,
                    -0.06335320572259473,
                    0.361857597649788,
                    0.004279255576044916,
                    0.7013706596964364,
                    -0.504171223527589,
                    0.23092929768911952,
                    -0.5988560254342572,
                    0.6834343485503975,
                    0.061743510162639126,
                    0.9234592190501465,
                    0.17670352135716616,
                    -0.7394276863888551,
                    0.6018296997507202,
                    0.7187896592894076,
                    -0.6689063971972631,
                    -0.3723435718244772,
                    0.9766242449004123,
                    -0.773249211026461,
                    0.7292429612013851,
                    0.7397102303745642,
                    -0.823139295343718,
                    0.9840063134021395,
                    0.3754226018306708,
                    0.3329615914389661,
                    -0.008691036250912054,
                    -0.9033305727394219,
                    0.22693331595230215,
                    -0.6690520794927088,
                    -0.2771926231914861,
                    -0.14593749984740523,
                    0.35784393454877583,
                    0.2691794827138372,
                    0.9662022417459717,
                    0.9344296605570055,
                    0.20609113156690295,
                    0.1505803106871384,
                    -0.8001396965778429,
                    0.9297027116985812,
                    -0.49430773877392253,
                    0.7097228509409472,
                    -0.5382242276007576,
                    -0.10210821538035764,
                    0.8596486410580668,
                    -0.7723392220965635,
                    -0.5948190264347495,
                    -0.23388439750346346,
                    -0.8560211563259932,
                    0.5845070970603208,
                    -0.7656990479811214,
                    -0.1784751528733215,
                    -0.5845419468736248,
                    0.5484992094970513,
                    0.7573631309897595,
                    -0.5371574437724771,
                    -0.4637461198593691,
                    -0.03822802575971185,
                    -0.8717578693361567,
                    -0.03041056271382625,
                    0.9389875267532417,
                    -0.32469448958417746,
                    -0.29328444536354326
                ],
                [
                    -0.14290998195120808,
                    0.05333077836012112,
                    -0.6746962106807619,
                    0.06353598459596865,
                    -0.519052717445931,
                    0.7508513373757939,
                    -0.7853537630818685,
                    0.8713968002728143,
                    -0.4423949457924137,
                    -0.17761885260355026,
                    0.46292766286011977,
                    0.5439433953280923,
                    -0.251416531021853,
                    0.7076008623254701,
                    0.5830086394011267,
                    0.8852726898772356,
                    -0.4693026565680998,
                    -0.8885326430912373,
                    0.610278966903399,
                    0.5830733809021842,
                    -0.6887232046109728,
                    0.48272653777640273,
                    -0.22861722338835433,
                    0.0910948706929613,
                    -0.3135348400004654,
                    0.4247431740194638,
                    0.22776965686029915,
                    -0.623565203851959,
                    0.7318576706829492,
                    -0.5300437759330445,
                    0.7168659405741955,
                    0.8104151280562091,
                    0.01950461516477664,
                    0.1886617436432383,
                    0.132707541704715,
                    -0.3347770878873515,
                    0.7004694303952803,
                    -0.7155170739187053,
                    0.35650855097465106,
                    -0.14921990242253247,
                    0.48394346866022353,
                    0.8367385814556354,
                    -0.2320639382074381,
                    -0.1392674671965186,
                    0.22407694429372738,
                    -0.11346140346002631,
                    -0.8205576920838131,
                    -0.7310684117310946,
                    -0.5730234567736403,
                    -0.850031808935084,
                    0.035013758588387844,
                    -0.8315236851129832,
                    0.28520724609260517,
                    -0.42478325184912813,
                    0.9941943123367623,
                    -0.540413180531415,
                    -0.37394545955238323,
                    0.1765599604500061,
                    -0.12349351791287977,
                    0.1398397514985259,
                    0.8498365639357488,
                    -0.05273293571788562,
                    0.8425403877397635,
                    -0.04646865294954372,
                    0.3850019221424317,
                    -0.4048904169997325,
                    0.2937016547343205,
                    -0.1519686431799674,
                    0.3865497799323465,
                    0.8257421341298063,
                    -0.024946879773178665
                ],
                [
                    0.5582797122153547,
                    -0.005194053505350293,
                    0.5574010356411632,
                    0.7226297626167819,
                    -0.2491710675000458,
                    0.0738973380718182,
                    -0.3307402354722382,
                    0.5609358631818759,
                    -0.2132576017781147,
                    -0.918870426412985,
                    -0.8775276444248665,
                    0.8933065642731022,
                    0.846880244132528,
                    -0.3258769645552486,
                    -0.031481168728631825,
                    -0.8111913911335189,
                    -0.5040776459001646,
                    -0.813823202477195,
                    -0.9535393941513828,
                    -0.4133553993027568,
                    0.8470343660332653,
                    0.2865638870529772,
                    -0.9030986481797489,
                    -0.7584003168039051,
                    0.41237113817693394,
                    0.8986928402002687,
                    0.17968529331553462,
                    -0.5276546448895458,
                    0.8103058038939284,
                    0.8810221604717465,
                    -0.6725268604138976,
                    0.2749117799212897,
                    0.9533066183826364,
                    0.9553840434180969,
                    -0.3433741699087487,
                    0.984599484437853,
                    0.6926793936924882,
                    -0.7378350765190642,
                    0.5414288547827428,
                    -0.501160204486037,
                    -0.9550192249663465,
                    -0.7163321319473284,
                    0.6588064298592504,
                    0.6199354845769742,
                    0.279042852803844,
                    0.2463303113966373,
                    0.0757957522447894,
                    0.7955369815035824,
                    0.16630001461233945,
                    0.6645534575672454,
                    0.12055237846324296,
                    -0.7897375346251829,
                    0.7068449556286431,
                    0.09870397651721308,
                    -0.42143162615793317,
                    -0.05297840654828523,
                    -0.11990954320944391,
                    0.5693834957757837,
                    0.42012088636413303,
                    -0.026378719352342594,
                    -0.22335054903779716,
                    0.1445172787653759,
                    -0.6858179448406907,
                    -0.6128271951334279,
                    -0.22650094457787184,
                    -0.020261630683822363,
                    0.2768487403270137,
                    -0.15783156168051082,
                    0.19694747272660118,
                    -0.3591081979449653,
                    -0.17184810261682437
                ]
            ],
            "biases": [
                0.4570882521924504,
                -0.5064660210442697,
                0.23489398377570891,
                -0.0806309076165268,
                -0.13701891161650837,
                0.5897097989757434,
                0.9860133632950072
            ]
        }
    ]
}