{
    "cnn_layers": [
        {
            "type": "conv",
            "filters": 8,
            "kernel_size": 3,
            "stride": 1,
            "activation": "relu",
            "weights": [
                [
                    [
                        [
                            -1.0796193081861902,
                            -0.2504512636584182,
                            1.080572362022492
                        ],
                        [
                            -3.0198856550583404,
                            -0.20511902612567437,
                            0.024981480507560175
                        ],
                        [
                            -0.0487178988999434,
                            -0.607293181781241,
                            -2.3198476569172617
                        ]
                    ]
                ],
                [
                    [
                        [
                            3.0019193948316034,
                            1.3227896474074563,
                            -0.7669682729490723
                        ],
                        [
                            -0.717747394406425,
                            -1.9898036854125902,
                            -1.4233337963809254
                        ],
                        [
                            1.360065899425985,
                            0.06473813862302992,
                            -1.5787572920710669
                        ]
                    ]
                ],
                [
                    [
                        [
                            0.5833599748402813,
                            0.4949059221166226,
                            -1.8390539099851997
                        ],
                        [
                            -1.4576418886335205,
                            0.30477224003739906,
                            -0.5673440976413598
                        ],
                        [
                            -1.3039109684023802,
                            -1.2661901799163857,
                            0.5687277443267387
                        ]
                    ]
                ],
                [
                    [
                        [
                            -0.611381941258643,
                            -0.2773065002646744,
                            2.177497124491509
                        ],
                        [
                            -0.12477866663568157,
                            -0.06389999469332813,
                            -2.74316430520843
                        ],
                        [
                            1.5407959444311015,
                            2.004338125376056,
                            1.9217712515285963
                        ]
                    ]
                ],
                [
                    [
                        [
                            1.1952553017920995,
                            0.15220899548462555,
                            2.5024995768856226
                        ],
                        [
                            0.38155443774985903,
                            -0.43999274495715124,
                            -1.6231322160813628
                        ],
                        [
                            0.516303479463899,
                            -0.294012599643141,
                            0.8799649283775118
                        ]
                    ]
                ],
                [
                    [
                        [
                            1.5742167584451188,
                            -1.1227465017761584,
                            0.8997632406613262
                        ],
                        [
                            -0.20679368663389888,
                            -1.0749407200912218,
                            -1.6178006795371076
                        ],
                        [
                            -0.19283825921531336,
                            -0.6641132570064364,
                            -1.5536256432624218
                        ]
                    ]
                ],
                [
                    [
                        [
                            -1.359449174885195,
                            1.2127809443341813,
                            -2.1092949503216385
                        ],
                        [
                            0.3920416253661664,
                            -1.030046332709624,
                            2.2697585126738997
                        ],
                        [
                            -0.4869505711085196,
                            -1.732943216680857,
                            0.3281937856288033
                        ]
                    ]
                ],
                [
                    [
                        [
                            0.14515772294139279,
                            0.6651757998482168,
                            -0.8932619578698222
                        ],
                        [
                            0.8190370557955402,
                            -2.0402767186527884,
                            0.7978624434680658
                        ],
                        [
                            -0.16415195635378527,
                            0.1960156321714186,
                            -0.4521241946066124
                        ]
                    ]
                ]
            ],
            "biases": [
                -0.0376784008743684,
                1.694647875630179,
                0.8695706337952048,
                0.22090207326433325,
                -0.06754803614264629,
                -0.7581952546368279,
                0.1543123609971354,
                0.5687859289154106
            ]
        },
        {
            "type": "pool",
            "size": 2,
            "stride": 2,
            "pool_type": "max"
        },
        {
            "type": "conv",
            "filters": 64,
            "kernel_size": 3,
            "stride": 1,
            "activation": "relu",
            "weights": [
                [
                    [
                        [
                            -0.433472647751726,
                            -0.973332006476749,
                            -2.7549402533225544
                        ],
                        [
                            -0.9794445755093582,
                            -0.6372641561082326,
                            0.6875851081627352
                        ],
                        [
                            -1.1264593830725538,
                            -0.32921384306684426,
                            1.826098662518495
                        ]
                    ],
                    [
                        [
                            -0.35700512834887776,
                            -2.154331758886718,
                            -0.5887377959762834
                        ],
                        [
                            0.4177558762346448,
                            -1.4419615542621076,
                            -0.5800456328848991
                        ],
                        [
                            -0.8680000601323876,
                            0.33516243574231935,
                            -0.07045702158311477
                        ]
                    ],
                    [
                        [
                            1.8393402927970979,
                            -0.517126906530849,
                            -0.5997597786364863
                        ],
                        [
                            -1.9625198119335647,
                            -0.21395013502488688,
                            0.4906890312320549
                        ],
                        [
                            -0.13526776660570566,
                            -0.8857134117904276,
                            -1.9907911915822554
                        ]
                    ],
                    [
                        [
                            -0.22251448492815787,
                            -0.8656709963806226,
                            -0.2070498681357279
                        ],
                        [
                            -0.4762251059493957,
                            0.1433110205688144,
                            0.6226229181148484
                        ],
                        [
                            -0.527338809755529,
                            -0.7446397258568931,
                            0.5288242891350173
                        ]
                    ],
                    [
                        [
                            -0.4135407917890668,
                            -0.45790806751242835,
                            1.4006203722741213
                        ],
                        [
                            1.1215944332689163,
                            1.5121211067174243,
                            1.0031577759160513
                        ],
                        [
                            1.661704459469293,
                            0.9604397803716945,
                            -1.5341635886604257
                        ]
                    ],
                    [
                        [
                            1.0247560608376802,
                            0.9866272744238467,
                            0.03615587254069871
                        ],
                        [
                            1.380971555039007,
                            -0.3497163286741919,
                            0.5295379504605511
                        ],
                        [
                            -2.952710322923958,
                            3.0361833885211804,
                            -0.009612912900254594
                        ]
                    ],
                    [
                        [
                            -1.7757374908034147,
                            0.8537902430829867,
                            -0.8369026196221716
                        ],
                        [
                            -0.8701505064671323,
                            -1.0173521772502956,
                            0.5159211442364099
                        ],
                        [
                            0.9007004815803112,
                            0.9073958306641207,
                            1.15724203030385
                        ]
                    ],
                    [
                        [
                            -1.7704274515329756,
                            0.8430619093772383,
                            -3.0267659404374263
                        ],
                        [
                            -0.9777053773521875,
                            -0.34049504027842825,
                            1.1854119243110297
                        ],
                        [
                            0.9753421713316976,
                            2.6982418622129822,
                            1.9079188802775582
                        ]
                    ]
                ],
                [
                    [
                        [
                            -1.811733383249202,
                            0.4038954922820295,
                            2.6727475974951314
                        ],
                        [
                            -2.034455634797597,
                            0.08157962120713148,
                            -1.2196542731614866
                        ],
                        [
                            2.009023441674659,
                            -0.41054884084625376,
                            0.18506483689945308
                        ]
                    ],
                    [
                        [
                            -0.9319849689746784,
                            0.859126746303229,
                            -1.9680597115041625
                        ],
                        [
                            0.06570510223046676,
                            -0.7150882895349168,
                            -0.18293207172612155
                        ],
                        [
                            1.0074272409057303,
                            0.8749129561300706,
                            2.5275564520429246
                        ]
                    ],
                    [
                        [
                            0.7098035811496217,
                            0.691704052400189,
                            -0.40306514828150536
                        ],
                        [
                            1.2683750591861473,
                            0.8171598111652658,
                            -0.534299785677864
                        ],
                        [
                            1.7381474449151921,
                            -0.13306591910965873,
                            3.230017423100621
                        ]
                    ],
                    [
                        [
                            -1.1775405044594622,
                            -0.8237443261640807,
                            1.1204571675665282
                        ],
                        [
                            0.7110639320434626,
                            0.4647314709231891,
                            -1.1724065123404013
                        ],
                        [
                            0.5756708868450655,
                            -1.067245178281951,
                            -0.18840105527086426
                        ]
                    ],
                    [
                        [
                            1.089065509925638,
                            1.396006589273651,
                            0.9218094606116739
                        ],
                        [
                            1.0351201493305613,
                            1.6002437254302424,
                            1.348825938508784
                        ],
                        [
                            -0.34674627181705747,
                            -1.1563630962695406,
                            0.9277217460615773
                        ]
                    ],
                    [
                        [
                            0.17081294759137028,
                            1.5133527418017068,
                            2.123713627182358
                        ],
                        [
                            -0.5409161705945045,
                            0.5177781654419082,
                            -1.2656960879429169
                        ],
                        [
                            -1.142368873063183,
                            0.321679985609508,
                            -0.43785026929798937
                        ]
                    ],
                    [
                        [
                            0.7643582545330925,
                            2.3933302100483895,
                            0.658688057999969
                        ],
                        [
                            1.4093190996423215,
                            -0.906688488642849,
                            -1.0484970333306802
                        ],
                        [
                            0.98185075026016,
                            0.05895740761840923,
                            -2.2366705966302307
                        ]
                    ],
                    [
                        [
                            0.977417155722154,
                            -1.076030317543306,
                            -1.6159503780874258
                        ],
                        [
                            1.3912738895835752,
                            2.0827102778531157,
                            0.5954783810931354
                        ],
                        [
                            2.6575492506219462,
                            -2.0040019469631605,
                            -1.5633845481741455
                        ]
                    ]
                ],
                [
                    [
                        [
                            0.9425674059798733,
                            -0.6085558444633897,
                            0.886737041976917
                        ],
                        [
                            1.1977962033357348,
                            -0.3700857601770349,
                            -0.3866398758355313
                        ],
                        [
                            0.9796790337827336,
                            -0.8639327826799379,
                            1.4972761127035001
                        ]
                    ],
                    [
                        [
                            -0.5663635536146155,
                            -1.2760646339424067,
                            0.51142557676639
                        ],
                        [
                            1.047452430122981,
                            -2.2969070459441046,
                            0.3372595450297747
                        ],
                        [
                            -3.1523565384361283,
                            -0.5706765988905013,
                            1.2311238924858832
                        ]
                    ],
                    [
                        [
                            -0.45364875765298235,
                            -0.80466253673992,
                            -0.8082926228695861
                        ],
                        [
                            1.3047900370509422,
                            1.1218606399526287,
                            2.2756508390630588
                        ],
                        [
                            -0.08483919415236375,
                            0.9908564481502214,
                            -1.8342109194731677
                        ]
                    ],
                    [
                        [
                            1.3718622909881006,
                            0.5909412955770548,
                            1.143271488170497
                        ],
                        [
                            -0.41582307969191257,
                            1.7349592550966417,
                            -2.0175858664836888
                        ],
                        [
                            0.31703235236687277,
                            -0.5206438036826543,
                            1.2878725967645754
                        ]
                    ],
                    [
                        [
                            -0.7827862169500195,
                            -0.7422614668107953,
                            0.13292894553969942
                        ],
                        [
                            0.05524780412025679,
                            -0.08179224522214057,
                            1.359146601329078
                        ],
                        [
                            -2.9577106022452755,
                            1.0822079015287773,
                            -0.7702286347084306
                        ]
                    ],
                    [
                        [
                            -0.9043552186661649,
                            0.0843871236968987,
                            -1.428285177416293
                        ],
                        [
                            -0.8887177637794216,
                            1.4761857302504562,
                            -1.621816349925576
                        ],
                        [
                            -1.751992005762694,
                            0.46910564710783625,
                            -1.1829801303020748
                        ]
                    ],
                    [
                        [
                            -0.709896430387048,
                            2.0302520573455856,
                            -0.8385068549712973
                        ],
                        [
                            1.2956927136325302,
                            1.6665834555308747,
                            -1.7093179706497736
                        ],
                        [
                            0.48074406758190397,
                            -0.9871904986030801,
                            -0.5860103031922947
                        ]
                    ],
                    [
                        [
                            1.086125307595003,
                            -0.6283352804962767,
                            -1.7107051228834114
                        ],
                        [
                            -0.6642673750927107,
                            2.5029390411412744,
                            -1.2514499093811968
                        ],
                        [
                            -0.26002640813274325,
                            0.05449811885783107,
                            -0.4664301819341815
                        ]
                    ]
                ],
                [
                    [
                        [
                            1.4548253454875453,
                            -2.7871940948524445,
                            0.23653457182322457
                        ],
                        [
                            0.34463595830454674,
                            2.1300063462582575,
                            -0.5283520095148772
                        ],
                        [
                            -1.0233657777928817,
                            1.5395242272989325,
                            0.5625853076539615
                        ]
                    ],
                    [
                        [
                            -0.23829030586001065,
                            1.5713111665987385,
                            0.3962932341169283
                        ],
                        [
                            -1.5528593440195506,
                            -1.0173225059197541,
                            -1.3377668375733855
                        ],
                        [
                            -2.1461349854230423,
                            -0.6144369313316392,
                            -1.1406457956842995
                        ]
                    ],
                    [
                        [
                            1.1670172088503175,
                            1.556914677789222,
                            -2.4421576312795037
                        ],
                        [
                            -0.41067802007384885,
                            1.4513692662751394,
                            1.0717587329841698
                        ],
                        [
                            0.8655847893342654,
                            1.053734520738984,
                            -0.23346099272487683
                        ]
                    ],
                    [
                        [
                            1.95639948228073,
                            2.33425718734583,
                            1.069282494582501
                        ],
                        [
                            -0.4730103049109191,
                            0.43556853317703853,
                            -1.2778778544715683
                        ],
                        [
                            0.5025939885352447,
                            0.7581230297065547,
                            1.7728609050086208
                        ]
                    ],
                    [
                        [
                            -0.5588764789096764,
                            0.38435454408410574,
                            -1.3904593465919068
                        ],
                        [
                            1.235712235662438,
                            0.18801658215046818,
                            -1.0538944392217695
                        ],
                        [
                            -1.8030724587447722,
                            -1.5897212491931314,
                            0.09430331569842232
                        ]
                    ],
                    [
                        [
                            0.7558936403892454,
                            2.6729167131729445,
                            0.031863286209732805
                        ],
                        [
                            0.7906005859083421,
                            0.6429742008353326,
                            -1.4704743281077395
                        ],
                        [
                            -1.298685721321594,
                            0.6735257025128734,
                            0.5822151200625335
                        ]
                    ],
                    [
                        [
                            0.2706276165566662,
                            -3.2976836898031263,
                            1.3749727361883823
                        ],
                        [
                            0.5728205217766348,
                            -1.0585861705461252,
                            1.379499241603964
                        ],
                        [
                            1.5542190819168118,
                            2.3552426845802907,
                            0.7794407025195413
                        ]
                    ],
                    [
                        [
                            1.6481055448663833,
                            0.6586261780987055,
                            -1.5524749797900823
                        ],
                        [
                            0.8954310969519104,
                            0.6031523797393724,
                            0.8042509971880474
                        ],
                        [
                            -0.2627783487951162,
                            -1.3882604180584595,
                            -1.18969655808904
                        ]
                    ]
                ],
                [
                    [
                        [
                            -0.7552385428441086,
                            -0.30889921930095116,
                            -0.8717888823748209
                        ],
                        [
                            0.9706193930723437,
                            -0.7829759387122357,
                            0.681088259491611
                        ],
                        [
                            -1.0717866328799373,
                            0.26723041374075807,
                            0.6462933846120007
                        ]
                    ],
                    [
                        [
                            0.6092276437171908,
                            1.3276460412362456,
                            2.0119426835345204
                        ],
                        [
                            0.45592094631844643,
                            0.015063239538286421,
                            -0.8716713664280696
                        ],
                        [
                            0.7940468573271395,
                            0.20571309259861725,
                            1.1469524099273591
                        ]
                    ],
                    [
                        [
                            -1.1548887063801285,
                            -1.695059395839208,
                            0.6714466957369952
                        ],
                        [
                            -1.2045224042530343,
                            -0.7089003809381922,
                            1.692709091948418
                        ],
                        [
                            -0.2848838549887107,
                            0.6301631890098418,
                            -0.95588950089577
                        ]
                    ],
                    [
                        [
                            0.1751995397250226,
                            -0.160657522349327,
                            1.354578578780413
                        ],
                        [
                            0.6304394745149873,
                            0.6651228354264895,
                            1.7029891574586882
                        ],
                        [
                            -0.3447948204634612,
                            -2.039404798513124,
                            0.07030821886545242
                        ]
                    ],
                    [
                        [
                            0.8101804286592107,
                            -0.47505141189594896,
                            -1.2396758958130174
                        ],
                        [
                            -1.328533375955264,
                            -0.7656500276945218,
                            -1.092590419912649
                        ],
                        [
                            -1.5293500239105127,
                            1.0639355464774354,
                            -1.9918618062252431
                        ]
                    ],
                    [
                        [
                            -0.7659296159359504,
                            -0.26858999688755425,
                            -1.931103201177818
                        ],
                        [
                            -2.155544660645198,
                            -1.1114704490055745,
                            -0.5080149468144529
                        ],
                        [
                            0.8704960442186906,
                            0.524059529957817,
                            2.167588070150463
                        ]
                    ],
                    [
                        [
                            0.047569455510116515,
                            -0.46318379873390225,
                            -0.9015878445823406
                        ],
                        [
                            -0.963786550393559,
                            -1.1404092934949277,
                            -1.053523029306693
                        ],
                        [
                            -0.0992374429910231,
                            -0.2950429936629766,
                            -1.5237549889792146
                        ]
                    ],
                    [
                        [
                            -1.2936232442777502,
                            0.22943808340187052,
                            0.33784710481305974
                        ],
                        [
                            2.1400116109239304,
                            -0.10101220746348044,
                            -0.5887703734992649
                        ],
                        [
                            1.400104682976948,
                            1.2152567577373774,
                            0.966923751670782
                        ]
                    ]
                ],
                [
                    [
                        [
                            0.5022971115101499,
                            2.110012905882567,
                            0.34439965379699206
                        ],
                        [
                            -1.6051382316119867,
                            0.5639655681869211,
                            -0.022809713016662028
                        ],
                        [
                            1.834079237448905,
                            1.3194034658030456,
                            1.180286021982096
                        ]
                    ],
                    [
                        [
                            -1.1329835647588014,
                            0.7970638589570898,
                            0.5799558421368879
                        ],
                        [
                            -1.690896967614953,
                            -0.9250122874481417,
                            -1.0427293131550632
                        ],
                        [
                            1.8940861875325499,
                            -2.0575901981624276,
                            -0.05427679612374339
                        ]
                    ],
                    [
                        [
                            -1.5725505473185117,
                            0.9118521070936652,
                            -1.0470467857374945
                        ],
                        [
                            -0.3623883823529378,
                            1.6176841282612768,
                            -2.2721853072450973
                        ],
                        [
                            0.24222391729395304,
                            -1.1114658877504962,
                            -0.012159337017553465
                        ]
                    ],
                    [
                        [
                            -0.4681693531452946,
                            -0.8376584676016382,
                            1.821853596005067
                        ],
                        [
                            -0.4929009954764985,
                            0.5673441118197287,
                            -0.7090023443343328
                        ],
                        [
                            -0.9851368836280434,
                            1.188200383307475,
                            0.5129978649355369
                        ]
                    ],
                    [
                        [
                            -2.3654209913465767,
                            0.9399455825672545,
                            -0.5747254404305816
                        ],
                        [
                            -3.2543587265918665,
                            -0.29975732488470014,
                            -2.133292004807522
                        ],
                        [
                            2.420057679898913,
                            1.5507761046251485,
                            0.8737619728204902
                        ]
                    ],
                    [
                        [
                            0.2482203332934925,
                            1.0048710364453346,
                            -0.6326354604670339
                        ],
                        [
                            0.22828764371163196,
                            -2.818858102877608,
                            -0.08728363854748683
                        ],
                        [
                            -0.021070754476592332,
                            2.6904615912321024,
                            -0.9551609938010748
                        ]
                    ],
                    [
                        [
                            -0.10753079819828183,
                            -0.9122408131944418,
                            -0.6791601979281111
                        ],
                        [
                            -1.4802514118164718,
                            -0.20665552285708325,
                            0.19984610525219376
                        ],
                        [
                            -2.3563047105056745,
                            0.20690698041185382,
                            1.4528598237892036
                        ]
                    ],
                    [
                        [
                            -0.3052613586187565,
                            1.898011151466262,
                            -1.1534166256505245
                        ],
                        [
                            -1.7321108332117274,
                            -1.0537060205356077,
                            0.6612461485610281
                        ],
                        [
                            -0.4133366474225815,
                            1.0673121455147219,
                            1.5759827704062737
                        ]
                    ]
                ],
                [
                    [
                        [
                            -0.09235948392787821,
                            -1.3827886420951057,
                            0.3988635369362121
                        ],
                        [
                            -2.8729456106170925,
                            0.49023813814563577,
                            0.15087617768212092
                        ],
                        [
                            0.25160095909718794,
                            -0.3775604434844415,
                            0.09265616926862427
                        ]
                    ],
                    [
                        [
                            -0.33165064350404727,
                            0.42156650809004304,
                            -0.5949788130511273
                        ],
                        [
                            0.5797472897797176,
                            -1.6036211277201249,
                            2.9445695554797133
                        ],
                        [
                            0.018620474321245084,
                            0.30072314244459797,
                            -0.9716302379739719
                        ]
                    ],
                    [
                        [
                            2.2636158342623753,
                            0.3341820093215678,
                            -1.5444530619422827
                        ],
                        [
                            0.7486055887819307,
                            0.33737671025507154,
                            -1.4275280583542385
                        ],
                        [
                            -2.1114133536327624,
                            -0.24494126885300016,
                            0.8592023550102053
                        ]
                    ],
                    [
                        [
                            -2.1281936056476463,
                            0.06971698662229954,
                            0.641475420586195
                        ],
                        [
                            0.9183028495025674,
                            1.8181630738956411,
                            -0.00843884782068069
                        ],
                        [
                            0.1908713108907249,
                            0.38506349453729233,
                            -1.2820284949330643
                        ]
                    ],
                    [
                        [
                            1.400715087949014,
                            0.28826716914636774,
                            0.9343150497334032
                        ],
                        [
                            -0.809254254671251,
                            0.2363582236953458,
                            1.2183118287560195
                        ],
                        [
                            0.4804830093529814,
                            -1.6697449791016332,
                            1.9159600310063076
                        ]
                    ],
                    [
                        [
                            2.1189646441585177,
                            0.12732190407145472,
                            0.7471593045454584
                        ],
                        [
                            -0.06718091793489304,
                            -0.14147526441722535,
                            -0.09612312305754239
                        ],
                        [
                            0.5313126201522046,
                            -0.46707892821421304,
                            -0.3306624454796868
                        ]
                    ],
                    [
                        [
                            -0.9161482025838347,
                            -1.678235435348953,
                            -2.1915594353294896
                        ],
                        [
                            1.9645688917363675,
                            1.815783538259352,
                            -3.256864567298677
                        ],
                        [
                            1.526900137769017,
                            0.481093351932242,
                            0.1394173749312846
                        ]
                    ],
                    [
                        [
                            0.12525041694074318,
                            -0.0987243113726274,
                            0.6480254291120326
                        ],
                        [
                            -0.8989684056553149,
                            -0.6871879280050468,
                            0.5449367932352017
                        ],
                        [
                            0.6666023914496875,
                            0.9300363319018468,
                            0.2692789804324428
                        ]
                    ]
                ],
                [
                    [
                        [
                            -0.9518047045789395,
                            -0.7734932467095167,
                            -0.31826943773676275
                        ],
                        [
                            0.10263462564407691,
                            -0.48291572279051054,
                            -1.9547300592060426
                        ],
                        [
                            -0.6057869066720869,
                            2.106863964515234,
                            -0.2596093738242863
                        ]
                    ],
                    [
                        [
                            -0.4489457519679918,
                            -1.9472157195138389,
                            0.24506788863290774
                        ],
                        [
                            0.3701627930270834,
                            0.8197211228494327,
                            2.4894773344162826
                        ],
                        [
                            0.9321746951550751,
                            -0.6064901080547096,
                            1.644537167910208
                        ]
                    ],
                    [
                        [
                            -0.2993919073684226,
                            -1.5732541919879497,
                            -1.1411596574075438
                        ],
                        [
                            1.9834073233344403,
                            0.3991976054564197,
                            0.007775251289036146
                        ],
                        [
                            0.19985947118573646,
                            0.385744225670836,
                            0.6797814644484514
                        ]
                    ],
                    [
                        [
                            2.240255108676797,
                            -0.6392949436126687,
                            -0.19550873864602994
                        ],
                        [
                            -2.200810862872094,
                            0.4927999255077505,
                            0.8764266995951547
                        ],
                        [
                            -0.362800714261988,
                            0.7609118194403552,
                            0.26295425458748245
                        ]
                    ],
                    [
                        [
                            1.1314598217949023,
                            -1.1952200576600687,
                            -1.628756679028011
                        ],
                        [
                            0.12722245399610313,
                            1.3086275075286147,
                            -0.512001809782108
                        ],
                        [
                            0.47852448450537927,
                            0.20536153525797818,
                            0.38459971284722116
                        ]
                    ],
                    [
                        [
                            0.21700958611530521,
                            0.043231942677002255,
                            0.6299449700060449
                        ],
                        [
                            0.7463455376910877,
                            1.0133924634522555,
                            -1.4328091666182403
                        ],
                        [
                            -0.31929447512798903,
                            2.6557729585805214,
                            -1.672411498832239
                        ]
                    ],
                    [
                        [
                            -0.19531499306514186,
                            -0.6041554742950522,
                            1.55689021451802
                        ],
                        [
                            0.5240855568337907,
                            -0.9388357107423653,
                            1.1151272526836298
                        ],
                        [
                            0.3370266260014142,
                            -0.3132032304964048,
                            0.11556993579001132
                        ]
                    ],
                    [
                        [
                            0.021989810519874163,
                            0.2435806793076868,
                            0.432379137991749
                        ],
                        [
                            -0.5435717508713053,
                            0.4463536027089746,
                            -0.9117525504864521
                        ],
                        [
                            -1.3928557067761944,
                            -0.35159981229044357,
                            1.3905554033638028
                        ]
                    ]
                ],
                [
                    [
                        [
                            -2.7718023402257543,
                            -1.0167265707231705,
                            1.0732955522866323
                        ],
                        [
                            1.8788741459599376,
                            1.0422702676765443,
                            -0.10548164625592356
                        ],
                        [
                            0.09610959000111101,
                            2.094972170762333,
                            0.3666183355729544
                        ]
                    ],
                    [
                        [
                            0.08614432161039554,
                            -1.2717836213831601,
                            -0.5386426639950624
                        ],
                        [
                            0.47882435555946923,
                            -0.12075176438995869,
                            -0.37018009358573667
                        ],
                        [
                            1.7838718594763427,
                            -1.7393713200996328,
                            -0.958303032275677
                        ]
                    ],
                    [
                        [
                            -0.0011137784687439006,
                            -0.2443318570260832,
                            -1.1433124398728551
                        ],
                        [
                            0.43358512079731304,
                            -0.9333945887261144,
                            0.5364032623301243
                        ],
                        [
                            -0.9388098027943266,
                            1.763599962895838,
                            -1.4476772561557998
                        ]
                    ],
                    [
                        [
                            -1.368140926823052,
                            -0.5196594754599108,
                            1.1298578847461984
                        ],
                        [
                            2.0729874884465764,
                            -1.5970861738987894,
                            1.2986001622260759
                        ],
                        [
                            -0.16668236499710332,
                            -0.18375770805653985,
                            0.45289221087860837
                        ]
                    ],
                    [
                        [
                            1.4752346095828814,
                            0.31566498431213813,
                            1.4351271078927559
                        ],
                        [
                            1.8339856575829918,
                            1.3196831250015655,
                            1.935685088230021
                        ],
                        [
                            1.1282809016080484,
                            -0.8158724871670262,
                            1.7088947493641302
                        ]
                    ],
                    [
                        [
                            -0.530350718505575,
                            -1.107840243119885,
                            1.017842101910459
                        ],
                        [
                            0.8599320354417231,
                            -0.9257317306784768,
                            2.0731720803143157
                        ],
                        [
                            -0.36692180317588147,
                            0.36963147476830405,
                            1.8182888000070416
                        ]
                    ],
                    [
                        [
                            1.6300747588849236,
                            2.543197257878347,
                            0.871472851844012
                        ],
                        [
                            0.49048177998927167,
                            0.8407354282802892,
                            1.7682489310859926
                        ],
                        [
                            1.1085356323874023,
                            -0.7383259524031034,
                            -0.20119318854615842
                        ]
                    ],
                    [
                        [
                            -1.3757224799130363,
                            -2.5874463165703996,
                            -0.9656313547258973
                        ],
                        [
                            -1.6100586310582856,
                            0.3903485548873855,
                            -0.2038487849809583
                        ],
                        [
                            -0.9695251098754353,
                            0.5888254115500434,
                            -1.0024019722349546
                        ]
                    ]
                ],
                [
                    [
                        [
                            0.9150729591838067,
                            -1.5614988246665713,
                            -0.01083442846918349
                        ],
                        [
                            0.11053245356890148,
                            0.5895755451503145,
                            -1.9379866795050438
                        ],
                        [
                            -1.4953196208884867,
                            -0.6034278276872386,
                            0.6048934524051032
                        ]
                    ],
                    [
                        [
                            -1.3154357382856625,
                            -0.46910918244471933,
                            0.10289402231247603
                        ],
                        [
                            0.19191847423990321,
                            -0.7925674400903571,
                            1.6210143330739764
                        ],
                        [
                            -0.9726789886056894,
                            -0.5406792231371157,
                            -2.257837329604938
                        ]
                    ],
                    [
                        [
                            -0.03347073039530077,
                            1.285174458282528,
                            0.16152667460328
                        ],
                        [
                            2.538697350159985,
                            -0.3508890340011411,
                            0.8384608543606472
                        ],
                        [
                            -0.39330024137311537,
                            1.2382276269442218,
                            0.8490562766719961
                        ]
                    ],
                    [
                        [
                            -2.2102861274913077,
                            -0.8595587348825603,
                            2.384093046442875
                        ],
                        [
                            -1.1605232819225368,
                            0.08053824453640704,
                            0.9884589551768155
                        ],
                        [
                            -0.4748061566152979,
                            2.058291027123161,
                            -0.431999869529603
                        ]
                    ],
                    [
                        [
                            -0.7044162561350065,
                            -1.7896761904655065,
                            1.1760423710321692
                        ],
                        [
                            -0.009168364457710715,
                            -0.17637950483995204,
                            0.5136995644977449
                        ],
                        [
                            -0.28817581288561794,
                            -0.7798107041543096,
                            -1.1325165776645416
                        ]
                    ],
                    [
                        [
                            0.3296186870067853,
                            1.8790989912087361,
                            0.2220957115226037
                        ],
                        [
                            0.30024903101258515,
                            0.5315287747344335,
                            0.3195372249414549
                        ],
                        [
                            1.2096310623476594,
                            -0.8483940442360478,
                            2.0817121625660078
                        ]
                    ],
                    [
                        [
                            1.6745283406222295,
                            0.5746221785547838,
                            -0.3546662962398433
                        ],
                        [
                            1.0745886115891876,
                            0.5001456985221694,
                            0.38458392643555633
                        ],
                        [
                            0.8201782444392569,
                            0.4168587492820097,
                            -0.2671125549230019
                        ]
                    ],
                    [
                        [
                            0.11883579682356724,
                            0.8444428527470788,
                            -1.6378747720923235
                        ],
                        [
                            -1.535488668194412,
                            1.5847932881151192,
                            -1.1396638163107864
                        ],
                        [
                            -1.4195703460945532,
                            0.4878593064066644,
                            1.8620162656566057
                        ]
                    ]
                ],
                [
                    [
                        [
                            0.10129902643792482,
                            -0.7342482794851709,
                            -0.20818648517264343
                        ],
                        [
                            -2.829321926272232,
                            0.4725253552934605,
                            -0.715896499765944
                        ],
                        [
                            0.5603380165597057,
                            -1.3507672261488186,
                            -0.5846505866329996
                        ]
                    ],
                    [
                        [
                            0.6168611095178552,
                            -0.4197464804379559,
                            0.8755974615268196
                        ],
                        [
                            -0.7109876199866545,
                            0.621962205998389,
                            0.9836592070689449
                        ],
                        [
                            -0.7671743650353362,
                            -2.8616202845367567,
                            0.46288999687882787
                        ]
                    ],
                    [
                        [
                            0.7370120737433578,
                            -2.247032876840913,
                            1.0260172981147189
                        ],
                        [
                            0.08940183474189073,
                            -0.9772738150527477,
                            -1.3430181069762372
                        ],
                        [
                            -0.06939977298351124,
                            1.0921543336469586,
                            0.8204486551158436
                        ]
                    ],
                    [
                        [
                            1.1667421252784038,
                            -0.9713619759734585,
                            1.8144411000931577
                        ],
                        [
                            2.740087214877287,
                            -1.8457541746745214,
                            1.167716546080659
                        ],
                        [
                            1.1530038011703951,
                            0.530596156383326,
                            -0.33132897995219796
                        ]
                    ],
                    [
                        [
                            2.2861349494553305,
                            -0.27858501155015203,
                            1.4081841773894896
                        ],
                        [
                            -0.47296816391444746,
                            0.6013137437805756,
                            -0.07892088392613257
                        ],
                        [
                            -0.9113570324565748,
                            -0.7754406826846005,
                            1.5448162244405192
                        ]
                    ],
                    [
                        [
                            1.2877675419152728,
                            -0.05217332066799302,
                            -0.1295010796605859
                        ],
                        [
                            -0.665803792251071,
                            -0.5594280833144795,
                            0.605302061187596
                        ],
                        [
                            -0.6591514426365339,
                            0.07610069526772617,
                            1.856301649422003
                        ]
                    ],
                    [
                        [
                            1.1681725429301755,
                            -0.5410734425620745,
                            1.3162356730581655
                        ],
                        [
                            2.1532431819962987,
                            -0.10897101773073213,
                            0.8331774347783532
                        ],
                        [
                            -1.9834810222535428,
                            -0.8375024192186129,
                            -1.235910875017575
                        ]
                    ],
                    [
                        [
                            2.115022735972133,
                            0.1591192132243702,
                            -2.614850194569068
                        ],
                        [
                            -1.1695787264235427,
                            -2.092325161819148,
                            -1.4338932407453093
                        ],
                        [
                            0.5102930457599989,
                            -1.804075770087626,
                            3.01129787819059
                        ]
                    ]
                ],
                [
                    [
                        [
                            -1.3558022892718347,
                            0.8316167410259864,
                            -0.11520951369036822
                        ],
                        [
                            -0.4455336728657783,
                            -0.16684289240140668,
                            0.21177285227011652
                        ],
                        [
                            -0.17130020670439183,
                            -1.6579112738453874,
                            0.08074883526599795
                        ]
                    ],
                    [
                        [
                            1.0411557537869451,
                            0.5114604330230075,
                            -0.2580380143667749
                        ],
                        [
                            0.026316755666280722,
                            -0.6492141508428734,
                            -0.33634507769597555
                        ],
                        [
                            -1.441618572563365,
                            1.3711415841655232,
                            -0.8613387879663984
                        ]
                    ],
                    [
                        [
                            -0.2955986556690967,
                            0.02014221307121855,
                            2.5037707196483705
                        ],
                        [
                            0.5791320402354877,
                            -0.6060871959756077,
                            0.023829651996836357
                        ],
                        [
                            -1.1706585686712754,
                            -1.254508187280418,
                            -0.8197269082220402
                        ]
                    ],
                    [
                        [
                            -0.35297566866161695,
                            1.1501012657384322,
                            0.3842416124690491
                        ],
                        [
                            0.4630809103110109,
                            1.0843576152730654,
                            0.25873290113893443
                        ],
                        [
                            0.6226754889840785,
                            0.7922557955456113,
                            -0.39554847832612494
                        ]
                    ],
                    [
                        [
                            0.8224098881898606,
                            -0.26593713786145134,
                            1.0810518067252364
                        ],
                        [
                            -0.4674747178629752,
                            -0.11531461427724626,
                            -0.9535228009714011
                        ],
                        [
                            0.10745424709407059,
                            0.6965977794592694,
                            -0.8619595715482545
                        ]
                    ],
                    [
                        [
                            -0.8251206348947533,
                            0.20293287537910515,
                            1.1199476983219703
                        ],
                        [
                            1.3460608486033978,
                            -0.7370126636327531,
                            0.21825108039811345
                        ],
                        [
                            0.4045288542191613,
                            -0.5009446288831338,
                            0.5956330401265049
                        ]
                    ],
                    [
                        [
                            0.5255354997558683,
                            0.2377387419362792,
                            0.9685437732192785
                        ],
                        [
                            -0.1861442044497217,
                            0.5086014410060502,
                            -0.9165578953266648
                        ],
                        [
                            2.33767473136491,
                            0.3040594009734692,
                            -1.6926190183043475
                        ]
                    ],
                    [
                        [
                            0.4343900524790798,
                            -1.6194053856739763,
                            1.5306020106244793
                        ],
                        [
                            1.3776469915467318,
                            -0.81777550619415,
                            -2.0274183646793227
                        ],
                        [
                            2.6567932711097764,
                            0.6214452557606307,
                            -1.3566797995979818
                        ]
                    ]
                ],
                [
                    [
                        [
                            0.25727546316949895,
                            1.5626287228220503,
                            0.26873314553691346
                        ],
                        [
                            1.5251038922537428,
                            -0.22514221490883138,
                            2.0175182320119003
                        ],
                        [
                            -0.6281865687606946,
                            0.2670277499332782,
                            -0.3458494432398379
                        ]
                    ],
                    [
                        [
                            -1.0484432030790782,
                            -0.5654734592631641,
                            -2.6752230375552855
                        ],
                        [
                            0.20993389766703294,
                            1.6770644687410385,
                            -2.5785195649188375
                        ],
                        [
                            1.671577872440971,
                            -1.932888687733433,
                            -0.9111744199578565
                        ]
                    ],
                    [
                        [
                            -0.1166062577363989,
                            1.408948305232466,
                            -2.620803704281494
                        ],
                        [
                            -0.3720645173097248,
                            0.764754294469953,
                            0.36733042998730464
                        ],
                        [
                            -0.1879658535000789,
                            -0.22091593111986219,
                            -0.9724497860857642
                        ]
                    ],
                    [
                        [
                            -0.5491347165427115,
                            -0.5791250312729507,
                            -0.013172759716476037
                        ],
                        [
                            -1.342819954098708,
                            0.10849773252754179,
                            1.0163412338052307
                        ],
                        [
                            -0.1718557085388988,
                            0.2877745531367204,
                            -0.6196980581421282
                        ]
                    ],
                    [
                        [
                            -0.7503792599135319,
                            0.9097965045645153,
                            -1.1677034843554086
                        ],
                        [
                            0.8342211331893883,
                            -2.6978344439355437,
                            -0.4819569747882765
                        ],
                        [
                            -0.9677033662015185,
                            0.12244586090531534,
                            0.9393289282146158
                        ]
                    ],
                    [
                        [
                            -0.2209825119616914,
                            1.1672366837181127,
                            1.2385786676312738
                        ],
                        [
                            0.5477324219454209,
                            -1.0942842539518935,
                            0.1515356548652713
                        ],
                        [
                            2.1161602252075777,
                            0.01290581831192171,
                            1.6016107458172235
                        ]
                    ],
                    [
                        [
                            -0.11820313761641868,
                            0.6709452555429821,
                            0.5835387746806131
                        ],
                        [
                            -1.6342568156768253,
                            1.14832181178239,
                            -2.745783718344258
                        ],
                        [
                            0.2157797387780877,
                            -0.7599154111779169,
                            0.03155927705011649
                        ]
                    ],
                    [
                        [
                            -1.6290710850322494,
                            0.08735705478924286,
                            -0.9953301742655383
                        ],
                        [
                            -1.3733169952384552,
                            -0.6565456942279913,
                            -2.502155706931834
                        ],
                        [
                            -2.0763898877820606,
                            1.6415142992916645,
                            0.9495441576021184
                        ]
                    ]
                ],
                [
                    [
                        [
                            1.9494536272448553,
                            0.5646899080407195,
                            -2.0015087884767855
                        ],
                        [
                            3.027702343164534,
                            -1.752647065306308,
                            -0.15472966258718204
                        ],
                        [
                            0.09432840708479856,
                            -0.3027601017515587,
                            -0.37950010168620874
                        ]
                    ],
                    [
                        [
                            2.2318563776378726,
                            0.024592151898124942,
                            -0.475096861084603
                        ],
                        [
                            -1.294684807402741,
                            1.3178384764227495,
                            -1.8940408685737886
                        ],
                        [
                            -1.6222937721801953,
                            -1.0373920653530129,
                            -0.3461986610253437
                        ]
                    ],
                    [
                        [
                            0.8062403782382974,
                            0.7899625208931176,
                            -0.7922043730501952
                        ],
                        [
                            -0.711388344835834,
                            1.0505340388938715,
                            1.1616161958455797
                        ],
                        [
                            0.4314798880683347,
                            1.468282344420153,
                            1.1783823320874216
                        ]
                    ],
                    [
                        [
                            1.5333972206062416,
                            1.2482203884553515,
                            -0.21696803164765321
                        ],
                        [
                            -1.6509196879031602,
                            -0.18859215080879188,
                            0.25613799688938743
                        ],
                        [
                            -0.7173618666030083,
                            0.08367318238795024,
                            0.42471024181240624
                        ]
                    ],
                    [
                        [
                            -1.2003722387116111,
                            -2.0238198439779094,
                            0.2088637768520359
                        ],
                        [
                            -1.652176997219935,
                            0.7927625394244838,
                            -0.509662649909964
                        ],
                        [
                            -1.3066830934535663,
                            -2.540312578512521,
                            0.45218819207311395
                        ]
                    ],
                    [
                        [
                            1.6254899360452029,
                            -0.014925450434576076,
                            -0.36218730354120743
                        ],
                        [
                            -0.377988587384565,
                            0.22093386121025482,
                            -1.3441426990224388
                        ],
                        [
                            2.221762426523318,
                            0.829133711283871,
                            -0.009451873278234046
                        ]
                    ],
                    [
                        [
                            -1.456011499910139,
                            -1.1961077128358837,
                            -0.17525079997645848
                        ],
                        [
                            1.0804898427098304,
                            0.8808771687021074,
                            -1.6562783029987385
                        ],
                        [
                            -1.0575401829811608,
                            3.0049224728967068,
                            -0.312531651580878
                        ]
                    ],
                    [
                        [
                            0.0006611037082596555,
                            -1.1860481108430458,
                            -0.9428221076106248
                        ],
                        [
                            -0.693482949187971,
                            0.25877418495240323,
                            -0.8128091037866555
                        ],
                        [
                            -2.2898234641520787,
                            0.5291556079556777,
                            1.0353393433480764
                        ]
                    ]
                ],
                [
                    [
                        [
                            -0.5690079932868816,
                            1.6694295699825077,
                            1.9683589784385442
                        ],
                        [
                            0.8401567786935805,
                            -2.2149636195534907,
                            0.20648229266651
                        ],
                        [
                            -2.4561069207040154,
                            1.0585800127864322,
                            -0.09204638387614503
                        ]
                    ],
                    [
                        [
                            2.0285191426471703,
                            0.0688732421161558,
                            0.10302536303072855
                        ],
                        [
                            -0.5072250935559208,
                            3.1304606922881573,
                            -0.002637992993495618
                        ],
                        [
                            0.33027358273550267,
                            -0.6527119584811532,
                            -1.7009766368682917
                        ]
                    ],
                    [
                        [
                            -1.3839077166313742,
                            0.09203136703693557,
                            1.781958324555724
                        ],
                        [
                            -1.7434872838092754,
                            -1.9013429930111623,
                            1.3581990422032075
                        ],
                        [
                            -0.07958570206594882,
                            -1.6103168441407838,
                            1.0544677392632178
                        ]
                    ],
                    [
                        [
                            0.9944079443133736,
                            2.89153168934573,
                            -1.0922992244138507
                        ],
                        [
                            -1.0436423827632562,
                            -1.4967865519624333,
                            0.27759417456824476
                        ],
                        [
                            -1.6439628296552828,
                            2.601710806075929,
                            -0.9549243158859445
                        ]
                    ],
                    [
                        [
                            2.061261919989074,
                            -0.46377276987886906,
                            1.388384040910791
                        ],
                        [
                            0.2513866147712875,
                            0.6463723570301922,
                            0.004782411060415465
                        ],
                        [
                            -0.6003293502002021,
                            -2.5770906917498047,
                            1.228588393621156
                        ]
                    ],
                    [
                        [
                            0.3567915051244718,
                            -0.6888035186377132,
                            0.2285675491447009
                        ],
                        [
                            0.5811035206047426,
                            -0.1391040890319601,
                            0.9705055704776865
                        ],
                        [
                            -0.4800277606149244,
                            0.4976087161331585,
                            1.636016861276657
                        ]
                    ],
                    [
                        [
                            -1.1809179320221812,
                            -0.872707556132073,
                            -1.2371851159761873
                        ],
                        [
                            1.5892658885078186,
                            -0.6242960638380044,
                            0.9327579585721161
                        ],
                        [
                            0.1174206580777617,
                            -2.149871864158582,
                            -0.7928325001726427
                        ]
                    ],
                    [
                        [
                            0.612467412406047,
                            0.35557667564756434,
                            2.4965818117310032
                        ],
                        [
                            -0.16309690525390302,
                            -2.2313383333841372,
                            -0.6266517730830556
                        ],
                        [
                            -1.3284741204170212,
                            -0.28205224052212985,
                            -0.4486149284005055
                        ]
                    ]
                ],
                [
                    [
                        [
                            0.5563440141916213,
                            -1.3221261285374235,
                            -0.09096944255638467
                        ],
                        [
                            0.6199913969315629,
                            1.4772282216657315,
                            -0.7366425164701644
                        ],
                        [
                            1.926712018575131,
                            0.14715490237350298,
                            1.6296412515878542
                        ]
                    ],
                    [
                        [
                            0.38313140974529397,
                            -1.1962781151666961,
                            1.0249330985130851
                        ],
                        [
                            -0.7420786563311905,
                            0.6154156572564387,
                            0.0025258619519293035
                        ],
                        [
                            -0.3717672921787162,
                            0.3284916870054053,
                            -3.651642467585443
                        ]
                    ],
                    [
                        [
                            -2.5704349746152824,
                            0.9338587189663845,
                            0.29856487159590617
                        ],
                        [
                            2.3107152718424917,
                            -0.15413269407259533,
                            1.2438230428544153
                        ],
                        [
                            0.5745286561270189,
                            0.693525283542654,
                            0.18735354004344493
                        ]
                    ],
                    [
                        [
                            -1.3541612816287625,
                            0.39047550448811985,
                            1.0936571207720172
                        ],
                        [
                            -0.19973276124464287,
                            1.7941705816407827,
                            1.126527602358187
                        ],
                        [
                            -1.0227604555098389,
                            1.6314484156564544,
                            -1.3165077138047347
                        ]
                    ],
                    [
                        [
                            -1.1721345418552964,
                            0.9918558435547644,
                            0.40052302195853207
                        ],
                        [
                            -0.31056617547432835,
                            0.9812024394209574,
                            1.1192959520906856
                        ],
                        [
                            0.5880877898688168,
                            -0.5388142223144065,
                            0.2904554801678696
                        ]
                    ],
                    [
                        [
                            -1.834688601282938,
                            -3.925258042421175,
                            -0.8283391727729466
                        ],
                        [
                            0.1574655075231825,
                            1.0118454873917289,
                            -0.12271852067802233
                        ],
                        [
                            3.162603635011635,
                            -1.1809615892894412,
                            0.5711021820714286
                        ]
                    ],
                    [
                        [
                            0.5512930366686088,
                            1.992539674377086,
                            -0.5300118441314698
                        ],
                        [
                            -1.210627692744755,
                            -0.7174474564346531,
                            -2.0073604413448596
                        ],
                        [
                            -0.345135127657595,
                            1.805992830881554,
                            -1.9056630992789103
                        ]
                    ],
                    [
                        [
                            -0.6505610709035504,
                            1.3871277738724612,
                            0.5165907277050599
                        ],
                        [
                            0.9159340274771953,
                            0.2216570485267612,
                            -1.328769292639891
                        ],
                        [
                            1.4325359755699711,
                            1.8055935432073935,
                            -0.6840255593125701
                        ]
                    ]
                ],
                [
                    [
                        [
                            0.678208147848178,
                            -1.0069923756180525,
                            -1.3119986777704222
                        ],
                        [
                            1.4120622170014807,
                            0.8393555793199862,
                            -1.720333041049086
                        ],
                        [
                            -0.20565112333690397,
                            0.2509531536322348,
                            0.8996080595620584
                        ]
                    ],
                    [
                        [
                            -2.034128265757809,
                            1.845909985648207,
                            -0.18792512192536923
                        ],
                        [
                            0.4287261933246867,
                            -0.027411863130570077,
                            0.9181681441260817
                        ],
                        [
                            0.7040477890488218,
                            -0.7371527004931681,
                            2.3391827135017165
                        ]
                    ],
                    [
                        [
                            -0.37842488365130633,
                            3.617850544373381,
                            0.851826924585471
                        ],
                        [
                            0.8904400884734711,
                            1.1590905324983136,
                            -0.5435429755117217
                        ],
                        [
                            3.2357518945123025,
                            1.1963524106623173,
                            -1.0721220868893786
                        ]
                    ],
                    [
                        [
                            -0.2617278712677379,
                            -1.0566066565962455,
                            1.1278748086176194
                        ],
                        [
                            2.865813024182003,
                            0.7843125925235559,
                            -2.612022239367455
                        ],
                        [
                            -1.1551949500880412,
                            2.9452402692748856,
                            -1.1078700175837277
                        ]
                    ],
                    [
                        [
                            -1.5017954982881792,
                            -0.8799951241166032,
                            -0.6293348904389011
                        ],
                        [
                            -0.13590261465655118,
                            -1.5740987382138867,
                            0.44379654202271424
                        ],
                        [
                            0.9106711116434293,
                            -1.382447285561505,
                            0.8819490758521836
                        ]
                    ],
                    [
                        [
                            1.505580628405364,
                            1.071668859612802,
                            -1.375947537732083
                        ],
                        [
                            1.3760227034082355,
                            -0.46735827718358613,
                            0.6488740064090416
                        ],
                        [
                            0.23379468065494005,
                            -2.049904557282664,
                            -0.1461680819031724
                        ]
                    ],
                    [
                        [
                            -0.6807303440062002,
                            -0.44936711507465243,
                            0.44658356089012574
                        ],
                        [
                            -0.08822398411335608,
                            -1.1262826119856446,
                            -0.43233860339239927
                        ],
                        [
                            -0.4747578317137137,
                            1.2000437347400685,
                            -0.8366686901017858
                        ]
                    ],
                    [
                        [
                            -1.2549008261160945,
                            -0.774856357556908,
                            0.3042498326576314
                        ],
                        [
                            -0.24101005090082997,
                            1.9326398242215277,
                            0.5296035549056157
                        ],
                        [
                            -1.7394323951081825,
                            -1.6431488347515038,
                            1.1931541003843702
                        ]
                    ]
                ],
                [
                    [
                        [
                            -1.7183806682596234,
                            1.4249476291023604,
                            1.231667533416055
                        ],
                        [
                            -0.3621594235559954,
                            -2.356627470890728,
                            0.4799242800626179
                        ],
                        [
                            0.3912689944173287,
                            -0.47755627640186404,
                            1.1684328598510083
                        ]
                    ],
                    [
                        [
                            -3.718604321580336,
                            0.34905988818535605,
                            1.480992252354976
                        ],
                        [
                            1.1890166144618424,
                            -0.49360218906361997,
                            -0.9181586794047549
                        ],
                        [
                            -1.5494679766698556,
                            0.9146953660459011,
                            -0.2230892523099615
                        ]
                    ],
                    [
                        [
                            -0.865050434806687,
                            -1.0403657399443798,
                            1.4763061380826266
                        ],
                        [
                            1.217422531484857,
                            -0.187824536573504,
                            0.9757894459436673
                        ],
                        [
                            1.2278358332576031,
                            -0.5560789973862732,
                            -3.9218993637145387
                        ]
                    ],
                    [
                        [
                            0.5299250954023171,
                            -0.2778711655124968,
                            -1.3751510912032718
                        ],
                        [
                            -0.11540657591234403,
                            0.6972847005957862,
                            1.2484496730406651
                        ],
                        [
                            2.289303119526753,
                            -1.2570921042683367,
                            -1.4981349015933483
                        ]
                    ],
                    [
                        [
                            -1.0813966769083934,
                            1.0256826324090837,
                            -0.730437925453493
                        ],
                        [
                            0.45474406238525256,
                            0.43498555093189983,
                            0.71187379369215
                        ],
                        [
                            0.43047624840532756,
                            1.1845225853724757,
                            0.2294751135079316
                        ]
                    ],
                    [
                        [
                            -2.2465567530182704,
                            0.2812007721913589,
                            0.3143640047721019
                        ],
                        [
                            -0.8462176758449694,
                            -0.023921927432002416,
                            -1.454188507315016
                        ],
                        [
                            0.5439441739267294,
                            -0.1441377076100729,
                            -2.8359575728381836
                        ]
                    ],
                    [
                        [
                            0.8594050852683697,
                            1.5508950815556577,
                            2.371820365567314
                        ],
                        [
                            0.3566801871937609,
                            -0.7992548005927556,
                            1.688761521043315
                        ],
                        [
                            -0.5873274575419021,
                            1.4854830787972464,
                            -1.346310189505354
                        ]
                    ],
                    [
                        [
                            0.9872586600029383,
                            -2.8631398718322165,
                            -2.6847198889581314
                        ],
                        [
                            1.6883436698806937,
                            2.13514501675731,
                            -0.7605954458946584
                        ],
                        [
                            -0.44438840911000393,
                            1.5631292233900096,
                            -1.6398141353860038
                        ]
                    ]
                ],
                [
                    [
                        [
                            0.018279038553539607,
                            1.4363935204184246,
                            -1.1422556591438116
                        ],
                        [
                            0.5892076414011604,
                            -0.6264220070514988,
                            0.9099160416348681
                        ],
                        [
                            -0.09935824325876641,
                            -0.1685592684389342,
                            0.3257299253107405
                        ]
                    ],
                    [
                        [
                            0.5425539675023167,
                            1.3809911986378127,
                            -1.5869596096342957
                        ],
                        [
                            0.13231187747775863,
                            0.035826768090199364,
                            2.6185814579207483
                        ],
                        [
                            -2.357672429568356,
                            -0.01802116561125365,
                            1.3722719918556412
                        ]
                    ],
                    [
                        [
                            -0.023145289796240587,
