{
    "cnn_layers": [
        {
            "type": "conv",
            "filters": 8,
            "kernel_size": 3,
            "stride": 1,
            "activation": "relu",
            "weights": [
                [
                    [
                        [
                            -0.37784969121465406,
                            -0.15369626400694297,
                            0.8372885524344127
                        ],
                        [
                            -1.1164334926211437,
                            -1.22774963930583,
                            -0.644688600521741
                        ],
                        [
                            -0.3268363987709777,
                            -0.6400716781473279,
                            -1.1682074287716975
                        ]
                    ]
                ],
                [
                    [
                        [
                            2.394149440867425,
                            0.8590151452788157,
                            0.21724551446960744
                        ],
                        [
                            0.9240244628390535,
                            -0.16940555080589165,
                            -1.7004725841989003
                        ],
                        [
                            1.2167406580969962,
                            -0.7325181000612189,
                            0.20299769393742248
                        ]
                    ]
                ],
                [
                    [
                        [
                            1.2858343794985165,
                            -0.21357913700797124,
                            0.04724109488181505
                        ],
                        [
                            -1.2363839772545218,
                            0.7025255180307458,
                            0.38097619472835015
                        ],
                        [
                            -0.7046315775514941,
                            -1.1586430265271395,
                            0.362281595096676
                        ]
                    ]
                ],
                [
                    [
                        [
                            -0.5331639608975955,
                            0.7430005067979749,
                            2.3599374746493256
                        ],
                        [
                            -0.5258414220284238,
                            -0.7804196964596148,
                            -1.7748441827465937
                        ],
                        [
                            0.6413894518214507,
                            1.246169611713379,
                            2.128824254225611
                        ]
                    ]
                ],
                [
                    [
                        [
                            -0.09840851353550037,
                            -0.5375748314747494,
                            1.9966857080768663
                        ],
                        [
                            -0.39427503778518264,
                            0.4644030734602068,
                            -0.9402351304951702
                        ],
                        [
                            0.0869307467220168,
                            -0.012371624545515603,
                            -0.07525289465279625
                        ]
                    ]
                ],
                [
                    [
                        [
                            -0.07151344514260026,
                            -0.23233497712076562,
                            1.9035164015013295
                        ],
                        [
                            -1.106241380534153,
                            -1.356769755779713,
                            -0.9862867483837409
                        ],
                        [
                            0.25623832875567054,
                            -1.0320593272649226,
                            -1.1154071621727801
                        ]
                    ]
                ],
                [
                    [
                        [
                            -0.6264907171338439,
                            -0.2835395003280223,
                            -1.282107029771338
                        ],
                        [
                            0.5574540639171482,
                            0.725220736831864,
                            1.697842530004069
                        ],
                        [
                            0.9358358657768555,
                            -0.1346161431466967,
                            0.7391239699302079
                        ]
                    ]
                ],
                [
                    [
                        [
                            0.7378652826849789,
                            -0.44817346476336395,
                            0.15929009578520345
                        ],
                        [
                            0.0001702311933415579,
                            -1.3277760816263557,
                            0.5626249816138598
                        ],
                        [
                            -0.01479657734381054,
                            0.06351490724358655,
                            -0.36967172485750444
                        ]
                    ]
                ]
            ],
            "biases": [
                -0.1588586511459376,
                0.6405477679249201,
                0.06861669179362931,
                0.20637405804148418,
                0.3700548679961008,
                -0.07971339710181286,
                -0.6991307019682145,
                -0.026222984164484056
            ]
        },
        {
            "type": "pool",
            "size": 2,
            "stride": 2,
            "pool_type": "avg"
        },
        {
            "type": "conv",
            "filters": 64,
            "kernel_size": 3,
            "stride": 1,
            "activation": "sigmoid",
            "weights": [
                [
                    [
                        [
                            0.2689939430322808,
                            -1.3543366930679002,
                            -1.3063802949360315
                        ],
                        [
                            -0.29040661432834713,
                            -0.009593436842233238,
                            1.1347020244281447
                        ],
                        [
                            -1.3263019377057774,
                            1.3542726828502556,
                            0.5772476124837947
                        ]
                    ],
                    [
                        [
                            -0.6205393559382899,
                            -1.4958240046504758,
                            -0.025924439449955095
                        ],
                        [
                            -1.382544549972932,
                            -1.5741870483969662,
                            -0.2667608544762803
                        ],
                        [
                            -0.011018614765840956,
                            -0.45203611648542613,
                            0.3487232317788812
                        ]
                    ],
                    [
                        [
                            1.328240251912043,
                            -0.23447728903349474,
                            -0.2641468898257382
                        ],
                        [
                            -2.0004323496101684,
                            -0.9697138666902905,
                            0.8199140075869056
                        ],
                        [
                            0.3577285944444004,
                            -1.2384682129448115,
                            -1.150486711074504
                        ]
                    ],
                    [
                        [
                            -1.1026153272470878,
                            -0.41315394430265096,
                            -0.588412886061447
                        ],
                        [
                            0.2673576575407988,
                            0.40218179618699573,
                            0.25529252445264405
                        ],
                        [
                            -0.058349367983694604,
                            -1.3071842336138277,
                            0.5009791300948714
                        ]
                    ],
                    [
                        [
                            -0.19145357895416001,
                            -0.11171951946072818,
                            0.5884608526715425
                        ],
                        [
                            0.8890863678181763,
                            0.544394878800438,
                            -0.061026335315888386
                        ],
                        [
                            0.824590642042778,
                            -0.47333144575304986,
                            -1.0938444259815514
                        ]
                    ],
                    [
                        [
                            0.523770399584919,
                            -0.3364682929102689,
                            -0.11089190932505605
                        ],
                        [
                            1.3798659305772107,
                            -0.7341275918160857,
                            -0.20220255834247608
                        ],
                        [
                            -1.6165758416967737,
                            0.9363605782816112,
                            -1.3395811589571796
                        ]
                    ],
                    [
                        [
                            -1.090262093825181,
                            0.032320552337169586,
                            -0.7902495886692101
                        ],
                        [
                            -2.3155573764861006,
                            0.07249595393830821,
                            1.1225997902195994
                        ],
                        [
                            0.25015870603328777,
                            0.37586468792506844,
                            0.6489161648981296
                        ]
                    ],
                    [
                        [
                            -0.9004834333582881,
                            0.7966009349469484,
                            -1.956985789832869
                        ],
                        [
                            0.29053726953413717,
                            -0.0711673165076332,
                            -0.32775197663751793
                        ],
                        [
                            -0.05472604887751274,
                            1.9614239613852513,
                            1.7930498680595888
                        ]
                    ]
                ],
                [
                    [
                        [
                            -0.6470041749940619,
                            -0.042765107949144066,
                            1.194755005513147
                        ],
                        [
                            -0.6569318275774201,
                            -0.32434245521788735,
                            -0.3165495942888909
                        ],
                        [
                            0.9939504099664098,
                            1.6652968650001885,
                            -0.3303105554872159
                        ]
                    ],
                    [
                        [
                            0.03441627732733471,
                            -0.022916656061106655,
                            -1.2906973188047586
                        ],
                        [
                            -0.16306574810714972,
                            -0.02876522088693713,
                            -0.6697186093084533
                        ],
                        [
                            1.7725556041572008,
                            0.139505522620748,
                            0.24771328453589303
                        ]
                    ],
                    [
                        [
                            1.46330850411992,
                            -0.6712161214881662,
                            -1.5196784934431007
                        ],
                        [
                            0.2151901108967931,
                            -0.47521066497304715,
                            -0.06726380724049368
                        ],
                        [
                            1.8204432383069056,
                            -0.5516043849404527,
                            0.8661448592863471
                        ]
                    ],
                    [
                        [
                            -0.6290000783244136,
                            0.5282587158626239,
                            0.89286176094077
                        ],
                        [
                            -0.522753950468087,
                            0.09793117224182113,
                            -1.3190462214729857
                        ],
                        [
                            0.35932054973675603,
                            -1.0552792105085946,
                            0.12839481173852357
                        ]
                    ],
                    [
                        [
                            0.5955743079254112,
                            0.46071908137958034,
                            1.1327928802158507
                        ],
                        [
                            0.7652666983142803,
                            0.5688092632279097,
                            0.2849613155819261
                        ],
                        [
                            0.21262652463515225,
                            -1.190879431273395,
                            1.8150151271791346
                        ]
                    ],
                    [
                        [
                            0.4343227028954685,
                            0.5390619519382674,
                            -0.18474986209515926
                        ],
                        [
                            -0.25806077999921323,
                            -0.10985909262052136,
                            -0.5297696709390185
                        ],
                        [
                            0.7759852710518548,
                            0.7557140272510374,
                            -0.8345490124475936
                        ]
                    ],
                    [
                        [
                            -0.2693689748223067,
                            0.7649640572126392,
                            -0.6235620533726398
                        ],
                        [
                            0.9540911844935197,
                            -1.1144802799031712,
                            -1.7184892466456452
                        ],
                        [
                            1.1759108810896384,
                            0.775617629135317,
                            -1.9320285131401858
                        ]
                    ],
                    [
                        [
                            1.4364947152258203,
                            -0.9776762432729935,
                            -1.6392597349148454
                        ],
                        [
                            1.4036643260607191,
                            2.127149982092902,
                            -0.16606199981901248
                        ],
                        [
                            1.0422924149637622,
                            -0.6920312688920496,
                            -0.4489638917259998
                        ]
                    ]
                ],
                [
                    [
                        [
                            -0.16975888144166654,
                            0.34773108506545447,
                            0.12007975542328347
                        ],
                        [
                            0.16936737752858386,
                            -0.28041444785288083,
                            0.13966878363857055
                        ],
                        [
                            0.643326048646062,
                            -0.22343171475316906,
                            0.8100681724882557
                        ]
                    ],
                    [
                        [
                            -0.522656168059314,
                            -0.350301928585079,
                            -0.5873896048907498
                        ],
                        [
                            1.2385275061364422,
                            -1.011340201758701,
                            0.7195320216779943
                        ],
                        [
                            0.3413505092327512,
                            0.6750299485954185,
                            0.9884967931642594
                        ]
                    ],
                    [
                        [
                            -0.4132503057546937,
                            -0.11892605918970345,
                            0.5816781788536632
                        ],
                        [
                            0.3813416885229958,
                            2.241423109119523,
                            0.11966795272013075
                        ],
                        [
                            1.6342391873314221,
                            -0.2221453619657116,
                            0.48323843477358797
                        ]
                    ],
                    [
                        [
                            0.04658753387793124,
                            -0.15501687048547713,
                            1.2789315332772273
                        ],
                        [
                            -0.9034927307668177,
                            0.6290568403685816,
                            -0.4062509274788436
                        ],
                        [
                            1.0639185005187624,
                            -0.37039014527716085,
                            1.1539543382822215
                        ]
                    ],
                    [
                        [
                            0.5181226875479537,
                            0.36211426501186644,
                            0.018467926903129636
                        ],
                        [
                            1.1440770737105048,
                            -0.620739077362056,
                            0.4000208915455162
                        ],
                        [
                            -1.450860878141794,
                            0.41842696412735064,
                            0.298045099095125
                        ]
                    ],
                    [
                        [
                            -0.03454250956179877,
                            -0.1843105037978174,
                            -0.6585257627551598
                        ],
                        [
                            -0.15086355091775133,
                            1.3616833011441607,
                            -0.2564128954101653
                        ],
                        [
                            -0.8361475179276574,
                            1.0570513663116519,
                            -2.113126805872832
                        ]
                    ],
                    [
                        [
                            0.35310981014019693,
                            0.7055015879493005,
                            0.42414459340325794
                        ],
                        [
                            0.04901495441319802,
                            1.4044078504768867,
                            -2.399568337544375
                        ],
                        [
                            1.1486894088126471,
                            -0.49140017058131436,
                            0.8909868654772632
                        ]
                    ],
                    [
                        [
                            -0.06094931210704516,
                            -0.14505248152736333,
                            -1.0445436444544136
                        ],
                        [
                            0.08906002261100965,
                            1.495470878642653,
                            -0.4857702387147469
                        ],
                        [
                            -0.7792027252081929,
                            -0.5935503394059258,
                            -1.8889818556569953
                        ]
                    ]
                ],
                [
                    [
                        [
                            1.2832098417780178,
                            -0.5218324400440438,
                            0.10009115528923702
                        ],
                        [
                            -0.22363826957111646,
                            0.8283723031285128,
                            1.1116711877596377
                        ],
                        [
                            -0.8820057317787917,
                            0.4493331156542252,
                            -0.4870501009909955
                        ]
                    ],
                    [
                        [
                            -0.7786613464237735,
                            -0.47801256847259754,
                            -0.16075615313068234
                        ],
                        [
                            -1.6756347834427179,
                            -0.5158427233153026,
                            -2.2262963119459074
                        ],
                        [
                            -1.360248040687993,
                            -1.3962572090129193,
                            0.5052637758995763
                        ]
                    ],
                    [
                        [
                            0.5608435776632972,
                            1.7444099334107361,
                            -1.9486394221053833
                        ],
                        [
                            0.337339372379427,
                            0.9380117913270835,
                            -0.39399071906996996
                        ],
                        [
                            0.9050138087890015,
                            -0.25152915985042956,
                            -0.6872938591451182
                        ]
                    ],
                    [
                        [
                            1.6409660068043128,
                            0.6384641907949902,
                            1.499778248755937
                        ],
                        [
                            -0.20207471949337774,
                            0.8329157004598847,
                            0.10516347957236401
                        ],
                        [
                            0.6546400480530268,
                            1.2809319418653424,
                            0.44768573803530154
                        ]
                    ],
                    [
                        [
                            -0.27696874371524216,
                            -0.30544717815496825,
                            -0.3869963343770927
                        ],
                        [
                            0.38294214639972163,
                            0.8066827044989585,
                            -0.4821060622289655
                        ],
                        [
                            -2.445907638394927,
                            -0.3357115541158276,
                            -0.6812417194121935
                        ]
                    ],
                    [
                        [
                            0.750432519616657,
                            2.425131649734847,
                            -0.41344376369365904
                        ],
                        [
                            0.215516389645692,
                            0.7832758393287947,
                            -0.2720460997183161
                        ],
                        [
                            -0.1704579771479858,
                            -0.08096223392957486,
                            0.6924949931813987
                        ]
                    ],
                    [
                        [
                            -0.3318637863663127,
                            -2.3391468598134986,
                            1.5920465249569313
                        ],
                        [
                            1.680307125756634,
                            -0.26911023230548226,
                            0.4666673988580528
                        ],
                        [
                            1.5247269167632678,
                            1.1890271000395685,
                            1.0386984323460835
                        ]
                    ],
                    [
                        [
                            -0.8787325609920993,
                            0.795239453995335,
                            -0.5477723727039329
                        ],
                        [
                            0.8680797592590005,
                            -0.1446506424055376,
                            1.0957520297017527
                        ],
                        [
                            0.39005765006978194,
                            -0.29445340510099594,
                            -1.6373674936572156
                        ]
                    ]
                ],
                [
                    [
                        [
                            -0.44316337939625583,
                            0.403405267061911,
                            -1.2883608969504308
                        ],
                        [
                            0.981966358707813,
                            -0.17236332044027775,
                            1.477303210814276
                        ],
                        [
                            -0.15720602285233848,
                            -0.28844930082096926,
                            0.30494197706919113
                        ]
                    ],
                    [
                        [
                            1.595367647710523,
                            1.3732013127342215,
                            0.08484468807834253
                        ],
                        [
                            0.0038045511589673564,
                            0.6125041538763994,
                            -0.8798737826001843
                        ],
                        [
                            0.12317367604632454,
                            1.2853174790164006,
                            0.5000503543847789
                        ]
                    ],
                    [
                        [
                            -1.5129512110278072,
                            -0.02499184312057242,
                            0.5520637093418483
                        ],
                        [
                            -0.9373005363497553,
                            0.5360706692407746,
                            0.757259884431874
                        ],
                        [
                            0.4385021985558409,
                            -0.7572563642116591,
                            -0.02890032765161696
                        ]
                    ],
                    [
                        [
                            -0.7856147860782826,
                            -0.1368129140386435,
                            0.8690693597293943
                        ],
                        [
                            -0.5257183731372135,
                            0.4630791959567462,
                            0.520654905669945
                        ],
                        [
                            -0.3424913403525242,
                            -1.745133698003147,
                            -0.6708161443172586
                        ]
                    ],
                    [
                        [
                            -0.041800666861287646,
                            -0.6361238287484889,
                            -1.768641983487754
                        ],
                        [
                            -0.877334778412508,
                            -0.44827943194339487,
                            -0.3954266346117096
                        ],
                        [
                            -1.4859119078055112,
                            1.0398752695945468,
                            -1.3139835447152437
                        ]
                    ],
                    [
                        [
                            -0.11461207998647155,
                            -0.5577151638683995,
                            -1.6097169307928667
                        ],
                        [
                            -1.1610492293826709,
                            -0.3796995997644991,
                            -0.5442635061190485
                        ],
                        [
                            1.3431001989816784,
                            1.044841625998297,
                            1.003023025471603
                        ]
                    ],
                    [
                        [
                            -0.12833635765354048,
                            -0.0708226637605976,
                            0.501533305176505
                        ],
                        [
                            -0.39848379180541166,
                            -0.15067472511811292,
                            -0.2574798056466093
                        ],
                        [
                            -0.8457229221181768,
                            1.4126897975335808,
                            -1.2791589361065006
                        ]
                    ],
                    [
                        [
                            -0.8912287835681801,
                            -0.6947635646744005,
                            0.8412412194666197
                        ],
                        [
                            0.6282769731233755,
                            0.5100099860509424,
                            -1.0066443035246726
                        ],
                        [
                            0.43879423173387677,
                            0.7787530905471501,
                            1.2891247427807546
                        ]
                    ]
                ],
                [
                    [
                        [
                            -0.7456163112400543,
                            0.80357216280658,
                            -0.9842729170335063
                        ],
                        [
                            -0.5377820650097641,
                            0.73304846872042,
                            0.6912650409107279
                        ],
                        [
                            1.6759925697397766,
                            0.39968196467085354,
                            -0.39640395963214853
                        ]
                    ],
                    [
                        [
                            -0.44262652595683627,
                            0.12543236571778263,
                            1.0088118862525601
                        ],
                        [
                            0.12789675149623708,
                            -0.34795121498412757,
                            0.236285629363583
                        ],
                        [
                            0.556179715413407,
                            -1.6886435588991486,
                            0.8187031428199909
                        ]
                    ],
                    [
                        [
                            -1.9645433129427634,
                            -0.9360865846341486,
                            -0.16393330401332473
                        ],
                        [
                            0.002770123049839139,
                            1.8346024282882472,
                            -0.42203024515165977
                        ],
                        [
                            -0.16964384765630736,
                            0.17128865053073467,
                            0.16778162066321542
                        ]
                    ],
                    [
                        [
                            -0.008992960701553782,
                            -0.9982881836013134,
                            0.9961344526879805
                        ],
                        [
                            -0.7303164684455835,
                            0.30729780217123454,
                            -0.7107939445661612
                        ],
                        [
                            1.4366881520917136,
                            0.3563491123291641,
                            0.5214464405707997
                        ]
                    ],
                    [
                        [
                            1.1016453160099116,
                            0.340593320957763,
                            -0.26083106570401066
                        ],
                        [
                            -0.7202211285338169,
                            1.333755211005979,
                            -1.1811361177403712
                        ],
                        [
                            0.7888710046097098,
                            1.2305118527236352,
                            0.05826180809491098
                        ]
                    ],
                    [
                        [
                            0.4239028670512244,
                            1.4297818989438713,
                            -0.7492037651365493
                        ],
                        [
                            0.5535454089274354,
                            -1.4709106927239675,
                            -0.21444058619421763
                        ],
                        [
                            -1.009043610600481,
                            0.6921834924749813,
                            -0.06413741791253402
                        ]
                    ],
                    [
                        [
                            0.7838935444344739,
                            -0.309141202820637,
                            -0.902673525154442
                        ],
                        [
                            -0.690135744730975,
                            0.5050874999933623,
                            0.30988339548792465
                        ],
                        [
                            -0.7397373506053293,
                            -0.21800663488111396,
                            -0.37332338466355247
                        ]
                    ],
                    [
                        [
                            -0.06029208825100347,
                            0.7003596352892585,
                            -2.2186204537672563
                        ],
                        [
                            -0.7961295334089488,
                            0.5755686370985482,
                            -0.1560866649210029
                        ],
                        [
                            -1.2155267549244961,
                            0.987446276763762,
                            1.0340252432073818
                        ]
                    ]
                ],
                [
                    [
                        [
                            0.48390176183571953,
                            -0.2208338393933817,
                            -0.5366857861426293
                        ],
                        [
                            0.0876816355665482,
                            -0.4094348786618886,
                            0.4431935509739604
                        ],
                        [
                            -0.18687583919634004,
                            0.2856917487698847,
                            -1.1638906864809198
                        ]
                    ],
                    [
                        [
                            -0.13331640125621527,
                            1.2020774441543791,
                            -0.2577993270433855
                        ],
                        [
                            -0.21784972900200872,
                            -1.3412893215132915,
                            1.910434123227464
                        ],
                        [
                            -1.0126975958013151,
                            0.5262627067475414,
                            -0.09246176998351543
                        ]
                    ],
                    [
                        [
                            2.0146011899799667,
                            0.4982868353998311,
                            -1.0846347370668772
                        ],
                        [
                            0.2856166585033691,
                            0.5788814660283212,
                            -0.5585011390720208
                        ],
                        [
                            -2.3442434745057317,
                            -1.1097790143708215,
                            -0.05352633114667154
                        ]
                    ],
                    [
                        [
                            -1.1490430108417795,
                            -0.16712219130903366,
                            0.6074472243729098
                        ],
                        [
                            1.3745854240087052,
                            0.06182234683229414,
                            -0.0865335187727131
                        ],
                        [
                            0.2421817215801613,
                            -1.2274946775542528,
                            -0.5544085173611568
                        ]
                    ],
                    [
                        [
                            0.4376621401791871,
                            1.2467479311436387,
                            -0.7263031674659283
                        ],
                        [
                            -0.3211368543111023,
                            -0.6013627362169645,
                            0.46744254892831144
                        ],
                        [
                            1.1252796830072307,
                            -0.1383397028771875,
                            0.9655705937824697
                        ]
                    ],
                    [
                        [
                            0.042785791182319025,
                            -0.48867871828005954,
                            -0.31346950982967314
                        ],
                        [
                            0.40014869803721176,
                            0.04047396989880514,
                            0.8029258314765206
                        ],
                        [
                            0.4413451896521838,
                            0.6136103156947904,
                            -0.4964901445715462
                        ]
                    ],
                    [
                        [
                            -0.4717354745251126,
                            -0.6359013151267687,
                            -2.036364801438074
                        ],
                        [
                            0.583072566908509,
                            0.8560157286097013,
                            -2.2020902867536263
                        ],
                        [
                            0.13288193382215346,
                            0.47900918100741124,
                            1.501940927238868
                        ]
                    ],
                    [
                        [
                            -0.7076370320040564,
                            0.5517203622267888,
                            -0.14267603197518572
                        ],
                        [
                            -0.3195457185411043,
                            -0.6233581837632229,
                            0.8951093086186369
                        ],
                        [
                            0.15303754721821689,
                            -0.14345427308380154,
                            0.6363812126166821
                        ]
                    ]
                ],
                [
                    [
                        [
                            -1.1409664199873,
                            -0.027847763833875,
                            -0.21200561442661717
                        ],
                        [
                            0.3120568375729549,
                            -0.09612303947440717,
                            0.2968722945368007
                        ],
                        [
                            0.5679995995451166,
                            1.1506234127023713,
                            -0.2415478272600725
                        ]
                    ],
                    [
                        [
                            -1.6005334047819317,
                            -1.2208465584776782,
                            -0.0484012212592821
                        ],
                        [
                            1.0225957613304346,
                            -0.4617262224364334,
                            -0.23870171503905196
                        ],
                        [
                            0.8313635310734234,
                            -0.6875084519294531,
                            1.383863409653917
                        ]
                    ],
                    [
                        [
                            -0.49137101727175864,
                            -1.426184094747069,
                            -1.7754355451711599
                        ],
                        [
                            0.5898115556643857,
                            0.4294733611457126,
                            0.7179405507853316
                        ],
                        [
                            -0.08806759818691794,
                            0.9669796104865865,
                            0.07799190696723404
                        ]
                    ],
                    [
                        [
                            0.5753689834983093,
                            0.2016214997827647,
                            -1.0658946023914078
                        ],
                        [
                            -0.4656203027222332,
                            0.38434912659631854,
                            -0.41469583778340174
                        ],
                        [
                            -0.12499459742771049,
                            0.6125875782909862,
                            0.512109371516026
                        ]
                    ],
                    [
                        [
                            0.690704169041469,
                            -0.08198830533121534,
                            -1.1534475587001882
                        ],
                        [
                            0.45504995568262774,
                            0.2769592371275065,
                            -0.3964338334797062
                        ],
                        [
                            0.18885126336493585,
                            -0.7129251575216538,
                            0.2008538639024983
                        ]
                    ],
                    [
                        [
                            -0.834754219373739,
                            0.5761006740908501,
                            0.08716905670802268
                        ],
                        [
                            0.10863320039297181,
                            0.7890877086722352,
                            -0.22812720408561896
                        ],
                        [
                            0.8190250700712151,
                            0.6819333756495837,
                            -0.6645525545358715
                        ]
                    ],
                    [
                        [
                            -0.12053732132351472,
                            0.38934006523885434,
                            1.12629294517641
                        ],
                        [
                            1.133157677595905,
                            -1.240125348892361,
                            1.6116115374093758
                        ],
                        [
                            -0.5040183809698758,
                            -0.6486381817388069,
                            -0.9778571629247002
                        ]
                    ],
                    [
                        [
                            0.11384721262410664,
                            0.9298186520329407,
                            0.9603891126436259
                        ],
                        [
                            0.24949174449877268,
                            -0.1091660592123285,
                            -0.41987129446796434
                        ],
                        [
                            -1.3194697451039836,
                            -0.09275283298084033,
                            1.7899219749767348
                        ]
                    ]
                ],
                [
                    [
                        [
                            -0.7362635325340483,
                            -0.17146784522968014,
                            0.1762095337662952
                        ],
                        [
                            0.6482295702927576,
                            0.8087213339868353,
                            0.1273505776535989
                        ],
                        [
                            -0.6253736518683701,
                            1.6847480418766052,
                            0.6383951475033945
                        ]
                    ],
                    [
                        [
                            -0.6038462327798659,
                            -0.5143500866685208,
                            0.1682526601078968
                        ],
                        [
                            -1.0752013087197918,
                            0.6959199590899815,
                            0.15454724866977504
                        ],
                        [
                            0.42621293424584367,
                            -0.37080390968491334,
                            -0.5048287859828233
                        ]
                    ],
                    [
                        [
                            -0.5048588346593971,
                            0.18565300817881192,
                            0.015269183703344152
                        ],
                        [
                            0.6516428693931363,
                            -0.4015527723247885,
                            0.47760576010357664
                        ],
                        [
                            -0.5613436089202328,
                            0.061273599927779906,
                            -0.06479660260820594
                        ]
                    ],
                    [
                        [
                            -1.1127777371076262,
                            0.1520040249880313,
                            1.8309345896359832
                        ],
                        [
                            1.0290301363668537,
                            -1.1448591702236763,
                            0.5392801012372431
                        ],
                        [
                            -0.6928838476962265,
                            -0.015005553499842256,
                            0.34748821434707927
                        ]
                    ],
                    [
                        [
                            0.8395602430337468,
                            0.9586811049236792,
                            0.4165652702077032
                        ],
                        [
                            0.8612953136028862,
                            0.4098153847565263,
                            1.0341618293031158
                        ],
                        [
                            1.6834706034063638,
                            -1.0890845934516848,
                            0.4239581528846694
                        ]
                    ],
                    [
                        [
                            -0.1905339119579728,
                            -0.6183137291769907,
                            0.17765298953671313
                        ],
                        [
                            0.7928171787564554,
                            0.04797716320116793,
                            1.8794420642333804
                        ],
                        [
                            -0.6611706658420978,
                            0.2692327206829363,
                            0.5406915044852972
                        ]
                    ],
                    [
                        [
                            1.2196601744887428,
                            1.922804991412706,
                            0.5771606766954518
                        ],
                        [
                            -0.027371356808785052,
                            0.9683594955525321,
                            0.9525924448273182
                        ],
                        [
                            0.5757008925338984,
                            -0.7019289770114516,
                            -1.71403662204038
                        ]
                    ],
                    [
                        [
                            -1.8591485268385515,
                            0.09378090610227727,
                            0.13816998867029595
                        ],
                        [
                            0.16479156760859465,
                            0.7639413218480962,
                            -0.1887206612026173
                        ],
                        [
                            -1.409395840196421,
                            0.5927701968917061,
                            -2.2963777956055385
                        ]
                    ]
                ],
                [
                    [
                        [
                            1.5236101444171488,
                            -0.8347235653530064,
                            0.04352821022758473
                        ],
                        [
                            -0.5286679660750281,
                            1.432581613022899,
                            -1.268309900978674
                        ],
                        [
                            0.2728445997792975,
                            -0.5394658612751991,
                            0.20805441284373255
                        ]
                    ],
                    [
                        [
                            -1.4273817596673244,
                            -0.8346619703287339,
                            1.0259045362295744
                        ],
                        [
                            0.4454196913751278,
                            -0.5864137905333178,
                            1.4439736452146783
                        ],
                        [
                            -0.5897203708277139,
                            -0.44987593484301114,
                            -0.894896115221528
                        ]
                    ],
                    [
                        [
                            -0.863667159101533,
                            1.7194901511102265,
                            0.4490631023258129
                        ],
                        [
                            0.9351491426644724,
                            -0.795494867123895,
                            1.371316716067073
                        ],
                        [
                            -1.073815680706983,
                            0.2319888218944018,
                            -0.577651406104626
                        ]
                    ],
                    [
                        [
                            -1.2567684630648934,
                            0.2118875894667706,
                            1.4070475307749388
                        ],
                        [
                            -1.4116897861134343,
                            -0.9637923132194582,
                            0.3665699627420305
                        ],
                        [
                            0.0905585845267048,
                            1.2714945341825783,
                            -1.0083560033133885
                        ]
                    ],
                    [
                        [
                            -1.1675688215943547,
                            -1.0178400844681472,
                            1.3369406193597126
                        ],
                        [
                            0.08075458475991634,
                            0.01129332044904094,
                            0.13975988636043218
                        ],
                        [
                            0.4046310444568294,
                            0.3876529698275809,
                            0.6305596774942779
                        ]
                    ],
                    [
                        [
                            -0.44992774063969027,
                            0.9140565552243531,
                            -0.3495317766522372
                        ],
                        [
                            -0.01762787022260176,
                            1.0359714888934837,
                            0.6689480739318278
                        ],
                        [
                            0.2489544184773733,
                            -1.2227813712813882,
                            0.9675771891127212
                        ]
                    ],
                    [
                        [
                            2.2750847304371846,
                            -0.08111028808697023,
                            -1.0780559882533625
                        ],
                        [
                            -0.27188987941295384,
                            -0.06986432900821457,
                            0.1747870592096769
                        ],
                        [
                            0.5129592796030031,
                            0.6494443163940901,
                            -0.22409429754134452
                        ]
                    ],
                    [
                        [
                            0.31130898734191315,
                            0.24577437117177242,
                            -0.9825174092414379
                        ],
                        [
                            -1.8770075892391518,
                            1.0667220894896383,
                            -0.7197267359892557
                        ],
                        [
                            -0.7051523207139352,
                            -0.35488870264865946,
                            1.1723296347740517
                        ]
                    ]
                ],
                [
                    [
                        [
                            0.1910185507014217,
                            -0.7622287233363911,
                            -0.6899718391895678
                        ],
                        [
                            -0.6093580003620694,
                            0.24669154808591798,
                            -0.605270635798902
                        ],
                        [
                            0.30178856491338457,
                            -1.5038736191876754,
                            0.012415126341816733
                        ]
                    ],
                    [
                        [
                            1.188042600169457,
                            -0.7139984103843947,
                            1.6100025906783144
                        ],
                        [
                            -0.9320119616071136,
                            0.48493785538957573,
                            -0.21957558103164682
                        ],
                        [
                            -0.7168484201238972,
                            -2.6803817459924795,
                            1.2629787560521868
                        ]
                    ],
                    [
                        [
                            1.2083145294327016,
                            -0.5016054837543129,
                            0.32276265223152517
                        ],
                        [
                            1.7825794112000186,
                            -0.8231548257787846,
                            -1.593366837623263
                        ],
                        [
                            -0.6729080144664155,
                            0.9136927910551947,
                            0.9938104249219605
                        ]
                    ],
                    [
                        [
                            1.3803476787742728,
                            -1.6038279600956173,
                            0.6572482772717813
                        ],
                        [
                            1.8399716684123826,
                            -0.46819646769927065,
                            0.4383795793727728
                        ],
                        [
                            -0.03916168455614671,
                            0.37395867087683576,
                            0.203632361885408
                        ]
                    ],
                    [
                        [
                            0.89027189806008,
                            0.9907696522767528,
                            1.447935870442309
                        ],
                        [
                            0.4266190985783793,
                            -0.5990079750224218,
                            0.4124951090268504
                        ],
                        [
                            -0.3186857467480238,
                            -0.8528911155394987,
                            0.3309061736142267
                        ]
                    ],
                    [
                        [
                            1.5108907088915149,
                            1.2763992673428168,
                            -0.3413028622136064
                        ],
                        [
                            -1.1853609892406074,
                            0.594631028396515,
                            -0.5158172335564757
                        ],
                        [
                            -0.8462070585223646,
                            -0.3483103079367974,
                            1.6774801593125672
                        ]
                    ],
                    [
                        [
                            -0.40559195327346825,
                            -0.5570235976119496,
                            0.2676199105167295
                        ],
                        [
                            1.8946582084674048,
                            0.19340679432422014,
                            0.5999832690806695
                        ],
                        [
                            -0.9821480523654516,
                            -0.7003128089576396,
                            -0.5385394455576911
                        ]
                    ],
                    [
                        [
                            1.7101355311379371,
                            -0.4665730653511268,
                            -1.5726998905842853
                        ],
                        [
                            -2.027976675689547,
                            -0.754301973031358,
                            -0.9257999398448195
                        ],
                        [
                            0.5205518077515717,
                            -0.8019870718789289,
                            1.1812523635568923
                        ]
                    ]
                ],
                [
                    [
                        [
                            -1.2367797711728234,
                            1.0501505687689348,
                            -0.6251036047264175
                        ],
                        [
                            -0.8401960891918527,
                            0.9014748926029853,
                            -0.5533546988625071
                        ],
                        [
                            -0.41371652460518504,
                            -0.18794796460115137,
                            0.7150287919125323
                        ]
                    ],
                    [
                        [
                            0.5165271779296299,
                            -0.17152866327860267,
                            -0.06413131143393126
                        ],
                        [
                            1.2584579887855858,
                            0.49226660360324104,
                            -0.0581588534800415
                        ],
                        [
                            -0.46811105712614876,
                            0.40757615236580347,
                            -0.8771721238828192
                        ]
                    ],
                    [
                        [
                            -0.8761228654972829,
                            -1.0157687788685323,
                            1.7209662483940351
                        ],
                        [
                            0.1910911891039012,
                            -1.3337525608172585,
                            0.3789289749527387
                        ],
                        [
                            0.4552817811896265,
                            -0.4478666174368657,
                            -0.496669485566157
                        ]
                    ],
                    [
                        [
                            -1.3332438246534388,
                            0.13408388573162477,
                            -0.09304358179913305
                        ],
                        [
                            -0.029392894154939675,
                            0.19980507148604643,
                            -0.13044542310658463
                        ],
                        [
                            -0.007395008714665682,
                            0.6889328061832625,
                            0.050019382032335066
                        ]
                    ],
                    [
                        [
                            -0.09828705038608566,
                            1.251298232256005,
                            -0.46022975603282923
                        ],
                        [
                            0.00847007569254809,
                            0.9421166756595827,
                            -0.20692466569844672
                        ],
                        [
                            0.7426779291872858,
                            -0.09477009082383556,
                            1.0047506282024978
                        ]
                    ],
                    [
                        [
                            -0.5567468565667146,
                            -0.322933556841087,
                            0.23684755834233773
                        ],
                        [
                            0.7390108018438539,
                            0.22397186780925488,
                            -0.6101748215187688
                        ],
                        [
                            -0.9170987164772645,
                            -1.0934718625201358,
                            -0.18320930472600466
                        ]
                    ],
                    [
                        [
                            0.37317999228467585,
                            -0.059059034324023964,
                            -0.6763459243153328
                        ],
                        [
                            -0.8056889624716808,
                            -0.609146466365255,
                            -0.7076861221681681
                        ],
                        [
                            1.0974867392076335,
                            0.9407010027820685,
                            -1.2773322763651918
                        ]
                    ],
                    [
                        [
                            1.6131944337863504,
                            -0.6241392032433895,
                            0.35746314841792226
                        ],
                        [
                            0.45150583025055036,
                            -1.2039569078743353,
                            -1.6574117802727637
                        ],
                        [
                            1.13281395229964,
                            0.22027138853039974,
                            -0.5832034576164723
                        ]
                    ]
                ],
                [
                    [
                        [
                            0.06785952216557563,
                            1.2266553493118784,
                            0.6847355386704451
                        ],
                        [
                            1.2675237466955505,
                            -0.22468256541989653,
                            1.1326856660522187
                        ],
                        [
                            0.8054570417739364,
                            1.6885624380632747,
                            -0.44677703625817966
                        ]
                    ],
                    [
                        [
                            -1.521700996788788,
                            0.9803736250331363,
                            -1.2037153116806627
                        ],
                        [
                            -0.5071700423214442,
                            -0.3681823444415494,
                            -2.0244276018837586
                        ],
                        [
                            1.3276965200121251,
                            -0.9926072942045892,
                            -0.7522177931621856
                        ]
                    ],
                    [
                        [
                            0.042728705620569254,
                            0.6894148301962484,
                            -0.9794752405197577
                        ],
                        [
                            -0.23189717713709984,
                            0.7960747882167922,
                            0.519368901203246
                        ],
                        [
                            0.27210144728004526,
                            -1.0321071656786494,
                            -1.1276752572523359
                        ]
                    ],
                    [
                        [
                            0.5138369948432624,
                            0.3639335818747397,
                            0.05195294648281394
                        ],
                        [
                            -0.6867349318749778,
                            0.9254390891738564,
                            0.7020958658338132
                        ],
                        [
                            -1.2942269317981285,
                            1.5317208210176396,
                            -0.9450125123953603
                        ]
                    ],
                    [
                        [
                            -0.3568484718907097,
                            0.6540835575569125,
                            -0.7000311288921786
                        ],
                        [
                            0.16383428019092197,
                            -0.007320867837405848,
                            0.1153768539281128
                        ],
                        [
                            -1.331460318180667,
                            -0.05879987647562582,
                            -0.15740362423154503
                        ]
                    ],
                    [
                        [
                            -0.7004769730808834,
                            1.1538048680869484,
                            0.14678988721212585
                        ],
                        [
                            0.5226850804889681,
                            -0.053012664105417884,
                            0.11799706326431456
                        ],
                        [
                            0.6540564857482137,
                            -1.5791701895600083,
                            0.187465717826522
                        ]
                    ],
                    [
                        [
                            0.7036341468061421,
                            -0.9682182584982284,
                            -0.5567802801630335
                        ],
                        [
                            -0.6653285221550285,
                            1.2659829033328265,
                            -1.0603898645261083
                        ],
                        [
                            0.46842784900629214,
                            0.15185690704764523,
                            0.2749201978398829
                        ]
                    ],
                    [
                        [
                            -0.9588814978270075,
                            0.36272678747304943,
                            -0.7471662581050913
                        ],
                        [
                            -0.38119360758659987,
                            0.36302656494909624,
                            -1.0855494319824375
                        ],
                        [
                            -0.09518135422925558,
                            0.7393924370766738,
                            0.7537171555593603
                        ]
                    ]
                ],
                [
                    [
                        [
                            0.6268696037314861,
                            0.372829538173335,
                            -1.4344464266421855
                        ],
                        [
                            1.4175789855040808,
                            -1.3363477172919709,
                            -0.04187713933097437
                        ],
                        [
                            -0.35454635191140027,
                            -1.013538742811333,
                            -0.35293109127644473
                        ]
                    ],
                    [
                        [
                            1.800448800227115,
                            -0.5809342443966662,
                            0.9422158342498916
                        ],
                        [
                            -1.1304306840541336,
                            0.15966432109051848,
                            -0.7165201133846125
                        ],
                        [
                            -1.7343516036443463,
                            -0.41285469903227845,
                            -1.4789437380371795
                        ]
                    ],
                    [
                        [
                            -0.08281672060487777,
                            2.0805439188136132,
                            -1.3098893371960083
                        ],
                        [
                            0.40601035600015034,
                            1.0179848184454072,
                            -0.010878259047725373
                        ],
                        [
                            0.6814877834250263,
                            0.9411681306076045,
                            0.34307714231350867
                        ]
                    ],
                    [
                        [
                            0.8943531079156469,
                            0.46493950949345486,
                            -0.3165319063626265
                        ],
                        [
                            0.06452612186991444,
                            0.018758259271615847,
                            -0.04842973510541965
                        ],
                        [
                            -0.8107899418461041,
                            -0.37103245763939163,
                            -0.21734853218908776
                        ]
                    ],
                    [
                        [
                            -1.3575639825484764,
                            -0.32285032153164406,
                            -0.6082925293392152
                        ],
                        [
                            0.4022261269613479,
                            0.2791094764472273,
                            0.8012515901682302
                        ],
                        [
                            -0.5754709906375178,
                            -1.446874028577928,
                            -0.739681883295266
                        ]
                    ],
                    [
                        [
                            -0.05946133796220808,
                            1.1305478677090341,
                            -1.4476642213128965
                        ],
                        [
                            -0.47115374873669924,
                            1.3432903948255277,
                            -0.8411431868973869
                        ],
                        [
                            0.7029185047015392,
                            0.7360516471184352,
                            -0.26839062859588736
                        ]
                    ],
                    [
                        [
                            -2.033966498295684,
                            -0.575789260140213,
                            -0.49476601710739265
                        ],
                        [
                            1.4397359264277585,
                            1.4163959558823793,
                            -0.3781683750452676
                        ],
                        [
                            -0.03374893283262327,
                            1.267666439233378,
                            0.018959378488096187
                        ]
                    ],
                    [
                        [
                            -0.6595698792358271,
                            -1.0877404572545424,
                            -0.01990130915000135
                        ],
                        [
                            -1.0033712724836124,
                            1.1962060782566648,
                            -0.4281614433779188
                        ],
                        [
                            -1.2646229581841633,
                            0.00847152615285144,
                            1.0096580584080432
                        ]
                    ]
                ],
                [
                    [
                        [
                            0.15080286730097953,
                            0.271959187613643,
                            1.6816349985652963
                        ],
                        [
                            0.5713998932091446,
                            -1.4640472162656426,
                            0.4506792670495081
                        ],
                        [
                            -0.017288520024105303,
                            1.5989129682271408,
                            -0.25666133654522344
                        ]
                    ],
                    [
                        [
                            0.14749553026536638,
                            1.0210317411226228,
                            -0.15176145804908497
                        ],
                        [
                            -0.5806094005645214,
                            1.516187226137102,
                            -0.7136645407885704
                        ],
                        [
                            1.4366877534068458,
                            -0.5728458252154047,
                            -1.520243789267411
                        ]
                    ],
                    [
                        [
                            -0.08039697796576378,
                            0.45412315325679004,
                            0.11823616727118041
                        ],
                        [
                            -0.8247505349170455,
                            -0.13003585699309173,
                            0.8274013723639932
                        ],
                        [
                            -1.0020200010408098,
                            -1.1775316284484856,
                            0.21954322743716168
                        ]
                    ],
                    [
                        [
                            2.18806945050535,
                            2.053060204050214,
                            0.012321540328671443
                        ],
                        [
                            -0.5926367958615615,
                            -1.9916029441159422,
                            -0.3944674962592752
                        ],
                        [
                            -1.501196777140863,
                            0.6287118343154644,
                            -0.7039514365113753
                        ]
                    ],
                    [
                        [
                            0.09881206517943751,
                            -0.5725108708481726,
                            0.5651497019403039
                        ],
                        [
                            0.7324544379323262,
                            1.5221732302282571,
                            1.67352443098018
                        ],
                        [
                            -0.44438362038239665,
                            -0.8202484428722054,
                            0.5474979112925135
                        ]
                    ],
                    [
                        [
                            -0.1797840159778663,
                            0.7623545503262061,
                            -0.010731318091991952
                        ],
                        [
                            0.9686981810999279,
                            -0.5561842982634504,
                            0.18727697830353537
                        ],
                        [
                            -0.26825382563835604,
                            -0.9082100400812304,
                            2.048921863728305
                        ]
                    ],
                    [
                        [
                            -0.8061852454717183,
                            -0.8280934744205488,
                            -0.8106392471096631
                        ],
                        [
                            0.5242129263633464,
                            -0.472131821272572,
                            0.09767593725864165
                        ],
                        [
                            0.25648655886990357,
                            -0.971732677007597,
                            -0.5212120710480518
                        ]
                    ],
                    [
                        [
                            0.37416612849333986,
                            0.736723907552818,
                            0.24419877410911167
                        ],
                        [
                            0.07935638631925337,
                            -0.46957581302317,
                            -0.9042292773268744
                        ],
                        [
                            -1.583258516324227,
                            0.8051583563980049,
                            0.09712240086790641
                        ]
                    ]
                ],
                [
                    [
                        [
                            -1.2103154363587325,
                            -0.3700491656386501,
                            0.5761927513991484
                        ],
                        [
                            0.793522845689969,
                            0.22892767901755967,
                            0.33440840867972604
                        ],
                        [
                            0.33900419763711576,
                            0.5119776610630479,
                            0.7489418596558982
                        ]
                    ],
                    [
                        [
                            -0.5485063795199293,
                            -1.3257124708380588,
                            0.3365231354293982
                        ],
                        [
                            0.25502333132791233,
                            1.3956753144917187,
                            -0.14368955850931853
                        ],
                        [
                            -0.1020248570996701,
                            1.361170772107552,
                            -2.362846657568027
                        ]
                    ],
                    [
                        [
                            -1.2958341582440722,
                            -0.99323504155651,
                            -0.5653278651138883
                        ],
                        [
                            1.0506523204035616,
                            -1.0265719675550788,
                            0.8508681899963213
                        ],
                        [
                            0.44449331177976664,
                            -1.1385480152495382,
                            0.09223011063984936
                        ]
                    ],
                    [
                        [
                            -0.7865503483192848,
                            0.7875349557704142,
                            1.1400152229993692
                        ],
                        [
                            0.45701086596410795,
                            2.0319950555400137,
                            -0.06210915941269808
                        ],
                        [
                            -0.3591822818965527,
                            1.4555479291309732,
                            -0.658017812214886
                        ]
                    ],
                    [
                        [
                            -0.1034877406996815,
                            -0.4832776459545639,
                            -0.1862219676464213
                        ],
                        [
                            -0.08139855304498733,
                            0.4460120634699715,
                            0.6386719497684958
                        ],
                        [
                            0.8597715795003923,
                            0.036335453853893085,
                            -0.25051521422476813
                        ]
                    ],
                    [
                        [
                            -0.8888115829485614,
                            -1.4868583858426012,
                            0.43198315433090145
                        ],
                        [
                            0.19508588865373688,
                            1.238983778166644,
                            0.5425618369771964
                        ],
                        [
                            2.6441406927327855,
                            -1.0775153486713858,
                            -0.32616682435492084
                        ]
                    ],
                    [
                        [
                            0.2774134806281138,
                            0.7164823757712327,
                            -0.09130365615105418
                        ],
                        [
                            -0.09244787639520452,
                            -0.04572061687412778,
                            -0.26408520002397795
                        ],
                        [
                            0.24365012183291015,
                            1.1968535167104724,
                            -0.8220123893809566
                        ]
                    ],
                    [
                        [
                            -1.1202386994370694,
                            1.9435075122832866,
                            -0.6073678267719904
                        ],
                        [
                            0.21695581746748635,
                            -0.9965678279839212,
                            -0.49370935448524134
                        ],
                        [
                            -0.15409831988696743,
                            0.5977436253709054,
                            -0.22126859880155036
                        ]
                    ]
                ],
                [
                    [
                        [
                            1.3364676324836051,
                            0.3215460789379746,
                            0.8424925283652562
                        ],
                        [
                            1.5463581707552856,
                            0.6709650447371385,
                            -1.265164538811688
                        ],
                        [
                            0.8406439657668802,
                            0.5700345940458352,
                            1.0561228379655674
                        ]
                    ],
                    [
                        [
                            -0.3946277800365383,
                            0.9477423999954323,
                            0.1800707502455905
                        ],
                        [
                            0.2948408104817003,
                            0.31223953580564734,
                            0.5290282813086435
                        ],
                        [
                            0.02785558540341014,
                            0.1267992446596448,
                            0.47067362250888056
                        ]
                    ],
                    [
                        [
                            -0.35950747768810026,
                            1.8527564427282293,
                            0.4911742960073405
                        ],
                        [
                            0.5347415342962155,
                            0.7099389611251592,
                            -0.7811528642793535
                        ],
                        [
                            1.3296755089265666,
                            -0.2213250294369331,
                            0.5425134953513219
                        ]
                    ],
                    [
                        [
                            -0.02599821371636199,
                            -0.6194654957405924,
                            0.43292847426394815
                        ],
                        [
                            1.4679869197151822,
                            1.6094304710703755,
                            -0.6914690067783246
                        ],
                        [
                            -1.2914720938895168,
                            0.9982412131582105,
                            -0.2989440588088755
                        ]
                    ],
                    [
                        [
                            -0.03685190890895143,
                            -0.7622874804889361,
                            -0.6845258003369381
                        ],
                        [
                            0.3740593024219917,
                            -0.4559873852147662,
                            -1.184721587489119
                        ],
                        [
                            0.4022049072456111,
                            -1.2278549916159434,
                            1.2031998550800707
                        ]
                    ],
                    [
                        [
                            1.5164806472277914,
                            0.2078131645777141,
                            1.0237659391324239
                        ],
                        [
                            1.2443657155310106,
                            -0.019828039208729498,
                            0.21248694584650207
                        ],
                        [
                            0.15023916840156884,
                            -0.5133450759133589,
                            -1.3833803125231097
                        ]
                    ],
                    [
                        [
                            0.19442572963345722,
                            0.5502503618491564,
                            -0.39784378821891797
                        ],
                        [
                            -0.5440126484607453,
                            -0.7513540735885486,
                            0.5139718504338373
                        ],
                        [
                            0.25437596093597775,
                            0.7024845137605619,
                            -0.7864332593067658
                        ]
                    ],
                    [
                        [
                            -0.8326641836023176,
                            0.10490254273394697,
                            -0.8444015217017314
                        ],
                        [
                            -0.2476067197451392,
                            0.4114493476541978,
                            0.22037909942440573
                        ],
                        [
                            -0.8899637386667648,
                            -0.762066383323827,
                            0.5332866694437898
                        ]
                    ]
                ],
                [
                    [
                        [
                            -0.44164821657853315,
                            -0.03888630671531324,
                            0.8220586628098498
                        ],
                        [
                            0.700373129039368,
                            -2.3490815019067304,
                            0.8151194867195479
                        ],
                        [
                            -0.1526825253042624,
                            -0.6498164748537999,
                            0.8588838087304771
                        ]
                    ],
                    [
                        [
                            -1.6283693204230882,
                            0.372370552106804,
                            0.38056034878315653
                        ],
                        [
                            0.3843040221725572,
                            0.172582789088588,
                            -0.27788062693974985
                        ],
                        [
                            -2.0691058294345868,
                            0.9022173572797153,
                            -0.7579682176974627
                        ]
                    ],
                    [
                        [
                            -0.16096255240450527,
                            -0.16616746474369057,
                            1.03180369347068
                        ],
                        [
                            -0.5531558517909136,
                            -0.18827570828640133,
                            -0.4832796432309914
                        ],
                        [
                            0.9882859194990705,
                            1.2328186582655645,
                            -2.1799891369843314
                        ]
                    ],
                    [
                        [
                            1.4435562115673486,
                            0.4598461292129413,
                            1.449145394941957
                        ],
                        [
                            -0.4931804619768487,
                            -0.25900077951995737,
                            1.0115776248614587
                        ],
                        [
                            0.3721213036371581,
                            -0.454308795337969,
                            -0.05904765353176511
                        ]
                    ],
                    [
                        [
                            -1.749593933412388,
                            0.9659618944394417,
                            -0.8944146242964096
                        ],
                        [
                            -0.636103075042938,
                            0.060667206619248334,
                            0.8914082260953363
                        ],
                        [
                            -1.0282716169793573,
                            0.8957104969084372,
                            -0.31299035790741336
                        ]
                    ],
                    [
                        [
                            -0.5788187762541029,
                            -0.2010868808904938,
                            0.3862503783020568
                        ],
                        [
                            -0.04741795499241948,
                            -0.29415191253006046,
                            -1.288884103971781
                        ],
                        [
                            -0.12103988666397009,
                            -0.352901047622838,
                            -1.4844640731028502
                        ]
                    ],
                    [
                        [
                            0.19855849561134065,
                            0.07607626367577607,
                            0.9914505530827389
                        ],
                        [
                            0.24606370987518317,
                            -0.1544859960084549,
                            1.8374872978704824
                        ],
                        [
                            0.7474107823240489,
                            0.5752803569672879,
                            -1.2149176979463265
                        ]
                    ],
                    [
                        [
                            0.6942042745838102,
                            -2.074506785724689,
                            -1.0566603582230616
                        ],
                        [
                            1.3797208570773158,
                            2.062903234778012,
                            0.03447976237968119
                        ],
                        [
                            0.5613224981147493,
                            0.9734305316300321,
                            0.5263824580643102
                        ]
                    ]
                ],
                [
                    [
                        [
                            0.18141617915890978,
                            0.41641490115427265,
                            -0.8478059220478523
                        ],
                        [
                            -0.2900167264961119,
                            -1.1712612504043236,
                            0.40215995157987605
                        ],
                        [
                            -1.1477761503982842,
                            -0.6492828002664254,
                            -0.01652476136469813
                        ]
                    ],
                    [
                        [
                            2.0418044521870673,
                            0.8464288104620681,
                            -0.6285454502796836
                        ],
                        [
                            1.3479913356387405,
                            0.42197239918975493,
                            1.124263738549557
                        ],
                        [
                            -1.422132530126119,
                            0.456102048308902,
