{
    "cnn_layers": [
        {
            "type": "conv",
            "filters": 6,
            "kernel_height": 1,
            "kernel_width": 3,
            "activation": "relu",
            "weights": [
                [
                    [
                        [
                            -0.7189743082916149,
                            -0.9230907507043076,
                            0.7671987372707478
                        ]
                    ]
                ],
                [
                    [
                        [
                            0.12182618152224389,
                            0.19125161389887513,
                            0.39532164430700356
                        ]
                    ]
                ],
                [
                    [
                        [
                            0.4673574086613894,
                            0.2632987151223092,
                            -0.306280100360514
                        ]
                    ]
                ],
                [
                    [
                        [
                            0.27156464844254025,
                            -0.32954543190107777,
                            -0.6000574843976341
                        ]
                    ]
                ],
                [
                    [
                        [
                            -0.05248559488063487,
                            0.40018352231697274,
                            0.005960186580170612
                        ]
                    ]
                ],
                [
                    [
                        [
                            0.44621679459828756,
                            -0.6392420343338057,
                            -0.23314453649297873
                        ]
                    ]
                ]
            ],
            "biases": [
                0.6346537857142323,
                -0.15696824627047667,
                0.8630345648816229,
                -0.2809085763934889,
                -0.8105361552097967,
                -0.8157494814554389
            ]
        },
        {
            "type": "conv",
            "filters": 9,
            "kernel_height": 1,
            "kernel_width": 5,
            "activation": "tanh",
            "weights": [
                [
                    [
                        [
                            0.7866313348893479,
                            -0.5292296508297822,
                            0.11629831092417264,
                            0.7250478518643411,
                            0.12400056414904537
                        ]
                    ],
                    [
                        [
                            -0.8621467121596322,
                            -0.6616158021692224,
                            -0.6258754476349886,
                            -0.9076203761180572,
                            -0.9068964349431172
                        ]
                    ],
                    [
                        [
                            0.6872403464277197,
                            -0.6007785737793765,
                            -0.6439356534964458,
                            0.027933430587749886,
                            -0.1285526223116762
                        ]
                    ],
                    [
                        [
                            -0.648669320618346,
                            0.7310882999660682,
                            -0.39278278932955946,
                            0.421860572457718,
                            -0.1712809553784289
                        ]
                    ],
                    [
                        [
                            0.8655986039132624,
                            -0.6468617270034667,
                            0.6386421146080683,
                            0.32219019848026664,
                            0.12946924652187608
                        ]
                    ],
                    [
                        [
                            0.3915247396729489,
                            -0.3399268317333808,
                            0.07420074562312173,
                            -0.7731461218413622,
                            0.8443403704026948
                        ]
                    ]
                ],
                [
                    [
                        [
                            -0.25789275908328824,
                            0.27544621689246807,
                            0.3529779076312851,
                            0.14549673895339743,
                            -0.004321666166618776
                        ]
                    ],
                    [
                        [
                            0.7939774749331849,
                            -0.18976727729430554,
                            -0.6749765114845201,
                            -0.9369005563421946,
                            0.2107479508025074
                        ]
                    ],
                    [
                        [
                            0.29701121457404467,
                            0.7052683656639327,
                            0.29275429377620843,
                            -0.044002921262055406,
                            0.3000579554956213
                        ]
                    ],
                    [
                        [
                            0.23898299772232767,
                            -0.0811710922426061,
                            -0.9331475496332369,
                            -0.6415811108093235,
                            0.13198781233973866
                        ]
                    ],
                    [
                        [
                            0.9711823627892462,
                            0.07026496248448022,
                            -0.8530541355337482,
                            -0.0506009804108305,
                            0.023487150837366633
                        ]
                    ],
                    [
                        [
                            0.004837196768611163,
                            -0.8537472813574021,
                            0.45393535772094395,
                            -0.034418066832208716,
                            -0.8783962113622108
                        ]
                    ]
                ],
                [
                    [
                        [
                            -0.5823379579326053,
                            0.9456146587470937,
                            -0.9924177417830244,
                            0.9666964792416233,
                            0.07692864218987294
                        ]
                    ],
                    [
                        [
                            0.7913731333900724,
                            -0.578461590747684,
                            0.17838491263020062,
                            0.5006462142011727,
                            0.1475570389368519
                        ]
                    ],
                    [
                        [
                            0.05063585779946611,
                            -0.7839577572837308,
                            0.1910661680783452,
                            0.13594536294198867,
                            0.8575361835829605
                        ]
                    ],
                    [
                        [
                            0.9292848970179977,
                            -0.7212928836806323,
                            -0.3204051037402984,
                            -0.0024756831048233785,
                            0.042911255970266904
                        ]
                    ],
                    [
                        [
                            -0.5869896286973451,
                            0.642054821507879,
                            0.6175523080017857,
                            -0.8273564684173078,
                            -0.2527529832539568
                        ]
                    ],
                    [
                        [
                            -0.9771771551521096,
                            -0.00849187550715702,
                            0.4637547447543311,
                            -0.30196406039055934,
                            0.9721558706491134
                        ]
                    ]
                ],
                [
                    [
                        [
                            -0.6853315623577065,
                            0.3870160271622525,
                            -0.0013971047633141165,
                            -0.12440296531266126,
                            0.933399650951187
                        ]
                    ],
                    [
                        [
                            0.9941064655198182,
                            -0.8419181700352361,
                            0.7371401773271433,
                            0.34671410297912497,
                            -0.5885530989384504
                        ]
                    ],
                    [
                        [
                            -0.901626272682851,
                            -0.7768370674474439,
                            0.2272425900835524,
                            0.43340755593228875,
                            0.2658425233381492
                        ]
                    ],
                    [
                        [
                            0.061264274509056804,
                            -0.8596811539498079,
                            -0.9351715635856366,
                            0.2865095081096707,
                            -0.3678925619033946
                        ]
                    ],
                    [
                        [
                            -0.8139384378363956,
                            0.7306710295269396,
                            0.8279641254173828,
                            0.8630628602853494,
                            0.5201055935971726
                        ]
                    ],
                    [
                        [
                            -0.6779273497243148,
                            0.6318380249301572,
                            0.017317332653923545,
                            -0.8803996496201516,
                            0.1991655412816613
                        ]
                    ]
                ],
                [
                    [
                        [
                            -0.1434927635665979,
                            0.5302187286207749,
                            0.1974850068967533,
                            0.9507418587365641,
                            -0.06875388061177201
                        ]
                    ],
                    [
                        [
                            0.9319953895918951,
                            -0.9855971011799098,
                            -0.9737175110145584,
                            0.37537551776657563,
                            0.70217458937053
                        ]
                    ],
                    [
                        [
                            -0.8734585837157851,
                            -0.8173706062443324,
                            -0.7002060483944235,
                            -0.6184015497162954,
                            -0.1379321958385098
                        ]
                    ],
                    [
                        [
                            0.6507174825871784,
                            -0.1439166563066807,
                            0.9652063254691308,
                            -0.7623480455154847,
                            -0.650251031605271
                        ]
                    ],
                    [
                        [
                            -0.27014782093438305,
                            -0.8054111576831544,
                            -0.5120169117553841,
                            0.35353184143138505,
                            -0.5579023906509413
                        ]
                    ],
                    [
                        [
                            0.96434128234547,
                            0.11194280533052492,
                            -0.6988925362260838,
                            -0.34164171338123506,
                            0.4234276784580051
                        ]
                    ]
                ],
                [
                    [
                        [
                            -0.915249996553605,
                            -0.24137460115251286,
                            -0.5255461019274661,
                            -0.7199554804275428,
                            -0.1999964769383913
                        ]
                    ],
                    [
                        [
                            0.6252771515386104,
                            -0.8989815605596829,
                            0.8107851618826583,
                            -0.4148760137810328,
                            0.803585034642996
                        ]
                    ],
                    [
                        [
                            0.9611953662069199,
                            -0.2140991139717976,
                            -0.17059960393745977,
                            -0.8897885268791466,
                            0.8951822557490674
                        ]
                    ],
                    [
                        [
                            -0.09449906197391278,
                            0.8171642537803931,
                            0.46510100917062847,
                            0.6852686051460597,
                            -0.7647175186436073
                        ]
                    ],
                    [
                        [
                            -0.40690798770793646,
                            -0.22240566316517163,
                            -0.4392607822957466,
                            0.1285503551145215,
                            0.5374811159993111
                        ]
                    ],
                    [
                        [
                            -0.5924788215628258,
                            -0.2663725499944265,
                            -0.11155782436119299,
                            -0.826417749784222,
                            -0.12981793258292962
                        ]
                    ]
                ],
                [
                    [
                        [
                            0.9961097955390894,
                            0.019955742001494192,
                            -0.9004990244917648,
                            -0.2136918231630418,
                            -0.5686297785919034
                        ]
                    ],
                    [
                        [
                            0.3337453186582995,
                            0.798429141055568,
                            -0.5592021571107373,
                            0.09123177176167707,
                            0.018112297591914128
                        ]
                    ],
                    [
                        [
                            -0.4284612201397471,
                            -0.31510661502778525,
                            0.7820511245586828,
                            0.10054970250083684,
                            -0.09162053762363898
                        ]
                    ],
                    [
                        [
                            0.5896003494235289,
                            0.4578347335572954,
                            -0.17331560593158302,
                            0.75488048420459,
                            -0.7240150816681239
                        ]
                    ],
                    [
                        [
                            0.8613516215650279,
                            -0.12112905420730447,
                            0.41088740618766817,
                            0.19475522986102467,
                            0.308772306708915
                        ]
                    ],
                    [
                        [
                            -0.9422160728538338,
                            0.49135239922966334,
                            0.6026782083436797,
                            -0.7951943086640398,
                            -0.8750810097721642
                        ]
                    ]
                ],
                [
                    [
                        [
                            -0.1941588712008362,
                            -0.28177272489449856,
                            0.7523583814801424,
                            0.6370136024882722,
                            0.5469079101072465
                        ]
                    ],
                    [
                        [
                            0.9665405274255903,
                            -0.3120100910792192,
                            -0.05676816765124659,
                            0.42962018728366913,
                            -0.6858043234662452
                        ]
                    ],
                    [
                        [
                            -0.9374867873134847,
                            -0.7656583821976741,
                            -0.7174429936816646,
                            0.04302070614560449,
                            0.3810416004928867
                        ]
                    ],
                    [
                        [
                            0.16848533954593092,
                            -0.6786769819392626,
                            0.09042589740114648,
                            -0.1597153009241281,
                            0.6674684770975352
                        ]
                    ],
                    [
                        [
                            -0.03226219012888776,
                            -0.3100633583675745,
                            0.6583753398234198,
                            0.06322135793871864,
                            -0.10808451236002892
                        ]
                    ],
                    [
                        [
                            0.13250321853683245,
                            0.5448234456477692,
                            -0.9169016600342998,
                            0.9170038815120436,
                            -0.9959136608134711
                        ]
                    ]
                ],
                [
                    [
                        [
                            0.5556325623610572,
                            -0.9376604691522217,
                            0.7004897121028935,
                            0.9316749429311995,
                            -0.8512439746301683
                        ]
                    ],
                    [
                        [
                            -0.9955084863080488,
                            -0.31337166480656453,
                            -0.02596687481855997,
                            -0.0568764547529208,
                            0.32581671147491
                        ]
                    ],
                    [
                        [
                            0.7749503221698253,
                            0.08290404039016352,
                            0.7899993683984614,
                            0.315492160051676,
                            -0.25119695455283386
                        ]
                    ],
                    [
                        [
                            0.3231975754680658,
                            0.4639563655390917,
                            -0.3331974837973024,
                            0.1916928266959419,
                            0.23928193026483302
                        ]
                    ],
                    [
                        [
                            0.30431191622245457,
                            0.29495994962177763,
                            -0.14953250087546177,
                            -0.3666378817819689,
                            -0.13277735104167543
                        ]
                    ],
                    [
                        [
                            0.715192183865105,
                            0.6557280101286196,
                            -0.7542819691789506,
                            -0.9350904230740473,
                            -0.549738028796622
                        ]
                    ]
                ]
            ],
            "biases": [
                -0.4028497409879932,
                0.6203238047373958,
                0.1423847633920965,
                0.5555892536979743,
                -0.06602106853822254,
                -0.3951204625966378,
                -0.7451011529652907,
                -0.8177909578879787,
                0.7839614907392536
            ]
        },
        {
            "type": "conv",
            "filters": 6,
            "kernel_height": 5,
            "kernel_width": 1,
            "activation": "relu",
            "weights": [
                [
                    [
                        [
                            -0.7691725275774144
                        ],
                        [
                            0.9702896036163795
                        ],
                        [
                            -0.9649624546158206
                        ],
                        [
                            0.23759217469865312
                        ],
                        [
                            -0.6142083445015263
                        ]
                    ],
                    [
                        [
                            -0.6681075593232546
                        ],
                        [
                            -0.9040543837556554
                        ],
                        [
                            0.2415231286542343
                        ],
                        [
                            0.758244397393746
                        ],
                        [
                            0.013709502958840325
                        ]
                    ],
                    [
                        [
                            0.3171969931238545
                        ],
                        [
                            -0.4905021902041331
                        ],
                        [
                            -0.4059255046966783
                        ],
                        [
                            -0.9008994137015771
                        ],
                        [
                            -0.9517636887580212
                        ]
                    ],
                    [
                        [
                            0.5478418251779229
                        ],
                        [
                            -0.6999833795301826
                        ],
                        [
                            0.006323674636306675
                        ],
                        [
                            -0.7042886940634725
                        ],
                        [
                            0.5704892966260371
                        ]
                    ],
                    [
                        [
                            0.11224323243117262
                        ],
                        [
                            -0.8025630738483331
                        ],
                        [
                            0.049262873026168164
                        ],
                        [
                            0.2580363686453979
                        ],
                        [
                            0.6080918967989726
                        ]
                    ],
                    [
                        [
                            -0.5588297935630155
                        ],
                        [
                            -0.0032796022444767647
                        ],
                        [
                            -0.6249808080936026
                        ],
                        [
                            0.7919852454693543
                        ],
                        [
                            -0.5575628050287902
                        ]
                    ],
                    [
                        [
                            0.14764799860470101
                        ],
                        [
                            0.441717908635368
                        ],
                        [
                            0.7746352877245899
                        ],
                        [
                            -0.36809714914933744
                        ],
                        [
                            -0.9622039464863577
                        ]
                    ],
                    [
                        [
                            -0.39795279454840515
                        ],
                        [
                            -0.621249087556867
                        ],
                        [
                            -0.9001301817682923
                        ],
                        [
                            -0.7829396946137597
                        ],
                        [
                            -0.7049553533632935
                        ]
                    ],
                    [
                        [
                            -0.8776297424375925
                        ],
                        [
                            -0.5368559356515332
                        ],
                        [
                            -0.9144563667031635
                        ],
                        [
                            -0.636463605279147
                        ],
                        [
                            -0.5503590718368128
                        ]
                    ]
                ],
                [
                    [
                        [
                            0.9926960869471926
                        ],
                        [
                            0.6131999811093087
                        ],
                        [
                            0.42177181674409137
                        ],
                        [
                            0.624465216243788
                        ],
                        [
                            0.020444146934739615
                        ]
                    ],
                    [
                        [
                            0.9522973550141687
                        ],
                        [
                            -0.39191184726471007
                        ],
                        [
                            0.8984457344816013
                        ],
                        [
                            -0.7468983375881089
                        ],
                        [
                            -0.3827731396252363
                        ]
                    ],
                    [
                        [
                            -0.850039707798586
                        ],
                        [
                            -0.21287030519516348
                        ],
                        [
                            0.3970973540036986
                        ],
                        [
                            0.7803569231008347
                        ],
                        [
                            -0.4919073615109668
                        ]
                    ],
                    [
                        [
                            0.3415297491077036
                        ],
                        [
                            -0.9638341558454571
                        ],
                        [
                            0.7260976902269936
                        ],
                        [
                            -0.03368168897183854
                        ],
                        [
                            -0.5496205388171242
                        ]
                    ],
                    [
                        [
                            -0.8677636253686407
                        ],
                        [
                            0.006711036230685252
                        ],
                        [
                            -0.1812614821008507
                        ],
                        [
                            -0.338598249375768
                        ],
                        [
                            -0.8961855851050207
                        ]
                    ],
                    [
                        [
                            -0.11304254445254225
                        ],
                        [
                            -0.12722279686261495
                        ],
                        [
                            0.41609927013201586
                        ],
                        [
                            0.0382061812495913
                        ],
                        [
                            -0.45698825849022007
                        ]
                    ],
                    [
                        [
                            -0.1613893297586495
                        ],
                        [
                            -0.9074838851770122
                        ],
                        [
                            -0.3620101181195827
                        ],
                        [
                            -0.824718717402974
                        ],
                        [
                            -0.383286195337998
                        ]
                    ],
                    [
                        [
                            -0.6476275172865167
                        ],
                        [
                            -0.07132229636015186
                        ],
                        [
                            -0.27384967447305586
                        ],
                        [
                            0.5103114478575013
                        ],
                        [
                            0.27511640633647017
                        ]
                    ],
                    [
                        [
                            -0.6976942624643299
                        ],
                        [
                            0.126187724421835
                        ],
                        [
                            0.6851303981991264
                        ],
                        [
                            -0.5664245828936318
                        ],
                        [
                            -0.35811749955148575
                        ]
                    ]
                ],
                [
                    [
                        [
                            0.8030586855952604
                        ],
                        [
                            0.827788122824598
                        ],
                        [
                            -0.437743358139298
                        ],
                        [
                            -0.03385595116539819
                        ],
                        [
                            -0.015480246764236982
                        ]
                    ],
                    [
                        [
                            0.4026866708090451
                        ],
                        [
                            -0.7274372119714847
                        ],
                        [
                            0.4328902476392327
                        ],
                        [
                            0.5681246795491159
                        ],
                        [
                            -0.10598016237438768
                        ]
                    ],
                    [
                        [
                            -0.6196263963587534
                        ],
                        [
                            -0.5542010874662091
                        ],
                        [
                            0.002863591309231195
                        ],
                        [
                            0.3813593603061285
                        ],
                        [
                            0.38344460972490535
                        ]
                    ],
                    [
                        [
                            0.9199025470719555
                        ],
                        [
                            -0.3290340637304059
                        ],
                        [
                            -0.124285767463856
                        ],
                        [
                            -0.3233795039302487
                        ],
                        [
                            0.7338072099867241
                        ]
                    ],
                    [
                        [
                            -0.17144624580564627
                        ],
                        [
                            0.29562498373219914
                        ],
                        [
                            -0.21276427889218996
                        ],
                        [
                            0.04859503336036308
                        ],
                        [
                            -0.9420207581767952
                        ]
                    ],
                    [
                        [
                            -0.9829438900669634
                        ],
                        [
                            0.9549336035099385
                        ],
                        [
                            0.015543998722514552
                        ],
                        [
                            -0.43102743271448674
                        ],
                        [
                            -0.4502363300580645
                        ]
                    ],
                    [
                        [
                            -0.18311431410640422
                        ],
                        [
                            -0.2990699456037176
                        ],
                        [
                            0.18704639367581288
                        ],
                        [
                            0.009968466524401087
                        ],
                        [
                            0.9618390523641431
                        ]
                    ],
                    [
                        [
                            0.8542639981445401
                        ],
                        [
                            -0.14860954711925323
                        ],
                        [
                            -0.18168618936196634
                        ],
                        [
                            -0.6374336668300333
                        ],
                        [
                            -0.977018831607732
                        ]
                    ],
                    [
                        [
                            0.8809288772065036
                        ],
                        [
                            -0.7637098630240267
                        ],
                        [
                            0.7638975532200984
                        ],
                        [
                            -0.8569391508560524
                        ],
                        [
                            -0.2275318243447908
                        ]
                    ]
                ],
                [
                    [
                        [
                            0.07696413824523352
                        ],
                        [
                            0.9330754087175073
                        ],
                        [
                            -0.9054464389011638
                        ],
                        [
                            -0.0785863259059012
                        ],
                        [
                            -0.2269053654234654
                        ]
                    ],
                    [
                        [
                            0.7240204498204097
                        ],
                        [
                            0.18293295891638062
                        ],
                        [
                            0.713402073565615
                        ],
                        [
                            -0.07193893268872498
                        ],
                        [
                            -0.9170230306305018
                        ]
                    ],
                    [
                        [
                            0.7790961500033438
                        ],
                        [
                            -0.8948833609542821
                        ],
                        [
                            -0.04328374122862311
                        ],
                        [
                            0.03108777542515706
                        ],
                        [
                            0.14428865140149671
                        ]
                    ],
                    [
                        [
                            0.040015569749685787
                        ],
                        [
                            -0.3116319310872526
                        ],
                        [
                            0.3080608819004911
                        ],
                        [
                            0.34983892742904077
                        ],
                        [
                            -0.07951627120450366
                        ]
                    ],
                    [
                        [
                            0.7082465098482806
                        ],
                        [
                            -0.18371954168644922
                        ],
                        [
                            0.2057731501327431
                        ],
                        [
                            -0.8271252243099485
                        ],
                        [
                            0.05001691887227544
                        ]
                    ],
                    [
                        [
                            -0.7666713365978666
                        ],
                        [
                            -0.6012449532321391
                        ],
                        [
                            0.05510282547984824
                        ],
                        [
                            -0.10241123210343095
                        ],
                        [
                            0.174693704429286
                        ]
                    ],
                    [
                        [
                            -0.6961688132555441
                        ],
                        [
                            0.3347038124386299
                        ],
                        [
                            0.7295154879019907
                        ],
                        [
                            0.04378658219093401
                        ],
                        [
                            0.6792122586850473
                        ]
                    ],
                    [
                        [
                            -0.2613066492034517
                        ],
                        [
                            0.05471732304737387
                        ],
                        [
                            0.4951792170859277
                        ],
                        [
                            -0.7751513916612929
                        ],
                        [
                            0.34260202094796477
                        ]
                    ],
                    [
                        [
                            -0.9554981809965222
                        ],
                        [
                            0.5496893429309184
                        ],
                        [
                            -0.43576856558915034
                        ],
                        [
                            0.5940027643069383
                        ],
                        [
                            -0.22666864693514666
                        ]
                    ]
                ],
                [
                    [
                        [
                            -0.5881249269808055
                        ],
                        [
                            0.4614137306844459
                        ],
                        [
                            0.03774267264603526
                        ],
                        [
                            -0.028417801633121798
                        ],
                        [
                            -0.8959176830295412
                        ]
                    ],
                    [
                        [
                            -0.6913255561003528
                        ],
                        [
                            -0.24835699892838714
                        ],
                        [
                            -0.1810192877942467
                        ],
                        [
                            -0.8217484814001477
                        ],
                        [
                            -0.7559461021109564
                        ]
                    ],
                    [
                        [
                            -0.8368399345716382
                        ],
                        [
                            0.6655252329878081
                        ],
                        [
                            -0.12849110217343696
                        ],
                        [
                            0.6934277425087307
                        ],
                        [
                            0.5802102254226711
                        ]
                    ],
                    [
                        [
                            0.06510368862438365
                        ],
                        [
                            -0.7147530215018307
                        ],
                        [
                            0.721311472180209
                        ],
                        [
                            -0.18654345168225106
                        ],
                        [
                            0.9796547103381177
                        ]
                    ],
                    [
                        [
                            0.36957561034522457
                        ],
                        [
                            0.562021023215548
                        ],
                        [
                            0.8210021308029389
                        ],
                        [
                            0.779480081194498
                        ],
                        [
                            -0.6174930691548135
                        ]
                    ],
                    [
                        [
                            -0.8137551793665532
                        ],
                        [
                            -0.8330789039146473
                        ],
                        [
                            0.608854534027329
                        ],
                        [
                            0.7627164571490899
                        ],
                        [
                            0.39093906175750437
                        ]
                    ],
                    [
                        [
                            0.7172508199978633
                        ],
                        [
                            -0.7203125569133086
                        ],
                        [
                            -0.9531751023693762
                        ],
                        [
                            0.20678830784750657
                        ],
                        [
                            0.6971350247705808
                        ]
                    ],
                    [
                        [
                            -0.1289336863753956
                        ],
                        [
                            0.6238076412614462
                        ],
                        [
                            -0.6353841254457233
                        ],
                        [
                            -0.5808750611488069
                        ],
                        [
                            0.3565180200146556
                        ]
                    ],
                    [
                        [
                            0.035761114836444285
                        ],
                        [
                            0.6526538130287276
                        ],
                        [
                            -0.3364092760434081
                        ],
                        [
                            -0.23796762193545606
                        ],
                        [
                            0.9665716008500114
                        ]
                    ]
                ],
                [
                    [
                        [
                            -0.5197192286837247
                        ],
                        [
                            -0.648551519747459
                        ],
                        [
                            -0.7046187050482442
                        ],
                        [
                            -0.7627748423390699
                        ],
                        [
                            0.8043609509312146
                        ]
                    ],
                    [
                        [
                            0.39495278269176715
                        ],
                        [
                            0.6120285299006709
                        ],
                        [
                            0.4684283980245485
                        ],
                        [
                            -0.7591606092531435
                        ],
                        [
                            -0.01332118553618944
                        ]
                    ],
                    [
                        [
                            -0.7400356887875998
                        ],
                        [
                            0.804267804573024
                        ],
                        [
                            -0.3302560429354897
                        ],
                        [
                            -0.5165641899653293
                        ],
                        [
                            -0.7069776734793354
                        ]
                    ],
                    [
                        [
                            0.3600595498953676
                        ],
                        [
                            -0.9051527548329579
                        ],
                        [
                            -0.6812138324784869
                        ],
                        [
                            -0.5520651806651775
                        ],
                        [
                            -0.6424787144553281
                        ]
                    ],
                    [
                        [
                            -0.12067180378947162
                        ],
                        [
                            0.9135867425152167
                        ],
                        [
                            0.5447093579465729
                        ],
                        [
                            -0.4267363038860905
                        ],
                        [
                            0.7949351683414423
                        ]
                    ],
                    [
                        [
                            -0.3747061681416928
                        ],
                        [
                            -0.030023774956175364
                        ],
                        [
                            -0.8267923906762744
                        ],
                        [
                            -0.8343019080866614
                        ],
                        [
                            -0.8435848608530143
                        ]
                    ],
                    [
                        [
                            -0.4036983335345563
                        ],
                        [
                            -0.23961626364901223
                        ],
                        [
                            -0.8694837529217845
                        ],
                        [
                            -0.47444471189754966
                        ],
                        [
                            0.035303528497142134
                        ]
                    ],
                    [
                        [
                            0.18643217066490836
                        ],
                        [
                            0.46233849529615956
                        ],
                        [
                            0.36146251017884223
                        ],
                        [
                            0.2222950596348623
                        ],
                        [
                            -0.180764890194973
                        ]
                    ],
                    [
                        [
                            -0.18462312260660263
                        ],
                        [
                            -0.9403601288404029
                        ],
                        [
                            0.7002658510882513
                        ],
                        [
                            0.2956680055663381
                        ],
                        [
                            0.638150204828835
                        ]
                    ]
                ]
            ],
            "biases": [
                0.3662361197201154,
                -0.21405684361756228,
                0.7591711535971188,
                0.6842399986062289,
                -0.3124664927673104,
                0.6270612088085492
            ]
        },
        {
            "type": "pool",
            "size": 1,
            "stride": 1,
            "pool_type": "max"
        },
        {
            "type": "pool",
            "size": 1,
            "stride": 1,
            "pool_type": "max"
        },
        {
            "type": "conv",
            "filters": 4,
            "kernel_height": 1,
            "kernel_width": 1,
            "activation": "relu",
            "weights": [
                [
                    [
                        [
                            0.7259968970273438
                        ]
                    ],
                    [
                        [
                            0.5005165475694686
                        ]
                    ],
                    [
                        [
                            0.26584621124646857
                        ]
                    ],
                    [
                        [
                            0.29471142270169826
                        ]
                    ],
                    [
                        [
                            0.06960548845283321
                        ]
                    ],
                    [
                        [
                            0.5188363170131982
                        ]
                    ]
                ],
                [
                    [
                        [
                            -0.7761315593244162
                        ]
                    ],
                    [
                        [
                            0.38604793970115825
                        ]
                    ],
                    [
                        [
                            0.46964663672845197
                        ]
                    ],
                    [
                        [
                            -0.14072320304529984
                        ]
                    ],
                    [
                        [
                            -0.3959164831536863
                        ]
                    ],
                    [
                        [
                            -0.33590332155867153
                        ]
                    ]
                ],
                [
                    [
                        [
                            -0.39360413654906523
                        ]
                    ],
                    [
                        [
                            -0.5969067161243551
                        ]
                    ],
                    [
                        [
                            0.5442636185328695
                        ]
                    ],
                    [
                        [
                            -0.8679696451664571
                        ]
                    ],
                    [
                        [
                            0.3173336425392512
                        ]
                    ],
                    [
                        [
                            -0.5257791461894581
                        ]
                    ]
                ],
                [
                    [
                        [
                            -0.10814872842526402
                        ]
                    ],
                    [
                        [
                            -0.7905242773569541
                        ]
                    ],
                    [
                        [
                            0.6298994140826935
                        ]
                    ],
                    [
                        [
                            0.3374933669747442
                        ]
                    ],
                    [
                        [
                            -0.40872202512452427
                        ]
                    ],
                    [
                        [
                            -0.09785648759464571
                        ]
                    ]
                ]
            ],
            "biases": [
                -0.2560900004195341,
                0.4165706958603379,
                -0.927873722954617,
                -0.7937791327812758
            ]
        },
        {
            "type": "pool",
            "size": 1,
            "stride": 1,
            "pool_type": "avg"
        },
        {
            "type": "pool",
            "size": 1,
            "stride": 2,
            "pool_type": "max"
        },
        {
            "type": "conv",
            "filters": 2,
            "kernel_height": 1,
            "kernel_width": 1,
            "activation": "sigmoid",
            "weights": [
                [
                    [
                        [
                            -0.4171584183203618
                        ]
                    ],
                    [
                        [
                            -0.831943313657614
                        ]
                    ],
                    [
                        [
                            0.5875397581843211
                        ]
                    ],
                    [
                        [
                            0.9559761616135591
                        ]
                    ]
                ],
                [
                    [
                        [
                            0.18910502932357587
                        ]
                    ],
                    [
                        [
                            0.9522740437948416
                        ]
                    ],
                    [
                        [
                            -0.2930952875625432
                        ]
                    ],
                    [
                        [
                            -0.6107635050483955
                        ]
                    ]
                ]
            ],
            "biases": [
                -0.7586066339312627,
                -0.6335938067803062
            ]
        },
        {
            "type": "pool",
            "size": 1,
            "stride": 1,
            "pool_type": "avg"
        },
        {
            "type": "pool",
            "size": 1,
            "stride": 2,
            "pool_type": "avg"
        }
    ],
    "ffn_layers": [
        {
            "neurons": 126,
            "activation": "relu",
            "weights": [
                [
                    0.39601549941830627,
                    0.5819555118499982
                ],
                [
                    -0.9793139978772247,
                    -0.8289574108643281
                ],
                [
                    0.22893299329336925,
                    -0.7204965195822215
                ],
                [
                    -0.6310528983661081,
                    0.7178505883530415
                ],
                [
                    -0.9604421370278109,
                    0.08086195831880238
                ],
                [
                    -0.3106788370981892,
                    -0.8624032361653713
                ],
                [
                    0.165858090384424,
                    -0.19782612157263602
                ],
                [
                    0.3105161882489478,
                    0.8108053775275748
                ],
                [
                    -0.7790718116998308,
                    -0.505108486347742
                ],
                [
                    0.13621898957413792,
                    -0.23661218586593957
                ],
                [
                    0.6146706057571107,
                    -0.14276471781595235
                ],
                [
                    0.24758838834800234,
                    -0.44679115604565034
                ],
                [
                    -0.5852133152996593,
                    0.5174276192579812
                ],
                [
                    -0.40257870512710014,
                    -0.9989827694037028
                ],
                [
                    -0.16213523298861388,
                    0.5788995266825416
                ],
                [
                    -0.21929539606511206,
                    -0.8122449332366599
                ],
                [
                    -0.26827919201434636,
                    -0.5688285053042499
                ],
                [
                    0.03054660978625745,
                    -0.39150766171812834
                ],
                [
                    -0.6512874919873963,
                    0.6687102865940622
                ],
                [
                    0.5256611800455084,
                    0.25020868596264645
                ],
                [
                    -0.230131678903581,
                    -0.7677103503146168
                ],
                [
                    0.216432622856233,
                    0.024791315205100473
                ],
                [
                    0.4375620756351881,
                    -0.07934558501626099
                ],
                [
                    0.6430401909511894,
                    -0.5521792265700574
                ],
                [
                    0.18348259023434577,
                    0.09697928206334905
                ],
                [
                    -0.5656605898927958,
                    -0.8426264428408934
                ],
                [
                    0.032797803983252605,
                    0.8809368708531604
                ],
                [
                    -0.9308651067211942,
                    -0.29193968443931984
                ],
                [
                    -0.8907549301497779,
                    0.6709688131642029
                ],
                [
                    -0.747340336277275,
                    -0.013526932138146819
                ],
                [
                    0.7695650903478171,
                    -0.29615333129262833
                ],
                [
                    0.027758436075425497,
                    -0.9532337950069119
                ],
                [
                    -0.216835593705911,
                    -0.6924897194534674
                ],
                [
                    0.5559067988647446,
                    -0.21470979917272404
                ],
                [
                    -0.6205037693904412,
                    -0.39002135031534757
                ],
                [
                    -0.06116504712925819,
                    0.8096983489539087
                ],
                [
                    -0.1297323171074385,
                    0.10157229717577176
                ],
                [
                    0.026360565561639904,
                    0.3140999258010715
                ],
                [
                    0.6638735060322509,
                    0.3044399404332492
                ],
                [
                    -0.4022292983368754,
                    -0.6880562524868992
                ],
                [
                    -0.579061884124003,
                    -0.09713156644115517
                ],
                [
                    0.6518689507758193,
                    0.03171668872040945
                ],
                [
                    0.06692007319554416,
                    0.06836595597867134
                ],
                [
                    0.3835650690376453,
                    0.9749090155438203
                ],
                [
                    -0.9997038215153644,
                    -0.6727786865644563
                ],
                [
                    0.21488835278994745,
                    0.12367109384641095
                ],
                [
                    0.08412062986460733,
                    -0.7981145421136637
                ],
                [
                    0.855704347200809,
                    -0.23042911576616465
                ],
                [
                    -0.3311714553065075,
                    -0.03132504142229742
                ],
                [
                    -0.05679439838589362,
                    -0.3856419085722871
                ],
                [
                    -0.508237341963,
                    0.16659855762028775
                ],
                [
                    -0.14965479352394295,
                    0.1080535996568266
                ],
                [
                    0.035669097329221966,
                    0.32509099594332325
                ],
                [
                    0.5809132737561051,
                    -0.1906344318739539
                ],
                [
                    0.3795689101579791,
                    0.7254751077701165
                ],
                [
                    0.36174138914953535,
                    -0.5149951581668673
                ],
                [
                    0.7763290223186714,
                    0.44532925170809223
                ],
                [
                    0.07259855197844955,
                    0.8748162062228415
                ],
                [
                    0.5037880852887973,
                    0.38401810267964454
                ],
                [
                    -0.5977699895389659,
                    0.6565140289791478
                ],
                [
                    0.6381752127243348,
                    -0.5921789846934014
                ],
                [
                    -0.3757889463597637,
                    -0.8345319754207321
                ],
                [
                    0.9609778433127978,
                    -0.9950737650546859
                ],
                [
                    0.045114060758769,
                    -0.11203059102916324
                ],
                [
                    0.4196756726028317,
                    -0.8835270887212592
                ],
                [
                    -0.6725817091230191,
                    0.7388442647498843
                ],
                [
                    0.8187926720327452,
                    -0.8315484272995908
                ],
                [
                    -0.7426451031174801,
                    -0.24037225178017074
                ],
                [
                    -0.8513490574520397,
                    0.122925341667943
                ],
                [
                    -0.6854994392136395,
                    0.1445348150191521
                ],
                [
                    0.6576180179410274,
                    -0.6369625895036333
                ],
                [
                    0.09718258963786797,
                    0.3853117867896467
                ],
                [
                    -0.14669118664097924,
                    -0.6851742746028384
                ],
                [
                    0.3325566487634679,
                    -0.9149587556394592
                ],
                [
                    -0.5759274216616992,
                    -0.6493728472912967
                ],
                [
                    -0.7361555178826487,
                    -0.8856364300804613
                ],
                [
                    -0.839758981877184,
                    0.7919501623187322
                ],
                [
                    -0.18930190782045608,
                    0.34727379447278306
                ],
                [
                    -0.390640125094623,
                    -0.4961744201151257
                ],
                [
                    0.2198458845874507,
                    0.20706368791195207
                ],
                [
                    0.34881268061916026,
                    0.9707947783830266
                ],
                [
                    0.5736267560210875,
                    0.4922132224298914
                ],
                [
                    -0.9823780699533275,
                    -0.9064456856096359
                ],
                [
                    0.3725879568823256,
                    -0.005573424862909571
                ],
                [
                    -0.08772982357579706,
                    0.7439216487973777
                ],
                [
                    -0.18529513267142206,
                    -0.9674457856711003
                ],
                [
                    -0.3734844688435792,
                    0.6641274629661633
                ],
                [
                    -0.08842770013397838,
                    -0.39462457087781355
                ],
                [
                    -0.9365675520572723,
                    0.47019800011235824
                ],
                [
                    -0.9733340437123068,
                    0.6816271894863688
                ],
                [
                    0.5457026139651293,
                    0.967584881403859
                ],
                [
                    0.8293494834435495,
                    -0.5633011112607991
                ],
                [
                    -0.7089462417757095,
                    0.6884385885236386
                ],
                [
                    0.7789807913169826,
                    -0.22541815621254946
                ],
                [
                    -0.08564042964843832,
                    0.37366614933724396
                ],
                [
                    -0.7233040694438071,
                    0.44476272845663956
                ],
                [
                    -0.32964232547715144,
                    0.947381310372948
                ],
                [
                    0.1307350859896792,
                    -0.829804167856568
                ],
                [
                    -0.9541602403242411,
                    -0.8904793555042279
                ],
                [
                    0.5342362872941935,
                    -0.6506895368253511
                ],
                [
                    0.39482548587893906,
                    0.1872798651294567
                ],
                [
                    0.5970520078227559,
                    0.8018560808810138
                ],
                [
                    -0.8231793719447418,
                    -0.0889542230476077
                ],
                [
                    0.7660384193903444,
                    0.3204530467379638
                ],
                [
                    0.2104744818886981,
                    0.711159634658312
                ],
                [
                    -0.0008785092551191198,
                    -0.38762493180639135
                ],
                [
                    0.7162939483407529,
                    -0.7985220047461181
                ],
                [
                    -0.742727904948904,
                    0.3403191511629875
                ],
                [
                    -0.7195476122348226,
                    0.5686696282825472
                ],
                [
                    0.1869380810265966,
                    0.8611888086622141
                ],
                [
                    0.23713483037007888,
                    -0.13904976939237557
                ],
                [
                    -0.10406580490972006,
                    0.2971881316793128
                ],
                [
                    0.868158311613568,
                    -0.6116280697614787
                ],
                [
                    0.29130743643132906,
                    0.8590191882978648
                ],
                [
                    -0.1401723410896314,
                    0.8065154034824327
                ],
                [
                    -0.5065596091870768,
                    -0.6901111198762739
                ],
                [
                    -0.0990848010913119,
                    -0.1390665052082456
                ],
                [
                    0.09648552968071189,
                    0.46974373343335096
                ],
                [
                    0.2779410060179972,
                    -0.04598790788582363
                ],
                [
                    -0.4100844443421461,
                    -0.1687790058023404
                ],
                [
                    -0.04975551922467525,
                    0.28592191187756133
                ],
                [
                    -0.9175225635460504,
                    0.7231236016003117
                ],
                [
                    -0.15248728493448782,
                    0.4492488329440818
                ],
                [
                    0.4257369671428921,
                    0.357070384529365
                ],
                [
                    -0.7711018768218607,
                    -0.44942617494109727
                ],
                [
                    -0.4230777305277811,
                    0.11915252637417328
                ]
            ],
            "biases": [
                0.14364455120300978,
                0.509912849090506,
                0.5706264484881427,
                0.32275863461645105,
                -0.6462089179164041,
                -0.9172604225496293,
                0.39848917770726766,
                0.33790664943994564,
                0.7371200206034532,
                0.9258588568355546,
                -0.26828935716358115,
                0.17279422262906108,
                0.33493905848147243,
                -0.09233712870249011,
                0.2705747052003733,
                0.2657340329254545,
                0.47013255160898804,
                0.5964492097594962,
                -0.008010148186711863,
                0.6520534072596462,
                0.4679822475839226,
                0.47393432724454354,
                -0.172241420534182,
                0.5202125048198023,
                -0.2162724194513197,
                0.06299882480280816,
                0.9679159313331771,
                -0.8858988858431556,
                0.1794576856826351,
                0.8309301746435647,
                0.864012755012725,
                -0.8381452867239061,
                -0.045017705467321534,
                0.17625989988453972,
                -0.7530439666511917,
                -0.9193265562668866,
                -0.15658764013169635,
                -0.6970956546026461,
                -0.9092159164658042,
                -0.38030316587650126,
                0.32114548877002314,
                -0.20295447546587342,
                -0.4110261213367896,
                -0.567741171836111,
                0.08295471705382806,
                -0.059423375649160226,
                0.8799143316847888,
                0.9897867504864029,
                -0.817720244887572,
                -0.9603930407198595,
                0.38217498551331097,
                -0.5851721691825813,
                0.35014606616053356,
                -0.2730796870418317,
                -0.2016242980724796,
                -0.10115932676394834,
                -0.5209090918918677,
                -0.8372905591969342,
                -0.4776231030477647,
                -0.9252780962827802,
                -0.1896172886940355,
                0.8520511974737137,
                -0.1809716477217327,
                0.8738234098804682,
                0.4825610549516579,
                -0.4317222442435533,
                0.15670715647751265,
                0.32408446701143,
                0.20564370230731566,
                -0.7432352550469308,
                0.7736717812510345,
                0.7387615825814751,
                -0.45974339942580866,
                -0.9001751125144268,
                -0.9944215654664554,
                -0.15326885444208416,
                0.2996722794233382,
                0.8544324831376062,
                0.009254896950112945,
                -0.061250099033518746,
                -0.047824110534242736,
                -0.8434805500774225,
                -0.7903178084620459,
                0.2784914124427822,
                0.641491365164574,
                -0.5346035592967342,
                0.36571163344884394,
                -0.4467213433429764,
                0.7747149628136152,
                -0.45557356972317864,
                -0.6021263567046418,
                -0.26556432401722185,
                -0.056121355370702064,
                -0.4281956717432107,
                0.9731475633446551,
                -0.5787281977237704,
                -0.06990085417576752,
                0.3663145062338393,
                -0.7464060389544396,
                -0.9195580838553079,
                -0.44338507431467544,
                -0.7585260856536868,
                0.014217510181197879,
                0.08225113224387237,
                0.27657404571190725,
                -0.9454548131375624,
                -0.5630743998008447,
                0.17114518178792437,
                0.4327170453278544,
                0.034505828891817414,
                -0.19496105441833356,
                0.7265551263997572,
                0.08649175709249213,
                -0.3190399096947971,
                -0.17752190657283484,
                0.1442012711961307,
                -0.799237339540571,
                0.06945502794643521,
                0.20906057361833508,
                -0.3278266764652136,
                -0.12468129916509696,
                -0.7789531179894429,
                -0.5495333415365966,
                0.44191958182456204,
                0.6631688498945953,
                -0.24803067952891422
            ]
        },
        {
            "neurons": 7,
            "activation": "softmax",
            "weights": [
                [
                    -0.48940106428575847,
                    -0.32563956136389893,
                    0.07681403483715843,
                    -0.9894525628284199,
                    -0.47714341765364154,
                    0.3772317273712018,
                    0.605148604540592,
                    0.847665811008292,
                    -0.2111254840468726,
                    -0.9207948556241474,
                    -0.06936109012472214,
                    0.3560757072349636,
                    0.5120828837299793,
                    0.9946301530559429,
                    0.1416027774196238,
                    0.3388797974293898,
                    -0.5749541753045864,
                    0.3872029262221208,
                    0.2173870038686696,
                    -0.3553951090829932,
                    -0.33683855157927867,
                    -0.3620968986025561,
                    -0.7138760978152625,
                    -0.34042391439958175,
                    -0.7732838531938175,
                    0.9633180726509463,
                    0.7421181572349005,
                    -0.24043082466574428,
                    -0.6828361577946038,
                    0.6134222344833302,
                    -0.7958229173330562,
                    -0.46470895919354116,
                    -0.6069080510574782,
                    -0.4382015571774378,
                    -0.37851168215302544,
                    0.16819077753680678,
                    0.9887405139162235,
                    0.8542348077608146,
                    -0.011346086565347635,
                    -0.6819920748881523,
                    0.3518487781810653,
                    0.3427778538123569,
                    -0.7541969937904982,
                    0.9430506462814052,
                    0.22316118485807235,
                    -0.9120663551277546,
                    0.7771078120337775,
                    0.42339472891899366,
                    0.7050044779274474,
                    0.9812737446972875,
                    0.1936874255620722,
                    0.6614707108026356,
                    -0.6830054469325453,
                    -0.7719549944589581,
                    -0.17153743070490424,
                    -0.8370874916591948,
                    0.7852829724059114,
                    0.0475883346316639,
                    -0.49509312133226824,
                    -0.023581402748827474,
                    -0.2711692532955441,
                    0.6158453791558074,
                    -0.2909255028278208,
                    -0.9177699913708861,
                    0.33802493319709637,
                    0.7237745966802436,
                    0.5624402656874905,
                    -0.2218351574349522,
                    -0.9287844874309457,
                    -0.4827985302209641,
                    0.9263077413597842,
                    0.9043252270434492,
                    -0.014932495654761402,
                    0.6199030800660279,
                    0.52179550933517,
                    0.7341298920906645,
                    -0.16492069730440617,
                    -0.1513405179438878,
                    -0.4300855640434924,
                    0.6056681547595086,
                    -0.5690409906969567,
                    -0.14120721919046386,
                    0.43911556244607497,
                    -0.27301046325573397,
                    0.07112065184696492,
                    -0.5441162624909932,
                    0.9628761693806343,
                    0.4712629009966043,
                    -0.45943931631749746,
                    -0.9747471176774001,
                    -0.7642026729491076,
                    0.28316670645830233,
                    0.21855306751053205,
                    0.28138116827030824,
                    -0.8298563258192333,
                    -0.6156174837313941,
                    0.6898069791791128,
                    -0.03833152248502114,
                    -0.07236221957605826,
                    0.0421924592392251,
                    -0.09990340460979086,
                    -0.624626216530914,
                    0.32392846089955984,
                    -0.31613205682361767,
                    -0.2058039018646094,
                    0.8619741183590879,
                    0.10035241483404111,
                    -0.5835561025335099,
                    0.660854987499323,
                    0.9743470847575109,
                    -0.3606178017989947,
                    -0.29236624043375703,
                    0.35050636779114797,
                    0.13003221855677727,
                    0.21396043204738424,
                    0.39764638136232944,
                    0.21127970495527815,
                    -0.5953179727822149,
                    -0.07458949206964438,
                    0.10330283919673411,
                    -0.4204310408587084,
                    0.6232779811179365,
                    0.0979919913097993,
                    0.4515301169949335,
                    -0.3304693616792471,
                    -0.3452003966660764
                ],
                [
                    0.41410182368853476,
                    0.42289315339287126,
                    -0.45211855734109574,
                    -0.8801253020796933,
                    0.946524174024137,
                    -0.5251297026720352,
                    -0.22860253269706288,
                    -0.3071688548094369,
                    -0.8265684842889118,
                    0.13667369003486907,
                    0.41524508406655714,
                    -0.4462124187533898,
                    -0.39860904838435274,
                    0.31046303426808697,
                    0.45125695201381255,
                    -0.7725208366741396,
                    -0.6606532268204572,
                    0.06051132585381502,
                    0.18650471931579116,
                    -0.9133115288248999,
                    0.6782128649629848,
                    -0.8210514825283919,
                    0.6308118837766599,
                    -0.05769753946618339,
                    -0.07393625315474361,
                    0.7561564130392784,
                    0.3686333756961191,
                    -0.47524035656062913,
                    0.7709835259195048,
                    -0.4240340398631708,
                    0.3063572655781892,
                    -0.5126915790386875,
                    -0.6062641467447094,
                    -0.2906147389434295,
                    -0.5321981756965721,
                    -0.9842944790294155,
                    -0.923917564176757,
                    0.8814195206212851,
                    0.12613169009851544,
                    -0.16504738272805253,
                    -0.8834929454465561,
                    -0.7576444997919207,
                    -0.22047716165402842,
                    0.037758050142021604,
                    -0.15467630717345138,
                    -0.5733470148525475,
                    0.9424918698931695,
                    0.018088275623921124,
                    -0.21558500932953062,
                    -0.7390054515159887,
                    0.321027646516705,
                    -0.7572670427275967,
                    -0.11203233406788438,
                    0.08382939349187657,
                    0.08650323926715942,
                    0.1590484651658901,
                    -0.9639488837369636,
                    -0.7612166041562918,
                    -0.24390922411609295,
                    -0.18244155653238536,
                    0.8783571615840342,
                    0.8514830318841913,
                    -0.7702740817772955,
                    -0.7795512889631477,
                    0.24017384203985448,
                    -0.612806532426563,
                    -0.18476579599384024,
                    0.6055346607129637,
                    0.592585441608563,
                    -0.17867790992603982,
                    -0.9324676027270962,
                    -0.2291362540816384,
                    0.9089876123532485,
                    -0.38477966417192766,
                    -0.016249170926276868,
                    0.06609314578701242,
                    0.4540879378884948,
                    -0.22618170798063142,
                    0.9896279744535188,
                    -0.7048723901405807,
                    0.05838811963591328,
                    -0.9441100636862396,
                    0.7270552850192544,
                    0.33739548905537453,
                    -0.2771832397373193,
                    -0.23304855584435913,
                    -0.6720686937171425,
                    -0.12805352281769666,
                    -0.9848258920533919,
                    -0.5737382628190426,
                    -0.8142735097719529,
                    -0.6952299606238546,
                    0.7483746679086416,
                    -0.2548041604646445,
                    0.3999273261203158,
                    -0.2611548343843415,
                    0.6009636043591653,
                    -0.4743685260882262,
                    0.5203573532761521,
                    0.1550717780859523,
                    -0.3959722167943647,
                    0.7472317858351831,
                    -0.29435362174334356,
                    0.305159807646568,
                    -0.7157026141128822,
                    0.4606116369062849,
                    -0.3071428352087202,
                    0.5274989885681096,
                    -0.12852584045538396,
                    -0.46204755911357887,
                    0.7286983126440763,
                    0.325446561284104,
                    0.7563828477001708,
                    -0.10405823383993273,
                    0.7092395590656966,
                    -0.4628571466586271,
                    -0.09744527998916985,
                    -0.5342542335918787,
                    0.774338890561342,
                    0.9197367980095992,
                    0.011993212927719155,
                    0.12815830235684178,
                    -0.059755867148048925,
                    0.49323847033465906,
                    0.6551780795816051,
                    -0.3761021059921503
                ],
                [
                    -0.5554572442877503,
                    0.8001076585449829,
                    0.741662372451392,
                    -0.5166174684475466,
                    0.025175462602221588,
                    -0.3701909848064735,
                    0.5047378053638714,
                    -0.8583253484394513,
                    0.29560524710015446,
                    0.09392021650335458,
                    -0.12046021402769136,
                    0.7957061353305379,
                    0.7742301355237922,
                    0.02628058797173316,
                    0.404157509072687,
                    -0.43738659145484404,
                    0.4069235306189971,
                    -0.9730523189111686,
                    -0.6420724758330019,
                    0.24384502645558093,
                    0.2937626024955171,
                    -0.6971777556797818,
                    -0.4876886852110429,
                    0.7112459477370958,
                    -0.9491249668677131,
                    -0.26259416010518977,
                    0.5004933464643029,
                    -0.3290264093282842,
                    -0.03247553157351524,
                    0.05583533503320304,
                    -0.730809196365859,
                    -0.029419604005459066,
                    -0.4017782643606693,
                    0.4691984707200718,
                    -0.7550833213098518,
                    -0.0034299074973180854,
                    0.3676758020235047,
                    -0.9840096156578202,
                    0.8811560357168626,
                    0.03493477014181967,
                    0.4191725932293753,
                    -0.6745169263194677,
                    -0.30638736664376753,
                    -0.7945380686126504,
                    0.17561082689097351,
                    -0.641302810490018,
                    -0.031198850222570185,
                    0.00625142527639766,
                    0.8669843246497029,
                    -0.5451007379245938,
                    0.7058606485463215,
                    -0.963709691514774,
                    0.8639695371225857,
                    0.6195082345113994,
                    0.04961786168917248,
                    -0.3590388146024841,
                    0.31492856385338386,
                    0.17271525212309347,
                    0.3257695662495046,
                    0.13580594330551654,
                    0.7907134065023969,
                    0.3843645521663088,
                    0.6952659579661624,
                    -0.13979441153018435,
                    0.609065484961909,
                    0.9618084636830877,
                    -0.1872873915831701,
                    0.9278786212961452,
                    -0.024080903378486784,
                    0.10418164413962638,
                    -0.7411857242162168,
                    -0.9649946905398499,
                    -0.03279080680225355,
                    -0.2349837344744914,
                    -0.06392957867148241,
                    -0.8379880377784246,
                    0.06606491952670601,
                    0.673158846462365,
                    -0.9839101664536027,
                    -0.36372097264995307,
                    0.615655668666409,
                    0.6292947328068299,
                    0.3217764239727685,
                    0.8904178956346749,
                    0.199040791987811,
                    -0.8732808192938442,
                    -0.4598398853414387,
                    0.19852023807470354,
                    0.09030820188160726,
                    -0.9246778575168757,
                    0.22771203782076577,
                    -0.7293279335077416,
                    -0.48298338696753196,
                    -0.961545249388362,
                    0.38711743191839254,
                    0.3237683327464087,
                    0.6935118158866809,
                    0.24806967910209954,
                    0.44782381342010935,
                    -0.22580075841295755,
                    -0.7055831695769312,
                    0.8566577281050183,
                    0.12710579721849902,
                    0.48536628680393323,
                    0.5436403756422818,
                    0.8812334035440756,
                    0.15732609187794266,
                    0.5841279024942299,
                    -0.335692894439511,
                    0.5092834174699443,
                    -0.8108962579161716,
                    0.30625322144575073,
                    -0.04437516880531289,
                    0.5001642392106092,
                    -0.07984325940059489,
                    0.3931693109455232,
                    -0.0760311831211622,
                    -0.9508685809750916,
                    0.6027308837973564,
                    -0.5378331714753699,
                    -0.6935901038990049,
                    0.46705768739424336,
                    0.26991546814945044,
                    -0.1692446795834417,
                    0.8160308973538068,
                    -0.4515730473262125
                ],
                [
                    0.36672350308657875,
                    -0.6768566163029417,
                    -0.39626116697029223,
                    -0.20948414790696868,
                    0.4261315034223141,
                    0.936877199288978,
                    -0.21013528462575137,
                    -0.9862949547312649,
                    0.8890846912517962,
                    -0.366669948512377,
                    0.577536714540098,
                    0.6214979856571565,
                    -0.6360250368326241,
                    -0.5830163481410617,
                    0.8749462369957637,
                    -0.9969945025865672,
                    0.5462715047051951,
                    0.7938805060542387,
                    0.7114119011415956,
                    0.6082850663344062,
                    -0.6653623241383497,
                    0.6999579758937966,
                    0.3639585424880163,
                    0.22247855725376042,
                    0.13994399316489115,
                    -0.72748865562917,
                    0.23523392299196555,
                    -0.5233427023118342,
                    0.24853287910513067,
                    -0.27263459007065727,
                    0.09241616213235737,
                    -0.86238680001182,
                    0.9606152415905842,
                    -0.1333027746871267,
                    0.6339010019809526,
                    0.9283906618753168,
                    -0.48599436215653524,
                    -0.5955606104702023,
                    -0.11886232667465957,
                    -0.3959725514494621,
                    0.061620790299969475,
                    0.8012907736796071,
                    0.9591533901401621,
                    0.2989107049827673,
                    0.2449231424867786,
                    0.46995170861964985,
                    -0.14650376292406664,
                    0.615297352017091,
                    0.35569851725024515,
                    0.8280082658727288,
                    -0.07723608382814207,
                    0.6845097209406839,
                    -0.06727569959088342,
                    -0.6507659543109763,
                    0.7566631195864437,
                    -0.7609150506245546,
                    0.22370292106676293,
                    -0.7237885496326584,
                    -0.8977505549034033,
                    -0.9505673695682568,
                    -0.26437274796284416,
                    0.45886735122873046,
                    0.3241331279466062,
                    0.18727150864040243,
                    -0.26212755447413794,
                    0.05976577154192109,
                    -0.030991421436738387,
                    -0.795923593093605,
                    -0.023173884372196696,
                    -0.8538154955558994,
                    0.6617908353503559,
                    0.9273828537367219,
                    -0.24744765507769584,
                    0.1921967057599454,
                    -0.5110867908767789,
                    -0.13710171693099515,
                    -0.6143736008344904,
                    0.15193791233637066,
                    0.21445334768656443,
                    -0.888674993553322,
                    -0.9696299975107077,
                    0.46859512077557297,
                    0.5211238114897812,
                    0.8504233545252904,
                    0.770997963115363,
                    0.3126093166826387,
                    -0.8120113771950492,
                    -0.7564078143898962,
                    0.5126839095206064,
                    -0.7699704412064647,
                    0.4798655832638359,
                    -0.20814913422183268,
                    0.7336701444255835,
                    0.013922566190104346,
                    -0.5915292430289412,
                    -0.8007434992053197,
                    -0.45615628238034045,
                    -0.11066471876020945,
                    -0.2542088870082988,
                    -0.14590102540511563,
                    -0.8941652232148707,
                    0.7373373416338196,
                    0.18055850182686495,
                    0.9752259294560772,
                    0.721713394098326,
                    0.8206322995766988,
                    0.9929169815658656,
                    -0.04605284449406599,
                    -0.8722028139146223,
                    0.4415066733268691,
                    0.24620319115590106,
                    -0.3208377933797,
                    -0.33267222337436,
                    0.507988355894724,
                    0.9892418673571437,
                    -0.5822612914785974,
                    0.1874780773122966,
                    -0.29084683136806566,
                    0.14531664203013328,
                    0.4633880816565634,
                    0.4733342010975903,
                    0.865274985957774,
                    0.03708250361316323,
                    0.4911525551479332,
                    -0.2394346349681158,
                    -0.8305283123598444
                ],
                [
                    -0.7931061031900366,
                    -0.19059292969272246,
                    0.703137906628271,
                    -0.28838440376365093,
                    -0.6109163844291172,
                    -0.28144490789147847,
                    -0.3735047668546412,
                    0.8935539956496608,
                    0.03720991082340608,
                    0.1918277352084341,
                    0.7528954541660533,
                    0.20043152605793035,
                    -0.875086788402776,
                    -0.1964680707307458,
                    0.9132164528578495,
                    0.7081077301218432,
                    -0.379548426424984,
                    0.4111457597467445,
                    -0.46027223340034973,
                    -0.9711994886058806,
                    -0.3187660482433121,
                    -0.45801910451055927,
                    0.15674324321955746,
                    0.8320891211190748,
                    -0.8405300958651032,
                    0.9573398749518498,
                    0.650793544256129,
                    -0.9249065977571418,
                    0.01811159134221274,
                    0.20112106552982723,
                    -0.39120003012621085,
                    -0.23830204296327162,
                    -0.08599220050901057,
                    0.47191798964408727,
                    -0.2838113481196096,
                    -0.2606288321806003,
