{
    "cnn_layers": [
        {
            "type": "conv",
            "filters": 8,
            "kernel_size": 3,
            "stride": 1,
            "activation": "tanh",
            "weights": [
                [
                    [
                        [
                            1.692316063925113,
                            -0.468524257162788,
                            1.7054895602845748
                        ],
                        [
                            -0.06386704081274636,
                            -0.7813720626186337,
                            0.8815464873713122
                        ],
                        [
                            1.1167908539421116,
                            -0.503566047953201,
                            -0.3530278051756323
                        ]
                    ]
                ],
                [
                    [
                        [
                            0.14979881977532528,
                            -0.675541438183248,
                            -1.8014348849468935
                        ],
                        [
                            0.3943063764994211,
                            0.9396785364292527,
                            0.6822772192538404
                        ],
                        [
                            1.1859335231963588,
                            -0.05770706943289801,
                            0.4112240442663962
                        ]
                    ]
                ],
                [
                    [
                        [
                            -0.028782339564646257,
                            1.2146194285655474,
                            0.9501723524266554
                        ],
                        [
                            0.9043101596472555,
                            0.030314898513082195,
                            0.4057223949138107
                        ],
                        [
                            -0.7206194454024747,
                            -0.3567695501076992,
                            0.2664635820349156
                        ]
                    ]
                ],
                [
                    [
                        [
                            1.0812894904228438,
                            -1.2123173079214682,
                            -0.610083230822382
                        ],
                        [
                            -0.7997711004250945,
                            -0.27276381092373475,
                            1.7686124558639862
                        ],
                        [
                            -0.9834322021441577,
                            1.6275279121220516,
                            0.45898918408072187
                        ]
                    ]
                ],
                [
                    [
                        [
                            -1.6705255776234333,
                            0.11188430496650596,
                            -0.11603752378255744
                        ],
                        [
                            1.1169381409425216,
                            -1.1759977795984047,
                            -0.49599028308372894
                        ],
                        [
                            -0.7787076847047639,
                            0.3032194384454068,
                            -1.125836336737916
                        ]
                    ]
                ],
                [
                    [
                        [
                            -0.2230914873094078,
                            -0.5871049576922146,
                            -0.2673313766179465
                        ],
                        [
                            -0.03644316746565527,
                            1.1423418179007014,
                            0.4303378733126417
                        ],
                        [
                            -0.6345691077426568,
                            1.3486342989935896,
                            0.4635186016526425
                        ]
                    ]
                ],
                [
                    [
                        [
                            -0.7240212490678629,
                            0.6060032468700332,
                            1.259210243849947
                        ],
                        [
                            1.2122708875281123,
                            1.6404756302407497,
                            0.560565045407063
                        ],
                        [
                            -0.3568094669205304,
                            0.89927996814171,
                            0.9279518001130549
                        ]
                    ]
                ],
                [
                    [
                        [
                            -0.8724763197135098,
                            0.3780488676160596,
                            0.14355477429208802
                        ],
                        [
                            0.4821263203656409,
                            -0.6695262492853129,
                            0.6742337701472413
                        ],
                        [
                            -0.061162365280383116,
                            0.24476982313299422,
                            0.16237528491381992
                        ]
                    ]
                ]
            ],
            "biases": [
                -0.3607042540793923,
                0.3640978378824504,
                -1.204737631699696,
                -0.5434584138488606,
                0.8893928270511173,
                0.010244802929969321,
                -1.611406818539027,
                0.06867468310591497
            ]
        },
        {
            "type": "pool",
            "size": 2,
            "stride": 2,
            "pool_type": "max"
        },
        {
            "type": "conv",
            "filters": 64,
            "kernel_size": 3,
            "stride": 1,
            "activation": "relu",
            "weights": [
                [
                    [
                        [
                            -0.01599089937949448,
                            -0.6449111334680325,
                            -1.0057682615002994
                        ],
                        [
                            0.45052096003864234,
                            -0.4644171247853185,
                            -1.0078536642919964
                        ],
                        [
                            -0.74117218693002,
                            -1.550324233014655,
                            1.321635175785144
                        ]
                    ],
                    [
                        [
                            0.14328847657925092,
                            -1.1575121064665077,
                            -0.37253794535579676
                        ],
                        [
                            -1.0394315130266092,
                            0.40313342047189926,
                            0.1293011510417537
                        ],
                        [
                            0.20007249907158167,
                            -0.4772674207381458,
                            1.4668895840515972
                        ]
                    ],
                    [
                        [
                            0.34908257045710667,
                            -0.5122323375897725,
                            0.2839892286005243
                        ],
                        [
                            -0.2981222564723048,
                            -1.107863898554056,
                            0.7456459710042977
                        ],
                        [
                            -0.7112862170165136,
                            -2.5511001922410554,
                            -0.9334590643996242
                        ]
                    ],
                    [
                        [
                            -0.5550561005409584,
                            0.22025618800548666,
                            -0.4683338086518557
                        ],
                        [
                            2.140804681456926,
                            -0.2502398037135176,
                            -0.9005761964304975
                        ],
                        [
                            -0.5287055289991933,
                            0.7290945851223873,
                            1.1172336068995643
                        ]
                    ],
                    [
                        [
                            -1.853751294780172,
                            -0.4242631882094299,
                            1.0498333569435077
                        ],
                        [
                            -0.46777901891220985,
                            -1.5256458614224773,
                            -0.5992048596994777
                        ],
                        [
                            1.9373344026125257,
                            0.3476580516528123,
                            0.7766557599768504
                        ]
                    ],
                    [
                        [
                            -0.261805060640647,
                            0.5932716871046645,
                            0.8631699626692447
                        ],
                        [
                            0.9324187265914846,
                            -1.8925653445868997,
                            1.248369795186793
                        ],
                        [
                            -0.7612311875592408,
                            -0.058369049105418735,
                            0.5838097856878848
                        ]
                    ],
                    [
                        [
                            0.6106849345619263,
                            0.33390908978697803,
                            1.1142370336208813
                        ],
                        [
                            0.47750145852312853,
                            -0.5550758146504926,
                            -0.8921834766727177
                        ],
                        [
                            0.6515974564678862,
                            -0.7669917781106249,
                            0.27895507731518787
                        ]
                    ],
                    [
                        [
                            -0.2595177045953377,
                            -0.12985096287520032,
                            0.8081489864621272
                        ],
                        [
                            0.2825523000211588,
                            -0.0760631148073743,
                            0.24465391503065703
                        ],
                        [
                            -1.3243699652146632,
                            1.0949596156646333,
                            1.7908673771628405
                        ]
                    ]
                ],
                [
                    [
                        [
                            1.3527018319329618,
                            0.3100367406248577,
                            0.7490647874687988
                        ],
                        [
                            -1.233601469511277,
                            -0.8917639031093554,
                            0.23463471584219436
                        ],
                        [
                            -0.7064366321688084,
                            0.056820104578536784,
                            0.8571121938078966
                        ]
                    ],
                    [
                        [
                            -2.1058675084721306,
                            0.32929925893435574,
                            0.8745483151165299
                        ],
                        [
                            -0.17388714399630514,
                            -0.4801228040538349,
                            -0.6983744602892118
                        ],
                        [
                            0.031267501182719024,
                            0.3759732135198957,
                            -0.594746856718047
                        ]
                    ],
                    [
                        [
                            0.4578804774179008,
                            0.4348535200170854,
                            -0.9250509085230505
                        ],
                        [
                            -1.8993349622673874,
                            -1.0399862049090771,
                            0.5725656760746589
                        ],
                        [
                            0.28228547490254696,
                            -0.12820568490292455,
                            1.372941841550334
                        ]
                    ],
                    [
                        [
                            0.4013159510156094,
                            -1.2368951879449754,
                            -0.04143304421588598
                        ],
                        [
                            0.6352888846056332,
                            0.08187249197770415,
                            -0.5904644269730597
                        ],
                        [
                            -0.7154956478079575,
                            -0.18225512368527536,
                            -0.9620097834337494
                        ]
                    ],
                    [
                        [
                            -0.4420630061574474,
                            -1.1326989357101938,
                            0.32371433058312893
                        ],
                        [
                            0.6180277326698036,
                            -0.3724943480398595,
                            0.7588254170486047
                        ],
                        [
                            -0.3872405474652715,
                            0.41113330654545094,
                            0.20690979569848617
                        ]
                    ],
                    [
                        [
                            1.3495193634777662,
                            -0.5321343449063125,
                            0.3663011337789674
                        ],
                        [
                            1.115577536963992,
                            -0.5773718489392325,
                            -1.5269865100461317
                        ],
                        [
                            -0.06640843160282227,
                            0.784187756716625,
                            -0.4319806114302106
                        ]
                    ],
                    [
                        [
                            0.15028532232826824,
                            0.5034325358455166,
                            0.44685385542531336
                        ],
                        [
                            -0.9316900579648462,
                            -0.1113812640473967,
                            0.17565227693591182
                        ],
                        [
                            0.6621019911007011,
                            -1.2092349012613521,
                            -0.014167213467878307
                        ]
                    ],
                    [
                        [
                            -0.3868658902231847,
                            0.10442016084642874,
                            0.7857685045625039
                        ],
                        [
                            -0.12803646229747687,
                            0.5685194594514438,
                            0.7603154427518498
                        ],
                        [
                            0.138719795645446,
                            1.4323509174580717,
                            -0.5617077337503645
                        ]
                    ]
                ],
                [
                    [
                        [
                            -1.287245158318763,
                            -1.2696768283338404,
                            0.17915142963033637
                        ],
                        [
                            1.17929515042307,
                            -0.36558841721534985,
                            0.501435868872144
                        ],
                        [
                            0.7588720735189675,
                            0.30535142407384935,
                            -1.2894193407371757
                        ]
                    ],
                    [
                        [
                            -0.9194565445268725,
                            0.4252164126442925,
                            0.9909215051887965
                        ],
                        [
                            -0.6550967470927845,
                            -0.8012176706205864,
                            2.1597205903810455
                        ],
                        [
                            1.3484822384250739,
                            0.4006002399564548,
                            0.14979083002690405
                        ]
                    ],
                    [
                        [
                            -0.0678381109632215,
                            0.3018541073737592,
                            0.4330298213162631
                        ],
                        [
                            -0.5513498782444641,
                            -1.3725297294912324,
                            0.32128797874509685
                        ],
                        [
                            -0.41329502014148134,
                            -0.2473778937325966,
                            1.7312946836177878
                        ]
                    ],
                    [
                        [
                            -1.3535777617131899,
                            0.4320544470645008,
                            0.3117157827498509
                        ],
                        [
                            -0.07465090039259001,
                            0.8641500716082146,
                            -0.5058652240854965
                        ],
                        [
                            0.24983147671398037,
                            -0.19412230632503474,
                            -0.7049072883493819
                        ]
                    ],
                    [
                        [
                            1.1527368429585663,
                            1.0092186974150463,
                            -0.4549576913370173
                        ],
                        [
                            -0.7806424632167056,
                            -0.4653749367503758,
                            0.5603703883810257
                        ],
                        [
                            -0.06407911001907468,
                            -1.7667635770323602,
                            0.8999152191782082
                        ]
                    ],
                    [
                        [
                            -0.3137526295435858,
                            -0.2514525859036584,
                            0.7044089571175208
                        ],
                        [
                            -1.514489872959895,
                            -0.017595598980481193,
                            0.7445625781308873
                        ],
                        [
                            0.2865993912946877,
                            0.2628918894234411,
                            -0.435494857205563
                        ]
                    ],
                    [
                        [
                            -0.321346987483762,
                            0.4050691776732574,
                            0.9336939365403504
                        ],
                        [
                            -0.14191525860405,
                            -0.12635199188185892,
                            -0.2799715791313433
                        ],
                        [
                            -0.9632591658091232,
                            -0.949477104315316,
                            -1.456164452977419
                        ]
                    ],
                    [
                        [
                            0.4986676770060383,
                            -1.605979681881119,
                            0.4891202081910263
                        ],
                        [
                            -0.5290997273809026,
                            -1.1359733726649923,
                            -2.68822761488563
                        ],
                        [
                            -0.9485635049647795,
                            1.2159269208449999,
                            0.40580811517577
                        ]
                    ]
                ],
                [
                    [
                        [
                            0.4256392573549144,
                            1.0718003821622866,
                            -0.309931849013813
                        ],
                        [
                            -0.34216137183850803,
                            0.5797914809565219,
                            0.41762745680418967
                        ],
                        [
                            -1.328763234998085,
                            -0.47343729921638,
                            -0.16216866613660874
                        ]
                    ],
                    [
                        [
                            0.7029171447965485,
                            -0.2577248603503896,
                            0.17267800915591572
                        ],
                        [
                            1.4677614894622286,
                            -0.43309273734017545,
                            1.6925060220603019
                        ],
                        [
                            0.45692990488994434,
                            -0.7306813080786692,
                            -0.16519746030996474
                        ]
                    ],
                    [
                        [
                            0.030866733806626093,
                            1.2824811302340466,
                            -1.2841774017153682
                        ],
                        [
                            -0.34167726110868013,
                            -1.0234316397919272,
                            -0.09409431956809808
                        ],
                        [
                            0.5557506383710308,
                            0.009535007421865527,
                            1.351290851140686
                        ]
                    ],
                    [
                        [
                            2.2812011286385614,
                            -1.7832843838634873,
                            -1.272235362321729
                        ],
                        [
                            -0.8028943612196708,
                            0.4676277254988027,
                            -0.7193106152795399
                        ],
                        [
                            0.015295062191153203,
                            0.6006476225168905,
                            1.6535866405580362
                        ]
                    ],
                    [
                        [
                            -0.3370402981163214,
                            1.4534953886410065,
                            -0.14798872142778086
                        ],
                        [
                            -1.314548971571293,
                            -0.2372526251979893,
                            0.5330429867581074
                        ],
                        [
                            -0.3446302877673676,
                            0.28399405230861996,
                            -0.6124087991635306
                        ]
                    ],
                    [
                        [
                            1.8954789291976724,
                            0.4666562347130147,
                            -1.2537024848788039
                        ],
                        [
                            0.03581470194926001,
                            -0.08772261944492765,
                            0.957773900220864
                        ],
                        [
                            0.8340141785130071,
                            1.2074956907598426,
                            0.5822115335958516
                        ]
                    ],
                    [
                        [
                            -0.545597946196689,
                            -0.4570467605181517,
                            0.977119087031623
                        ],
                        [
                            0.5231868133345565,
                            1.2964748182952701,
                            1.2224873850034856
                        ],
                        [
                            -0.9594338583491483,
                            -0.2836479602594342,
                            1.0926238025027266
                        ]
                    ],
                    [
                        [
                            -1.0707829554095891,
                            0.47705958566133444,
                            -0.4772437168132321
                        ],
                        [
                            0.8297977489435955,
                            -0.7004615564339447,
                            -0.39351414943759144
                        ],
                        [
                            -0.30894236829273974,
                            -3.1307491648996977,
                            -0.7780004760955769
                        ]
                    ]
                ],
                [
                    [
                        [
                            0.049428471884435235,
                            -1.5423210611955096,
                            0.7175611908516154
                        ],
                        [
                            0.4751902102859291,
                            0.28422164564674757,
                            1.5366315203750118
                        ],
                        [
                            0.8842490852025175,
                            1.0412692044343101,
                            -0.07230239298196763
                        ]
                    ],
                    [
                        [
                            -0.05556427430184718,
                            0.23780838179554925,
                            -0.13894265265701267
                        ],
                        [
                            -0.6898977582272745,
                            0.12690835219189467,
                            -0.09216972222656702
                        ],
                        [
                            0.47277958755393334,
                            0.16615644953497585,
                            0.46163611436538293
                        ]
                    ],
                    [
                        [
                            2.430164139077372,
                            0.3775102567259693,
                            0.3581311549183525
                        ],
                        [
                            -1.4875199578402694,
                            -1.771184847377926,
                            1.069225602164934
                        ],
                        [
                            -0.9639747862587018,
                            -0.5281844597602044,
                            1.2415440183762385
                        ]
                    ],
                    [
                        [
                            -0.49317602563413293,
                            -1.2839270210118876,
                            0.2635730311712733
                        ],
                        [
                            -0.47905256642377964,
                            -0.6998232040887524,
                            -0.7441956144368633
                        ],
                        [
                            0.4954640590922499,
                            2.294296931818272,
                            -2.158277602748955
                        ]
                    ],
                    [
                        [
                            -0.7930959589241255,
                            0.8625159965520686,
                            -0.6872187359885013
                        ],
                        [
                            -1.2448298469636563,
                            -0.9181858392810989,
                            0.27082477935913407
                        ],
                        [
                            0.054131094813348685,
                            -0.7098080495530708,
                            0.6100840536685546
                        ]
                    ],
                    [
                        [
                            -1.0799189904770101,
                            -0.12194985372046929,
                            -1.4205437499301063
                        ],
                        [
                            -0.24821844985190217,
                            0.2929706734933899,
                            -0.3899315993359995
                        ],
                        [
                            -1.5141817757608815,
                            0.6578682798182319,
                            1.0111890232457477
                        ]
                    ],
                    [
                        [
                            -0.8444703894883955,
                            -1.2077449700321827,
                            2.2318681229187325
                        ],
                        [
                            -1.2934636152102537,
                            0.6667073030499854,
                            2.64468337425254
                        ],
                        [
                            -0.2406535199052352,
                            -0.9205467533209067,
                            -0.6231005962027073
                        ]
                    ],
                    [
                        [
                            0.584283031593332,
                            -0.2334807223015392,
                            1.1499599618236473
                        ],
                        [
                            -0.09315900178035813,
                            -0.14869423711255936,
                            -0.30305983124822256
                        ],
                        [
                            -0.9546535152125393,
                            1.1721260743036983,
                            -0.6549575378451897
                        ]
                    ]
                ],
                [
                    [
                        [
                            -1.096108704958121,
                            0.19507876405632096,
                            -0.08005871700694281
                        ],
                        [
                            -2.1203201139725754,
                            2.3365773659949283,
                            -0.8048233992255784
                        ],
                        [
                            0.02708262269537917,
                            -0.20206102109182975,
                            0.33379861152077744
                        ]
                    ],
                    [
                        [
                            1.848050574726269,
                            -1.1850080000150802,
                            -1.5029343284200187
                        ],
                        [
                            1.2925721206218568,
                            1.370825336868282,
                            1.3795427609654913
                        ],
                        [
                            0.22216513053000714,
                            0.18416944707393051,
                            0.036948372473034535
                        ]
                    ],
                    [
                        [
                            0.3422180441083935,
                            0.33822141205203343,
                            0.43455372500093037
                        ],
                        [
                            -0.6452538613511061,
                            -1.9273436351043285,
                            -1.1288039556904372
                        ],
                        [
                            -0.46185171124630287,
                            -0.748241816978579,
                            -0.13415306378893407
                        ]
                    ],
                    [
                        [
                            -0.8457740424823728,
                            0.30578993052029074,
                            -0.09745214788940125
                        ],
                        [
                            -0.2440311198424263,
                            -0.7116056490487769,
                            -0.2901214065585159
                        ],
                        [
                            -0.860308740253621,
                            -1.2193746947518327,
                            1.1835582037113779
                        ]
                    ],
                    [
                        [
                            -1.161397691333993,
                            -1.3538586430312602,
                            0.42806711901919625
                        ],
                        [
                            -1.1457774466715178,
                            -0.173439030163712,
                            1.2467857933943363
                        ],
                        [
                            -0.5012713263146237,
                            -0.6354411652299574,
                            1.096537985745993
                        ]
                    ],
                    [
                        [
                            -1.6193555024986241,
                            1.220237640341762,
                            -1.8852315914485942
                        ],
                        [
                            -0.7909735226193713,
                            0.9765388643246796,
                            -0.44350064431986636
                        ],
                        [
                            0.7832837029128705,
                            0.753728690383993,
                            -1.0774201574830546
                        ]
                    ],
                    [
                        [
                            -1.5729587062749626,
                            0.8856051587387044,
                            -1.3080876680986573
                        ],
                        [
                            -0.7994365695641098,
                            0.7015793074670045,
                            -2.196664394618301
                        ],
                        [
                            1.1735062662747993,
                            -0.8650401425160323,
                            0.40815044848571436
                        ]
                    ],
                    [
                        [
                            1.6100587950681333,
                            -1.0787794606391772,
                            -1.6450536697462357
                        ],
                        [
                            0.5586339749766158,
                            -1.2260071079936026,
                            -2.6796845805687175
                        ],
                        [
                            1.0959499441512286,
                            0.23671770170339745,
                            1.126337643641939
                        ]
                    ]
                ],
                [
                    [
                        [
                            -0.27234281795771853,
                            -1.824012680184808,
                            0.2025600010196795
                        ],
                        [
                            -0.016605032539249137,
                            0.70190159216592,
                            0.8214697624263229
                        ],
                        [
                            -1.075713978996109,
                            -0.7380456661280549,
                            -0.48917924300533233
                        ]
                    ],
                    [
                        [
                            -1.0207957376616779,
                            1.2782968202024387,
                            -0.5906879453878736
                        ],
                        [
                            -0.7393816507687084,
                            1.186485799570321,
                            -0.5429228442320261
                        ],
                        [
                            -1.9992377247747997,
                            -0.6159442193211778,
                            0.07027132551253958
                        ]
                    ],
                    [
                        [
                            1.4391837393953482,
                            1.1117518595002873,
                            0.7154818578292051
                        ],
                        [
                            1.318147757951333,
                            0.09726434521109245,
                            1.1599095264572654
                        ],
                        [
                            -0.3393243644667919,
                            0.8397146195229875,
                            -1.5170849303414158
                        ]
                    ],
                    [
                        [
                            1.6428075837741534,
                            0.5197624969492386,
                            0.44708787467647754
                        ],
                        [
                            -0.04906242875953204,
                            -0.23215840122927725,
                            -0.49828635675079547
                        ],
                        [
                            -0.2784540104129942,
                            1.1863081462100182,
                            0.5089605960436575
                        ]
                    ],
                    [
                        [
                            1.244311455874225,
                            0.1540037585956749,
                            -0.05662979004417282
                        ],
                        [
                            1.0773111109616365,
                            0.33873832980894203,
                            0.8387131032428993
                        ],
                        [
                            0.3877512719413042,
                            0.581253307742483,
                            -0.48278569798986054
                        ]
                    ],
                    [
                        [
                            -0.2516741786699367,
                            0.9998688069339088,
                            0.5552126713424683
                        ],
                        [
                            0.4903453331769188,
                            0.614730315045172,
                            1.0803914085100863
                        ],
                        [
                            0.3644110893109252,
                            -0.5109876689519615,
                            -0.5402679724146816
                        ]
                    ],
                    [
                        [
                            0.6384259514359111,
                            -0.8446108189370796,
                            -0.45230957702830277
                        ],
                        [
                            -0.841668181672256,
                            -0.3314950984411943,
                            -0.2667522617337511
                        ],
                        [
                            2.384132367231411,
                            -0.751479194186642,
                            0.448882754368854
                        ]
                    ],
                    [
                        [
                            -0.6525076775912586,
                            0.22356008281556528,
                            1.3901605520877154
                        ],
                        [
                            0.21574285542053256,
                            0.3515590252684829,
                            -0.5739481908995732
                        ],
                        [
                            0.840416006959459,
                            -0.04893465249650486,
                            -0.035317180049029645
                        ]
                    ]
                ],
                [
                    [
                        [
                            0.285389524906135,
                            -0.12058905300605924,
                            1.52688819050675
                        ],
                        [
                            -0.7185303588969767,
                            -0.3626668883186896,
                            -1.4748087098597722
                        ],
                        [
                            -0.9603710350594452,
                            -0.8177299549488798,
                            -0.5346650911899227
                        ]
                    ],
                    [
                        [
                            -0.8245212108470191,
                            -1.623399153895386,
                            -0.3372288692633107
                        ],
                        [
                            -1.2874942362894428,
                            -0.11522177515678017,
                            1.0387130092327337
                        ],
                        [
                            -0.7531474662641994,
                            -1.5128895262442419,
                            -1.844888437978348
                        ]
                    ],
                    [
                        [
                            -0.2972214316457324,
                            0.7753451805640519,
                            -0.7060768739020217
                        ],
                        [
                            0.9818775600633792,
                            0.16442747018009868,
                            -1.394745522117402
                        ],
                        [
                            -0.027532148966362663,
                            -0.01065571680461444,
                            0.5338772275946736
                        ]
                    ],
                    [
                        [
                            -0.06406569508187107,
                            2.439756808545102,
                            0.70970233848703
                        ],
                        [
                            0.031326632114797213,
                            -0.7820889711884553,
                            0.33489178230777483
                        ],
                        [
                            -0.8393961599549111,
                            -0.47670624895400493,
                            0.05505867902854826
                        ]
                    ],
                    [
                        [
                            -0.7168654320889217,
                            0.4838290346132973,
                            0.4897762232076241
                        ],
                        [
                            0.914926600757741,
                            -0.7406259946541232,
                            -0.071048709989844
                        ],
                        [
                            -1.578365413236276,
                            1.2090487985879768,
                            -0.5999898548916087
                        ]
                    ],
                    [
                        [
                            0.568300436774423,
                            -0.4856223732241428,
                            -0.7854353568267024
                        ],
                        [
                            -1.2023584115038544,
                            0.13188058493414942,
                            -1.1057535540710735
                        ],
                        [
                            0.03026634216991135,
                            -0.4630383658656797,
                            -1.3598160757897013
                        ]
                    ],
                    [
                        [
                            0.569827046943517,
                            1.2527413248895907,
                            0.45480252057740406
                        ],
                        [
                            -0.16306699681246944,
                            0.739302445832305,
                            1.2877719915660657
                        ],
                        [
                            -1.2089058038932408,
                            0.24973905781637878,
                            -0.508513202037405
                        ]
                    ],
                    [
                        [
                            0.26681686572560404,
                            -0.4660035634087842,
                            1.8682226705146034
                        ],
                        [
                            -0.8025625632257506,
                            -0.7023337275392194,
                            0.14317033812130092
                        ],
                        [
                            0.4712975080650101,
                            -1.0499071417079775,
                            0.09173778825453732
                        ]
                    ]
                ],
                [
                    [
                        [
                            -1.2877804481175203,
                            0.7679512099563076,
                            -0.4013654510798288
                        ],
                        [
                            -0.15313333561943088,
                            0.6820951541266751,
                            -0.15552936364094572
                        ],
                        [
                            -0.895963532579131,
                            0.34722178108286345,
                            0.3849656608976239
                        ]
                    ],
                    [
                        [
                            0.12049413171077457,
                            -0.6632616196508482,
                            -0.974208162371835
                        ],
                        [
                            0.4075861819861397,
                            -0.2930001989410589,
                            -0.39801213359326915
                        ],
                        [
                            0.2657302151013829,
                            1.5622126244731762,
                            -0.8975679704378252
                        ]
                    ],
                    [
                        [
                            -0.6359259482816471,
                            -0.6518427382576448,
                            -1.6957863876149373
                        ],
                        [
                            0.6768862560202008,
                            0.5659671087059358,
                            -0.64673937332283
                        ],
                        [
                            1.3463703987495426,
                            -0.5236265987310447,
                            0.4707602613267841
                        ]
                    ],
                    [
                        [
                            0.8201593011882812,
                            0.3553538974527772,
                            -0.9630417118545783
                        ],
                        [
                            0.07705065735845487,
                            0.26192644798129894,
                            -0.4915164450136199
                        ],
                        [
                            0.3419263927007458,
                            -1.6239543477427665,
                            0.8826428878671898
                        ]
                    ],
                    [
                        [
                            0.3972306227529264,
                            0.2792114517594383,
                            1.5291224016491476
                        ],
                        [
                            -0.4067724727211952,
                            -0.38417467022588186,
                            -0.8383181899362405
                        ],
                        [
                            -1.10131485591204,
                            -0.06512264009552984,
                            0.7066633894476316
                        ]
                    ],
                    [
                        [
                            0.5417174993919832,
                            1.5709701256562671,
                            0.00794496914852634
                        ],
                        [
                            0.8619921466433145,
                            -0.4932788821626033,
                            -1.783109755620708
                        ],
                        [
                            0.7751599937768534,
                            -0.7507650160908313,
                            0.6277850950087814
                        ]
                    ],
                    [
                        [
                            -0.945456537380533,
                            -0.40662569636634127,
                            -0.40324147200121885
                        ],
                        [
                            0.4653810373458846,
                            0.9449065667082345,
                            -0.9345392370976945
                        ],
                        [
                            0.26236531640663086,
                            -0.38990442641086176,
                            0.38349646300035967
                        ]
                    ],
                    [
                        [
                            0.9750688904285267,
                            1.7309328203867194,
                            -0.542831310043537
                        ],
                        [
                            0.7143718172721358,
                            0.5458456606792886,
                            -0.46625118486857775
                        ],
                        [
                            0.4080876322386782,
                            0.508283881769644,
                            0.8435933862991216
                        ]
                    ]
                ],
                [
                    [
                        [
                            -2.020223701335226,
                            -0.1682586166984769,
                            0.5950964982089623
                        ],
                        [
                            -0.43587011186928243,
                            -0.9532546159055826,
                            -0.8368549505739433
                        ],
                        [
                            -0.10397367956971493,
                            -0.15785828346699166,
                            -0.7455920590504894
                        ]
                    ],
                    [
                        [
                            0.03471925266433115,
                            0.08557210606266338,
                            0.008290944934128953
                        ],
                        [
                            0.5741335282665001,
                            0.4877992904557924,
                            0.7564101609324219
                        ],
                        [
                            -1.1669047656357903,
                            -1.3451940724209819,
                            0.6409685537812446
                        ]
                    ],
                    [
                        [
                            -0.0766436505161896,
                            -0.30660132192386236,
                            0.5016433375342536
                        ],
                        [
                            0.22435441618623797,
                            -0.7943999022090794,
                            0.29249396673354533
                        ],
                        [
                            0.14746297623728757,
                            -0.7968879518289433,
                            1.2990961608636393
                        ]
                    ],
                    [
                        [
                            0.6366567540942266,
                            -1.0554232920991244,
                            0.4021704855084303
                        ],
                        [
                            -0.4412829421101274,
                            -1.6606862609426662,
                            -1.3882398572074266
                        ],
                        [
                            -0.6543754036242145,
                            1.47088544186735,
                            0.33756887005625247
                        ]
                    ],
                    [
                        [
                            0.26178081607257725,
                            -1.2825358622641065,
                            0.11094599754922302
                        ],
                        [
                            -0.7194986941205542,
                            -0.042039639125554945,
                            -1.3089661841619424
                        ],
                        [
                            0.8149105526216324,
                            0.9240619982623393,
                            0.0032884673569405568
                        ]
                    ],
                    [
                        [
                            0.69314507390148,
                            -1.4313303506079207,
                            1.7757523751883217
                        ],
                        [
                            0.5658741605057872,
                            0.37048086755604515,
                            -1.2469724724674818
                        ],
                        [
                            0.9859566857851518,
                            -0.868366008894488,
                            0.7870818203602411
                        ]
                    ],
                    [
                        [
                            1.1031087381622235,
                            -0.5055058608673532,
                            -0.16784006425916723
                        ],
                        [
                            -0.455375538247916,
                            -1.6693852892994083,
                            1.3278955466914895
                        ],
                        [
                            0.13190451815501633,
                            -0.2885552255058497,
                            0.4945840667684609
                        ]
                    ],
                    [
                        [
                            1.2456385809965373,
                            -0.9282138721404356,
                            0.15330254468614707
                        ],
                        [
                            0.780132367942536,
                            -0.0835043137530161,
                            -0.8351407509381087
                        ],
                        [
                            0.6392381749213184,
                            1.5493961417723754,
                            -0.11240822461020178
                        ]
                    ]
                ],
                [
                    [
                        [
                            2.203291446274401,
                            -1.068702119297879,
                            -0.1939096002347138
                        ],
                        [
                            1.3744660500098016,
                            0.38497793700235367,
                            1.8778268745218742
                        ],
                        [
                            -0.7536419251090689,
                            -0.4411447343321819,
                            1.0999432509161973
                        ]
                    ],
                    [
                        [
                            -1.3552186813075986,
                            0.05854687390382859,
                            0.8717118357183156
                        ],
                        [
                            0.9064474747352618,
                            -0.12616638735752916,
                            0.572756025321488
                        ],
                        [
                            0.2098998341118173,
                            -0.4914096461607245,
                            0.7735282922827461
                        ]
                    ],
                    [
                        [
                            -0.043095033039258226,
                            0.41598102175437496,
                            0.27988502208657057
                        ],
                        [
                            0.9339188272670278,
                            -0.24911368010288543,
                            -0.11787120378316798
                        ],
                        [
                            -0.912686237928807,
                            -0.09959381639404777,
                            -0.3512605384188792
                        ]
                    ],
                    [
                        [
                            -0.6698705152375793,
                            -2.6117700475992267,
                            2.3783862777198648
                        ],
                        [
                            -0.6124352503180182,
                            -0.8162391594117835,
                            0.7908047016763319
                        ],
                        [
                            0.9742376343331574,
                            0.05214599438299291,
                            1.466861243375291
                        ]
                    ],
                    [
                        [
                            -1.0365015200039287,
                            -1.4604289112185627,
                            -1.127550133307174
                        ],
                        [
                            -0.024625368399562086,
                            -1.1982512955112847,
                            -0.36855731755828597
                        ],
                        [
                            0.6548182769049128,
                            -1.3268567136811051,
                            0.7980516906626544
                        ]
                    ],
                    [
                        [
                            0.3976726586009315,
                            -0.2447375426267541,
                            -1.5870704883852256
                        ],
                        [
                            -0.007388476939091754,
                            -0.3316933877384174,
                            -0.20822683807760597
                        ],
                        [
                            0.22815771140064126,
                            -0.7407759596460669,
                            0.949268371460042
                        ]
                    ],
                    [
                        [
                            -0.7964100555006516,
                            0.3270085789466952,
                            1.3736768034673856
                        ],
                        [
                            -1.1108484920462085,
                            0.5017470765014553,
                            0.48001642530377103
                        ],
                        [
                            -0.07107259954131528,
                            -0.4136515033613261,
                            0.5582198431909909
                        ]
                    ],
                    [
                        [
                            -1.5946536330101657,
                            -1.1101815727236877,
                            -0.07521304983664649
                        ],
                        [
                            1.1461087300092074,
                            -0.6780542038709093,
                            0.9465920772800104
                        ],
                        [
                            -0.4847892980686139,
                            -0.2824811170631895,
                            -1.239134310241269
                        ]
                    ]
                ],
                [
                    [
                        [
                            0.6763036117539614,
                            0.4909124553547854,
                            -0.6517381274351559
                        ],
                        [
                            0.22846142448323997,
                            -1.5039412488843131,
                            0.10218833889633205
                        ],
                        [
                            1.1954315421276442,
                            1.811690717407123,
                            0.747164532100569
                        ]
                    ],
                    [
                        [
                            0.7870555152720672,
                            -0.23827730735002528,
                            -0.6667225536013367
                        ],
                        [
                            0.6954888754421231,
                            -1.8257055299947678,
                            -0.5361805708222183
                        ],
                        [
                            -1.3286068096504795,
                            -0.3285646720571285,
                            1.8819235719456562
                        ]
                    ],
                    [
                        [
                            0.9099214819539184,
                            0.14706523504441596,
                            0.7027373675151528
                        ],
                        [
                            -1.0141496561816759,
                            0.5920497461205882,
                            1.2871682060664458
                        ],
                        [
                            2.066339360243306,
                            -0.6208687968427389,
                            0.576634652918809
                        ]
                    ],
                    [
                        [
                            0.051587061670634725,
                            1.2646092213308262,
                            0.2810569067156685
                        ],
                        [
                            0.0974981262941059,
                            -0.27562078539435286,
                            -0.36754964050121797
                        ],
                        [
                            -0.3106736582307532,
                            1.0587259865698169,
                            -0.03278195637139958
                        ]
                    ],
                    [
                        [
                            0.7780996028740809,
                            1.3707125441663113,
                            -0.59259073534955
                        ],
                        [
                            -1.399146729754813,
                            0.7794217211910367,
                            0.763185376269651
                        ],
                        [
                            -0.02614131657767778,
                            -0.10516856360423127,
                            0.3021725229694876
                        ]
                    ],
                    [
                        [
                            0.7064612664877877,
                            1.5993612772572048,
                            0.7529259628763361
                        ],
                        [
                            -0.8312133434939498,
                            0.8105865539148095,
                            1.1037984407556425
                        ],
                        [
                            -0.12303094538890225,
                            -0.6887999320772016,
                            -0.5673353407634871
                        ]
                    ],
                    [
                        [
                            -0.8902281355962353,
                            -0.49225931911145654,
                            0.43437112408328615
                        ],
                        [
                            -1.134125156656174,
                            1.6024617793925464,
                            0.35114148976232346
                        ],
                        [
                            1.3517385833696696,
                            -0.9082485942989512,
                            -0.5800363700108788
                        ]
                    ],
                    [
                        [
                            0.4362397487850463,
                            -0.035938696257463584,
                            0.7986964777369835
                        ],
                        [
                            -0.9327035892557624,
                            -0.7547762435661792,
                            -1.025679097684012
                        ],
                        [
                            0.6125246389106619,
                            -0.8292827045066565,
                            -0.5856762115034811
                        ]
                    ]
                ],
                [
                    [
                        [
                            0.0171654994541212,
                            0.23767971395810938,
                            0.9961067774430387
                        ],
                        [
                            -0.16805056359521398,
                            -1.0400421011081744,
                            0.2530979627082421
                        ],
                        [
                            -0.2949447191945103,
                            -0.764989206785277,
                            -0.008381569454157392
                        ]
                    ],
                    [
                        [
                            0.5801807476668258,
                            0.5321685915860765,
                            -1.4321331145161875
                        ],
                        [
                            0.8216277540751584,
                            -0.4581040113025635,
                            -0.08158974176485607
                        ],
                        [
                            1.6161024966746809,
                            1.1142574177579907,
                            -0.6068414551330479
                        ]
                    ],
                    [
                        [
                            -0.8168491142934492,
                            -1.3227531884395716,
                            -0.7266637100351473
                        ],
                        [
                            1.7139198132748317,
                            -1.6202296005315904,
                            -0.5355202283159934
                        ],
                        [
                            -2.844209511721961,
                            0.02893053847492382,
                            0.04830014416908525
                        ]
                    ],
                    [
                        [
                            -0.8383190931810205,
                            0.2951474226599351,
                            -0.9054084714359076
                        ],
                        [
                            -0.6153127573818249,
                            -0.3359097937898191,
                            0.07268087086180718
                        ],
                        [
                            0.8875216305366421,
                            -1.0713958456181139,
                            1.8115313623773177
                        ]
                    ],
                    [
                        [
                            1.2691386444908674,
                            1.4850526198194312,
                            -2.133636050369789
                        ],
                        [
                            0.3917222495792695,
                            1.565324025230563,
                            -1.1319799918442295
                        ],
                        [
                            1.3539721336752764,
                            0.762588785269554,
                            -0.3651788170548604
                        ]
                    ],
                    [
                        [
                            0.6664768321222024,
                            -0.37924819531317466,
                            -0.2070384836521187
                        ],
                        [
                            0.6949548289371368,
                            1.2267436676972252,
                            0.036477926797653416
                        ],
                        [
                            -0.16891917585742167,
                            -1.1523681550057112,
                            -1.3869415019482014
                        ]
                    ],
                    [
                        [
                            -1.1538973833294277,
                            0.019165549151301198,
                            0.1389745481832518
                        ],
                        [
                            0.501895699780793,
                            -0.16578072097615248,
                            0.663937066501572
                        ],
                        [
                            -0.3758297120104494,
                            -1.4461595855185707,
                            -0.6946962353548615
                        ]
                    ],
                    [
                        [
                            -1.3219073490930355,
                            -0.04942175919364172,
                            -1.2552303172205412
                        ],
                        [
                            0.5668006674091203,
                            -0.12620723977990558,
                            -1.0615226451616366
                        ],
                        [
                            -1.071301916703978,
                            -0.18385372397988284,
                            -0.34100768209598764
                        ]
                    ]
                ],
                [
                    [
                        [
                            0.19623237240070496,
                            0.08072136995755222,
                            1.1250529558715872
                        ],
                        [
                            0.9142581793700004,
                            2.339006254113263,
                            -0.44427015570761363
                        ],
                        [
                            -0.3012002453121946,
                            -0.8441713804904196,
                            -0.7363495716915233
                        ]
                    ],
                    [
                        [
                            0.12400776999025581,
                            0.1400491508600641,
                            -1.5733070816833934
                        ],
                        [
                            -1.4168197171404362,
                            1.0184211520795856,
                            -0.12627723539784208
                        ],
                        [
                            1.1852065615597096,
                            -0.15872066792729325,
                            -0.7269490994411627
                        ]
                    ],
                    [
                        [
                            0.9873118194585598,
                            -0.5348182835450208,
                            0.23829888418518735
                        ],
                        [
                            -1.1263301811750068,
                            -1.6556504752227519,
                            0.2842197668690206
                        ],
                        [
                            -1.553650496024341,
                            0.14436860844499383,
                            0.03246785980396827
                        ]
                    ],
                    [
                        [
                            -0.6250085190939241,
                            1.2891372126926897,
                            0.3864762653942254
                        ],
                        [
                            0.5117676823665165,
                            1.0981555230817663,
                            1.7634960313425412
                        ],
                        [
                            0.944362315343201,
                            -1.0333107405137831,
                            -0.8160500894331016
                        ]
                    ],
                    [
                        [
                            0.3783209014205649,
                            0.14099501846906692,
                            0.8021010664759445
                        ],
                        [
                            0.5015789366814578,
                            -0.7634832512085166,
                            -0.4162689974417292
                        ],
                        [
                            0.08137415458286285,
                            0.621283319426886,
                            -1.2609907348392346
                        ]
                    ],
                    [
                        [
                            0.2789627528699739,
                            1.0358138168095024,
                            0.0263751158565966
                        ],
                        [
                            0.014593419074980914,
                            -0.328220838278734,
                            -0.5282818642284174
                        ],
                        [
                            -0.9136578612144688,
                            0.83575843927318,
                            1.123831084714117
                        ]
                    ],
                    [
                        [
                            0.23252801572859866,
                            -1.3317561946685543,
                            0.09987461543540853
                        ],
                        [
                            0.26077782988683706,
                            -0.8503081132732719,
                            0.16443605673768757
                        ],
                        [
                            1.5461943243793184,
                            0.07791003564008425,
                            -0.425469629054365
                        ]
                    ],
                    [
                        [
                            0.0396189788185609,
                            1.120685684550101,
                            -0.42378413395646264
                        ],
                        [
                            1.056698685845796,
                            0.04000799358703245,
                            1.2215295424986183
                        ],
                        [
                            -0.16343328252962772,
                            0.7154158770713696,
                            -0.8532498545096353
                        ]
                    ]
                ],
                [
                    [
                        [
                            -0.2302611194891842,
                            0.5184523165509215,
                            -2.8222799036374187
                        ],
                        [
                            -0.4763613174727448,
                            1.386842301108852,
                            -0.5065028278078356
                        ],
                        [
                            -1.288740852899154,
                            -0.4325381067097155,
                            0.7450889886481069
                        ]
                    ],
                    [
                        [
                            1.0844802756697527,
                            0.6255070133818215,
                            0.544312357148517
                        ],
                        [
                            0.21478911626727965,
                            -0.5772952935608415,
                            -0.0069507103338203174
                        ],
                        [
                            -1.3596813003139168,
                            1.1596409522362805,
                            -1.8723659837480549
                        ]
                    ],
                    [
                        [
                            -1.5104125958202315,
                            0.49728337186212457,
                            1.1821849075044815
                        ],
                        [
                            0.8045325284611715,
                            0.11547533070628963,
                            0.476233013515456
                        ],
                        [
                            0.7621021564326251,
                            1.8191825888554432,
                            -1.6070455073122525
                        ]
                    ],
                    [
                        [
                            0.5117210153158507,
                            -0.031173612903712067,
                            0.9217528559888505
                        ],
                        [
                            0.17398348482559967,
                            -0.05004889743359998,
                            0.20249789243119756
                        ],
                        [
                            -0.205829880213513,
                            1.4480376395398245,
                            -1.6315114792379564
                        ]
                    ],
                    [
                        [
                            -1.108164626775863,
                            1.7237685508381266,
                            -0.4494279219746362
                        ],
                        [
                            0.0870191529599219,
                            0.2797075357389437,
                            2.123957999767991
                        ],
                        [
                            -1.5655391985154896,
                            1.9920435385587396,
                            2.090590091380507
                        ]
                    ],
                    [
                        [
                            1.6919254959823133,
                            -0.5524037502171986,
                            0.6275277478980303
                        ],
                        [
                            0.08592975708817205,
                            -0.6245953109881272,
                            0.24996696390128265
                        ],
                        [
                            -0.41431735894377086,
                            -0.9383106665470112,
                            -1.5527791161873745
                        ]
                    ],
                    [
                        [
                            -0.05865769481549221,
                            -0.10192802954276521,
                            1.2810305090571528
                        ],
                        [
                            -0.11318405801827085,
                            1.2499395256336094,
                            0.4629481269329435
                        ],
                        [
                            -0.6197769297709608,
                            0.7126297197726011,
                            0.7464993737690223
                        ]
                    ],
                    [
                        [
                            0.43040713937092767,
                            -0.20780602993714564,
                            0.8697223085072636
                        ],
                        [
                            -0.9720619156365972,
                            -0.047446493810532966,
                            -0.4083424489397712
                        ],
                        [
                            0.014226111747206782,
                            0.5645623234232778,
                            2.004395523942243
                        ]
                    ]
                ],
                [
                    [
                        [
                            0.041142113054866786,
                            -0.46812597589713956,
                            -0.8017163592954822
                        ],
                        [
                            1.8418731630733105,
                            -1.7949979495406494,
                            0.8495306159914102
                        ],
                        [
                            0.5551994680985317,
                            -0.22197144162816795,
                            -0.4042872489320512
                        ]
                    ],
                    [
                        [
                            -0.6295216683674504,
                            0.5659323114554283,
                            -1.131733564152788
                        ],
                        [
                            1.0642320165638588,
                            -0.5302649411523405,
                            0.030204075039052192
                        ],
                        [
                            1.0227456821474572,
                            0.34876212362573755,
                            0.6008736480534608
                        ]
                    ],
                    [
                        [
                            -1.0956185410522556,
                            -0.8472134787332052,
                            -0.012946967959446533
                        ],
                        [
                            -0.2043560586372598,
                            0.7846178532571885,
                            -0.4495776260957872
                        ],
                        [
                            -1.0251011460783792,
                            0.4130954565009405,
                            -1.5647096664640352
                        ]
                    ],
                    [
                        [
                            2.0909520024291184,
                            0.13347031554180527,
                            1.2559836456103428
                        ],
                        [
                            0.30909569088528566,
                            -0.12951697513716864,
                            -0.25249431856369997
                        ],
                        [
                            0.8102572587198156,
                            -1.7297085005319035,
                            -0.4680234491312215
                        ]
                    ],
                    [
                        [
                            1.0341860122715394,
                            -1.2585281895276892,
                            0.43410876497023243
                        ],
                        [
                            0.5678600631432303,
                            -0.14579892555401158,
                            0.49395220833571957
                        ],
                        [
                            0.5113332039423814,
                            -0.04046766700752344,
                            0.367880962759535
                        ]
                    ],
                    [
                        [
                            -0.516244819092983,
                            -0.04519811285120123,
                            -0.09419610677836572
                        ],
                        [
                            0.7966341000569601,
                            -0.49901939695410913,
                            1.3714595767536206
                        ],
                        [
                            0.1285666326458284,
                            -0.06313647682971009,
                            0.10237431710246989
                        ]
                    ],
                    [
                        [
                            -1.0757008977632119,
                            -0.4492037822811277,
                            -0.047536253542196844
                        ],
                        [
                            -1.0286693315084423,
                            0.1771864192556707,
                            -0.9550035307366804
                        ],
                        [
                            1.0245315925715714,
                            1.6936990607502556,
                            -0.27110379844526156
                        ]
                    ],
                    [
                        [
                            -0.5256034549338886,
                            -0.8442396459650393,
                            -0.4262117681831661
                        ],
                        [
                            0.5624554058810618,
                            -1.01406855634649,
                            1.0091887203274166
                        ],
                        [
                            -1.0332697220673581,
                            1.0300985334229242,
                            -0.32526698529624154
                        ]
                    ]
                ],
                [
                    [
                        [
                            -0.4913314166908148,
                            0.13817670651772906,
                            -0.4028442338036191
                        ],
                        [
                            -1.5174672493920842,
                            0.31251760436511317,
                            0.04028655535890242
                        ],
                        [
                            -0.7789269844036003,
                            -1.14632338677362,
                            0.7282575548492551
                        ]
                    ],
                    [
                        [
                            -0.04624399390929357,
                            0.2348646971866341,
                            -0.029527121239752666
                        ],
                        [
                            0.7019237335607964,
                            0.11863807851334969,
                            -0.14940754534446216
                        ],
                        [
                            1.0594511980340295,
                            0.6921407626370961,
                            0.5913350660519283
                        ]
                    ],
                    [
                        [
                            -0.6943331399975654,
                            0.6859101963810572,
                            0.6534038807557705
                        ],
                        [
                            -0.12067200112024498,
                            0.4608434237219706,
                            -0.36707196513493107
                        ],
                        [
                            0.8202662313094623,
                            -1.012396047112165,
                            0.6761639902891752
                        ]
                    ],
                    [
                        [
                            0.22577656159463264,
                            0.6976959314613196,
                            -0.2277241919612941
                        ],
                        [
                            -0.3049501224636239,
                            -0.5007647037258433,
                            0.16066187346595004
                        ],
                        [
                            1.3600790370361509,
                            2.507773971843295,
                            0.17876798640200206
                        ]
                    ],
                    [
                        [
                            -0.5719829528972864,
                            0.6887738218034176,
                            -0.36855541496588456
                        ],
                        [
                            -0.0806398365274073,
                            -0.9134338109044802,
                            -0.4241547616438902
                        ],
                        [
                            -0.18963002677092877,
                            -0.32332893935573237,
                            1.769784854043421
                        ]
                    ],
                    [
                        [
                            0.028767970415159758,
                            -0.0071972318430532645,
                            -0.683051600470457
                        ],
                        [
                            0.7886219169609392,
                            -0.9318024123156925,
                            0.4509029029174805
                        ],
                        [
                            -0.3486250462758638,
                            -0.41069652187883576,
                            0.46734389327556725
                        ]
                    ],
                    [
                        [
                            -1.3458843409426262,
                            1.3039264525247127,
                            -2.2901028701512525
                        ],
                        [
                            0.8681514978317988,
                            -0.6163467117930347,
                            -0.10761666036492054
                        ],
                        [
                            -1.4797236450232343,
                            -0.1105364992194045,
                            -1.1709647159694523
                        ]
                    ],
                    [
                        [
                            0.6379922946773726,
                            -0.4430454613372809,
                            -1.5049845668206485
                        ],
                        [
                            -1.0013613421781216,
                            -0.20627582337352485,
                            -0.6702918350375838
                        ],
                        [
                            -1.133689471700069,
                            1.0636166332844512,
                            0.4503454270636747
                        ]
                    ]
                ],
                [
                    [
                        [
                            0.14738408409090342,
                            0.8992569456985469,
                            -0.7093349911299065
                        ],
                        [
                            -0.4918236137665616,
                            -0.04339242927819806,
                            2.1150593536941438
                        ],
                        [
                            0.6061836150463712,
                            -0.48203343860071884,
                            -0.01687823487618484
                        ]
                    ],
                    [
                        [
                            -0.685643093056066,
                            0.06339979822741088,
                            0.04806476300617059
                        ],
                        [
                            -0.2966756304534817,
                            0.35467368164145635,
                            1.019877712773758
                        ],
                        [
                            0.5797340939785428,
                            0.031059810214110153,
                            0.6822456547837515
                        ]
                    ],
                    [
                        [
                            -0.6543044891209587,
                            0.9751811007368807,
                            -2.0867841581483333
                        ],
                        [
                            -0.2504077119086269,
                            0.16075126314058438,
                            -0.8133611307826303
                        ],
                        [
                            -1.0731242595370885,
                            -0.4742654433757987,
                            0.6620720306087392
                        ]
                    ],
                    [
                        [
                            0.8994160903363047,
                            0.11309966515509863,
                            -1.438751243770335
                        ],
                        [
                            -0.279799681648992,
                            -1.582803899007264,
                            -1.627841296855006
                        ],
                        [
                            0.8562037149723709,
                            0.5125105523318075,
                            1.1848951233567808
                        ]
                    ],
                    [
                        [
                            -0.4381487411806614,
                            -0.04362135786922129,
                            -1.7874093565679288
                        ],
                        [
                            -1.3169979961467968,
                            0.4691460211321241,
                            -0.10831213453918002
                        ],
                        [
                            -0.2880428889219249,
                            -0.15832130881574116,
                            -1.6414137237462683
                        ]
                    ],
                    [
                        [
                            -0.12342834994805361,
                            1.0221756394337396,
                            0.9921482644282502
                        ],
                        [
                            -1.222959781034127,
                            -0.42438243628418826,
                            1.4269270029472567
                        ],
                        [
                            -0.8568525726380287,
                            0.6408184035976117,
                            1.3681288409786985
                        ]
                    ],
                    [
                        [
                            0.5226805215589628,
                            -0.24588595232351718,
                            -0.6233841675113599
                        ],
                        [
                            -1.7208000701374544,
                            -0.8910606944575473,
                            -0.24705693637290055
                        ],
                        [
                            0.699406153704533,
                            1.052819062129672,
                            0.5546881824855996
                        ]
                    ],
                    [
                        [
                            -0.9604648459139329,
                            0.18694943814920328,
                            -1.0981993810367625
                        ],
                        [
                            -0.0645781139924953,
                            1.7991422397386545,
                            -0.26183961710662196
                        ],
                        [
                            0.02558561035585019,
                            0.8728036702739683,
                            1.5404991471134988
                        ]
                    ]
                ],
                [
                    [
                        [
                            -0.03897714988716878,
                            -0.06680556293640943,
                            0.5742693360507135
                        ],
                        [
                            -0.9545133396481571,
                            0.329301913823557,
                            -0.663102612915374
                        ],
                        [
                            -1.802737062870886,
                            0.6103309128230557,
                            -1.0918514690739702
                        ]
                    ],
                    [
                        [
                            -1.7120411849388697,
                            0.366793851517208,
                            -0.5667791150106906
                        ],
                        [
                            -0.24559304347975844,
                            -1.164935545793133,
                            0.1044604792964554
                        ],
                        [
                            0.9729573804128157,
                            0.23857969256589587,
                            -0.49929422895391007
